<?xml version="1.0"?>
<MethodSetup Method="MLP::MLP">
  <GeneralInfo>
    <Info name="TMVA Release" value="4.2.1 [262657]"/>
    <Info name="ROOT Release" value="6.22/06 [398854]"/>
    <Info name="Creator" value="konstantin"/>
    <Info name="Date" value="Wed Mar 24 00:12:37 2021"/>
    <Info name="Host" value="Linux mach 5.8.0-43-generic #49~20.04.1-Ubuntu SMP Fri Feb 5 09:57:56 UTC 2021 x86_64 x86_64 x86_64 GNU/Linux"/>
    <Info name="Dir" value="/home/konstantin/Projects/CERN/TMVA_MLP"/>
    <Info name="Training events" value="170672"/>
    <Info name="TrainingTime" value="3.06268759e+02"/>
    <Info name="AnalysisType" value="Classification"/>
  </GeneralInfo>
  <Options>
    <Option name="NCycles" modified="Yes">400</Option>
    <Option name="HiddenLayers" modified="Yes">N+10,N+10</Option>
    <Option name="NeuronType" modified="Yes">sigmoid</Option>
    <Option name="RandomSeed" modified="No">1</Option>
    <Option name="EstimatorType" modified="No">CE</Option>
    <Option name="NeuronInputType" modified="No">sum</Option>
    <Option name="V" modified="Yes">False</Option>
    <Option name="VerbosityLevel" modified="No">Default</Option>
    <Option name="VarTransform" modified="Yes">N</Option>
    <Option name="H" modified="Yes">True</Option>
    <Option name="CreateMVAPdfs" modified="No">False</Option>
    <Option name="IgnoreNegWeightsInTraining" modified="No">False</Option>
    <Option name="TrainingMethod" modified="No">BP</Option>
    <Option name="LearningRate" modified="Yes">1.000000e-02</Option>
    <Option name="DecayRate" modified="No">1.000000e-02</Option>
    <Option name="TestRate" modified="Yes">5</Option>
    <Option name="EpochMonitoring" modified="No">False</Option>
    <Option name="Sampling" modified="No">1.000000e+00</Option>
    <Option name="SamplingEpoch" modified="No">1.000000e+00</Option>
    <Option name="SamplingImportance" modified="No">1.000000e+00</Option>
    <Option name="SamplingTraining" modified="No">True</Option>
    <Option name="SamplingTesting" modified="No">False</Option>
    <Option name="ResetStep" modified="No">50</Option>
    <Option name="Tau" modified="No">3.000000e+00</Option>
    <Option name="BPMode" modified="Yes">batch</Option>
    <Option name="BatchSize" modified="Yes">3</Option>
    <Option name="ConvergenceImprove" modified="Yes">2.500000e-03</Option>
    <Option name="ConvergenceTests" modified="Yes">5</Option>
    <Option name="UseRegulator" modified="Yes">False</Option>
    <Option name="UpdateLimit" modified="No">10000</Option>
    <Option name="CalculateErrors" modified="No">False</Option>
    <Option name="WeightRange" modified="No">1.000000e+00</Option>
  </Options>
  <Variables NVar="11">
    <Variable VarIndex="0" Expression="mJJ" Label="mJJ" Title="mJJ" Unit="" Internal="mJJ" Type="F" Min="2.27864819e+01" Max="7.83875537e+03"/>
    <Variable VarIndex="1" Expression="deltaYJJ" Label="deltaYJJ" Title="deltaYJJ" Unit="" Internal="deltaYJJ" Type="F" Min="2.21196096e-05" Max="8.68471050e+00"/>
    <Variable VarIndex="2" Expression="metPt" Label="metPt" Title="metPt" Unit="" Internal="metPt" Type="F" Min="1.25825294e+02" Max="2.27749878e+03"/>
    <Variable VarIndex="3" Expression="ptBalance" Label="ptBalance" Title="ptBalance" Unit="" Internal="ptBalance" Type="F" Min="4.91857872e-06" Max="4.76490766e-01"/>
    <Variable VarIndex="4" Expression="subleadJetEta" Label="subleadJetEta" Title="subleadJetEta" Unit="" Internal="subleadJetEta" Type="F" Min="-4.50663424e+00" Max="4.51134682e+00"/>
    <Variable VarIndex="5" Expression="leadJetPt" Label="leadJetPt" Title="leadJetPt" Unit="" Internal="leadJetPt" Type="F" Min="5.00584755e+01" Max="2.75328247e+03"/>
    <Variable VarIndex="6" Expression="photonEta" Label="photonEta" Title="photonEta" Unit="" Internal="photonEta" Type="F" Min="-2.40109253e+00" Max="2.39041257e+00"/>
    <Variable VarIndex="7" Expression="ptBalanceRed" Label="ptBalanceRed" Title="ptBalanceRed" Unit="" Internal="ptBalanceRed" Type="F" Min="2.29892414e-02" Max="9.99983788e-01"/>
    <Variable VarIndex="8" Expression="nJets" Label="nJets" Title="nJets" Unit="" Internal="nJets" Type="F" Min="2.00000000e+00" Max="9.00000000e+00"/>
    <Variable VarIndex="9" Expression="sinDeltaPhiJJOver2" Label="sinDeltaPhiJJOver2" Title="sinDeltaPhiJJOver2" Unit="" Internal="sinDeltaPhiJJOver2" Type="F" Min="1.59144402e-05" Max="1.00000000e+00"/>
    <Variable VarIndex="10" Expression="deltaYJPh" Label="deltaYJPh" Title="deltaYJPh" Unit="" Internal="deltaYJPh" Type="F" Min="1.18112052e-06" Max="6.68952894e+00"/>
  </Variables>
  <Spectators NSpec="1">
    <Spectator SpecIndex="0" Expression="weightModified" Label="weightModified" Title="F" Unit="" Internal="weightModified" Type="F" Min="-1.91263646e-01" Max="1.09073341e+00"/>
  </Spectators>
  <Classes NClass="2">
    <Class Name="Signal" Index="0"/>
    <Class Name="Background" Index="1"/>
  </Classes>
  <Transformations NTransformations="1">
    <Transform Name="Normalize">
      <Selection>
        <Input NInputs="11">
          <Input Type="Variable" Label="mJJ" Expression="mJJ"/>
          <Input Type="Variable" Label="deltaYJJ" Expression="deltaYJJ"/>
          <Input Type="Variable" Label="metPt" Expression="metPt"/>
          <Input Type="Variable" Label="ptBalance" Expression="ptBalance"/>
          <Input Type="Variable" Label="subleadJetEta" Expression="subleadJetEta"/>
          <Input Type="Variable" Label="leadJetPt" Expression="leadJetPt"/>
          <Input Type="Variable" Label="photonEta" Expression="photonEta"/>
          <Input Type="Variable" Label="ptBalanceRed" Expression="ptBalanceRed"/>
          <Input Type="Variable" Label="nJets" Expression="nJets"/>
          <Input Type="Variable" Label="sinDeltaPhiJJOver2" Expression="sinDeltaPhiJJOver2"/>
          <Input Type="Variable" Label="deltaYJPh" Expression="deltaYJPh"/>
        </Input>
        <Output NOutputs="11">
          <Output Type="Variable" Label="mJJ" Expression="mJJ"/>
          <Output Type="Variable" Label="deltaYJJ" Expression="deltaYJJ"/>
          <Output Type="Variable" Label="metPt" Expression="metPt"/>
          <Output Type="Variable" Label="ptBalance" Expression="ptBalance"/>
          <Output Type="Variable" Label="subleadJetEta" Expression="subleadJetEta"/>
          <Output Type="Variable" Label="leadJetPt" Expression="leadJetPt"/>
          <Output Type="Variable" Label="photonEta" Expression="photonEta"/>
          <Output Type="Variable" Label="ptBalanceRed" Expression="ptBalanceRed"/>
          <Output Type="Variable" Label="nJets" Expression="nJets"/>
          <Output Type="Variable" Label="sinDeltaPhiJJOver2" Expression="sinDeltaPhiJJOver2"/>
          <Output Type="Variable" Label="deltaYJPh" Expression="deltaYJPh"/>
        </Output>
      </Selection>
      <Class ClassIndex="0">
        <Ranges>
          <Range Index="0" Min="2.2786481857299805e+01" Max="7.5057304687500000e+03"/>
          <Range Index="1" Min="1.5035811520647258e-04" Max="8.6847105026245117e+00"/>
          <Range Index="2" Min="1.2697845458984375e+02" Max="2.2774987792968750e+03"/>
          <Range Index="3" Min="4.9185787247552071e-06" Max="4.0502533316612244e-01"/>
          <Range Index="4" Min="-4.5066342353820801e+00" Max="4.5113468170166016e+00"/>
          <Range Index="5" Min="5.0105968475341797e+01" Max="1.9641448974609375e+03"/>
          <Range Index="6" Min="-2.4010925292968750e+00" Max="2.3904125690460205e+00"/>
          <Range Index="7" Min="4.8834752291440964e-02" Max="9.9988257884979248e-01"/>
          <Range Index="8" Min="2.0000000000000000e+00" Max="8.0000000000000000e+00"/>
          <Range Index="9" Min="1.5914440155029297e-05" Max="1.0000000000000000e+00"/>
          <Range Index="10" Min="3.2652555091772228e-05" Max="6.5068273544311523e+00"/>
        </Ranges>
      </Class>
      <Class ClassIndex="1">
        <Ranges>
          <Range Index="0" Min="2.3556308746337891e+01" Max="7.8387553710937500e+03"/>
          <Range Index="1" Min="2.2119609639048576e-05" Max="8.6838493347167969e+00"/>
          <Range Index="2" Min="1.2582529449462891e+02" Max="1.9265614013671875e+03"/>
          <Range Index="3" Min="5.9500340285012498e-05" Max="4.7649076581001282e-01"/>
          <Range Index="4" Min="-4.5036110877990723e+00" Max="4.5083436965942383e+00"/>
          <Range Index="5" Min="5.0058475494384766e+01" Max="2.7532824707031250e+03"/>
          <Range Index="6" Min="-2.3863203525543213e+00" Max="2.3830773830413818e+00"/>
          <Range Index="7" Min="2.2989241406321526e-02" Max="9.9998378753662109e-01"/>
          <Range Index="8" Min="2.0000000000000000e+00" Max="9.0000000000000000e+00"/>
          <Range Index="9" Min="1.9311904907226562e-05" Max="1.0000000000000000e+00"/>
          <Range Index="10" Min="1.1811205240519485e-06" Max="6.6895289421081543e+00"/>
        </Ranges>
      </Class>
      <Class ClassIndex="2">
        <Ranges>
          <Range Index="0" Min="2.2786481857299805e+01" Max="7.8387553710937500e+03"/>
          <Range Index="1" Min="2.2119609639048576e-05" Max="8.6847105026245117e+00"/>
          <Range Index="2" Min="1.2582529449462891e+02" Max="2.2774987792968750e+03"/>
          <Range Index="3" Min="4.9185787247552071e-06" Max="4.7649076581001282e-01"/>
          <Range Index="4" Min="-4.5066342353820801e+00" Max="4.5113468170166016e+00"/>
          <Range Index="5" Min="5.0058475494384766e+01" Max="2.7532824707031250e+03"/>
          <Range Index="6" Min="-2.4010925292968750e+00" Max="2.3904125690460205e+00"/>
          <Range Index="7" Min="2.2989241406321526e-02" Max="9.9998378753662109e-01"/>
          <Range Index="8" Min="2.0000000000000000e+00" Max="9.0000000000000000e+00"/>
          <Range Index="9" Min="1.5914440155029297e-05" Max="1.0000000000000000e+00"/>
          <Range Index="10" Min="1.1811205240519485e-06" Max="6.6895289421081543e+00"/>
        </Ranges>
      </Class>
    </Transform>
  </Transformations>
  <MVAPdfs/>
  <Weights>
    <Layout NLayers="4">
      <Layer Index="0" NNeurons="12">
        <Neuron NSynapses="21">
          4.2173191042087943e-01 4.3454175748877875e+00 1.9334164972181069e-02 4.1581746532317059e+00 -4.1706167477358074e+00 -2.5541343696717900e+00 -2.5561182572236811e+00 1.2362097807676713e+00 -7.4978475590044069e-01 2.4478308349503933e-01 -3.5614379618652046e+00 -3.3510181325670518e-01 -1.3939227382866799e+00 -1.7045979838270755e+00 1.5735835903076167e+00 8.4343387447726278e-02 -2.1812622762040049e-01 -8.1342328808084730e-01 7.9145361877279086e-01 1.5099553632087053e+00 2.9840428328089526e+00 
        </Neuron>
        <Neuron NSynapses="21">
          -1.0181401414461657e+00 1.6797694298816268e+00 -1.0883590042152311e+00 -1.5056361899449318e+00 7.4887684307746738e-01 8.3916560493643233e-01 -3.0946557399678212e+00 -3.8469065104915297e+00 -2.1438669190034865e-01 2.9791586794086298e+00 2.3180951194992683e+00 -6.3656353924054310e-01 -9.7208768522662681e-01 -2.3193639358257219e+00 1.6082518148767495e+00 8.1103615550518837e-01 2.1317963199145873e+00 -1.4659614869743192e+00 1.4974801894668608e+00 4.9168075618541363e-01 1.2863715964072191e+00 
        </Neuron>
        <Neuron NSynapses="21">
          1.0532954318735179e+00 7.8037356744643038e-01 -7.7514399681054280e-01 -1.2507442846994563e+00 6.7829166747552752e-02 5.9745029837666142e-01 2.0244686330368040e+00 6.6989416256707590e-01 1.0199432758544527e+00 2.0500672525679873e+00 -2.5391939833082620e+00 1.1006362190697572e+00 -4.4433273916048815e-01 -1.4538945790800502e+00 -2.0268039355511069e+00 -1.5157878598989027e+00 1.4244732100961630e+00 -3.0461607430655152e-01 -1.0942931731410601e+00 -2.7382431725651341e-01 3.9481868956390492e-01 
        </Neuron>
        <Neuron NSynapses="21">
          1.2753475728529098e+00 8.0840754238989210e-01 -1.1269765534370219e-01 -7.2820030734579586e-02 -1.0480832175994561e+00 2.8812902368271232e+00 2.5869635038654415e-01 1.4357217883172098e-02 -2.3213049443360299e+00 -3.4726972175582314e-02 7.9596118125447446e-01 1.6084408520370355e+00 -2.9302196683954873e-01 -7.5897918871867798e-01 -2.7552269771258575e+00 1.4210003334818404e+00 8.7479823794286482e-01 4.3439058492759068e+00 1.1176829783314826e+00 3.9773669066012535e-01 -3.3282148292388323e+00 
        </Neuron>
        <Neuron NSynapses="21">
          -4.1823985270204638e+00 2.0392448262427271e-01 2.2186468758435058e+00 -9.4721435828888645e-02 -5.1043910310303797e-01 4.2569948982994282e-01 -4.2673440393116463e-01 -2.6472707486875181e-02 2.7420498687565242e+00 -3.7734449276834194e+00 -9.4956316618122638e-01 3.3838489434101535e+00 -9.7420259176597312e-01 -4.2283728528702120e+00 -2.2878571780960191e+00 1.3606022747875294e-02 -1.7128482519032491e+00 4.4980599220065254e-01 4.7494435917338779e-01 2.6119598524387921e-01 -1.5071538321303546e+00 
        </Neuron>
        <Neuron NSynapses="21">
          1.6634256044323692e+00 -5.2175334491991376e-01 1.9920140472173176e-01 1.3296722836624886e+00 -4.7596061094403763e-01 -1.9410736502350796e+00 -4.6355126891480297e-01 3.7431835147193493e-01 -3.1944810729127676e-01 -2.3523901413228310e+00 1.5332247868643842e+00 2.1525185300929911e-01 -8.6979182092583540e-01 6.9485662971614348e-01 -1.0290818164701709e+00 -1.1544359925132999e+00 3.7103947791046638e-01 -1.8594155215163908e+00 2.3067220438778544e+00 1.1426409084287932e+00 1.1718384284493428e+00 
        </Neuron>
        <Neuron NSynapses="21">
          2.6917636509342130e-01 -2.1045999247095440e-01 -1.9799554673701274e+00 5.1128201838974807e-01 1.1000763383698692e-01 -1.2036603085757747e+00 -2.5086045107594193e-03 -7.1266485388075340e-01 -3.1481568677090321e-01 1.7116414896904220e+00 7.6687322441155714e-01 -1.1178939255019095e-01 5.5126979550058663e-01 2.1236347378509328e+00 1.3749488512201041e-01 -8.3327321880261562e-01 -9.6766913689041467e-01 5.5591750353508906e-01 -7.8398769105733357e-01 4.1545256870086933e-01 1.2170985906518435e-01 
        </Neuron>
        <Neuron NSynapses="21">
          -7.6437307834423351e-01 -9.5154589094413122e-01 8.7925114391068415e-01 7.2233977788333448e-01 3.2951101191516396e-01 5.4843501899401559e-01 -1.7523832090953767e-01 -1.7793203629096346e-01 1.6536625725996149e-01 2.3422425192695306e-01 -1.1465479122292678e-02 1.1234811747770630e-01 -7.1003794184793811e-01 2.0922078574849953e-01 8.0871730426797739e-01 -3.4891229816883357e-01 4.1066993159343201e-01 1.1883262583661298e+00 -6.9564358183047059e-01 -1.4253794554474215e+00 8.3112065684673642e-01 
        </Neuron>
        <Neuron NSynapses="21">
          -2.0918672187008808e-01 -1.4312553684759217e+00 1.5836090476337878e+00 2.2690329104032507e+00 -1.1611423111176040e+00 2.1886840375768402e+00 2.1606708493474449e+00 -1.8246694043168192e+00 9.5836264039683361e-01 -6.0655808516724607e-01 6.9190909605231432e-01 -1.1311316992323392e+00 -1.4658875513213567e+00 1.6657257803092160e+00 2.6070055147316800e+00 -1.4535377878798348e+00 -1.0407321202211552e-01 -7.9124326825200597e-01 1.0275682816093354e+00 1.7297891001659262e+00 -5.3392802293281927e-01 
        </Neuron>
        <Neuron NSynapses="21">
          -1.2085304769707016e-01 -3.2153446363552121e-02 5.6525676056659813e-01 1.9846104402823106e-01 2.9035370959278284e-01 3.1777579722223454e-01 3.4029226184134967e-02 -1.5955031316471475e+00 5.7248377461767741e-01 2.9640126168504521e-01 -7.3124620323386824e-01 -2.9085671894888970e-01 4.2266518128435807e-02 4.8261682188575505e-01 -8.4696074518148834e-01 1.5662203037500382e+00 3.3597074692125600e-01 -3.6967233814057870e-01 -5.0747819447504013e-02 1.0563096745204961e+00 -4.3098993395971730e-02 
        </Neuron>
        <Neuron NSynapses="21">
          2.9963633942329315e-01 8.0311099824586818e-01 -1.8910752588505135e+00 -1.0471991553429187e+00 7.1181725366729967e-02 1.1067283139036608e+00 -3.2516406800596120e-01 4.2594500909427450e-02 1.3287781519944790e+00 -3.1310320695183256e+00 -1.2195673251794759e+00 1.9607676809034130e-01 -1.8361233166807442e+00 2.1511435924686459e+00 5.9300274211483395e-01 -1.2020383626113532e-01 1.1181181077485809e+00 1.0549086423289394e-01 -1.0962878272276808e+00 1.4367011612894118e-01 -7.5409026466397355e-02 
        </Neuron>
        <Neuron NSynapses="21">
          7.6442188824203006e-01 5.1060989159739893e+00 -3.8160072034685464e+00 4.1695422996969116e+00 -5.8741102791555146e+00 1.5255186918270089e+00 -1.1063523041034262e+00 -2.2453237059295552e+00 -1.9933008391666056e+00 -4.7277610957959448e-01 -3.1916138422177265e+00 -2.2327944427594186e+00 -2.6744899750205042e+00 -2.6978127146711448e+00 6.6872870707242393e-01 -3.6826880842209837e+00 -1.7906347012466168e+00 1.4491950948489962e+00 -1.4374579348566523e+00 2.0419819499145233e+00 4.9132409998165533e-01 
        </Neuron>
      </Layer>
      <Layer Index="1" NNeurons="22">
        <Neuron NSynapses="21">
          1.2794946680966415e+00 1.9411524145876862e+00 1.3910820107845163e+00 -1.0064436021792951e+00 -2.4220955989837316e+00 -9.6282359546940754e-01 -1.7687730660529943e-01 -3.7491956571548524e-01 3.1410766969784371e-01 6.8409788429503071e-01 2.4639266422509341e+00 -2.7582480211976046e-01 -1.0780884796167647e-01 -6.3682603295403906e-01 -3.1764487907069960e+00 1.4755233624878961e+00 1.1004281723715861e+00 -1.3863478508771427e+00 -5.2976100999736231e-01 1.3780422575437028e+00 1.5416887875415681e+00 
        </Neuron>
        <Neuron NSynapses="21">
          8.5051973057020902e-01 -1.1330813940027418e+00 -3.7101881470759479e-01 1.0501604997169711e+00 2.8753776368277251e+00 1.0292097540819096e+00 -1.3524106266810845e+00 3.7403500192337885e-01 -2.1940345322571664e-02 -1.2383426841889436e+00 2.4701650090750347e+00 -1.9351435766840179e+00 -1.4123529103930799e+00 -1.7484857087565078e+00 1.1679088108502604e+00 -1.9488504177486712e+00 1.5404978055133807e+00 -1.9767767537555765e+00 1.5899533495915079e+00 -1.5489268908090195e+00 1.1318534265726857e-01 
        </Neuron>
        <Neuron NSynapses="21">
          8.3385533509722354e-01 -1.9576213999682917e+00 1.3050189152032865e-01 1.1856908848880778e+00 -2.2391712109830975e+00 -1.4877670968717425e+00 -1.8507992584220805e+00 -1.3320577059233767e+00 1.8815802921271809e+00 -3.3543908249267473e-01 4.4518745097334794e-01 -7.6290235781101012e-01 -1.4031955742839854e+00 -1.7011008333471078e+00 -7.1126240584941769e-01 -1.6097987761589743e+00 9.1721881129090477e-01 -6.8545926744417363e-01 -1.5977829943475552e+00 9.8819126850218508e-01 3.3732312444478951e-01 
        </Neuron>
        <Neuron NSynapses="21">
          -7.0059217772387117e-01 1.3425150289433510e+00 -1.8995852723663025e+00 2.5612549227536405e+00 1.3091842734713770e+00 -1.0097342396283968e+00 -2.6153573232421738e+00 3.1718892499166235e-01 -1.6716224590397315e+00 4.4866273418462849e-01 4.5098331387611257e+00 1.6220681304479754e+00 2.2428160678007845e+00 -1.5640682802032744e+00 9.1005414919805394e-01 -1.9657318733614089e+00 3.9618414995281998e-01 -2.3148988529228731e+00 -2.7801169309431115e+00 -3.8737813567315266e-01 8.2853364515150429e-01 
        </Neuron>
        <Neuron NSynapses="21">
          2.7723089564342274e-01 8.8626618574628391e-01 2.1630677967540438e-01 -1.0506534921689266e+00 -2.2739079178870241e+00 9.1781344435761775e-02 2.7981397153696093e+00 -2.1036479622653466e+00 4.4952557492021128e-01 -1.7586125875350083e+00 -2.4890572808667493e+00 -2.0065354254994783e-01 -6.7601228448208328e-01 -1.1783612399899559e+00 8.0082712194077998e-01 1.6842463810504307e+00 4.6435094605136096e-01 1.8954510854024548e-01 -4.4790061879894272e-01 -1.3976206917410670e+00 -1.8099868196393638e+00 
        </Neuron>
        <Neuron NSynapses="21">
          1.0502458022530710e+00 -4.9611197329879808e-01 -1.2634512105005953e+00 -3.3850648936627808e-01 -1.0402337852829868e+00 -1.1090380466074850e+00 -1.5307161498640456e+00 2.9093513869952892e+00 -7.1459526277888663e-01 -2.1200587459597116e+00 2.4612287720942075e-01 -1.6662700168304350e+00 -1.9059817789322711e+00 9.4947420891024448e-01 -2.5481331400212359e+00 -1.2208082892650622e+00 1.6307819063738207e+00 1.3763804676146614e+00 -1.4809163635300052e-01 -1.4810556514352183e-01 2.0439160793582785e+00 
        </Neuron>
        <Neuron NSynapses="21">
          2.1118681705970710e+00 1.1362220972044701e+00 -1.0131506804635932e+00 -1.1046222740766689e+00 -3.1018802394725156e+00 9.2425817846792413e-01 7.9485787536097918e-01 2.1095212231989802e+00 1.5191898351171926e+00 8.8702632315017649e-01 2.0306600668292147e+00 -1.3580756703171390e+00 1.5725146712946088e+00 4.2680664451637568e-01 -2.3193051438686414e+00 -5.0211808598896379e-01 -1.2871918476944986e+00 4.4102586523913928e-01 8.3242993413475197e-01 1.2651792899010394e+00 1.6833627297958620e+00 
        </Neuron>
        <Neuron NSynapses="21">
          7.7019631017026996e-02 1.7295183150598623e+00 1.7063406159522458e+00 6.1197496004465068e-01 -1.6678187332808407e+00 1.6837465154152664e+00 -1.2920300177478672e+00 -2.4652822948198042e-01 1.7473859528673914e+00 8.9392053803643123e-02 -1.5924362677524109e-01 8.9137143356556522e-02 -1.7976136416058426e+00 4.0225698618122235e-01 -1.5513871760681170e+00 -1.4794573445496956e-01 -3.4129924854155635e-01 1.8808457273366361e+00 1.9823529267542697e+00 1.2749041357119328e+00 -7.1145065028902621e-01 
        </Neuron>
        <Neuron NSynapses="21">
          -1.2354714473527625e-01 1.1795531424140850e+00 1.6412507826000351e+00 -2.6262680096194000e+00 -2.4518719405263809e+00 -6.3957793349349190e-01 -1.4529046978904838e+00 -1.7183427315791375e+00 -2.9400526652650566e-01 6.3211493561518761e-01 -6.7023049231298526e-01 -2.1468067194713760e+00 -1.9308653218237846e+00 -2.0049487657678236e-01 6.5299337469205376e-01 1.1534519449423593e+00 1.2239108720784706e+00 -7.8588046129843170e-01 -1.9407427507699897e+00 -4.9869544562007928e-01 -1.5860066077952948e+00 
        </Neuron>
        <Neuron NSynapses="21">
          -2.4652245629144969e+00 -1.4462401007525028e+00 -7.6037501333088287e-03 -1.6757815704701224e+00 2.4748403330995119e+00 1.2616516123238199e+00 7.0819053023851219e-01 2.4671407067254691e-01 -1.9873840375647540e+00 1.8200934596553215e+00 -1.4250213770301243e+00 4.8475757693392840e-01 6.9929259933626342e-01 1.3380719390224196e+00 -1.8547513499472762e-01 2.4833663185377080e+00 -2.3669671179406775e+00 1.0344906676191092e+00 2.1720959443754762e+00 3.6717650941373703e-01 -8.6706630076020946e-02 
        </Neuron>
        <Neuron NSynapses="21">
          7.5014758284923144e-01 -2.3921384538908863e-01 1.1344299490921166e+00 3.5614429193532171e-01 -2.2197822172199544e+00 -1.5379389566271249e+00 -5.4189121531267342e-02 1.9138979944681167e+00 5.1115485832171570e-01 -9.7700266064010277e-01 -2.4038016347115052e+00 1.8495020284248649e+00 7.1978764703735509e-01 -1.2185311137580894e+00 -6.8919078914287324e-01 -1.0650754166844203e+00 9.4634360698667286e-01 1.0329908455899173e+00 -1.2350515960262838e+00 -1.0900150207471291e+00 1.6197886018682204e+00 
        </Neuron>
        <Neuron NSynapses="21">
          1.4332779616191316e+00 6.1857039191836138e-01 1.5607900387176496e-01 -1.2613325171333132e+00 -1.6234494345737815e+00 1.1490453301251986e+00 4.8626104023665778e-01 4.7603873616665987e-01 -1.5652780810412614e+00 -1.7229002872430281e+00 -1.9460040967077439e+00 -3.7934565047370195e-01 -1.8327105899372682e+00 7.4477393649231283e-01 -8.1546146453517954e-01 1.4355673091454508e+00 2.8964456340327166e-01 -2.0348672952671705e+00 1.2793861541965745e+00 1.6686030764636814e+00 1.2390629068219492e+00 
        </Neuron>
        <Neuron NSynapses="21">
          -1.5753143321282093e-01 -1.1527436549215127e+00 1.6582756000357148e+00 -1.8979043101684483e+00 8.0100521975270134e-01 -1.3761525667032490e+00 8.2060346017470431e-01 -1.6011465979556969e+00 1.4814162713230095e-01 -5.9889883209186268e-01 1.1025648879958376e+00 -7.0772627637562979e-01 -1.2984767779720099e+00 5.2696553270282609e-01 9.5728069138717464e-01 2.4878466433374039e-01 5.5068408113427803e-01 -1.5048132710050828e+00 2.3842827939582589e+00 -2.2654727519674478e+00 7.0926282288141118e-01 
        </Neuron>
        <Neuron NSynapses="21">
          1.7538820592994044e+00 6.0470047655329584e-01 1.5733328601312631e+00 7.3325451869585667e-01 -3.6476427169865162e+00 -7.3779368600911555e-01 -3.8306170004569201e-01 7.7046041295469414e-01 3.5657096334178673e-01 1.9174862656014752e-01 -7.6986623117468467e-01 4.0420273346096283e-02 -9.7712452869577171e-01 -5.3989516759821177e-01 -2.8133144558352039e+00 1.5623628916784404e-01 -7.4502725954844251e-02 -1.6516786036962008e+00 -2.6828076250000086e+00 1.7716649485356637e+00 3.0075974514256038e-01 
        </Neuron>
        <Neuron NSynapses="21">
          -5.8779776327541167e-01 -1.9431805473918142e+00 1.8077156646945720e+00 -7.1543618287672583e-02 8.2895998500499879e-01 6.9327227389378676e-01 -1.9727247304560391e+00 -1.9716098859383899e+00 -1.1892611070140728e-01 -3.2608067754131733e+00 -4.2283924917640220e-01 -1.1385084099874252e+00 9.7477454802883434e-01 -2.1138614950620336e+00 1.4350228848142199e+00 2.1035747227806119e+00 1.2987081491366899e+00 1.8096820093925692e+00 -5.8857843326443715e-01 3.2111286660460614e-01 -1.0768396801513280e+00 
        </Neuron>
        <Neuron NSynapses="21">
          -1.5216339315076275e+00 -1.7643008715509099e+00 -8.5090931551116289e-01 1.4956271648000652e+00 -1.1531321370806583e-01 1.4104769005688667e-01 1.8365179700866257e+00 2.6643702623362414e-01 -1.7129489845860595e+00 6.9597271521619919e-01 -2.1586353471248501e+00 8.0455207831596087e-01 -2.2473632935542658e+00 6.2519952767111503e-02 -2.4146453109557275e-01 6.2999621929926142e-01 -2.1656148996288196e+00 6.2919274684777204e-01 -9.8707953998470632e-01 -6.2644994553927047e-01 1.2209319305996331e+00 
        </Neuron>
        <Neuron NSynapses="21">
          -6.4729771666641467e-01 4.4403499228484750e-01 -1.7214713293357640e+00 1.1107518923869184e+00 -5.0375719609185887e-01 8.3271350150507351e-01 -1.6069807375484604e+00 -1.0975039241457312e+00 1.8942747743121713e+00 -1.8249749142836593e+00 -1.3210959748765794e+00 -8.6318247590023223e-01 1.2609130229654282e+00 1.4602925301002767e+00 1.2890199873204513e+00 -1.6474569280576208e+00 7.6199060727595236e-01 6.8526740107157280e-01 2.0944680593060958e-01 -1.2537714925007548e+00 -1.4016896408835871e+00 
        </Neuron>
        <Neuron NSynapses="21">
          5.3551394493142157e-01 -3.2359443882901823e-01 1.4948621551399721e+00 -3.9840442669354093e-01 -5.4397832034661020e-01 -1.0488811632363526e+00 1.7788317355523984e+00 1.1309615640840938e+00 1.8677592817081177e+00 -2.6695496388984730e-01 -6.8307524641509521e-01 1.7423271070815582e+00 1.3621686714694031e-01 1.3439502670890984e+00 -7.6964200782288361e-01 -1.5124734033663105e+00 -1.5847548889290812e+00 -1.2836644641892698e+00 -6.2731935993757137e-01 -1.7496013149794574e+00 2.9536415926968002e-01 
        </Neuron>
        <Neuron NSynapses="21">
          8.1367021576455700e-02 -7.5978757761966298e-01 9.1118098932123226e-01 -1.7013173345755184e+00 -9.4793103257152544e-01 3.4089035709667509e-02 -1.0811988153544672e+00 4.8245960000070454e-01 1.4271887421653324e+00 -1.7725394864356632e+00 -1.1857730310241615e-01 -1.3623719776100536e+00 5.4911607536346985e-01 4.3509612048906654e-01 -9.7332677533364664e-01 -8.0176365630933311e-01 -1.5783964640753174e+00 1.6784086287748898e+00 -1.1071557069584616e-01 9.7890578604959866e-01 -5.7944793905177087e-02 
        </Neuron>
        <Neuron NSynapses="21">
          -1.0055291453959867e+00 -1.9651632050777323e+00 -1.4190802975232450e+00 1.2464627898875482e+00 9.9072210323928067e-01 2.3040898451130137e-01 -1.7676829478854093e+00 6.2613874984157969e-01 2.4767135880936839e-01 -1.3303025410249392e+00 1.9189118000595520e+00 9.9439576171584909e-01 -1.0346704502688504e+00 -1.1231631921856382e+00 -2.1401522675226068e+00 -3.5102498544638566e-01 1.5056906901413525e+00 1.1478582039166327e+00 2.8528068602737239e-01 -2.1552170281488920e+00 -9.3266095621351175e-01 
        </Neuron>
        <Neuron NSynapses="21">
          -7.3660982725099000e-01 -1.1697738003122733e+00 1.5124646624098079e+00 -1.5150136784188737e+00 1.2609344953518538e+00 -6.0703823816975422e-01 -9.2357043604133948e-01 -3.4416639345207427e+00 1.5252642491054711e+00 1.6340490471521302e-01 2.8492802027306512e+00 -1.0263132514322899e+00 1.0073955294950299e+00 3.9144680076344485e-01 1.4921872141232562e+00 -1.7668103382803396e-01 -1.7520485906034577e+00 -2.3399769718251178e+00 -5.6102571936022660e-01 9.6000926911486084e-01 4.7010674819931336e-01 
        </Neuron>
        <Neuron NSynapses="21">
          1.4777433074057829e+00 -9.9663423605893628e-02 -6.3072281109105521e-01 1.3877836058383355e+00 5.3437147718479572e-01 -1.8383322900049142e+00 -2.6104214249507285e-01 4.2888080339625900e-01 2.1604295001245890e+00 8.5493612417052711e-01 1.8997747519255373e-01 -9.9408108402530349e-01 -1.0391017718263134e+00 -1.2647954053491932e+00 -1.2305734385710103e+00 -8.7167004733921055e-02 2.3795575212661674e-01 -2.6153384655354595e-01 1.2997417568153347e+00 3.8534496585018335e-01 -2.0160192987770542e-01 
        </Neuron>
      </Layer>
      <Layer Index="2" NNeurons="22">
        <Neuron NSynapses="1">
          -2.1000184313933885e+00 
        </Neuron>
        <Neuron NSynapses="1">
          2.3541309409137443e+00 
        </Neuron>
        <Neuron NSynapses="1">
          -5.9496035763727917e-01 
        </Neuron>
        <Neuron NSynapses="1">
          -1.9143622189226017e+00 
        </Neuron>
        <Neuron NSynapses="1">
          2.4697590833629546e+00 
        </Neuron>
        <Neuron NSynapses="1">
          -3.3613908841775036e-01 
        </Neuron>
        <Neuron NSynapses="1">
          -1.6589207608224199e+00 
        </Neuron>
        <Neuron NSynapses="1">
          2.3787790362561370e+00 
        </Neuron>
        <Neuron NSynapses="1">
          -2.5927412097851068e+00 
        </Neuron>
        <Neuron NSynapses="1">
          -1.7785567574521781e+00 
        </Neuron>
        <Neuron NSynapses="1">
          3.4809951366270733e+00 
        </Neuron>
        <Neuron NSynapses="1">
          -1.1544069065821381e+00 
        </Neuron>
        <Neuron NSynapses="1">
          -1.4390215674915481e+00 
        </Neuron>
        <Neuron NSynapses="1">
          1.5299472026402314e-01 
        </Neuron>
        <Neuron NSynapses="1">
          2.4940200488005813e+00 
        </Neuron>
        <Neuron NSynapses="1">
          1.2877020300947930e+00 
        </Neuron>
        <Neuron NSynapses="1">
          -2.6740470115218372e-02 
        </Neuron>
        <Neuron NSynapses="1">
          -2.2540920122233166e+00 
        </Neuron>
        <Neuron NSynapses="1">
          1.9725234789324291e+00 
        </Neuron>
        <Neuron NSynapses="1">
          1.8587998008468711e+00 
        </Neuron>
        <Neuron NSynapses="1">
          -1.7856847301264462e+00 
        </Neuron>
        <Neuron NSynapses="1">
          -9.6291592409770466e-01 
        </Neuron>
      </Layer>
      <Layer Index="3" NNeurons="1">
        <Neuron NSynapses="0"/>
      </Layer>
    </Layout>
  </Weights>
</MethodSetup>
