<?xml version="1.0"?>
<MethodSetup Method="MLP::MLP">
  <GeneralInfo>
    <Info name="TMVA Release" value="4.2.1 [262657]"/>
    <Info name="ROOT Release" value="6.22/06 [398854]"/>
    <Info name="Creator" value="konstantin"/>
    <Info name="Date" value="Wed Mar 24 00:23:13 2021"/>
    <Info name="Host" value="Linux mach 5.8.0-43-generic #49~20.04.1-Ubuntu SMP Fri Feb 5 09:57:56 UTC 2021 x86_64 x86_64 x86_64 GNU/Linux"/>
    <Info name="Dir" value="/home/konstantin/Projects/CERN/TMVA_MLP"/>
    <Info name="Training events" value="170672"/>
    <Info name="TrainingTime" value="2.31667680e+02"/>
    <Info name="AnalysisType" value="Classification"/>
  </GeneralInfo>
  <Options>
    <Option name="NCycles" modified="Yes">400</Option>
    <Option name="HiddenLayers" modified="Yes">N+10,N</Option>
    <Option name="NeuronType" modified="Yes">sigmoid</Option>
    <Option name="RandomSeed" modified="No">1</Option>
    <Option name="EstimatorType" modified="No">CE</Option>
    <Option name="NeuronInputType" modified="No">sum</Option>
    <Option name="V" modified="Yes">False</Option>
    <Option name="VerbosityLevel" modified="No">Default</Option>
    <Option name="VarTransform" modified="Yes">N</Option>
    <Option name="H" modified="Yes">True</Option>
    <Option name="CreateMVAPdfs" modified="No">False</Option>
    <Option name="IgnoreNegWeightsInTraining" modified="No">False</Option>
    <Option name="TrainingMethod" modified="No">BP</Option>
    <Option name="LearningRate" modified="Yes">1.000000e-02</Option>
    <Option name="DecayRate" modified="No">1.000000e-02</Option>
    <Option name="TestRate" modified="Yes">5</Option>
    <Option name="EpochMonitoring" modified="No">False</Option>
    <Option name="Sampling" modified="No">1.000000e+00</Option>
    <Option name="SamplingEpoch" modified="No">1.000000e+00</Option>
    <Option name="SamplingImportance" modified="No">1.000000e+00</Option>
    <Option name="SamplingTraining" modified="No">True</Option>
    <Option name="SamplingTesting" modified="No">False</Option>
    <Option name="ResetStep" modified="No">50</Option>
    <Option name="Tau" modified="No">3.000000e+00</Option>
    <Option name="BPMode" modified="Yes">batch</Option>
    <Option name="BatchSize" modified="Yes">7</Option>
    <Option name="ConvergenceImprove" modified="Yes">2.500000e-03</Option>
    <Option name="ConvergenceTests" modified="Yes">5</Option>
    <Option name="UseRegulator" modified="Yes">False</Option>
    <Option name="UpdateLimit" modified="No">10000</Option>
    <Option name="CalculateErrors" modified="No">False</Option>
    <Option name="WeightRange" modified="No">1.000000e+00</Option>
  </Options>
  <Variables NVar="11">
    <Variable VarIndex="0" Expression="mJJ" Label="mJJ" Title="mJJ" Unit="" Internal="mJJ" Type="F" Min="2.27864819e+01" Max="7.83875537e+03"/>
    <Variable VarIndex="1" Expression="deltaYJJ" Label="deltaYJJ" Title="deltaYJJ" Unit="" Internal="deltaYJJ" Type="F" Min="2.21196096e-05" Max="8.68471050e+00"/>
    <Variable VarIndex="2" Expression="metPt" Label="metPt" Title="metPt" Unit="" Internal="metPt" Type="F" Min="1.25825294e+02" Max="2.27749878e+03"/>
    <Variable VarIndex="3" Expression="ptBalance" Label="ptBalance" Title="ptBalance" Unit="" Internal="ptBalance" Type="F" Min="4.91857872e-06" Max="4.76490766e-01"/>
    <Variable VarIndex="4" Expression="subleadJetEta" Label="subleadJetEta" Title="subleadJetEta" Unit="" Internal="subleadJetEta" Type="F" Min="-4.50663424e+00" Max="4.51134682e+00"/>
    <Variable VarIndex="5" Expression="leadJetPt" Label="leadJetPt" Title="leadJetPt" Unit="" Internal="leadJetPt" Type="F" Min="5.00584755e+01" Max="2.75328247e+03"/>
    <Variable VarIndex="6" Expression="photonEta" Label="photonEta" Title="photonEta" Unit="" Internal="photonEta" Type="F" Min="-2.40109253e+00" Max="2.39041257e+00"/>
    <Variable VarIndex="7" Expression="ptBalanceRed" Label="ptBalanceRed" Title="ptBalanceRed" Unit="" Internal="ptBalanceRed" Type="F" Min="2.29892414e-02" Max="9.99983788e-01"/>
    <Variable VarIndex="8" Expression="nJets" Label="nJets" Title="nJets" Unit="" Internal="nJets" Type="F" Min="2.00000000e+00" Max="9.00000000e+00"/>
    <Variable VarIndex="9" Expression="sinDeltaPhiJJOver2" Label="sinDeltaPhiJJOver2" Title="sinDeltaPhiJJOver2" Unit="" Internal="sinDeltaPhiJJOver2" Type="F" Min="1.59144402e-05" Max="1.00000000e+00"/>
    <Variable VarIndex="10" Expression="deltaYJPh" Label="deltaYJPh" Title="deltaYJPh" Unit="" Internal="deltaYJPh" Type="F" Min="1.18112052e-06" Max="6.68952894e+00"/>
  </Variables>
  <Spectators NSpec="1">
    <Spectator SpecIndex="0" Expression="weightModified" Label="weightModified" Title="F" Unit="" Internal="weightModified" Type="F" Min="-1.91263646e-01" Max="1.09073341e+00"/>
  </Spectators>
  <Classes NClass="2">
    <Class Name="Signal" Index="0"/>
    <Class Name="Background" Index="1"/>
  </Classes>
  <Transformations NTransformations="1">
    <Transform Name="Normalize">
      <Selection>
        <Input NInputs="11">
          <Input Type="Variable" Label="mJJ" Expression="mJJ"/>
          <Input Type="Variable" Label="deltaYJJ" Expression="deltaYJJ"/>
          <Input Type="Variable" Label="metPt" Expression="metPt"/>
          <Input Type="Variable" Label="ptBalance" Expression="ptBalance"/>
          <Input Type="Variable" Label="subleadJetEta" Expression="subleadJetEta"/>
          <Input Type="Variable" Label="leadJetPt" Expression="leadJetPt"/>
          <Input Type="Variable" Label="photonEta" Expression="photonEta"/>
          <Input Type="Variable" Label="ptBalanceRed" Expression="ptBalanceRed"/>
          <Input Type="Variable" Label="nJets" Expression="nJets"/>
          <Input Type="Variable" Label="sinDeltaPhiJJOver2" Expression="sinDeltaPhiJJOver2"/>
          <Input Type="Variable" Label="deltaYJPh" Expression="deltaYJPh"/>
        </Input>
        <Output NOutputs="11">
          <Output Type="Variable" Label="mJJ" Expression="mJJ"/>
          <Output Type="Variable" Label="deltaYJJ" Expression="deltaYJJ"/>
          <Output Type="Variable" Label="metPt" Expression="metPt"/>
          <Output Type="Variable" Label="ptBalance" Expression="ptBalance"/>
          <Output Type="Variable" Label="subleadJetEta" Expression="subleadJetEta"/>
          <Output Type="Variable" Label="leadJetPt" Expression="leadJetPt"/>
          <Output Type="Variable" Label="photonEta" Expression="photonEta"/>
          <Output Type="Variable" Label="ptBalanceRed" Expression="ptBalanceRed"/>
          <Output Type="Variable" Label="nJets" Expression="nJets"/>
          <Output Type="Variable" Label="sinDeltaPhiJJOver2" Expression="sinDeltaPhiJJOver2"/>
          <Output Type="Variable" Label="deltaYJPh" Expression="deltaYJPh"/>
        </Output>
      </Selection>
      <Class ClassIndex="0">
        <Ranges>
          <Range Index="0" Min="2.2786481857299805e+01" Max="7.5057304687500000e+03"/>
          <Range Index="1" Min="1.5035811520647258e-04" Max="8.6847105026245117e+00"/>
          <Range Index="2" Min="1.2697845458984375e+02" Max="2.2774987792968750e+03"/>
          <Range Index="3" Min="4.9185787247552071e-06" Max="4.0502533316612244e-01"/>
          <Range Index="4" Min="-4.5066342353820801e+00" Max="4.5113468170166016e+00"/>
          <Range Index="5" Min="5.0105968475341797e+01" Max="1.9641448974609375e+03"/>
          <Range Index="6" Min="-2.4010925292968750e+00" Max="2.3904125690460205e+00"/>
          <Range Index="7" Min="4.8834752291440964e-02" Max="9.9988257884979248e-01"/>
          <Range Index="8" Min="2.0000000000000000e+00" Max="8.0000000000000000e+00"/>
          <Range Index="9" Min="1.5914440155029297e-05" Max="1.0000000000000000e+00"/>
          <Range Index="10" Min="3.2652555091772228e-05" Max="6.5068273544311523e+00"/>
        </Ranges>
      </Class>
      <Class ClassIndex="1">
        <Ranges>
          <Range Index="0" Min="2.3556308746337891e+01" Max="7.8387553710937500e+03"/>
          <Range Index="1" Min="2.2119609639048576e-05" Max="8.6838493347167969e+00"/>
          <Range Index="2" Min="1.2582529449462891e+02" Max="1.9265614013671875e+03"/>
          <Range Index="3" Min="5.9500340285012498e-05" Max="4.7649076581001282e-01"/>
          <Range Index="4" Min="-4.5036110877990723e+00" Max="4.5083436965942383e+00"/>
          <Range Index="5" Min="5.0058475494384766e+01" Max="2.7532824707031250e+03"/>
          <Range Index="6" Min="-2.3863203525543213e+00" Max="2.3830773830413818e+00"/>
          <Range Index="7" Min="2.2989241406321526e-02" Max="9.9998378753662109e-01"/>
          <Range Index="8" Min="2.0000000000000000e+00" Max="9.0000000000000000e+00"/>
          <Range Index="9" Min="1.9311904907226562e-05" Max="1.0000000000000000e+00"/>
          <Range Index="10" Min="1.1811205240519485e-06" Max="6.6895289421081543e+00"/>
        </Ranges>
      </Class>
      <Class ClassIndex="2">
        <Ranges>
          <Range Index="0" Min="2.2786481857299805e+01" Max="7.8387553710937500e+03"/>
          <Range Index="1" Min="2.2119609639048576e-05" Max="8.6847105026245117e+00"/>
          <Range Index="2" Min="1.2582529449462891e+02" Max="2.2774987792968750e+03"/>
          <Range Index="3" Min="4.9185787247552071e-06" Max="4.7649076581001282e-01"/>
          <Range Index="4" Min="-4.5066342353820801e+00" Max="4.5113468170166016e+00"/>
          <Range Index="5" Min="5.0058475494384766e+01" Max="2.7532824707031250e+03"/>
          <Range Index="6" Min="-2.4010925292968750e+00" Max="2.3904125690460205e+00"/>
          <Range Index="7" Min="2.2989241406321526e-02" Max="9.9998378753662109e-01"/>
          <Range Index="8" Min="2.0000000000000000e+00" Max="9.0000000000000000e+00"/>
          <Range Index="9" Min="1.5914440155029297e-05" Max="1.0000000000000000e+00"/>
          <Range Index="10" Min="1.1811205240519485e-06" Max="6.6895289421081543e+00"/>
        </Ranges>
      </Class>
    </Transform>
  </Transformations>
  <MVAPdfs/>
  <Weights>
    <Layout NLayers="4">
      <Layer Index="0" NNeurons="12">
        <Neuron NSynapses="21">
          -3.2655805916274583e-01 1.6893264386157716e+00 1.4846747478472899e+00 2.2266031352814615e+00 -1.9113352431870183e+00 -6.5029932026231396e-01 -7.1693659643949859e-01 1.7637527129299635e+00 -1.4925851624145297e+00 -1.8325392717811939e+00 -1.9239254788619671e+00 -3.5298239232334145e+00 -1.9664482254195652e+00 -1.0873447339642657e-01 -1.3976317226702182e+00 -1.8934947534366697e-01 3.6414958578716045e-02 1.3883280982093607e+00 3.8467793039408704e-01 1.4544500737225496e+00 6.4648665785175075e-01 
        </Neuron>
        <Neuron NSynapses="21">
          -2.0807026807108628e+00 -1.1340722517068251e+00 9.8845285169222516e-02 -2.6821222229536188e+00 -9.6061141882109391e-01 2.5380002107267483e+00 -2.3246330378059246e+00 -2.1273279590316929e+00 9.5723584482916979e-01 3.1726909197579450e-01 2.3110096175567567e+00 -1.7520064001864155e+00 -5.6747573434876919e-01 6.4295545217679928e-01 -3.8483470517534983e+00 -9.0287502890801019e-01 1.6884250862708583e+00 -2.0033046098417966e+00 9.2374849267270243e-01 2.0523863664908575e+00 2.6571902233776474e+00 
        </Neuron>
        <Neuron NSynapses="21">
          2.0048541841297749e+00 1.6857085861465151e+00 -8.5539172813184283e-01 -6.9877501667606512e-01 3.6003091756710354e-01 9.1981303438431472e-02 1.8831842365315530e+00 1.0599952317855412e+00 1.1777704214309479e+00 1.9785167388595304e+00 -2.2244262983610241e+00 9.0778803849072565e-01 -1.1877627151810246e+00 -7.9044638964667324e-01 -8.5427707056248381e-01 -2.6431811859989702e+00 1.5982197260106916e+00 9.9533837601809216e-01 -1.2602985115734502e+00 2.9450605907294158e-01 6.1800180235066317e-02 
        </Neuron>
        <Neuron NSynapses="21">
          6.5291554967074406e-01 2.7796498245004950e+00 -3.1232592527084529e-01 5.2163906216866918e-01 5.2167711354407709e-01 4.6475474545965312e-01 -7.9266064181918883e-01 -1.1785386252535717e+00 -1.3787496602658582e+00 5.7099655318757458e-01 1.0313886527842238e+00 1.6597350585479431e+00 2.2495662081006196e-01 -2.2922258442188497e+00 -3.2082392620394323e-01 2.5523121544716907e+00 1.3120018306535844e-01 2.6649639678328350e+00 8.3701565377675458e-01 5.2149979070862140e-01 -8.1642683261249072e-01 
        </Neuron>
        <Neuron NSynapses="21">
          -1.4761160587175417e+00 4.0252783231099620e-01 8.5017524511828491e-01 -4.9216700446867601e-01 -9.5521083340533219e-01 -1.5043485623664441e+00 -1.1322606349885307e-01 5.8717454988946061e-01 1.8931758743609035e+00 -1.0756988183036109e+00 -1.1552899097447789e+00 1.8764006998061018e+00 -5.0646220275160958e-01 -2.9619523590290797e-01 -2.7967475187573609e+00 -1.7582473239479365e-01 -1.0822071864448677e+00 -1.6627179923377420e+00 8.4926205726527282e-01 1.8133397020931066e+00 -3.3372752122417007e+00 
        </Neuron>
        <Neuron NSynapses="21">
          2.1012224032019939e+00 -1.8586249304292901e+00 -2.8728345151791629e-01 5.0823299537693711e-01 1.0518645942400748e+00 -1.6492113323289486e+00 1.3206930649420245e-01 6.8733179356039176e-03 4.6898415658511550e-02 -7.5445574180198549e-01 1.6416944790592276e+00 -3.3470853428879654e-01 -7.1065172350357486e-01 1.0424965224958409e+00 -3.7040322032450362e-01 -1.9685567719229167e+00 4.4082604890554683e-01 -4.3074238472789828e-01 2.2628886984115111e+00 4.1596548053445637e-01 -6.5418163402815377e-01 
        </Neuron>
        <Neuron NSynapses="21">
          -1.4848361032999436e-02 -6.1129575775175293e-01 -2.4348416430978390e+00 8.6149526166171386e-01 1.0957367576603820e+00 -8.1228080852538675e-01 6.3140298100251180e-01 -8.6367624703271295e-01 5.1999578841097904e-01 9.2641481082191224e-01 1.1992045414957873e+00 -1.0720843938215792e+00 1.7468309448788438e-01 1.7444047319069567e+00 7.6686179362282436e-01 1.6548040042680784e-01 -1.6817199772893754e+00 -6.1757564452573355e-01 -1.0543374376758874e+00 1.4123838314201669e+00 1.5549080171808909e+00 
        </Neuron>
        <Neuron NSynapses="21">
          -3.8912377629025696e-01 2.6074777276531980e-01 2.1390620367162952e-01 -9.3870771225706517e-01 1.1120825736148575e-01 2.8167348492698990e-01 7.8366665293141169e-01 -1.1270312569293131e+00 1.1704750744047272e-01 1.4274801353618579e-03 -2.1142843797763300e-01 3.3424068800211804e-01 -8.9293130303141566e-01 1.4801573174530269e+00 1.1684634417358532e-01 1.0415563738699869e+00 2.1337821439854060e-01 1.1340103489450037e+00 -2.0657012895511895e-01 -5.1096633082094833e-01 7.5110890730830426e-01 
        </Neuron>
        <Neuron NSynapses="21">
          -1.4229013964378179e+00 -6.8396395218301609e-01 2.3345966769987987e+00 1.6796016665510665e+00 -2.6699750825975671e-02 1.3398160908535877e+00 1.0804667535296328e+00 -2.5871100911736713e+00 4.7069842624926672e-01 1.3714296171945403e-01 -4.4932759531058802e-01 -1.6511532516086427e+00 -1.2907949065769442e+00 1.8507194002961334e+00 2.8853236665338993e+00 -1.3401156421381428e+00 -3.5225300851178004e-01 -1.5457720937437452e-01 8.6835108785142689e-01 1.0115735734429936e+00 -1.9083199513538023e+00 
        </Neuron>
        <Neuron NSynapses="21">
          -3.3992121731239927e-01 -5.5968074718650862e-01 9.7655320024165548e-01 7.2149453551275544e-01 2.5281844670690194e+00 3.1130430285165073e-01 -5.8359391720820319e-01 -1.6559620058255700e+00 1.2650200402820448e+00 4.2354810759884010e-01 -1.2486317104620965e+00 3.4106231148837901e-01 2.9818288920031990e-02 2.0908171237724563e-01 -3.4254446981299430e-01 1.2748139069921902e-01 6.4072236274073258e-01 -1.0334656596588938e+00 -2.1534915908081090e-01 1.6683304017190557e+00 4.0899138273269481e-01 
        </Neuron>
        <Neuron NSynapses="21">
          3.3470827657000590e-01 5.7890097303942567e-01 -1.9415167316893907e+00 -4.5932152796090081e-01 1.4592418877167177e+00 1.3656915393507174e+00 1.2596428468910954e+00 -4.2552073879233272e-02 2.2180075934254515e+00 -2.7411588880431492e+00 -6.7472784632134422e-02 5.3516780409411024e-01 -1.4921720629629918e+00 3.7019865828451792e-01 1.7495374443806786e+00 1.4127246128449947e-01 6.3333989453928863e-01 6.5471093159797844e-01 -1.4512944177708327e+00 -1.7942335158127549e+00 -1.3001825306722303e+00 
        </Neuron>
        <Neuron NSynapses="21">
          9.7881314466801594e-02 2.9264659279030725e+00 -8.9272560753757912e-01 2.4591675961210311e+00 -3.4634790752812128e+00 2.2613097967223315e+00 -1.5726867115607060e-01 -1.3226849532357692e+00 -1.0271104498781043e+00 -3.9755194805179017e+00 -1.2528190330904998e+00 -4.4565770496205310e+00 -2.7601260008335160e+00 -1.1554780267321016e+00 -1.3205293957989317e+00 -3.8572447188995596e+00 -1.9667219258760427e+00 4.3627037043119510e-01 -9.9224020994073026e-01 3.3693450381988782e-01 -5.3267546674879152e-01 
        </Neuron>
      </Layer>
      <Layer Index="1" NNeurons="22">
        <Neuron NSynapses="11">
          -1.9865006187693302e-01 1.9898177347470944e+00 1.5471140825143403e+00 -6.1829792371849102e-01 -8.5754961326400136e-01 -1.2042938637919181e+00 -7.7477437198037691e-01 -3.0413234649220771e+00 1.2906003092340701e+00 4.4037339089765931e-01 1.8772368936576826e+00 
        </Neuron>
        <Neuron NSynapses="11">
          -1.4475039688096256e+00 4.8001223123004322e-01 -5.0915595073876441e-01 -1.5493332004447034e+00 1.1484340224240415e+00 1.3508663242657020e+00 -9.1690035454798202e-01 -1.8310876089181887e+00 7.0434251823784697e-02 2.6986336842566594e+00 4.6721856071246570e-01 
        </Neuron>
        <Neuron NSynapses="11">
          -5.3178847413530843e-02 3.4454832366112642e-01 1.2315134076098913e+00 1.7610027994018145e+00 4.0633536803757658e-01 -5.5976842229671264e-01 4.2494806038701644e-01 -5.4708951255184657e-01 -2.6182787597852131e+00 -6.8019924151943756e-01 -1.7566919932457294e+00 
        </Neuron>
        <Neuron NSynapses="11">
          -1.1455696426419271e+00 -8.1694468385037877e-01 1.7785487021362476e+00 -1.2813233608937835e+00 1.0765801560696646e+00 -1.4063542332164347e+00 9.7117133926786592e-01 -1.9243109499829827e+00 8.6540008109508981e-01 2.1814818991316471e+00 -1.8708564308762097e+00 
        </Neuron>
        <Neuron NSynapses="11">
          8.7564486336535241e-01 7.0063831857945413e-01 -2.0510912502566887e+00 -1.4563979960744082e+00 -1.9590962987516010e+00 -8.9888159544819202e-01 1.9124381440294029e+00 -1.7579331996795906e+00 8.0886886558696580e-02 -1.2559375351784794e+00 -1.1858102331163907e+00 
        </Neuron>
        <Neuron NSynapses="11">
          -1.4027863097423512e+00 -3.0590439743320547e-01 -1.4452203007748259e+00 1.7349617443473528e+00 -4.2841644718260069e-01 -1.4893198847591740e+00 1.8140291306331073e+00 -1.0152655297938713e-01 -6.3502442847583429e-01 2.2463464254746572e+00 -1.8105478670696049e+00 
        </Neuron>
        <Neuron NSynapses="11">
          9.8973638904406869e-01 1.1450584478976347e+00 -8.9153753536004221e-01 -3.9680976203754198e-01 5.2103039418486541e-01 -8.8537978110711479e-01 2.0473287711313198e-01 1.0545540385752195e+00 2.1433444921835170e+00 2.7127779725054908e+00 -1.3777460637667227e+00 
        </Neuron>
        <Neuron NSynapses="11">
          6.6786044709200770e-02 -2.0771093236857969e+00 6.2186059515040049e-01 -1.8823982194117548e+00 -2.1213851172633964e+00 -4.9263066020507888e-02 9.8203758491235760e-01 -1.7794449770609136e-01 1.5793077452658280e+00 5.2846265563245531e-01 -1.7860130016594755e-01 
        </Neuron>
        <Neuron NSynapses="11">
          -7.5288979643434575e-02 2.1871658764232826e-01 1.8790919118516258e+00 -1.4755194055245500e+00 1.5377544028234633e-01 -1.2557930188266326e+00 -5.7096387609826849e-01 -1.0038736326792417e+00 3.0363241683633774e-01 -8.7963960844998801e-01 9.6827374690809698e-01 
        </Neuron>
        <Neuron NSynapses="11">
          2.8877154522406387e+00 7.9191499837166413e-01 3.5528252529760850e-02 -8.2683855537044437e-01 -1.2106460177217888e+00 -1.7173367034526903e+00 1.0374790914231700e+00 -2.5208126301708611e+00 -8.3372290874079480e-01 -7.7458070996981598e-02 -1.6954929452209422e+00 
        </Neuron>
        <Neuron NSynapses="11">
          -7.2488843914367951e-01 -1.6587983170594864e+00 9.6268349625522964e-01 -1.1562560323080964e+00 -2.4138104352698648e+00 -4.7897983440824948e-01 -9.4669569171715673e-01 -1.8104164862811516e+00 4.7338639321279519e-01 -2.5250476298927773e+00 -1.2272127280900460e+00 
        </Neuron>
        <Neuron NSynapses="11">
          3.1539579105920734e+00 6.0127499876867696e-01 3.1013880690605594e-01 8.2156759017861969e-01 1.3580305507053136e+00 1.6207455974214737e+00 1.8863424881824647e-01 -3.1974499783769312e+00 1.0756993040785856e-01 -2.4393174853239876e+00 9.0859693061817637e-01 
        </Neuron>
        <Neuron NSynapses="11">
          2.8196821295021812e-01 8.3920653994213792e-02 1.2461693712224111e+00 8.9613096765665901e-01 2.0480428696037811e+00 -1.1843784256093850e+00 1.2544746296022178e+00 2.1549223965477444e+00 -1.6539267608051218e+00 9.2955300922678719e-01 -1.0652211685976218e+00 
        </Neuron>
        <Neuron NSynapses="11">
          1.1593811786662351e+00 6.7055139689363918e-01 1.1466949145472256e+00 1.9698076878705835e+00 -7.8028305539049780e-01 1.9999427998470205e+00 1.6056372969191250e+00 8.0194710911928158e-01 -1.2192941652721911e+00 1.4501391274638680e+00 -1.9629342153756735e+00 
        </Neuron>
        <Neuron NSynapses="11">
          2.4805835775723843e+00 2.0829518228604491e+00 -3.5477145966682455e-01 5.0770027421341368e-01 3.1695523982837447e-02 -1.2632507993207835e+00 5.9514027001075465e-01 -3.2512071379365626e+00 9.1866843318296820e-01 -7.1329657358118115e-01 1.6748818871075222e+00 
        </Neuron>
        <Neuron NSynapses="11">
          1.5415807945182605e+00 1.7763825574017538e+00 -5.1725775752342174e-01 -8.9330673608507258e-02 7.7299103173850447e-01 1.8571609238040232e+00 -2.1082730789342703e+00 -1.9239845749869215e+00 3.3135414107795746e-01 -2.7862000093512096e+00 -1.6938678979015507e+00 
        </Neuron>
        <Neuron NSynapses="11">
          -1.4979144624623626e+00 9.3733874465439748e-01 1.1131146714430169e-02 -1.9765806282690241e+00 -2.0613644062642416e+00 -1.9842436162789170e-01 1.8036228747872143e+00 1.0634626994622722e+00 8.4816651049585601e-01 -6.5667794603396379e-01 -1.9381192425371716e+00 
        </Neuron>
        <Neuron NSynapses="11">
          -1.2499003014363004e+00 -9.2286581704181547e-01 -1.4418854839393498e+00 -1.7895134725214024e-01 1.1662910617800459e+00 -1.6371520911994044e+00 1.6897830642490057e+00 5.4379109645308643e-01 2.9025002778540282e-01 -1.9488009351711852e-01 -8.6414523897906048e-01 
        </Neuron>
        <Neuron NSynapses="11">
          1.8017617371774277e+00 -4.2803414237014686e-01 2.7220194276404935e-01 1.6955389942686574e+00 1.2253028617419541e+00 -1.0283730349602256e+00 1.4063655668569182e+00 -2.0134549622475459e+00 1.2617358986691531e+00 2.0014534930989925e+00 -1.5977609602486847e-01 
        </Neuron>
        <Neuron NSynapses="11">
          -1.3310220572727574e+00 6.2241157377891188e-01 -7.4770106848522588e-01 1.1367040084506774e+00 -6.2643716078149936e-01 -8.1606780042699079e-01 -1.3757892962308327e+00 -1.8269867975508391e-01 -7.7025350062565001e-02 1.4654910915502313e+00 -7.3746968348708020e-01 
        </Neuron>
        <Neuron NSynapses="11">
          -3.3462093690366390e+00 1.9628090380888057e+00 6.2715687622935523e-01 -1.7732499049111463e+00 1.1298751830891417e-01 -1.1850891137153772e+00 1.1878222981415341e+00 3.4106735196462394e+00 -1.0524195030454739e+00 -4.3595517407637668e-01 1.5963496300962632e+00 
        </Neuron>
        <Neuron NSynapses="11">
          1.4761859898474119e+00 7.6486597224074215e-01 1.5360235419623566e-01 -7.8336321765155359e-01 -2.0455610084766271e+00 1.2757344595245350e+00 7.0421280846291415e-02 -5.8138969749944647e-02 -2.3991968580053444e+00 -9.0921217230896179e-01 -1.9386206690098864e+00 
        </Neuron>
      </Layer>
      <Layer Index="2" NNeurons="12">
        <Neuron NSynapses="1">
          -3.4286971046625845e+00 
        </Neuron>
        <Neuron NSynapses="1">
          -1.6986082639247719e+00 
        </Neuron>
        <Neuron NSynapses="1">
          8.4487096648216153e-01 
        </Neuron>
        <Neuron NSynapses="1">
          -1.9279135255914528e+00 
        </Neuron>
        <Neuron NSynapses="1">
          2.6754852711014006e+00 
        </Neuron>
        <Neuron NSynapses="1">
          9.4310194081178722e-01 
        </Neuron>
        <Neuron NSynapses="1">
          -2.3029763106492505e+00 
        </Neuron>
        <Neuron NSynapses="1">
          5.0605749163783926e+00 
        </Neuron>
        <Neuron NSynapses="1">
          2.7837666618616286e+00 
        </Neuron>
        <Neuron NSynapses="1">
          4.2556655999894604e+00 
        </Neuron>
        <Neuron NSynapses="1">
          -4.8878352256074376e-01 
        </Neuron>
        <Neuron NSynapses="1">
          -1.1928301872871714e+00 
        </Neuron>
      </Layer>
      <Layer Index="3" NNeurons="1">
        <Neuron NSynapses="0"/>
      </Layer>
    </Layout>
  </Weights>
</MethodSetup>
