<?xml version="1.0"?>
<MethodSetup Method="MLP::MLP">
  <GeneralInfo>
    <Info name="TMVA Release" value="4.2.1 [262657]"/>
    <Info name="ROOT Release" value="6.22/06 [398854]"/>
    <Info name="Creator" value="konstantin"/>
    <Info name="Date" value="Wed Mar 24 00:18:58 2021"/>
    <Info name="Host" value="Linux mach 5.8.0-43-generic #49~20.04.1-Ubuntu SMP Fri Feb 5 09:57:56 UTC 2021 x86_64 x86_64 x86_64 GNU/Linux"/>
    <Info name="Dir" value="/home/konstantin/Projects/CERN/TMVA_MLP"/>
    <Info name="Training events" value="170672"/>
    <Info name="TrainingTime" value="1.73547876e+02"/>
    <Info name="AnalysisType" value="Classification"/>
  </GeneralInfo>
  <Options>
    <Option name="NCycles" modified="Yes">400</Option>
    <Option name="HiddenLayers" modified="Yes">N+5,N</Option>
    <Option name="NeuronType" modified="Yes">sigmoid</Option>
    <Option name="RandomSeed" modified="No">1</Option>
    <Option name="EstimatorType" modified="No">CE</Option>
    <Option name="NeuronInputType" modified="No">sum</Option>
    <Option name="V" modified="Yes">False</Option>
    <Option name="VerbosityLevel" modified="No">Default</Option>
    <Option name="VarTransform" modified="Yes">N</Option>
    <Option name="H" modified="Yes">True</Option>
    <Option name="CreateMVAPdfs" modified="No">False</Option>
    <Option name="IgnoreNegWeightsInTraining" modified="No">False</Option>
    <Option name="TrainingMethod" modified="No">BP</Option>
    <Option name="LearningRate" modified="Yes">2.000000e-02</Option>
    <Option name="DecayRate" modified="No">1.000000e-02</Option>
    <Option name="TestRate" modified="Yes">5</Option>
    <Option name="EpochMonitoring" modified="No">False</Option>
    <Option name="Sampling" modified="No">1.000000e+00</Option>
    <Option name="SamplingEpoch" modified="No">1.000000e+00</Option>
    <Option name="SamplingImportance" modified="No">1.000000e+00</Option>
    <Option name="SamplingTraining" modified="No">True</Option>
    <Option name="SamplingTesting" modified="No">False</Option>
    <Option name="ResetStep" modified="No">50</Option>
    <Option name="Tau" modified="No">3.000000e+00</Option>
    <Option name="BPMode" modified="Yes">batch</Option>
    <Option name="BatchSize" modified="Yes">7</Option>
    <Option name="ConvergenceImprove" modified="Yes">2.500000e-03</Option>
    <Option name="ConvergenceTests" modified="Yes">5</Option>
    <Option name="UseRegulator" modified="Yes">False</Option>
    <Option name="UpdateLimit" modified="No">10000</Option>
    <Option name="CalculateErrors" modified="No">False</Option>
    <Option name="WeightRange" modified="No">1.000000e+00</Option>
  </Options>
  <Variables NVar="11">
    <Variable VarIndex="0" Expression="mJJ" Label="mJJ" Title="mJJ" Unit="" Internal="mJJ" Type="F" Min="2.27864819e+01" Max="7.83875537e+03"/>
    <Variable VarIndex="1" Expression="deltaYJJ" Label="deltaYJJ" Title="deltaYJJ" Unit="" Internal="deltaYJJ" Type="F" Min="2.21196096e-05" Max="8.68471050e+00"/>
    <Variable VarIndex="2" Expression="metPt" Label="metPt" Title="metPt" Unit="" Internal="metPt" Type="F" Min="1.25825294e+02" Max="2.27749878e+03"/>
    <Variable VarIndex="3" Expression="ptBalance" Label="ptBalance" Title="ptBalance" Unit="" Internal="ptBalance" Type="F" Min="4.91857872e-06" Max="4.76490766e-01"/>
    <Variable VarIndex="4" Expression="subleadJetEta" Label="subleadJetEta" Title="subleadJetEta" Unit="" Internal="subleadJetEta" Type="F" Min="-4.50663424e+00" Max="4.51134682e+00"/>
    <Variable VarIndex="5" Expression="leadJetPt" Label="leadJetPt" Title="leadJetPt" Unit="" Internal="leadJetPt" Type="F" Min="5.00584755e+01" Max="2.75328247e+03"/>
    <Variable VarIndex="6" Expression="photonEta" Label="photonEta" Title="photonEta" Unit="" Internal="photonEta" Type="F" Min="-2.40109253e+00" Max="2.39041257e+00"/>
    <Variable VarIndex="7" Expression="ptBalanceRed" Label="ptBalanceRed" Title="ptBalanceRed" Unit="" Internal="ptBalanceRed" Type="F" Min="2.29892414e-02" Max="9.99983788e-01"/>
    <Variable VarIndex="8" Expression="nJets" Label="nJets" Title="nJets" Unit="" Internal="nJets" Type="F" Min="2.00000000e+00" Max="9.00000000e+00"/>
    <Variable VarIndex="9" Expression="sinDeltaPhiJJOver2" Label="sinDeltaPhiJJOver2" Title="sinDeltaPhiJJOver2" Unit="" Internal="sinDeltaPhiJJOver2" Type="F" Min="1.59144402e-05" Max="1.00000000e+00"/>
    <Variable VarIndex="10" Expression="deltaYJPh" Label="deltaYJPh" Title="deltaYJPh" Unit="" Internal="deltaYJPh" Type="F" Min="1.18112052e-06" Max="6.68952894e+00"/>
  </Variables>
  <Spectators NSpec="1">
    <Spectator SpecIndex="0" Expression="weightModified" Label="weightModified" Title="F" Unit="" Internal="weightModified" Type="F" Min="-1.91263646e-01" Max="1.09073341e+00"/>
  </Spectators>
  <Classes NClass="2">
    <Class Name="Signal" Index="0"/>
    <Class Name="Background" Index="1"/>
  </Classes>
  <Transformations NTransformations="1">
    <Transform Name="Normalize">
      <Selection>
        <Input NInputs="11">
          <Input Type="Variable" Label="mJJ" Expression="mJJ"/>
          <Input Type="Variable" Label="deltaYJJ" Expression="deltaYJJ"/>
          <Input Type="Variable" Label="metPt" Expression="metPt"/>
          <Input Type="Variable" Label="ptBalance" Expression="ptBalance"/>
          <Input Type="Variable" Label="subleadJetEta" Expression="subleadJetEta"/>
          <Input Type="Variable" Label="leadJetPt" Expression="leadJetPt"/>
          <Input Type="Variable" Label="photonEta" Expression="photonEta"/>
          <Input Type="Variable" Label="ptBalanceRed" Expression="ptBalanceRed"/>
          <Input Type="Variable" Label="nJets" Expression="nJets"/>
          <Input Type="Variable" Label="sinDeltaPhiJJOver2" Expression="sinDeltaPhiJJOver2"/>
          <Input Type="Variable" Label="deltaYJPh" Expression="deltaYJPh"/>
        </Input>
        <Output NOutputs="11">
          <Output Type="Variable" Label="mJJ" Expression="mJJ"/>
          <Output Type="Variable" Label="deltaYJJ" Expression="deltaYJJ"/>
          <Output Type="Variable" Label="metPt" Expression="metPt"/>
          <Output Type="Variable" Label="ptBalance" Expression="ptBalance"/>
          <Output Type="Variable" Label="subleadJetEta" Expression="subleadJetEta"/>
          <Output Type="Variable" Label="leadJetPt" Expression="leadJetPt"/>
          <Output Type="Variable" Label="photonEta" Expression="photonEta"/>
          <Output Type="Variable" Label="ptBalanceRed" Expression="ptBalanceRed"/>
          <Output Type="Variable" Label="nJets" Expression="nJets"/>
          <Output Type="Variable" Label="sinDeltaPhiJJOver2" Expression="sinDeltaPhiJJOver2"/>
          <Output Type="Variable" Label="deltaYJPh" Expression="deltaYJPh"/>
        </Output>
      </Selection>
      <Class ClassIndex="0">
        <Ranges>
          <Range Index="0" Min="2.2786481857299805e+01" Max="7.5057304687500000e+03"/>
          <Range Index="1" Min="1.5035811520647258e-04" Max="8.6847105026245117e+00"/>
          <Range Index="2" Min="1.2697845458984375e+02" Max="2.2774987792968750e+03"/>
          <Range Index="3" Min="4.9185787247552071e-06" Max="4.0502533316612244e-01"/>
          <Range Index="4" Min="-4.5066342353820801e+00" Max="4.5113468170166016e+00"/>
          <Range Index="5" Min="5.0105968475341797e+01" Max="1.9641448974609375e+03"/>
          <Range Index="6" Min="-2.4010925292968750e+00" Max="2.3904125690460205e+00"/>
          <Range Index="7" Min="4.8834752291440964e-02" Max="9.9988257884979248e-01"/>
          <Range Index="8" Min="2.0000000000000000e+00" Max="8.0000000000000000e+00"/>
          <Range Index="9" Min="1.5914440155029297e-05" Max="1.0000000000000000e+00"/>
          <Range Index="10" Min="3.2652555091772228e-05" Max="6.5068273544311523e+00"/>
        </Ranges>
      </Class>
      <Class ClassIndex="1">
        <Ranges>
          <Range Index="0" Min="2.3556308746337891e+01" Max="7.8387553710937500e+03"/>
          <Range Index="1" Min="2.2119609639048576e-05" Max="8.6838493347167969e+00"/>
          <Range Index="2" Min="1.2582529449462891e+02" Max="1.9265614013671875e+03"/>
          <Range Index="3" Min="5.9500340285012498e-05" Max="4.7649076581001282e-01"/>
          <Range Index="4" Min="-4.5036110877990723e+00" Max="4.5083436965942383e+00"/>
          <Range Index="5" Min="5.0058475494384766e+01" Max="2.7532824707031250e+03"/>
          <Range Index="6" Min="-2.3863203525543213e+00" Max="2.3830773830413818e+00"/>
          <Range Index="7" Min="2.2989241406321526e-02" Max="9.9998378753662109e-01"/>
          <Range Index="8" Min="2.0000000000000000e+00" Max="9.0000000000000000e+00"/>
          <Range Index="9" Min="1.9311904907226562e-05" Max="1.0000000000000000e+00"/>
          <Range Index="10" Min="1.1811205240519485e-06" Max="6.6895289421081543e+00"/>
        </Ranges>
      </Class>
      <Class ClassIndex="2">
        <Ranges>
          <Range Index="0" Min="2.2786481857299805e+01" Max="7.8387553710937500e+03"/>
          <Range Index="1" Min="2.2119609639048576e-05" Max="8.6847105026245117e+00"/>
          <Range Index="2" Min="1.2582529449462891e+02" Max="2.2774987792968750e+03"/>
          <Range Index="3" Min="4.9185787247552071e-06" Max="4.7649076581001282e-01"/>
          <Range Index="4" Min="-4.5066342353820801e+00" Max="4.5113468170166016e+00"/>
          <Range Index="5" Min="5.0058475494384766e+01" Max="2.7532824707031250e+03"/>
          <Range Index="6" Min="-2.4010925292968750e+00" Max="2.3904125690460205e+00"/>
          <Range Index="7" Min="2.2989241406321526e-02" Max="9.9998378753662109e-01"/>
          <Range Index="8" Min="2.0000000000000000e+00" Max="9.0000000000000000e+00"/>
          <Range Index="9" Min="1.5914440155029297e-05" Max="1.0000000000000000e+00"/>
          <Range Index="10" Min="1.1811205240519485e-06" Max="6.6895289421081543e+00"/>
        </Ranges>
      </Class>
    </Transform>
  </Transformations>
  <MVAPdfs/>
  <Weights>
    <Layout NLayers="4">
      <Layer Index="0" NNeurons="12">
        <Neuron NSynapses="16">
          1.4044815936748942e-01 1.8178513409950543e+00 2.3727856847394184e+00 3.5873003546095585e+00 -1.2102259229497889e+00 -2.1135024335296411e+00 2.5789421185445889e+00 1.8860796783920011e+00 7.4004314410943861e-01 6.8268823219185393e-01 -2.8335632353748883e+00 -2.5811834799842153e+00 -6.2845718238500590e+00 -1.9102150292541817e-01 -1.7158120822067815e+00 -1.4192761617121026e+00 
        </Neuron>
        <Neuron NSynapses="16">
          -1.9289397344449564e+00 1.7981896386965806e+00 -1.4975210199215760e+00 3.8724405994293221e-01 7.5687218486185415e-01 -1.3277024060296370e+00 4.5957115080480115e-01 -2.1188027657641411e+00 -1.5097077987293686e+00 1.9758966290832489e+00 1.9527262506999175e+00 -2.9075251015954136e+00 -3.8341934197720948e+00 7.2829891175548489e-01 1.5947600113824085e+00 2.1708762941105659e+00 
        </Neuron>
        <Neuron NSynapses="16">
          1.2791502469660235e-01 -6.8627854543311120e-02 -6.8121767764923336e-01 8.8787224842786794e-01 -2.6296378640542462e+00 2.6149658153625639e+00 -8.1841954803971784e-01 6.9906992761108266e-01 1.8264772790744483e+00 -1.4972596902807420e-01 1.0747656017516294e+00 -2.6438172148872624e-01 -3.5909934658235804e-01 -3.0188542952433668e+00 6.2753338388022528e-01 -1.4457174409702387e+00 
        </Neuron>
        <Neuron NSynapses="16">
          7.7815238359067562e-01 1.6897178002212294e+00 4.7861378128862497e-01 -2.7425574734767508e+00 -6.3273397680294485e-01 1.6632564418943432e+00 -1.0117743056800161e+00 -1.1870543963340376e+00 -1.4161450132304509e+00 -4.2656241981185774e+00 6.9939629463577369e-01 1.5705990616124361e+00 2.3855535000295927e-01 1.7271638306738638e-01 1.2708879273256716e-03 1.2942880289027314e+00 
        </Neuron>
        <Neuron NSynapses="16">
          4.7314315288961062e+00 -9.2348849228861742e-03 2.0273351110583668e+00 -5.4750637276632175e-01 3.9488822289232992e+00 -1.3049528153357324e+00 -1.8015295751284083e-01 -2.7082087121998706e+00 2.5392835942999539e+00 3.0554772435196348e-01 2.3318623136651921e+00 3.7596047233050889e-01 3.5685149666330751e-01 -1.1550533335432065e+00 6.5968844295729356e-01 2.8722884327869830e-01 
        </Neuron>
        <Neuron NSynapses="16">
          2.3107177124649545e+00 7.9973540702272994e-01 1.8594499346888631e+00 3.9426206663078522e-01 -1.4882626505901406e+00 1.3747537004528429e-01 9.4892209518560733e-01 -8.8454400766918018e-01 -1.3116836826581169e+00 5.1766289385879716e-01 1.4537823187843461e-02 -4.6199162866851756e-01 2.8334611066715781e-01 -9.2244646664861685e-01 -9.5606349536231650e-01 7.8641834437430214e-01 
        </Neuron>
        <Neuron NSynapses="16">
          -9.8912931617273669e-01 -1.8517393452954665e+00 -1.9677815191602752e+00 -3.5464998982722026e-02 -1.2899202709503321e+00 -1.5704250139719125e+00 -1.0842140514964685e-01 1.9548791890202197e+00 -1.8026454005658410e+00 3.0814235098169159e-02 -1.7837476732537851e+00 -3.9273253785942802e-01 -1.4134436133701223e-01 6.8845177196095442e-01 -5.7369452099345730e-01 -6.4734640205698524e-01 
        </Neuron>
        <Neuron NSynapses="16">
          -2.1338700369266164e-01 1.2042381703982470e+00 -8.8311644833023631e-02 1.0615603453620562e-01 -2.2494785119481320e-02 -6.7927095137311577e-01 3.4115315891598341e-01 -1.1956621080619665e+00 1.5039810807946472e-01 7.3989981009483230e-02 -4.1764905689729591e-02 1.1256838334094856e+00 5.1936684113737253e-01 5.3684815371878325e-01 -7.1681246561000467e-01 -5.6176422236795712e-02 
        </Neuron>
        <Neuron NSynapses="16">
          -3.7297070246720243e-01 1.3929919081003601e+00 -5.5148710636406240e-01 -1.6128811315162093e+00 6.6230840003817260e-01 -1.0141134061077093e+00 6.0707589042513632e-01 5.1092904072246226e-01 2.3950164420794264e+00 -3.2568970624744851e+00 2.0688819071810205e-01 1.1729604902815780e+00 1.5552979035722487e+00 2.3060889141518954e+00 -2.6157974292817854e+00 -1.9288737627564762e-01 
        </Neuron>
        <Neuron NSynapses="16">
          -5.2200114864489644e-01 5.9496542663390128e-01 1.9847554020717745e-01 -1.1577820490034247e+00 -4.3116224174114003e-02 -8.6808041652958567e-01 -2.4254636071747564e+00 -2.0602083492399753e-01 -2.6503217116246473e-02 -7.7262641589463069e-02 -9.0086644127542331e-02 -1.3084469540708359e+00 -4.4475461690450024e-01 3.4373878484892928e-02 -5.1493022089673124e-01 -1.2317058299738994e+00 
        </Neuron>
        <Neuron NSynapses="16">
          1.7513916183708458e+00 1.1609865832204993e+00 1.0656563811661444e+00 4.1523798209089796e-01 6.9997003644750633e-01 1.1320358146152270e+00 2.6838160090511853e-01 1.7832553312352706e+00 2.3777755141478917e-02 -1.8558685745211720e-01 1.0032105197557584e+00 5.5778738671818162e-01 6.2397346576649793e-01 1.7093634006008103e+00 9.8597566681276205e-01 -2.7197752847142240e+00 
        </Neuron>
        <Neuron NSynapses="16">
          2.0103430290897839e-01 -2.9095027707044346e-01 1.2255416888726745e+00 -3.1017130531325782e-01 -3.3225344203313867e-01 -2.6613340774837113e-01 4.7232717461726121e+00 -4.3960075193892173e-01 2.5217571659245159e+00 -3.7496150363778122e+00 -8.0128891154903259e-01 1.3464176851233276e+00 -5.6148975367237002e+00 -2.0084896289176246e+00 -2.1323637025510522e+00 -1.4710099711474607e+00 
        </Neuron>
      </Layer>
      <Layer Index="1" NNeurons="17">
        <Neuron NSynapses="11">
          2.7264717675197825e+00 1.5715135226254207e+00 -3.2678246467251983e+00 4.1838757225709005e+00 -1.9952047814752816e+00 1.6067617113558221e+00 1.3363823413036080e+00 -1.6879789949803512e+00 -6.9327490163127026e-01 -2.0662025505959383e-02 -4.4272117173670616e-01 
        </Neuron>
        <Neuron NSynapses="11">
          -1.7681202954173705e+00 1.7767765612976043e+00 1.3600684914132168e+00 5.3158743886462656e-01 -1.7045036799965518e-01 1.2919344830102701e+00 7.3213599614869540e-01 4.4506921503662422e-01 -1.3129675006377201e-01 -1.9304599917958385e+00 -7.5012190538737600e-01 
        </Neuron>
        <Neuron NSynapses="11">
          1.8941946748263088e+00 1.3117103822299820e+00 1.3089439124219644e+00 1.6106831382884816e+00 1.9549636507859773e+00 -2.2378588621493432e+00 -2.2037600034303715e+00 -7.1049485352972411e-02 -1.4517030983641257e+00 2.3672903882634606e+00 1.5289439052840235e+00 
        </Neuron>
        <Neuron NSynapses="11">
          -6.1942812761511279e-01 5.2649300953757450e-01 3.6386182257550775e-01 -2.4269240660737501e+00 -1.1964481151365203e+00 8.1678887532083699e-01 2.3600810028991623e-01 7.3381646644291765e-01 -1.1754343317738809e+00 2.6441402446413154e+00 -1.5650049058863484e+00 
        </Neuron>
        <Neuron NSynapses="11">
          3.9766757569454619e-01 -6.2852975652124124e-02 -2.1489052389427341e+00 -2.7131622543993528e+00 -1.9170178502506965e+00 -4.5772394457065324e-01 -1.3242090538025575e+00 -1.5173127458392821e+00 -1.8870686732586066e+00 1.4718513946828276e+00 -1.5966006732318436e+00 
        </Neuron>
        <Neuron NSynapses="11">
          -2.9522273127125143e+00 2.0000433427730235e+00 5.8200027144752586e-01 1.3038387774466660e+00 -1.0738767290856022e+00 7.3846298924214582e-01 2.9899657471590628e+00 1.6269668129412882e+00 -8.8809046384091384e-01 -5.4723449266057178e-01 -1.5785630055702478e+00 
        </Neuron>
        <Neuron NSynapses="11">
          -1.2276792175173110e+00 -1.0253212575041988e+00 -1.9764691308071052e-02 2.0436632360649928e-01 1.7533460112004844e+00 1.5836719008611030e-01 1.5714322205774678e+00 -7.2716834578020728e-01 -1.9408891813641036e+00 3.4856111116278083e+00 1.1218147423778655e+00 
        </Neuron>
        <Neuron NSynapses="11">
          -1.1685828256054946e+00 -1.2225797880175239e-01 1.6531686407939241e+00 2.8200760973563765e+00 3.3214608738378065e-01 -9.4705722305450646e-01 -6.7450622440019037e-01 1.4411870905522173e+00 9.9175449939658633e-01 2.0342149837566397e+00 1.8238479027870594e-01 
        </Neuron>
        <Neuron NSynapses="11">
          2.2907601892551929e-01 -1.6552183409700377e-01 -1.3945200637896003e+00 -5.1219387454540000e-01 -1.7617579756323904e+00 -1.6510576487198447e+00 -9.1055882234884011e-01 1.6512565218979582e+00 -1.8273496681118562e+00 3.1810819831970290e+00 -1.7326972263884772e+00 
        </Neuron>
        <Neuron NSynapses="11">
          1.9226872243302924e+00 -2.6693417637077677e-01 -1.5015355984810396e-02 1.2902498621598320e+00 -1.9453542412420908e+00 -5.3188585332027494e-01 6.1282871568768538e-01 -2.4627362478274111e+00 -1.4930535234719438e+00 -3.1863930595927323e+00 -5.5711483001981743e-01 
        </Neuron>
        <Neuron NSynapses="11">
          1.9745893022120562e+00 -2.9773696647677628e-01 -1.1385032241812112e+00 5.7939303676411091e-01 -1.1874291099607108e+00 -1.8104744103334252e+00 -1.0150778452223626e+00 -1.4280744604784359e+00 9.7615808683728422e-01 -1.9177058567361993e+00 -1.2934457454445314e+00 
        </Neuron>
        <Neuron NSynapses="11">
          2.1549784920903736e+00 1.8723768527454256e+00 3.6816576421718950e-01 2.5560124088320966e+00 -1.8254250727101928e+00 1.0000677467121761e+00 1.3307202288227267e+00 -1.6124123136713748e+00 -8.1380278687599916e-01 -1.2735701082825550e+00 -1.0224327362222501e+00 
        </Neuron>
        <Neuron NSynapses="11">
          5.5216693649121207e-01 3.1160395959689740e+00 2.7146822703423457e+00 3.2501857763375464e+00 -1.3767832178439010e+00 1.7022066210562943e+00 -1.0841811350402699e+00 8.4297773111850605e-02 -1.7226654207855083e+00 -2.9318148488200979e+00 -3.0243593706101440e-01 
        </Neuron>
        <Neuron NSynapses="11">
          1.0300097579378633e+00 2.0284562682761300e+00 2.0962353429170042e+00 1.0918591842956320e+00 -2.7832618925467234e-01 -1.4597782372758656e+00 -3.5792232830227072e-01 1.4799039325217325e+00 -1.5748519918078796e+00 -9.4216200811409345e-01 -8.0800256467142695e-01 
        </Neuron>
        <Neuron NSynapses="11">
          1.7234276064910733e-02 -2.0518667684476660e-01 3.3349854897270509e-01 -1.4738285744882880e+00 9.3341505271053227e-01 1.1795474808008355e+00 7.1947095340638523e-01 1.1149265052705670e-01 -9.4195174782250102e-01 -3.4249558484353786e+00 -2.0227798990724524e+00 
        </Neuron>
        <Neuron NSynapses="11">
          1.4602764728462689e+00 -1.4595142456130225e-01 -7.9678369637464264e-01 -3.0637425233502186e-01 -1.7234887102356784e+00 -1.6552287942468922e+00 -1.9283709929004504e+00 7.9300957156210339e-01 -1.3551912958690899e+00 -2.1160385315587646e+00 -3.4128298830205411e-01 
        </Neuron>
        <Neuron NSynapses="11">
          -8.9710141456949988e-01 -4.3361644866545790e-01 1.4224129712761311e+00 -1.2807083433785886e+00 -1.3554383612943117e+00 9.4553818447458260e-01 1.1244527130276047e+00 -2.2180576908975066e-03 7.9084503181279478e-02 2.4343204707989123e+00 1.9468633718983983e+00 
        </Neuron>
      </Layer>
      <Layer Index="2" NNeurons="12">
        <Neuron NSynapses="1">
          -2.3478847805279184e+00 
        </Neuron>
        <Neuron NSynapses="1">
          -1.6740757436429938e+00 
        </Neuron>
        <Neuron NSynapses="1">
          -2.7226832621392862e+00 
        </Neuron>
        <Neuron NSynapses="1">
          -4.3195718905718508e+00 
        </Neuron>
        <Neuron NSynapses="1">
          7.1631002663829368e-01 
        </Neuron>
        <Neuron NSynapses="1">
          1.9606263848206920e+00 
        </Neuron>
        <Neuron NSynapses="1">
          2.0092591164328488e+00 
        </Neuron>
        <Neuron NSynapses="1">
          8.2031609063178168e-01 
        </Neuron>
        <Neuron NSynapses="1">
          9.2611681217790665e-01 
        </Neuron>
        <Neuron NSynapses="1">
          4.6905544800751606e+00 
        </Neuron>
        <Neuron NSynapses="1">
          -1.8816778774004124e+00 
        </Neuron>
        <Neuron NSynapses="1">
          1.2220683935013206e+00 
        </Neuron>
      </Layer>
      <Layer Index="3" NNeurons="1">
        <Neuron NSynapses="0"/>
      </Layer>
    </Layout>
  </Weights>
</MethodSetup>
