<?xml version="1.0"?>
<MethodSetup Method="MLP::MLP">
  <GeneralInfo>
    <Info name="TMVA Release" value="4.2.1 [262657]"/>
    <Info name="ROOT Release" value="6.22/06 [398854]"/>
    <Info name="Creator" value="konstantin"/>
    <Info name="Date" value="Wed Mar 24 00:24:05 2021"/>
    <Info name="Host" value="Linux mach 5.8.0-43-generic #49~20.04.1-Ubuntu SMP Fri Feb 5 09:57:56 UTC 2021 x86_64 x86_64 x86_64 GNU/Linux"/>
    <Info name="Dir" value="/home/konstantin/Projects/CERN/TMVA_MLP"/>
    <Info name="Training events" value="170672"/>
    <Info name="TrainingTime" value="2.80776322e+02"/>
    <Info name="AnalysisType" value="Classification"/>
  </GeneralInfo>
  <Options>
    <Option name="NCycles" modified="Yes">400</Option>
    <Option name="HiddenLayers" modified="Yes">N+10,N+5</Option>
    <Option name="NeuronType" modified="Yes">sigmoid</Option>
    <Option name="RandomSeed" modified="No">1</Option>
    <Option name="EstimatorType" modified="No">CE</Option>
    <Option name="NeuronInputType" modified="No">sum</Option>
    <Option name="V" modified="Yes">False</Option>
    <Option name="VerbosityLevel" modified="No">Default</Option>
    <Option name="VarTransform" modified="Yes">N</Option>
    <Option name="H" modified="Yes">True</Option>
    <Option name="CreateMVAPdfs" modified="No">False</Option>
    <Option name="IgnoreNegWeightsInTraining" modified="No">False</Option>
    <Option name="TrainingMethod" modified="No">BP</Option>
    <Option name="LearningRate" modified="Yes">1.000000e-02</Option>
    <Option name="DecayRate" modified="No">1.000000e-02</Option>
    <Option name="TestRate" modified="Yes">5</Option>
    <Option name="EpochMonitoring" modified="No">False</Option>
    <Option name="Sampling" modified="No">1.000000e+00</Option>
    <Option name="SamplingEpoch" modified="No">1.000000e+00</Option>
    <Option name="SamplingImportance" modified="No">1.000000e+00</Option>
    <Option name="SamplingTraining" modified="No">True</Option>
    <Option name="SamplingTesting" modified="No">False</Option>
    <Option name="ResetStep" modified="No">50</Option>
    <Option name="Tau" modified="No">3.000000e+00</Option>
    <Option name="BPMode" modified="Yes">batch</Option>
    <Option name="BatchSize" modified="Yes">7</Option>
    <Option name="ConvergenceImprove" modified="Yes">2.500000e-03</Option>
    <Option name="ConvergenceTests" modified="Yes">5</Option>
    <Option name="UseRegulator" modified="Yes">False</Option>
    <Option name="UpdateLimit" modified="No">10000</Option>
    <Option name="CalculateErrors" modified="No">False</Option>
    <Option name="WeightRange" modified="No">1.000000e+00</Option>
  </Options>
  <Variables NVar="11">
    <Variable VarIndex="0" Expression="mJJ" Label="mJJ" Title="mJJ" Unit="" Internal="mJJ" Type="F" Min="2.27864819e+01" Max="7.83875537e+03"/>
    <Variable VarIndex="1" Expression="deltaYJJ" Label="deltaYJJ" Title="deltaYJJ" Unit="" Internal="deltaYJJ" Type="F" Min="2.21196096e-05" Max="8.68471050e+00"/>
    <Variable VarIndex="2" Expression="metPt" Label="metPt" Title="metPt" Unit="" Internal="metPt" Type="F" Min="1.25825294e+02" Max="2.27749878e+03"/>
    <Variable VarIndex="3" Expression="ptBalance" Label="ptBalance" Title="ptBalance" Unit="" Internal="ptBalance" Type="F" Min="4.91857872e-06" Max="4.76490766e-01"/>
    <Variable VarIndex="4" Expression="subleadJetEta" Label="subleadJetEta" Title="subleadJetEta" Unit="" Internal="subleadJetEta" Type="F" Min="-4.50663424e+00" Max="4.51134682e+00"/>
    <Variable VarIndex="5" Expression="leadJetPt" Label="leadJetPt" Title="leadJetPt" Unit="" Internal="leadJetPt" Type="F" Min="5.00584755e+01" Max="2.75328247e+03"/>
    <Variable VarIndex="6" Expression="photonEta" Label="photonEta" Title="photonEta" Unit="" Internal="photonEta" Type="F" Min="-2.40109253e+00" Max="2.39041257e+00"/>
    <Variable VarIndex="7" Expression="ptBalanceRed" Label="ptBalanceRed" Title="ptBalanceRed" Unit="" Internal="ptBalanceRed" Type="F" Min="2.29892414e-02" Max="9.99983788e-01"/>
    <Variable VarIndex="8" Expression="nJets" Label="nJets" Title="nJets" Unit="" Internal="nJets" Type="F" Min="2.00000000e+00" Max="9.00000000e+00"/>
    <Variable VarIndex="9" Expression="sinDeltaPhiJJOver2" Label="sinDeltaPhiJJOver2" Title="sinDeltaPhiJJOver2" Unit="" Internal="sinDeltaPhiJJOver2" Type="F" Min="1.59144402e-05" Max="1.00000000e+00"/>
    <Variable VarIndex="10" Expression="deltaYJPh" Label="deltaYJPh" Title="deltaYJPh" Unit="" Internal="deltaYJPh" Type="F" Min="1.18112052e-06" Max="6.68952894e+00"/>
  </Variables>
  <Spectators NSpec="1">
    <Spectator SpecIndex="0" Expression="weightModified" Label="weightModified" Title="F" Unit="" Internal="weightModified" Type="F" Min="-1.91263646e-01" Max="1.09073341e+00"/>
  </Spectators>
  <Classes NClass="2">
    <Class Name="Signal" Index="0"/>
    <Class Name="Background" Index="1"/>
  </Classes>
  <Transformations NTransformations="1">
    <Transform Name="Normalize">
      <Selection>
        <Input NInputs="11">
          <Input Type="Variable" Label="mJJ" Expression="mJJ"/>
          <Input Type="Variable" Label="deltaYJJ" Expression="deltaYJJ"/>
          <Input Type="Variable" Label="metPt" Expression="metPt"/>
          <Input Type="Variable" Label="ptBalance" Expression="ptBalance"/>
          <Input Type="Variable" Label="subleadJetEta" Expression="subleadJetEta"/>
          <Input Type="Variable" Label="leadJetPt" Expression="leadJetPt"/>
          <Input Type="Variable" Label="photonEta" Expression="photonEta"/>
          <Input Type="Variable" Label="ptBalanceRed" Expression="ptBalanceRed"/>
          <Input Type="Variable" Label="nJets" Expression="nJets"/>
          <Input Type="Variable" Label="sinDeltaPhiJJOver2" Expression="sinDeltaPhiJJOver2"/>
          <Input Type="Variable" Label="deltaYJPh" Expression="deltaYJPh"/>
        </Input>
        <Output NOutputs="11">
          <Output Type="Variable" Label="mJJ" Expression="mJJ"/>
          <Output Type="Variable" Label="deltaYJJ" Expression="deltaYJJ"/>
          <Output Type="Variable" Label="metPt" Expression="metPt"/>
          <Output Type="Variable" Label="ptBalance" Expression="ptBalance"/>
          <Output Type="Variable" Label="subleadJetEta" Expression="subleadJetEta"/>
          <Output Type="Variable" Label="leadJetPt" Expression="leadJetPt"/>
          <Output Type="Variable" Label="photonEta" Expression="photonEta"/>
          <Output Type="Variable" Label="ptBalanceRed" Expression="ptBalanceRed"/>
          <Output Type="Variable" Label="nJets" Expression="nJets"/>
          <Output Type="Variable" Label="sinDeltaPhiJJOver2" Expression="sinDeltaPhiJJOver2"/>
          <Output Type="Variable" Label="deltaYJPh" Expression="deltaYJPh"/>
        </Output>
      </Selection>
      <Class ClassIndex="0">
        <Ranges>
          <Range Index="0" Min="2.2786481857299805e+01" Max="7.5057304687500000e+03"/>
          <Range Index="1" Min="1.5035811520647258e-04" Max="8.6847105026245117e+00"/>
          <Range Index="2" Min="1.2697845458984375e+02" Max="2.2774987792968750e+03"/>
          <Range Index="3" Min="4.9185787247552071e-06" Max="4.0502533316612244e-01"/>
          <Range Index="4" Min="-4.5066342353820801e+00" Max="4.5113468170166016e+00"/>
          <Range Index="5" Min="5.0105968475341797e+01" Max="1.9641448974609375e+03"/>
          <Range Index="6" Min="-2.4010925292968750e+00" Max="2.3904125690460205e+00"/>
          <Range Index="7" Min="4.8834752291440964e-02" Max="9.9988257884979248e-01"/>
          <Range Index="8" Min="2.0000000000000000e+00" Max="8.0000000000000000e+00"/>
          <Range Index="9" Min="1.5914440155029297e-05" Max="1.0000000000000000e+00"/>
          <Range Index="10" Min="3.2652555091772228e-05" Max="6.5068273544311523e+00"/>
        </Ranges>
      </Class>
      <Class ClassIndex="1">
        <Ranges>
          <Range Index="0" Min="2.3556308746337891e+01" Max="7.8387553710937500e+03"/>
          <Range Index="1" Min="2.2119609639048576e-05" Max="8.6838493347167969e+00"/>
          <Range Index="2" Min="1.2582529449462891e+02" Max="1.9265614013671875e+03"/>
          <Range Index="3" Min="5.9500340285012498e-05" Max="4.7649076581001282e-01"/>
          <Range Index="4" Min="-4.5036110877990723e+00" Max="4.5083436965942383e+00"/>
          <Range Index="5" Min="5.0058475494384766e+01" Max="2.7532824707031250e+03"/>
          <Range Index="6" Min="-2.3863203525543213e+00" Max="2.3830773830413818e+00"/>
          <Range Index="7" Min="2.2989241406321526e-02" Max="9.9998378753662109e-01"/>
          <Range Index="8" Min="2.0000000000000000e+00" Max="9.0000000000000000e+00"/>
          <Range Index="9" Min="1.9311904907226562e-05" Max="1.0000000000000000e+00"/>
          <Range Index="10" Min="1.1811205240519485e-06" Max="6.6895289421081543e+00"/>
        </Ranges>
      </Class>
      <Class ClassIndex="2">
        <Ranges>
          <Range Index="0" Min="2.2786481857299805e+01" Max="7.8387553710937500e+03"/>
          <Range Index="1" Min="2.2119609639048576e-05" Max="8.6847105026245117e+00"/>
          <Range Index="2" Min="1.2582529449462891e+02" Max="2.2774987792968750e+03"/>
          <Range Index="3" Min="4.9185787247552071e-06" Max="4.7649076581001282e-01"/>
          <Range Index="4" Min="-4.5066342353820801e+00" Max="4.5113468170166016e+00"/>
          <Range Index="5" Min="5.0058475494384766e+01" Max="2.7532824707031250e+03"/>
          <Range Index="6" Min="-2.4010925292968750e+00" Max="2.3904125690460205e+00"/>
          <Range Index="7" Min="2.2989241406321526e-02" Max="9.9998378753662109e-01"/>
          <Range Index="8" Min="2.0000000000000000e+00" Max="9.0000000000000000e+00"/>
          <Range Index="9" Min="1.5914440155029297e-05" Max="1.0000000000000000e+00"/>
          <Range Index="10" Min="1.1811205240519485e-06" Max="6.6895289421081543e+00"/>
        </Ranges>
      </Class>
    </Transform>
  </Transformations>
  <MVAPdfs/>
  <Weights>
    <Layout NLayers="4">
      <Layer Index="0" NNeurons="12">
        <Neuron NSynapses="21">
          8.8935168364299724e-02 2.5097470947707232e+00 8.7140343702585388e-02 2.7127174474412068e+00 -2.8636578629865110e+00 -1.7220606659316489e+00 -1.0422852810887913e+00 2.0689729727875030e+00 -3.2441308927518020e+00 -1.5608138329122279e+00 -2.3999981341245484e+00 -7.1953272759529710e-04 -1.7383396361047458e+00 -6.2605895259934638e-02 -8.6809404813593027e-01 2.2819698463122146e-01 -1.3451128890627939e-01 -6.6848203805188333e-01 1.4680502261006328e-01 1.4306283686660424e+00 1.0549208849477534e+00 
        </Neuron>
        <Neuron NSynapses="21">
          -1.7400862964931205e-01 7.1276951059733140e-01 -2.0247693758255765e+00 -5.4362574064426006e-01 -2.3370394333065536e+00 3.5110950878452218e-01 -3.6971100668461587e+00 -1.5959100926989693e+00 5.1015549351994460e-01 -1.1973742750482033e-01 1.4532316930688520e+00 -2.3349317821179247e-01 -8.7857297192221129e-02 1.2498999995199422e+00 -5.5035824051094695e-01 -1.1145639684816344e+00 2.1472867064506431e+00 -2.1552964350444523e+00 1.2093645708553384e+00 3.5577032861759716e-01 3.3150373614565183e+00 
        </Neuron>
        <Neuron NSynapses="21">
          3.0676164847735894e+00 1.0821915280416743e+00 4.9772722088669820e-02 -1.0340523461805484e+00 -1.4808257808013311e-01 6.3776765043381867e-02 1.0040498434668517e+00 1.8662721096434507e+00 5.0901245726390798e-01 1.8305554696610702e+00 -2.2463513311413439e+00 1.6606339423614804e+00 -1.0549909376641584e+00 -1.4177585782778741e+00 -1.0362998994895061e+00 -1.1215799658027299e+00 1.4005470291575521e+00 -1.2755367907199691e+00 -1.7245352591496128e+00 9.5100903454065591e-02 -9.5243345481539121e-02 
        </Neuron>
        <Neuron NSynapses="21">
          -3.6733344740930202e-01 1.7265890811190039e+00 -2.0412503512816266e-01 -1.5134008065860860e-01 4.6821170336292639e-01 1.6445542553679977e+00 -6.3163735053244807e-01 -6.1534674430251490e-01 -1.6645933411957442e-02 1.6904267340039120e-01 9.5233085918481275e-01 1.5941637950861003e+00 3.5145944652417049e-01 -2.9630164427868682e+00 -1.2837435145680236e+00 1.8168035371127982e+00 -7.5652749474396830e-01 4.7070455537879514e+00 7.1209325024715497e-01 1.5656680946661923e+00 -1.0045482015159071e+00 
        </Neuron>
        <Neuron NSynapses="21">
          -5.9538222629461297e-02 -6.6565790688392901e-01 1.3935225092527779e+00 -3.6521501120723865e-01 -3.5187412337008230e+00 -2.4517214156065039e+00 -1.0586516509296147e+00 -1.1478440194507362e+00 1.1079169413682024e+00 -1.1049477343922132e+00 -6.0230120165704037e-01 1.5062779059792253e+00 -2.6647736493929730e-01 -7.5708288463226836e-01 -8.6363605072515115e-01 5.4637540514550076e-01 -1.7292128561120053e+00 -8.4045590804756015e-02 9.3037406685076249e-02 7.2573799920917947e-01 -3.2968958897214913e+00 
        </Neuron>
        <Neuron NSynapses="21">
          1.3260977685513982e+00 -4.7470495498848603e-01 2.9363585399084230e-01 5.1246289857458116e-01 7.8242454917463211e-01 -1.3166161470901043e+00 1.4821141864910234e+00 1.4807036221209544e-01 -5.6852569180962109e-01 -1.2089232828923167e+00 1.8199575321739130e+00 6.7536557962143573e-01 -1.1186972063979239e+00 8.1877353211739856e-01 -9.4802923599862232e-01 -2.0038922052565553e+00 -5.8047104681880202e-01 -1.1606706258778270e+00 1.4847801990604261e+00 6.4409811954737883e-01 -7.1461760908125183e-01 
        </Neuron>
        <Neuron NSynapses="21">
          5.0312230095373577e-02 4.0234391063946123e-01 -1.0170323096792564e+00 9.5244412214050445e-01 1.5259908726800753e+00 -1.8185847884872259e+00 -4.9301549259393168e-01 -1.0498425492290433e+00 -6.3360610902319259e-01 7.2419377647178917e-01 6.3715621770426834e-01 -7.3922453001572441e-01 3.5707831045861005e-01 6.2601534969822381e-01 2.1796439432759134e+00 -3.4814747469000301e-01 -5.0328045600279769e-01 -4.3696459611272873e-03 -1.4857878389854702e+00 1.2177534270609838e+00 1.4027919331975591e+00 
        </Neuron>
        <Neuron NSynapses="21">
          -2.6010236593392894e-01 -3.1496372914791709e-01 8.5223011866605014e-01 -9.6885707069266525e-01 -1.9365726179081394e-01 9.6947660724145657e-01 -7.0979398845487662e-01 1.7698088011607851e-01 2.3853259268947216e-01 1.7240262266372045e-01 -2.8123404729816415e-01 5.6007609040797512e-01 -7.2839320770181348e-01 9.1406490730454726e-01 7.4174320653716808e-01 7.9486615366806479e-01 3.5292443045461080e-01 3.3503169040853903e-01 8.9906428924376142e-02 -6.6959859773575814e-01 5.8992922394472858e-01 
        </Neuron>
        <Neuron NSynapses="21">
          -9.9691896178889206e-01 -5.4145224436961414e-01 5.4191018413119774e-01 1.6035093410755124e+00 -9.1434486355748612e-01 2.1925313843403074e+00 2.2273674886490347e+00 -1.9075196072281417e+00 -6.9019089168646852e-01 -2.1740539355818383e-01 -1.4851416978173060e-01 -1.1946025086524743e+00 -2.0236271348627146e+00 -4.2908376327554565e-01 2.0792697288444684e+00 -2.6643840734316160e+00 -3.9308516189528142e-01 2.4422130327066569e-01 2.9291530612545280e-01 2.5079230329756639e+00 7.8921998836479890e-01 
        </Neuron>
        <Neuron NSynapses="21">
          -5.6078228373754091e-01 -5.6726588237736542e-01 1.6683621035006677e-01 9.4995963757093960e-01 2.3246302894889695e-01 -2.1604786391463703e-02 -5.4175656358636726e-01 -2.0359725400262922e+00 9.0066182879723244e-01 6.3769716835430357e-01 -1.9201059685759219e+00 -1.2879352133489688e+00 -2.5860595186720220e-01 1.3082778815540971e-02 -2.1195968465823984e+00 2.6872885104608102e-01 2.0083626926029710e-01 2.9492930839993092e-01 -1.1457454681515384e+00 6.5316964806867706e-01 4.0445828357522345e-01 
        </Neuron>
        <Neuron NSynapses="21">
          -2.9047526911111465e-01 5.2792091156902199e-01 -2.5126467908059227e+00 -5.9310045559235891e-01 1.0215877639254307e+00 1.3967048101641415e+00 1.1114637088326764e+00 -3.3729295857615998e-02 1.9090723605421887e+00 -1.6855959013480311e+00 -1.0544724156110226e+00 1.9419228665177279e-01 -1.0041067958429175e+00 -3.4109939535825323e-01 1.3550211403106038e+00 -1.0441732073865246e+00 -3.1475113223460538e-01 -4.3462153718728180e-01 -2.6457236379834459e+00 -1.0190108126016404e+00 -1.1671915638403663e+00 
        </Neuron>
        <Neuron NSynapses="21">
          3.3337066371432327e+00 1.0946184601733582e+00 -3.3598604159079564e+00 2.1694820330544369e+00 -3.9867894489531448e+00 2.6149581864049770e-01 -8.5776480032172653e-01 -1.7054341358988074e+00 -3.5328634546270479e+00 -3.9272523575826885e+00 -1.9005094876346609e+00 -2.0705590349252869e+00 -2.8935802936754138e+00 -2.1778841742871502e+00 -2.7946875980045705e-01 -2.3644093775547455e+00 5.3868683624063281e-02 2.1128616551926123e+00 -6.3048963999737906e-01 9.0791784103884632e-01 1.4713441858980627e+00 
        </Neuron>
      </Layer>
      <Layer Index="1" NNeurons="22">
        <Neuron NSynapses="16">
          2.0208682701189243e-01 1.7870565941448544e+00 1.5045233701727967e+00 -1.0684832103455928e+00 -2.2607333467689377e+00 -9.3329049332706238e-01 -1.4556807691689764e+00 -1.0140843437628244e+00 1.6898041108307968e-01 3.5307430868092826e-01 1.8360515385601106e+00 -4.1627262393289105e-01 9.5573990989115853e-01 -6.4356393010294388e-01 -2.1468143158994835e+00 1.2779936338323192e+00 
        </Neuron>
        <Neuron NSynapses="16">
          1.2212951521880071e+00 -8.7470443894754113e-01 -9.4734353565325036e-01 2.8834259273772544e-01 1.1976821086746618e+00 5.0463475724947782e-01 -5.2841823922213671e-01 -2.6408774866873924e-01 1.5493964519248322e+00 1.0777245061967455e+00 9.8820543644342285e-01 -2.8677671748147909e-01 3.6251805233523943e-01 -3.2171618647075850e-01 -1.5866817996505049e+00 -5.4834610774165782e-01 
        </Neuron>
        <Neuron NSynapses="16">
          -1.8319662363845386e+00 -1.2058178658533367e+00 -1.9269157698886876e+00 2.8689279401811700e+00 -1.7691381692910366e+00 1.7051852452280518e+00 -1.5369920131483039e+00 1.3678689026542450e+00 -1.7324472602620979e+00 4.2293922045309568e-01 8.1962883308057910e-01 -1.9847016749180542e+00 2.6728828457796588e-01 4.9961879054607045e-01 -2.1021068103693650e+00 -1.4995102267748828e+00 
        </Neuron>
        <Neuron NSynapses="16">
          -1.6356460123698884e+00 -8.3367366931790965e-01 2.0767839320961374e+00 -1.4317633938983372e+00 2.4699357278579620e-01 -6.0025928548451668e-01 -1.9237122710590469e+00 -1.5824588993038853e+00 -9.1180850175837680e-01 -1.2358497620360100e+00 1.0112649918332288e+00 -1.4143318587294140e+00 6.1320804313343324e-01 1.4105554253779677e+00 6.8968428102770551e-01 -5.2120678444386037e-01 
        </Neuron>
        <Neuron NSynapses="16">
          2.1096514846043410e+00 -2.6684995586514444e+00 8.0328011533905541e-01 3.8122382692228056e+00 -1.2660989670884868e+00 -6.7510034457001500e-01 1.1526400370791738e-02 -1.1860689308311685e+00 8.8940855021389820e-01 2.0038290670678354e+00 1.3275262812976725e+00 1.4717820677156235e+00 -2.2554368168830572e+00 7.8500919100624122e-01 -2.1806888911197557e+00 6.0136160634072955e-01 
        </Neuron>
        <Neuron NSynapses="16">
          -1.3812024256228972e+00 -1.7941577582974864e+00 -9.3707367620552673e-01 2.4819672613362054e-01 7.2456962166601313e-01 1.5110213445684015e+00 2.6620528603627142e-01 -2.9691472110048545e-01 -8.2825934749939745e-01 3.6415882700425883e-01 1.9440967336147379e+00 -1.6636993372981794e+00 1.3884231876971491e+00 -1.4808871354623503e+00 -9.3163301025041934e-01 1.3806300604799517e-02 
        </Neuron>
        <Neuron NSynapses="16">
          5.1347144047619786e-01 -1.4171890873768669e+00 1.3608261429473483e+00 2.8688701557698737e+00 3.4718250516344751e-01 1.8811995851178956e-01 -1.2981009020739107e+00 -1.1565896439908923e+00 -2.4165798207684799e+00 1.0685438873403406e+00 -5.4615616468535533e-01 -1.1651983464944442e+00 1.6498602661817567e+00 -2.0573968393576068e+00 -2.1239202706267024e+00 -1.6142013075398958e+00 
        </Neuron>
        <Neuron NSynapses="16">
          1.0783574340326725e+00 -1.6001535397952233e+00 -1.9688627293184033e+00 1.2572473235066611e-01 -9.1088784361947117e-01 -1.5909029979814135e+00 1.0619702662542225e+00 -1.3166546290048213e+00 -1.0424026216717852e+00 1.7221403531930590e+00 5.4439204065970603e-01 2.8531618200676634e-01 2.0693018528026577e-01 1.2705108499217019e+00 1.5792813709505442e+00 4.9544633579911734e-01 
        </Neuron>
        <Neuron NSynapses="16">
          -9.4502230825167799e-01 -1.4681579613983736e-01 -1.1811495089659270e+00 2.5020822172620036e+00 9.4962622151538822e-01 7.6758520365496768e-02 1.6502890936139052e+00 1.1814022744801083e+00 1.0200229925707689e+00 -1.4138005689996442e+00 1.6749729323780409e+00 7.1139228507035868e-01 -2.3879079828363428e+00 -2.7314350442551136e-02 -1.4800510900301715e+00 8.6576261303824664e-01 
        </Neuron>
        <Neuron NSynapses="16">
          3.5971005761382646e-01 7.8118439537976481e-01 1.5932849570715482e+00 1.8432530872875119e+00 1.4807745692059664e+00 1.7286480667933697e+00 1.3063497791011897e-01 -1.1896212107209703e+00 1.8300976904792332e+00 -2.0517770480714570e+00 5.7679253675071995e-01 1.6192330513155198e+00 -1.0982648728380759e+00 -1.0091029470943043e+00 -5.3145715268544946e-02 -1.3385102367681920e+00 
        </Neuron>
        <Neuron NSynapses="16">
          4.2114380312476951e-01 -1.8835204941279640e+00 1.1674337078185855e-01 6.4380379887626904e-01 1.9005191136166462e+00 1.4226294433859195e+00 1.5884184418390719e+00 -3.5718088046628554e-01 -2.2657133274174160e-01 3.2741357537444948e-01 1.8653596722952168e+00 -1.9151006916312008e+00 -1.8490484140733734e+00 -6.9753379012646899e-01 -1.5559695597705552e+00 -1.6946950591349217e+00 
        </Neuron>
        <Neuron NSynapses="16">
          -1.4553884830559831e+00 8.4488050875929466e-01 6.2380664716205930e-02 -1.5772137973473128e+00 -1.9311535390200496e+00 -1.7691821389747794e-01 1.7699000162339673e+00 1.8892465215532221e+00 1.2513758902950227e+00 -6.8603552411260416e-01 -1.9502591124784967e+00 -1.2889322480162085e-01 -1.3340502080808048e+00 -1.5956429405556429e+00 -7.3869337514266431e-01 1.3260970787965799e-02 
        </Neuron>
        <Neuron NSynapses="16">
          -1.4388693057021731e+00 2.1955423346806677e+00 1.3943294627547460e+00 -6.2681008859891518e-01 -1.3128620242076774e+00 -7.1253453942998657e-01 2.1910279246984041e+00 -9.1353114247466144e-02 -4.6092579743914913e-01 1.5218368706888041e+00 1.4779481520431601e+00 -1.1966689879360772e+00 2.2001227990917318e+00 -1.8908638715026469e+00 1.5541952994401167e+00 1.8028629521926767e+00 
        </Neuron>
        <Neuron NSynapses="16">
          -2.3118986946520959e-01 -3.8605254206396189e-01 1.9698624852519467e-01 8.1296594847103679e-02 1.0969376249489049e+00 2.6898323803544821e-01 -5.5211138129829307e-01 -1.2865676288900367e+00 1.1039998272619314e-01 1.8857926872342030e+00 4.0423460530155614e-01 -7.6932056646685731e-01 -2.4900187772874394e+00 1.8936885806087962e+00 8.9989213958038727e-01 -1.1735672882217671e+00 
        </Neuron>
        <Neuron NSynapses="16">
          -1.6858902274508905e-01 -9.8102667313709624e-01 1.5794181418449080e+00 1.1101925688781518e+00 -3.4568034457510488e-01 -7.1453767962740544e-01 1.1460766771389055e+00 1.9608563526540770e+00 5.9526285889070285e-01 1.3852327049124594e-01 -1.2853830740110133e+00 -1.2295195389470952e+00 1.3176638866791819e+00 2.0584797601979565e-01 -1.2522371647654734e-01 -1.8557336504979189e+00 
        </Neuron>
        <Neuron NSynapses="16">
          -1.8179344571999190e+00 -1.3123156274796732e+00 -2.6808940823634281e-01 -2.5159176378988466e+00 -1.1687681298856244e-01 -2.8010577664290270e-01 2.4121306132107767e+00 8.0747082116648483e-01 -2.8417887820695289e+00 1.3734530183548765e+00 1.8646583592149211e+00 9.7034447205619612e-01 4.2137406350218364e-02 -9.2496510273173527e-01 2.0826566934203319e+00 -1.7371350848154885e+00 
        </Neuron>
        <Neuron NSynapses="16">
          4.0888517674765951e-01 -9.0673618262432687e-01 1.1620698009842105e+00 -6.3005649957779708e-01 -2.9524110335051484e-01 -4.2450387320568195e-01 8.4311177191170739e-01 -7.5015496525459124e-01 -9.7379523761427644e-01 9.8434922549244352e-01 3.5121911355730423e-01 7.2269595885479199e-01 9.8628967057703865e-01 -1.4932179928402942e+00 1.8498176734509708e+00 -1.8724808707682574e+00 
        </Neuron>
        <Neuron NSynapses="16">
          1.1109570506654542e+00 7.8821138064603857e-01 3.3531832577316456e-01 2.5191938290843381e+00 2.1568162704149794e+00 -1.6949259724997385e+00 -8.8228092288622795e-01 -3.0892122538796918e-01 8.7362348453231742e-01 -2.9446875199662392e-01 -2.3793323314174455e-01 -7.5827483973140775e-01 -1.2591071680733814e+00 -1.5622313293231114e+00 -1.2095173881367143e+00 -1.8726166211836366e+00 
        </Neuron>
        <Neuron NSynapses="16">
          -3.6084966662689855e-01 4.2732197362454444e-01 -1.1027913597686914e+00 -1.0324149310733093e+00 7.8319690303156420e-01 3.7154284326303710e-01 -4.5001683317032160e-01 -1.3804797630644368e+00 1.8325130587016596e+00 -2.7567116305258377e-01 7.1049831148902809e-01 6.3026723889564595e-01 -1.2156502813026064e+00 -8.7467893319325762e-01 -5.0036164233959693e-02 -1.9810073028884274e+00 
        </Neuron>
        <Neuron NSynapses="16">
          -6.5672701401229527e-01 -1.3137396975857578e+00 1.3544530626754354e+00 -1.7289338787252826e+00 1.8325868898639441e+00 1.9214389416248918e+00 1.3576844301958446e+00 1.1934369515217496e+00 1.0831426177389978e+00 1.9784123927398189e-01 -9.1367626258290913e-01 -1.9287243643821150e+00 -8.3646649365178949e-01 -8.4618230002062345e-01 1.6221536804952452e+00 1.6672609334666771e-01 
        </Neuron>
        <Neuron NSynapses="16">
          1.7220310405786537e-01 1.4597358752051259e+00 1.6851053148641757e+00 -2.7488854079518816e+00 -5.2169819235235482e-01 -1.6170082577769402e+00 9.6499920831698605e-01 -1.9040923280759980e+00 2.3713698851403248e-01 6.4017969044176073e-02 1.1189580237923520e+00 -1.9504012107839794e+00 8.2072459413110743e-01 -1.6505904041169810e+00 3.2623136605465092e-02 1.1919722543361100e+00 
        </Neuron>
        <Neuron NSynapses="16">
          -6.1204012234386518e-01 9.1772066978170530e-01 -1.5115644922003815e+00 8.0419082207939774e-01 -7.7705669558820445e-01 1.0938420970152722e+00 -1.7258108566804031e+00 -4.5993580879220930e-01 1.5832994854271862e+00 -1.7693056782179026e+00 -1.3131980302253652e+00 -1.0401238259415366e+00 1.7655134255078302e+00 1.3693306220566064e+00 1.7030128735238819e+00 -1.7618344442620524e+00 
        </Neuron>
      </Layer>
      <Layer Index="2" NNeurons="17">
        <Neuron NSynapses="1">
          8.3387022088950846e-01 
        </Neuron>
        <Neuron NSynapses="1">
          1.2651675635128452e+00 
        </Neuron>
        <Neuron NSynapses="1">
          1.8579771564518086e+00 
        </Neuron>
        <Neuron NSynapses="1">
          -5.3695936658705170e+00 
        </Neuron>
        <Neuron NSynapses="1">
          -2.5399236578472233e+00 
        </Neuron>
        <Neuron NSynapses="1">
          -9.4262105346283809e-01 
        </Neuron>
        <Neuron NSynapses="1">
          2.6600949870409711e+00 
        </Neuron>
        <Neuron NSynapses="1">
          2.0539251624724928e+00 
        </Neuron>
        <Neuron NSynapses="1">
          -2.3335006809698049e+00 
        </Neuron>
        <Neuron NSynapses="1">
          -5.5543630041618841e-01 
        </Neuron>
        <Neuron NSynapses="1">
          -1.2355726807511147e+00 
        </Neuron>
        <Neuron NSynapses="1">
          1.2596225526573366e+00 
        </Neuron>
        <Neuron NSynapses="1">
          3.4813419779667965e+00 
        </Neuron>
        <Neuron NSynapses="1">
          1.2203396656637988e+00 
        </Neuron>
        <Neuron NSynapses="1">
          -3.2156404205181222e+00 
        </Neuron>
        <Neuron NSynapses="1">
          -1.4039195291672841e+00 
        </Neuron>
        <Neuron NSynapses="1">
          1.5633929569730103e+00 
        </Neuron>
      </Layer>
      <Layer Index="3" NNeurons="1">
        <Neuron NSynapses="0"/>
      </Layer>
    </Layout>
  </Weights>
</MethodSetup>
