<?xml version="1.0"?>
<MethodSetup Method="MLP::MLP">
  <GeneralInfo>
    <Info name="TMVA Release" value="4.2.1 [262657]"/>
    <Info name="ROOT Release" value="6.22/06 [398854]"/>
    <Info name="Creator" value="konstantin"/>
    <Info name="Date" value="Wed Mar 24 00:18:42 2021"/>
    <Info name="Host" value="Linux mach 5.8.0-43-generic #49~20.04.1-Ubuntu SMP Fri Feb 5 09:57:56 UTC 2021 x86_64 x86_64 x86_64 GNU/Linux"/>
    <Info name="Dir" value="/home/konstantin/Projects/CERN/TMVA_MLP"/>
    <Info name="Training events" value="170672"/>
    <Info name="TrainingTime" value="1.55886545e+02"/>
    <Info name="AnalysisType" value="Classification"/>
  </GeneralInfo>
  <Options>
    <Option name="NCycles" modified="Yes">400</Option>
    <Option name="HiddenLayers" modified="Yes">N+10,N+5</Option>
    <Option name="NeuronType" modified="Yes">sigmoid</Option>
    <Option name="RandomSeed" modified="No">1</Option>
    <Option name="EstimatorType" modified="No">CE</Option>
    <Option name="NeuronInputType" modified="No">sum</Option>
    <Option name="V" modified="Yes">False</Option>
    <Option name="VerbosityLevel" modified="No">Default</Option>
    <Option name="VarTransform" modified="Yes">N</Option>
    <Option name="H" modified="Yes">True</Option>
    <Option name="CreateMVAPdfs" modified="No">False</Option>
    <Option name="IgnoreNegWeightsInTraining" modified="No">False</Option>
    <Option name="TrainingMethod" modified="No">BP</Option>
    <Option name="LearningRate" modified="Yes">2.000000e-02</Option>
    <Option name="DecayRate" modified="No">1.000000e-02</Option>
    <Option name="TestRate" modified="Yes">5</Option>
    <Option name="EpochMonitoring" modified="No">False</Option>
    <Option name="Sampling" modified="No">1.000000e+00</Option>
    <Option name="SamplingEpoch" modified="No">1.000000e+00</Option>
    <Option name="SamplingImportance" modified="No">1.000000e+00</Option>
    <Option name="SamplingTraining" modified="No">True</Option>
    <Option name="SamplingTesting" modified="No">False</Option>
    <Option name="ResetStep" modified="No">50</Option>
    <Option name="Tau" modified="No">3.000000e+00</Option>
    <Option name="BPMode" modified="Yes">batch</Option>
    <Option name="BatchSize" modified="Yes">7</Option>
    <Option name="ConvergenceImprove" modified="Yes">2.500000e-03</Option>
    <Option name="ConvergenceTests" modified="Yes">5</Option>
    <Option name="UseRegulator" modified="Yes">False</Option>
    <Option name="UpdateLimit" modified="No">10000</Option>
    <Option name="CalculateErrors" modified="No">False</Option>
    <Option name="WeightRange" modified="No">1.000000e+00</Option>
  </Options>
  <Variables NVar="11">
    <Variable VarIndex="0" Expression="mJJ" Label="mJJ" Title="mJJ" Unit="" Internal="mJJ" Type="F" Min="2.27864819e+01" Max="7.83875537e+03"/>
    <Variable VarIndex="1" Expression="deltaYJJ" Label="deltaYJJ" Title="deltaYJJ" Unit="" Internal="deltaYJJ" Type="F" Min="2.21196096e-05" Max="8.68471050e+00"/>
    <Variable VarIndex="2" Expression="metPt" Label="metPt" Title="metPt" Unit="" Internal="metPt" Type="F" Min="1.25825294e+02" Max="2.27749878e+03"/>
    <Variable VarIndex="3" Expression="ptBalance" Label="ptBalance" Title="ptBalance" Unit="" Internal="ptBalance" Type="F" Min="4.91857872e-06" Max="4.76490766e-01"/>
    <Variable VarIndex="4" Expression="subleadJetEta" Label="subleadJetEta" Title="subleadJetEta" Unit="" Internal="subleadJetEta" Type="F" Min="-4.50663424e+00" Max="4.51134682e+00"/>
    <Variable VarIndex="5" Expression="leadJetPt" Label="leadJetPt" Title="leadJetPt" Unit="" Internal="leadJetPt" Type="F" Min="5.00584755e+01" Max="2.75328247e+03"/>
    <Variable VarIndex="6" Expression="photonEta" Label="photonEta" Title="photonEta" Unit="" Internal="photonEta" Type="F" Min="-2.40109253e+00" Max="2.39041257e+00"/>
    <Variable VarIndex="7" Expression="ptBalanceRed" Label="ptBalanceRed" Title="ptBalanceRed" Unit="" Internal="ptBalanceRed" Type="F" Min="2.29892414e-02" Max="9.99983788e-01"/>
    <Variable VarIndex="8" Expression="nJets" Label="nJets" Title="nJets" Unit="" Internal="nJets" Type="F" Min="2.00000000e+00" Max="9.00000000e+00"/>
    <Variable VarIndex="9" Expression="sinDeltaPhiJJOver2" Label="sinDeltaPhiJJOver2" Title="sinDeltaPhiJJOver2" Unit="" Internal="sinDeltaPhiJJOver2" Type="F" Min="1.59144402e-05" Max="1.00000000e+00"/>
    <Variable VarIndex="10" Expression="deltaYJPh" Label="deltaYJPh" Title="deltaYJPh" Unit="" Internal="deltaYJPh" Type="F" Min="1.18112052e-06" Max="6.68952894e+00"/>
  </Variables>
  <Spectators NSpec="1">
    <Spectator SpecIndex="0" Expression="weightModified" Label="weightModified" Title="F" Unit="" Internal="weightModified" Type="F" Min="-1.91263646e-01" Max="1.09073341e+00"/>
  </Spectators>
  <Classes NClass="2">
    <Class Name="Signal" Index="0"/>
    <Class Name="Background" Index="1"/>
  </Classes>
  <Transformations NTransformations="1">
    <Transform Name="Normalize">
      <Selection>
        <Input NInputs="11">
          <Input Type="Variable" Label="mJJ" Expression="mJJ"/>
          <Input Type="Variable" Label="deltaYJJ" Expression="deltaYJJ"/>
          <Input Type="Variable" Label="metPt" Expression="metPt"/>
          <Input Type="Variable" Label="ptBalance" Expression="ptBalance"/>
          <Input Type="Variable" Label="subleadJetEta" Expression="subleadJetEta"/>
          <Input Type="Variable" Label="leadJetPt" Expression="leadJetPt"/>
          <Input Type="Variable" Label="photonEta" Expression="photonEta"/>
          <Input Type="Variable" Label="ptBalanceRed" Expression="ptBalanceRed"/>
          <Input Type="Variable" Label="nJets" Expression="nJets"/>
          <Input Type="Variable" Label="sinDeltaPhiJJOver2" Expression="sinDeltaPhiJJOver2"/>
          <Input Type="Variable" Label="deltaYJPh" Expression="deltaYJPh"/>
        </Input>
        <Output NOutputs="11">
          <Output Type="Variable" Label="mJJ" Expression="mJJ"/>
          <Output Type="Variable" Label="deltaYJJ" Expression="deltaYJJ"/>
          <Output Type="Variable" Label="metPt" Expression="metPt"/>
          <Output Type="Variable" Label="ptBalance" Expression="ptBalance"/>
          <Output Type="Variable" Label="subleadJetEta" Expression="subleadJetEta"/>
          <Output Type="Variable" Label="leadJetPt" Expression="leadJetPt"/>
          <Output Type="Variable" Label="photonEta" Expression="photonEta"/>
          <Output Type="Variable" Label="ptBalanceRed" Expression="ptBalanceRed"/>
          <Output Type="Variable" Label="nJets" Expression="nJets"/>
          <Output Type="Variable" Label="sinDeltaPhiJJOver2" Expression="sinDeltaPhiJJOver2"/>
          <Output Type="Variable" Label="deltaYJPh" Expression="deltaYJPh"/>
        </Output>
      </Selection>
      <Class ClassIndex="0">
        <Ranges>
          <Range Index="0" Min="2.2786481857299805e+01" Max="7.5057304687500000e+03"/>
          <Range Index="1" Min="1.5035811520647258e-04" Max="8.6847105026245117e+00"/>
          <Range Index="2" Min="1.2697845458984375e+02" Max="2.2774987792968750e+03"/>
          <Range Index="3" Min="4.9185787247552071e-06" Max="4.0502533316612244e-01"/>
          <Range Index="4" Min="-4.5066342353820801e+00" Max="4.5113468170166016e+00"/>
          <Range Index="5" Min="5.0105968475341797e+01" Max="1.9641448974609375e+03"/>
          <Range Index="6" Min="-2.4010925292968750e+00" Max="2.3904125690460205e+00"/>
          <Range Index="7" Min="4.8834752291440964e-02" Max="9.9988257884979248e-01"/>
          <Range Index="8" Min="2.0000000000000000e+00" Max="8.0000000000000000e+00"/>
          <Range Index="9" Min="1.5914440155029297e-05" Max="1.0000000000000000e+00"/>
          <Range Index="10" Min="3.2652555091772228e-05" Max="6.5068273544311523e+00"/>
        </Ranges>
      </Class>
      <Class ClassIndex="1">
        <Ranges>
          <Range Index="0" Min="2.3556308746337891e+01" Max="7.8387553710937500e+03"/>
          <Range Index="1" Min="2.2119609639048576e-05" Max="8.6838493347167969e+00"/>
          <Range Index="2" Min="1.2582529449462891e+02" Max="1.9265614013671875e+03"/>
          <Range Index="3" Min="5.9500340285012498e-05" Max="4.7649076581001282e-01"/>
          <Range Index="4" Min="-4.5036110877990723e+00" Max="4.5083436965942383e+00"/>
          <Range Index="5" Min="5.0058475494384766e+01" Max="2.7532824707031250e+03"/>
          <Range Index="6" Min="-2.3863203525543213e+00" Max="2.3830773830413818e+00"/>
          <Range Index="7" Min="2.2989241406321526e-02" Max="9.9998378753662109e-01"/>
          <Range Index="8" Min="2.0000000000000000e+00" Max="9.0000000000000000e+00"/>
          <Range Index="9" Min="1.9311904907226562e-05" Max="1.0000000000000000e+00"/>
          <Range Index="10" Min="1.1811205240519485e-06" Max="6.6895289421081543e+00"/>
        </Ranges>
      </Class>
      <Class ClassIndex="2">
        <Ranges>
          <Range Index="0" Min="2.2786481857299805e+01" Max="7.8387553710937500e+03"/>
          <Range Index="1" Min="2.2119609639048576e-05" Max="8.6847105026245117e+00"/>
          <Range Index="2" Min="1.2582529449462891e+02" Max="2.2774987792968750e+03"/>
          <Range Index="3" Min="4.9185787247552071e-06" Max="4.7649076581001282e-01"/>
          <Range Index="4" Min="-4.5066342353820801e+00" Max="4.5113468170166016e+00"/>
          <Range Index="5" Min="5.0058475494384766e+01" Max="2.7532824707031250e+03"/>
          <Range Index="6" Min="-2.4010925292968750e+00" Max="2.3904125690460205e+00"/>
          <Range Index="7" Min="2.2989241406321526e-02" Max="9.9998378753662109e-01"/>
          <Range Index="8" Min="2.0000000000000000e+00" Max="9.0000000000000000e+00"/>
          <Range Index="9" Min="1.5914440155029297e-05" Max="1.0000000000000000e+00"/>
          <Range Index="10" Min="1.1811205240519485e-06" Max="6.6895289421081543e+00"/>
        </Ranges>
      </Class>
    </Transform>
  </Transformations>
  <MVAPdfs/>
  <Weights>
    <Layout NLayers="4">
      <Layer Index="0" NNeurons="12">
        <Neuron NSynapses="21">
          1.3514737811651594e-02 2.6169328009161630e+00 -1.0008869773891035e-01 3.1221350248743800e+00 -3.1504159696743801e+00 -1.7186085402890694e+00 -9.5327126587977040e-01 2.0440860319218417e+00 -3.6315417690338450e+00 -1.5260888503191348e+00 -2.5864199420346807e+00 -6.3869443505115572e-02 -1.9028177948500098e+00 -1.5709166887572082e-01 -9.1855423807415182e-01 1.2597539050672471e-01 1.4924779609300071e-01 -1.2176354280894106e+00 1.3678238814695129e-01 1.3031645553972553e+00 1.4368270300624384e+00 
        </Neuron>
        <Neuron NSynapses="21">
          -1.5262957121278539e-01 8.3115239744545621e-01 -2.1969103865955129e+00 -3.8728994262659988e-01 -2.4878117226349001e+00 1.9402104030469383e-01 -3.8029389857286016e+00 -1.4941057149341122e+00 3.2381493107130649e-01 -2.1094208835937389e-01 1.3497948817933882e+00 -3.6824689810652528e-01 -2.8482320494814989e-01 1.2539146020412790e+00 -7.8818040314045312e-01 -9.1654644511990391e-01 2.2507220265016850e+00 -2.0501617546271649e+00 1.4991481753825762e+00 2.3418006490726995e-01 3.7500269910400683e+00 
        </Neuron>
        <Neuron NSynapses="21">
          3.4654699959213455e+00 1.0683068416688524e+00 3.2058710649329786e-01 -9.7078990613034588e-01 -2.4850889276124852e-01 1.0434106770881957e-01 1.0245772042764305e+00 1.9134072261832404e+00 3.8521803657123566e-01 1.7934619985007105e+00 -2.5791287997271324e+00 1.6540763455226180e+00 -9.4707085382059719e-01 -1.7646858016439761e+00 -9.0629546732162447e-01 -9.2660393130677277e-01 1.5814596420169618e+00 -1.5592546632050435e+00 -1.9559600122913079e+00 -1.2781165346886680e-01 1.2029775222889286e-01 
        </Neuron>
        <Neuron NSynapses="21">
          -1.7679895631044357e-01 1.7701560499891336e+00 -1.2748779247509462e-01 -3.8956322178180702e-01 4.8609663984255558e-01 1.7323013163124656e+00 -7.9334446060964170e-01 -6.9608336268761095e-01 3.8270155815486345e-02 2.3420859606396729e-01 9.8473785775814160e-01 1.5528165608079911e+00 2.6917561375566479e-01 -2.9643028824275204e+00 -1.1526894252574791e+00 1.9303752874638094e+00 -7.6599911353746930e-01 5.4511823393023926e+00 7.2105841083905642e-01 1.6762989101377224e+00 -8.6594291842707560e-01 
        </Neuron>
        <Neuron NSynapses="21">
          -3.4369210543043933e-02 -6.9609460070395790e-01 1.8491767903692617e+00 -2.2655135053387238e-01 -3.9309842849518537e+00 -2.6787395250428632e+00 -1.1248287268315633e+00 -1.2297272367549357e+00 1.2812888470541943e+00 -1.7880424304865528e+00 -5.8453146261408828e-01 1.5633201631680509e+00 -5.2035597548082690e-01 -6.1635145771264077e-01 -7.7133312511311758e-01 6.9139516982168836e-01 -1.8186950015596510e+00 -1.4225179709386894e-03 5.0905763957977107e-02 6.4984548703845202e-01 -3.5836480801584973e+00 
        </Neuron>
        <Neuron NSynapses="21">
          1.2339285697594848e+00 -4.1985486380159637e-01 4.4752496857497998e-01 6.1363933086062228e-01 8.4752009412985063e-01 -1.2249369566344153e+00 1.5756187135764419e+00 1.7724800712670297e-02 -7.6730410515348979e-01 -1.0474162142692514e+00 1.7528446259730002e+00 6.5986777381306017e-01 -1.2338306555975331e+00 7.5590178602873670e-01 -9.5358272237385311e-01 -2.2303822264499331e+00 -4.9180524947006304e-01 -1.3993243624415077e+00 1.4780673967594504e+00 4.1409876558771674e-01 -8.9985869176232713e-01 
        </Neuron>
        <Neuron NSynapses="21">
          9.2268662218709149e-02 4.4586218454804333e-01 -9.3673719098181418e-01 7.8915760928815448e-01 1.8490780455783205e+00 -1.7680817715931816e+00 -7.5974709209759861e-01 -1.0022608070801708e+00 -5.6005172753117127e-01 7.6935575898728514e-01 5.8237321077740223e-01 -6.0126339908669113e-01 6.6990985084981047e-01 5.5316939865439729e-01 1.8100051060851816e+00 -5.3401421387543258e-01 -2.6269100890527397e-01 -1.3251380844543958e-01 -1.3478398546924573e+00 1.2550476031660869e+00 1.5032696687330227e+00 
        </Neuron>
        <Neuron NSynapses="21">
          1.3255626887183954e-02 -2.1139657122744776e-01 7.7307052746721172e-01 -9.5838216249810149e-01 -3.1806087280038325e-01 9.9660668088365378e-01 -4.2292614608598061e-01 2.7412827720746547e-01 2.6061293228846100e-01 4.8268235268839088e-01 -4.6519642889462770e-01 4.1187547048709255e-01 -9.0983836724900902e-01 1.3500273332706818e+00 8.5216138164346833e-01 7.2260125153165433e-01 3.7097374385761778e-01 3.4149852462502167e-01 1.7923487209355529e-01 -2.7099862424487886e-01 6.6905237570045484e-01 
        </Neuron>
        <Neuron NSynapses="21">
          -7.3460298873726881e-01 -4.8099037805532618e-01 4.3431425683858971e-01 1.5827926758128081e+00 -1.0935434225504017e+00 2.3381944514743220e+00 2.2922540406407381e+00 -2.1637801742838811e+00 -5.8735951442302203e-01 -8.9582892648100898e-04 -1.7465716425134493e-02 -1.1840966364222660e+00 -2.1832716037669488e+00 -3.3336455625820166e-01 2.1042309538344162e+00 -3.1013884882096603e+00 -4.1820916997279595e-01 5.2817483896355122e-01 3.5532796584428494e-01 2.6733692935998161e+00 7.5482587877728746e-01 
        </Neuron>
        <Neuron NSynapses="21">
          -7.6187078675147357e-01 -6.3394173491617722e-01 2.1047996756693121e-01 7.3615995801010448e-01 2.2777493614385519e-01 -1.4916266999991371e-01 -5.5739462998081568e-01 -1.8174939189641359e+00 1.0835451393075268e+00 9.6472937976902307e-01 -2.0662983787925020e+00 -1.4155652042839648e+00 -1.0960151752104502e-01 -1.5778992985004336e-01 -2.4208013840669129e+00 5.2623744663701760e-02 -1.1008671878027199e-01 2.9346370427914381e-01 -1.2934225245081086e+00 3.6182236423419101e-01 3.4064003671762094e-01 
        </Neuron>
        <Neuron NSynapses="21">
          -2.0167860960693913e-02 6.0219361722586395e-01 -2.6442506920647637e+00 -5.3236867229583484e-01 1.0156374362865590e+00 1.3866208625030456e+00 1.1048046260047553e+00 -8.6701371593896223e-02 2.1112759054468704e+00 -1.6393540298885809e+00 -1.0415161048866037e+00 1.5098911776717508e-01 -1.1685599628051406e+00 -4.7279596739457713e-01 1.4662350262874062e+00 -1.1586799146996274e+00 -3.8719458492894043e-01 -4.1065883148520793e-01 -2.7261047642137370e+00 -1.1888090831103253e+00 -1.2931234310884925e+00 
        </Neuron>
        <Neuron NSynapses="21">
          3.6634553496693361e+00 1.0134642064282520e+00 -3.6704372523252076e+00 2.7146774375850864e+00 -4.5554677999578042e+00 9.1498709087060356e-02 -8.2450648218523237e-01 -1.6870511872080529e+00 -4.0992625332859483e+00 -4.3109810987035777e+00 -2.2844538987732399e+00 -1.9931776155723919e+00 -2.8627635438357726e+00 -2.8951094434686673e+00 -3.5917952068902720e-01 -2.6005656316216954e+00 2.7425619733396472e-01 2.2314482366529691e+00 -8.7970983511260581e-01 1.0906354691749529e+00 1.9525580668567428e+00 
        </Neuron>
      </Layer>
      <Layer Index="1" NNeurons="22">
        <Neuron NSynapses="16">
          1.5108106635179977e-01 1.5843751543718652e+00 1.5288340165016849e+00 -4.5829139038755712e-01 -2.6412781700163639e+00 -8.7547574579755327e-01 -1.8472131462054127e+00 -7.6836622023055645e-01 3.6575993543609137e-01 2.6740855780793088e-01 1.8024179967099665e+00 -4.4195166688799109e-01 1.1217724117326668e+00 -7.1303313010982894e-01 -1.9642249408124037e+00 1.3156010587180480e+00 
        </Neuron>
        <Neuron NSynapses="16">
          1.2197781833344252e+00 -8.9672426299375252e-01 -9.4279881804931298e-01 2.1983590930843708e-01 1.1485003002032601e+00 5.2820063379682491e-01 -5.4386799637790018e-01 -2.5972666546417839e-01 1.5424163042555499e+00 1.0778195912895896e+00 9.9011412611869709e-01 -2.8652539307887337e-01 4.0770909660369720e-01 -3.3821601386082351e-01 -1.6163659294549957e+00 -5.4360672532480714e-01 
        </Neuron>
        <Neuron NSynapses="16">
          -1.8847339942377497e+00 -1.2674855440402852e+00 -1.9101172419469545e+00 3.0451180087298875e+00 -1.7886568148305417e+00 1.7002064762071667e+00 -1.5415833547491444e+00 1.4832025261388180e+00 -1.7653236009506967e+00 3.8807687989291212e-01 7.8750016079473817e-01 -2.0129887322679250e+00 1.1315018061603278e-01 3.6126207212510036e-01 -2.2711963132726112e+00 -1.4886895906241504e+00 
        </Neuron>
        <Neuron NSynapses="16">
          -1.6153004646747924e+00 -1.0387231324366843e+00 2.1144193532533273e+00 -1.7923435875243436e+00 -2.3542395757395601e-01 -5.0291584339676154e-01 -2.2793664378177634e+00 -1.6144467093071164e+00 -1.0143348126045921e+00 -1.2594607260270292e+00 1.0207015303322273e+00 -1.4231615060770058e+00 8.9454750711438524e-01 1.4171857158958634e+00 6.8593812877601268e-01 -4.7105067335844314e-01 
        </Neuron>
        <Neuron NSynapses="16">
          2.1743323135719872e+00 -2.7754005978223026e+00 6.7519038966409217e-01 3.9472542793647221e+00 -1.2430211009846874e+00 -6.2799139022457395e-01 8.0609649360948055e-02 -1.3963929881213051e+00 1.0163653452803454e+00 1.9600564100810403e+00 1.3388619579471623e+00 1.4405537107138950e+00 -2.4573572421171952e+00 7.6564490765979931e-01 -2.0214656232592110e+00 6.1957217080791971e-01 
        </Neuron>
        <Neuron NSynapses="16">
          -1.2713892009241952e+00 -1.7165292443819140e+00 -1.1264503267765087e+00 3.0119408892392591e-01 1.0623001347254237e+00 1.6406117998566150e+00 3.0393409860894072e-01 -6.1802815458045957e-01 -8.6531613887493120e-01 3.0940527719118216e-01 1.9371188018179391e+00 -1.6756611529637611e+00 1.4888170309345516e+00 -1.4531746816006046e+00 -1.0584251118534005e+00 1.2049897941993144e-02 
        </Neuron>
        <Neuron NSynapses="16">
          5.9409221171241322e-01 -1.4125121470463364e+00 1.3920594327487330e+00 2.9154212311620440e+00 4.9596104901669485e-01 2.9290628278444958e-01 -1.3114402221125423e+00 -9.6131278206114446e-01 -2.5492736764030415e+00 1.0363649504288990e+00 -5.8730317444089020e-01 -1.1703355781006661e+00 1.6056599884501361e+00 -2.1563153898868457e+00 -2.2210374231876693e+00 -1.5900014033989214e+00 
        </Neuron>
        <Neuron NSynapses="16">
          1.0395696350220598e+00 -1.6319515982246184e+00 -1.9211670848075626e+00 3.2910739179299059e-01 -9.3125041807359210e-01 -1.6368496767857126e+00 1.0548168730520477e+00 -1.2961144750033764e+00 -1.0126870861969313e+00 1.6969247340599964e+00 5.2241595775439698e-01 2.8423676466054365e-01 1.4304414285217168e-01 1.2469064356459698e+00 1.7461595238055401e+00 5.0429692735047571e-01 
        </Neuron>
        <Neuron NSynapses="16">
          -9.5919562231518585e-01 -1.0433230470425428e-01 -1.3851889937151165e+00 2.4957797897702627e+00 1.2220319951730938e+00 4.1263484383448130e-02 1.7069407090530957e+00 1.1529181365339389e+00 1.1349267509811358e+00 -1.4675778344389721e+00 1.6409156326094116e+00 6.8189491253955192e-01 -2.6190288413466418e+00 5.0900649042084474e-02 -1.3438397292861315e+00 8.5869040406469466e-01 
        </Neuron>
        <Neuron NSynapses="16">
          3.5459864513451028e-01 7.8416260750721334e-01 1.6727146013155079e+00 1.9754750469842932e+00 1.3419408914108086e+00 1.7155128007048825e+00 1.7706975562768870e-01 -1.2337065804015002e+00 1.8596722022984682e+00 -2.0797626511855603e+00 5.7656609327833375e-01 1.6076658138312090e+00 -1.0989006174302216e+00 -1.0184428133878873e+00 -2.6961341608521128e-01 -1.3328453617748530e+00 
        </Neuron>
        <Neuron NSynapses="16">
          3.8014148864830094e-01 -1.9093035040223740e+00 5.9734375682777750e-02 7.3134320453293522e-01 1.9980678036068062e+00 1.4912680099344195e+00 1.5299853861672110e+00 -3.5461249182116383e-01 -5.6061678458712398e-02 2.6735204136663898e-01 1.8587732880244949e+00 -1.9182606165202714e+00 -2.1014217743023824e+00 -7.2877068536166612e-01 -1.4118377277982623e+00 -1.6976590978725736e+00 
        </Neuron>
        <Neuron NSynapses="16">
          -1.4591173223077958e+00 8.4127820173932566e-01 4.1094594846397284e-02 -1.5687121255921050e+00 -1.9298683603149327e+00 -1.7872850466099541e-01 1.7691048878291242e+00 1.9522072033541753e+00 1.2447599541630578e+00 -6.8886865746767645e-01 -1.9601292792020926e+00 -1.3166698174159475e-01 -1.3076727279570359e+00 -1.6082803795181262e+00 -7.5710842781648080e-01 1.3944172967219929e-02 
        </Neuron>
        <Neuron NSynapses="16">
          -1.4525986901871539e+00 2.1255961839663664e+00 1.3519401277308902e+00 -6.3327115228245334e-01 -1.5845583695022880e+00 -8.0534644513634568e-01 2.2054511094355207e+00 -1.7710587049258314e-01 -5.8181078572732869e-01 1.3453394200396052e+00 1.4304102109199515e+00 -1.2401694124969611e+00 2.3316991257841906e+00 -1.7543921688804449e+00 1.5266837774736899e+00 1.8306909015148025e+00 
        </Neuron>
        <Neuron NSynapses="16">
          -2.5405255385398900e-01 -2.6124654891847859e-01 3.1417752400897853e-01 -1.0395184605079086e-01 1.3816383411313655e+00 1.7761769112095932e-01 -2.9242945565106637e-01 -1.4059391509722248e+00 3.6934195059478842e-02 1.7562603940553423e+00 3.9571176244375050e-01 -7.7603315083744939e-01 -2.5084744537104169e+00 2.2602614423710281e+00 1.0400298654462565e+00 -1.2076306249056905e+00 
        </Neuron>
        <Neuron NSynapses="16">
          -1.4186063777429325e-01 -8.6733507040565450e-01 1.6307989633870070e+00 1.3058912975014731e+00 -1.2004892948190996e-02 -5.9245307430016403e-01 1.0174537129639349e+00 2.1716928734075842e+00 7.1754106543972163e-01 4.9765283598640554e-02 -1.3224157433266519e+00 -1.2274771485736617e+00 1.2502411900159076e+00 1.5905980542417231e-01 2.6707929090419753e-03 -1.8588902886021095e+00 
        </Neuron>
        <Neuron NSynapses="16">
          -1.8527567447717979e+00 -1.3569011625058105e+00 -3.5538906242200458e-01 -2.5394426832912522e+00 -3.6150092431414571e-01 -3.7539239262259944e-01 2.5191459653214392e+00 6.9795018778436169e-01 -2.9417323746459951e+00 1.2014566691523876e+00 1.8170927863235213e+00 9.2170602672650526e-01 4.4012402643332026e-02 -7.8226522176204882e-01 2.1544045096122288e+00 -1.7267359354655034e+00 
        </Neuron>
        <Neuron NSynapses="16">
          4.0480335586079463e-01 -8.6439351303510070e-01 1.1855646110121520e+00 -6.4481244900338142e-01 -4.5727895306808802e-01 -5.0782825546742671e-01 8.4959150805658534e-01 -9.3358562137274070e-01 -1.0425159841877940e+00 9.1113326437249997e-01 3.4749147392029700e-01 7.1005425468860872e-01 1.0703533398735339e+00 -1.2069821209608593e+00 1.8059259406702164e+00 -1.8882047686863568e+00 
        </Neuron>
        <Neuron NSynapses="16">
          1.1278406370934910e+00 5.9544931401445778e-01 1.0925824546109149e-01 2.4166655389115452e+00 2.0193082163088203e+00 -1.6447059016315808e+00 -9.0581214390847131e-01 -2.5038218593977296e-01 9.4173563308456443e-01 -3.9755161295218300e-01 -2.8794707606908548e-01 -8.2136748628976108e-01 -1.3164758717798504e+00 -1.8321582191244463e+00 -1.5878556678788496e+00 -1.8276850078009885e+00 
        </Neuron>
        <Neuron NSynapses="16">
          -4.1052505170840620e-01 3.5735314250952971e-01 -9.7263422719484538e-01 -1.1130218687716129e+00 7.2912219220116059e-01 3.6930351875722606e-01 -4.9341145527543218e-01 -1.4218377182786774e+00 1.8491504640857592e+00 -3.2189736845658828e-01 6.9529282649238811e-01 6.2137514142032013e-01 -1.2136522700467021e+00 -8.4874826911359569e-01 -2.5025216288906627e-01 -1.9791023401975067e+00 
        </Neuron>
        <Neuron NSynapses="16">
          -6.6670495682702613e-01 -1.3355712169978764e+00 1.4362508868977883e+00 -1.8857493297337820e+00 1.7517931123113601e+00 2.0623602140835962e+00 1.1402866629229298e+00 1.2783151144062479e+00 1.1199764567631114e+00 2.5052276606034996e-01 -9.1502257343735216e-01 -1.9270028977800426e+00 -6.8213844373458199e-01 -8.8965048275486536e-01 1.6735294826561731e+00 1.7771565659235455e-01 
        </Neuron>
        <Neuron NSynapses="16">
          2.1499649324029788e-01 1.4049763178653485e+00 1.8518281941852182e+00 -2.5591332667996793e+00 -5.2304555907653150e-01 -1.6396245372919132e+00 9.2424035403075666e-01 -2.1310422718473823e+00 2.7156680561069935e-01 -1.1774177880026559e-02 1.1379489355338639e+00 -1.9554868257986544e+00 7.8886703029642324e-01 -1.3594102244801565e+00 -1.7516612853912844e-02 1.1926756186823617e+00 
        </Neuron>
        <Neuron NSynapses="16">
          -6.2486815941165819e-01 8.4702469168707806e-01 -1.5681428419654428e+00 8.2413465389815832e-01 -1.0766805770865553e+00 1.0864243461562011e+00 -1.8020647053102024e+00 -4.8876753162098902e-01 1.5050015993961243e+00 -1.9291967634962528e+00 -1.3646250076831206e+00 -1.0879840227446638e+00 1.9294560490007227e+00 1.4684722208239442e+00 1.6973528866522236e+00 -1.7296933973072812e+00 
        </Neuron>
      </Layer>
      <Layer Index="2" NNeurons="17">
        <Neuron NSynapses="1">
          8.7064765013429046e-01 
        </Neuron>
        <Neuron NSynapses="1">
          8.2885793473382974e-01 
        </Neuron>
        <Neuron NSynapses="1">
          1.7543662732489946e+00 
        </Neuron>
        <Neuron NSynapses="1">
          -4.6406961223951182e+00 
        </Neuron>
        <Neuron NSynapses="1">
          -2.4433500253085172e+00 
        </Neuron>
        <Neuron NSynapses="1">
          -1.0829449944498524e+00 
        </Neuron>
        <Neuron NSynapses="1">
          2.4119442552960755e+00 
        </Neuron>
        <Neuron NSynapses="1">
          2.2572598462989912e+00 
        </Neuron>
        <Neuron NSynapses="1">
          -1.9167830944387627e+00 
        </Neuron>
        <Neuron NSynapses="1">
          -2.0465372073196492e-01 
        </Neuron>
        <Neuron NSynapses="1">
          -1.5866532241135249e+00 
        </Neuron>
        <Neuron NSynapses="1">
          1.2194724755412838e+00 
        </Neuron>
        <Neuron NSynapses="1">
          2.9097500720850569e+00 
        </Neuron>
        <Neuron NSynapses="1">
          1.3677537756947455e+00 
        </Neuron>
        <Neuron NSynapses="1">
          -2.9405868489308515e+00 
        </Neuron>
        <Neuron NSynapses="1">
          -1.4288987638366888e+00 
        </Neuron>
        <Neuron NSynapses="1">
          1.2435341014758510e+00 
        </Neuron>
      </Layer>
      <Layer Index="3" NNeurons="1">
        <Neuron NSynapses="0"/>
      </Layer>
    </Layout>
  </Weights>
</MethodSetup>
