<?xml version="1.0"?>
<MethodSetup Method="MLP::MLP">
  <GeneralInfo>
    <Info name="TMVA Release" value="4.2.1 [262657]"/>
    <Info name="ROOT Release" value="6.22/06 [398854]"/>
    <Info name="Creator" value="konstantin"/>
    <Info name="Date" value="Wed Mar 24 00:19:09 2021"/>
    <Info name="Host" value="Linux mach 5.8.0-43-generic #49~20.04.1-Ubuntu SMP Fri Feb 5 09:57:56 UTC 2021 x86_64 x86_64 x86_64 GNU/Linux"/>
    <Info name="Dir" value="/home/konstantin/Projects/CERN/TMVA_MLP"/>
    <Info name="Training events" value="170672"/>
    <Info name="TrainingTime" value="1.85964991e+02"/>
    <Info name="AnalysisType" value="Classification"/>
  </GeneralInfo>
  <Options>
    <Option name="NCycles" modified="Yes">400</Option>
    <Option name="HiddenLayers" modified="Yes">N+10,N</Option>
    <Option name="NeuronType" modified="Yes">sigmoid</Option>
    <Option name="RandomSeed" modified="No">1</Option>
    <Option name="EstimatorType" modified="No">CE</Option>
    <Option name="NeuronInputType" modified="No">sum</Option>
    <Option name="V" modified="Yes">False</Option>
    <Option name="VerbosityLevel" modified="No">Default</Option>
    <Option name="VarTransform" modified="Yes">N</Option>
    <Option name="H" modified="Yes">True</Option>
    <Option name="CreateMVAPdfs" modified="No">False</Option>
    <Option name="IgnoreNegWeightsInTraining" modified="No">False</Option>
    <Option name="TrainingMethod" modified="No">BP</Option>
    <Option name="LearningRate" modified="Yes">2.000000e-02</Option>
    <Option name="DecayRate" modified="No">1.000000e-02</Option>
    <Option name="TestRate" modified="Yes">5</Option>
    <Option name="EpochMonitoring" modified="No">False</Option>
    <Option name="Sampling" modified="No">1.000000e+00</Option>
    <Option name="SamplingEpoch" modified="No">1.000000e+00</Option>
    <Option name="SamplingImportance" modified="No">1.000000e+00</Option>
    <Option name="SamplingTraining" modified="No">True</Option>
    <Option name="SamplingTesting" modified="No">False</Option>
    <Option name="ResetStep" modified="No">50</Option>
    <Option name="Tau" modified="No">3.000000e+00</Option>
    <Option name="BPMode" modified="Yes">batch</Option>
    <Option name="BatchSize" modified="Yes">7</Option>
    <Option name="ConvergenceImprove" modified="Yes">2.500000e-03</Option>
    <Option name="ConvergenceTests" modified="Yes">5</Option>
    <Option name="UseRegulator" modified="Yes">False</Option>
    <Option name="UpdateLimit" modified="No">10000</Option>
    <Option name="CalculateErrors" modified="No">False</Option>
    <Option name="WeightRange" modified="No">1.000000e+00</Option>
  </Options>
  <Variables NVar="11">
    <Variable VarIndex="0" Expression="mJJ" Label="mJJ" Title="mJJ" Unit="" Internal="mJJ" Type="F" Min="2.27864819e+01" Max="7.83875537e+03"/>
    <Variable VarIndex="1" Expression="deltaYJJ" Label="deltaYJJ" Title="deltaYJJ" Unit="" Internal="deltaYJJ" Type="F" Min="2.21196096e-05" Max="8.68471050e+00"/>
    <Variable VarIndex="2" Expression="metPt" Label="metPt" Title="metPt" Unit="" Internal="metPt" Type="F" Min="1.25825294e+02" Max="2.27749878e+03"/>
    <Variable VarIndex="3" Expression="ptBalance" Label="ptBalance" Title="ptBalance" Unit="" Internal="ptBalance" Type="F" Min="4.91857872e-06" Max="4.76490766e-01"/>
    <Variable VarIndex="4" Expression="subleadJetEta" Label="subleadJetEta" Title="subleadJetEta" Unit="" Internal="subleadJetEta" Type="F" Min="-4.50663424e+00" Max="4.51134682e+00"/>
    <Variable VarIndex="5" Expression="leadJetPt" Label="leadJetPt" Title="leadJetPt" Unit="" Internal="leadJetPt" Type="F" Min="5.00584755e+01" Max="2.75328247e+03"/>
    <Variable VarIndex="6" Expression="photonEta" Label="photonEta" Title="photonEta" Unit="" Internal="photonEta" Type="F" Min="-2.40109253e+00" Max="2.39041257e+00"/>
    <Variable VarIndex="7" Expression="ptBalanceRed" Label="ptBalanceRed" Title="ptBalanceRed" Unit="" Internal="ptBalanceRed" Type="F" Min="2.29892414e-02" Max="9.99983788e-01"/>
    <Variable VarIndex="8" Expression="nJets" Label="nJets" Title="nJets" Unit="" Internal="nJets" Type="F" Min="2.00000000e+00" Max="9.00000000e+00"/>
    <Variable VarIndex="9" Expression="sinDeltaPhiJJOver2" Label="sinDeltaPhiJJOver2" Title="sinDeltaPhiJJOver2" Unit="" Internal="sinDeltaPhiJJOver2" Type="F" Min="1.59144402e-05" Max="1.00000000e+00"/>
    <Variable VarIndex="10" Expression="deltaYJPh" Label="deltaYJPh" Title="deltaYJPh" Unit="" Internal="deltaYJPh" Type="F" Min="1.18112052e-06" Max="6.68952894e+00"/>
  </Variables>
  <Spectators NSpec="1">
    <Spectator SpecIndex="0" Expression="weightModified" Label="weightModified" Title="F" Unit="" Internal="weightModified" Type="F" Min="-1.91263646e-01" Max="1.09073341e+00"/>
  </Spectators>
  <Classes NClass="2">
    <Class Name="Signal" Index="0"/>
    <Class Name="Background" Index="1"/>
  </Classes>
  <Transformations NTransformations="1">
    <Transform Name="Normalize">
      <Selection>
        <Input NInputs="11">
          <Input Type="Variable" Label="mJJ" Expression="mJJ"/>
          <Input Type="Variable" Label="deltaYJJ" Expression="deltaYJJ"/>
          <Input Type="Variable" Label="metPt" Expression="metPt"/>
          <Input Type="Variable" Label="ptBalance" Expression="ptBalance"/>
          <Input Type="Variable" Label="subleadJetEta" Expression="subleadJetEta"/>
          <Input Type="Variable" Label="leadJetPt" Expression="leadJetPt"/>
          <Input Type="Variable" Label="photonEta" Expression="photonEta"/>
          <Input Type="Variable" Label="ptBalanceRed" Expression="ptBalanceRed"/>
          <Input Type="Variable" Label="nJets" Expression="nJets"/>
          <Input Type="Variable" Label="sinDeltaPhiJJOver2" Expression="sinDeltaPhiJJOver2"/>
          <Input Type="Variable" Label="deltaYJPh" Expression="deltaYJPh"/>
        </Input>
        <Output NOutputs="11">
          <Output Type="Variable" Label="mJJ" Expression="mJJ"/>
          <Output Type="Variable" Label="deltaYJJ" Expression="deltaYJJ"/>
          <Output Type="Variable" Label="metPt" Expression="metPt"/>
          <Output Type="Variable" Label="ptBalance" Expression="ptBalance"/>
          <Output Type="Variable" Label="subleadJetEta" Expression="subleadJetEta"/>
          <Output Type="Variable" Label="leadJetPt" Expression="leadJetPt"/>
          <Output Type="Variable" Label="photonEta" Expression="photonEta"/>
          <Output Type="Variable" Label="ptBalanceRed" Expression="ptBalanceRed"/>
          <Output Type="Variable" Label="nJets" Expression="nJets"/>
          <Output Type="Variable" Label="sinDeltaPhiJJOver2" Expression="sinDeltaPhiJJOver2"/>
          <Output Type="Variable" Label="deltaYJPh" Expression="deltaYJPh"/>
        </Output>
      </Selection>
      <Class ClassIndex="0">
        <Ranges>
          <Range Index="0" Min="2.2786481857299805e+01" Max="7.5057304687500000e+03"/>
          <Range Index="1" Min="1.5035811520647258e-04" Max="8.6847105026245117e+00"/>
          <Range Index="2" Min="1.2697845458984375e+02" Max="2.2774987792968750e+03"/>
          <Range Index="3" Min="4.9185787247552071e-06" Max="4.0502533316612244e-01"/>
          <Range Index="4" Min="-4.5066342353820801e+00" Max="4.5113468170166016e+00"/>
          <Range Index="5" Min="5.0105968475341797e+01" Max="1.9641448974609375e+03"/>
          <Range Index="6" Min="-2.4010925292968750e+00" Max="2.3904125690460205e+00"/>
          <Range Index="7" Min="4.8834752291440964e-02" Max="9.9988257884979248e-01"/>
          <Range Index="8" Min="2.0000000000000000e+00" Max="8.0000000000000000e+00"/>
          <Range Index="9" Min="1.5914440155029297e-05" Max="1.0000000000000000e+00"/>
          <Range Index="10" Min="3.2652555091772228e-05" Max="6.5068273544311523e+00"/>
        </Ranges>
      </Class>
      <Class ClassIndex="1">
        <Ranges>
          <Range Index="0" Min="2.3556308746337891e+01" Max="7.8387553710937500e+03"/>
          <Range Index="1" Min="2.2119609639048576e-05" Max="8.6838493347167969e+00"/>
          <Range Index="2" Min="1.2582529449462891e+02" Max="1.9265614013671875e+03"/>
          <Range Index="3" Min="5.9500340285012498e-05" Max="4.7649076581001282e-01"/>
          <Range Index="4" Min="-4.5036110877990723e+00" Max="4.5083436965942383e+00"/>
          <Range Index="5" Min="5.0058475494384766e+01" Max="2.7532824707031250e+03"/>
          <Range Index="6" Min="-2.3863203525543213e+00" Max="2.3830773830413818e+00"/>
          <Range Index="7" Min="2.2989241406321526e-02" Max="9.9998378753662109e-01"/>
          <Range Index="8" Min="2.0000000000000000e+00" Max="9.0000000000000000e+00"/>
          <Range Index="9" Min="1.9311904907226562e-05" Max="1.0000000000000000e+00"/>
          <Range Index="10" Min="1.1811205240519485e-06" Max="6.6895289421081543e+00"/>
        </Ranges>
      </Class>
      <Class ClassIndex="2">
        <Ranges>
          <Range Index="0" Min="2.2786481857299805e+01" Max="7.8387553710937500e+03"/>
          <Range Index="1" Min="2.2119609639048576e-05" Max="8.6847105026245117e+00"/>
          <Range Index="2" Min="1.2582529449462891e+02" Max="2.2774987792968750e+03"/>
          <Range Index="3" Min="4.9185787247552071e-06" Max="4.7649076581001282e-01"/>
          <Range Index="4" Min="-4.5066342353820801e+00" Max="4.5113468170166016e+00"/>
          <Range Index="5" Min="5.0058475494384766e+01" Max="2.7532824707031250e+03"/>
          <Range Index="6" Min="-2.4010925292968750e+00" Max="2.3904125690460205e+00"/>
          <Range Index="7" Min="2.2989241406321526e-02" Max="9.9998378753662109e-01"/>
          <Range Index="8" Min="2.0000000000000000e+00" Max="9.0000000000000000e+00"/>
          <Range Index="9" Min="1.5914440155029297e-05" Max="1.0000000000000000e+00"/>
          <Range Index="10" Min="1.1811205240519485e-06" Max="6.6895289421081543e+00"/>
        </Ranges>
      </Class>
    </Transform>
  </Transformations>
  <MVAPdfs/>
  <Weights>
    <Layout NLayers="4">
      <Layer Index="0" NNeurons="12">
        <Neuron NSynapses="21">
          -4.8458802468842754e-01 2.2509465189582714e+00 1.2188822849698000e+00 2.3800088250576343e+00 -2.0221265547879876e+00 -1.0224643955864685e-01 -3.6229681153243465e-01 2.1796190557199941e+00 -1.8041844815474966e+00 -1.8175709019455739e+00 -2.7925106557534392e+00 -4.4338149659076356e+00 -1.6353470598892115e+00 3.4414584169560358e-01 -1.3528081351878811e+00 -1.9413077836294625e+00 1.8267378851761967e-01 1.4229401837689699e+00 2.1162467629974230e-01 1.6805159812008492e+00 8.7160712638641846e-01 
        </Neuron>
        <Neuron NSynapses="21">
          -2.5280273406214739e+00 -8.4189674496149736e-01 1.7158346808341665e-01 -2.8239245867216995e+00 -1.3846594953704991e+00 3.1757945433102477e+00 -2.3529928991613134e+00 -2.0836183381001225e+00 1.2603986653742383e+00 -3.6434584624469146e-01 2.6432160508990545e+00 -1.6707309114164959e+00 -4.1562704850986709e-01 3.4141801786366921e-01 -3.2343112001016014e+00 -1.5788474802865731e+00 1.7132634332968324e+00 -1.8443496834013944e+00 7.8176858588637721e-01 1.7378737358269070e+00 2.9036697940335809e+00 
        </Neuron>
        <Neuron NSynapses="21">
          2.1489500568398499e+00 1.8766891992143522e+00 -1.1842016838113851e+00 -3.1841714674786431e-01 1.5894383633777712e-01 1.9256343853196276e-02 1.9142761157620634e+00 1.1170725050297865e+00 1.2653815817891296e+00 1.6345120478104695e+00 -2.2550068862016088e+00 1.1058777556714170e+00 -1.1370979439679147e+00 -1.5122465658746580e+00 -1.6355925544194498e+00 -2.1419516600526061e+00 1.6531639628824508e+00 1.1226307361561008e+00 -1.4926969084580477e+00 2.5980592363170740e-01 4.9190851391805912e-01 
        </Neuron>
        <Neuron NSynapses="21">
          8.3968723078095620e-01 3.3276242663720597e+00 2.5947481172363457e-01 8.4344048770946922e-01 6.1784929039211400e-01 5.7354173866267089e-01 -1.0342767434356248e+00 -1.0986220751265112e+00 -1.1493376269871862e+00 1.0831616913515023e+00 1.3132622729838661e+00 1.5214919386499250e+00 1.2170069151140657e-01 -1.8654455206265161e+00 8.0185985966289230e-02 3.0196134123490008e+00 1.0653040894249527e-01 2.6706996681102741e+00 5.9119286922104231e-01 4.5501597514123587e-01 -7.3414464001008783e-01 
        </Neuron>
        <Neuron NSynapses="21">
          -1.9921468925516406e+00 2.6263739796466040e-01 1.0850179356989393e+00 -3.9333198180835832e-01 -1.1114721880910297e+00 -1.2800265382260336e+00 -6.3999674696974740e-01 6.9107074147175451e-01 1.7072751610552463e+00 -1.5934419749357189e+00 -9.4817870655221415e-01 1.6473195296885583e+00 -6.6160409573094059e-01 2.6210819971042254e-01 -3.7300475284316650e+00 -3.6250459897323267e-01 -9.3680712592999738e-01 -1.9963732724373460e+00 9.3317522227469907e-01 1.4144426709308811e+00 -3.4390481525814556e+00 
        </Neuron>
        <Neuron NSynapses="21">
          2.1566028266232040e+00 -1.7094670435780399e+00 -3.0194824081169247e-01 5.0009567182020498e-01 1.0369271234303796e+00 -1.5552884203524329e+00 1.3902440248100464e-02 3.1317176473331043e-01 -1.8575281416241113e-01 -5.1142258160085552e-01 1.3941755283406998e+00 -6.6714010898555964e-01 -6.1393210131738962e-01 1.2255028253687743e+00 -2.7619153330299906e-01 -2.4312226753631250e+00 5.4525337706485910e-01 -5.1504892448268713e-01 2.3612994787643720e+00 5.9915068606741617e-01 -1.1912019351281575e+00 
        </Neuron>
        <Neuron NSynapses="21">
          -1.2169747195867767e-01 -3.7401150102552530e-02 -2.8593492014487465e+00 6.7988816487437020e-01 9.3894477795157061e-01 -6.4710664007344476e-01 -2.8589055818152888e-02 -1.1656618513071679e+00 6.2009228566396146e-01 9.9574818410015153e-01 1.0371495402108140e+00 -8.4392349822483037e-01 2.0444720625546431e-01 2.2741830420266234e+00 1.4378956813916839e+00 3.2176261334586964e-01 -1.6181104805505848e+00 -9.8197743921770264e-01 -1.0940233989851003e+00 1.1322214308357750e+00 1.8545842566153226e+00 
        </Neuron>
        <Neuron NSynapses="21">
          -2.6663788149667922e-01 7.3213921656925633e-03 -2.8341588163788959e-02 -8.7383533182939477e-01 1.5289916206935125e-01 5.7177851125821499e-01 5.6662882385171676e-01 -1.4380254651029134e+00 1.2032246666127315e-01 1.9457738803050001e-01 -4.6490858171518473e-01 2.9543427820100621e-01 -9.8450765532816498e-01 1.2559660153621972e+00 6.4550133323929823e-02 1.0556148444562397e+00 1.4288311191398637e-01 1.1628009023087065e+00 2.0598128430673224e-01 -2.9188192799393392e-01 6.0667680811166136e-01 
        </Neuron>
        <Neuron NSynapses="21">
          -1.1348676559264204e+00 -3.1749013417816019e-01 2.3952838399481808e+00 1.9229932393766018e+00 -1.6458840850807779e-01 1.1746417307841039e+00 1.1474290370817688e+00 -2.7593597102400529e+00 6.0696738386077542e-01 2.2313457431704567e-01 -6.4452478925482304e-01 -1.4032806375962474e+00 -1.2499817201581531e+00 2.2124299963692229e+00 2.9806618666742724e+00 -8.1788044517699243e-01 -4.7125138152690471e-01 -2.1140458735112333e-01 9.2571723129894568e-01 1.0134433051878000e+00 -1.9986630866448143e+00 
        </Neuron>
        <Neuron NSynapses="21">
          -1.9284571247373003e-01 -2.6293894702626447e-01 1.1357054216164066e+00 5.8922509048629312e-01 2.7269922451462172e+00 5.1878480670451133e-01 -9.2502942976115565e-01 -8.6266565189384969e-01 1.1251592564303559e+00 6.0576092782493829e-01 -1.1992136411822298e+00 4.4497413943868186e-01 1.6347563127606166e-01 1.6773267515121416e-02 -1.3575618335434025e-01 -2.2586058208818774e-02 4.7482273889796811e-01 -1.0680722897721364e+00 -1.0138154053439968e-01 1.6658200800715000e+00 3.4809182603291761e-01 
        </Neuron>
        <Neuron NSynapses="21">
          -1.2719817447789453e-01 6.3426394030169342e-01 -1.9443812196274251e+00 -1.1774560962495390e-01 1.5265665251447902e+00 9.6050710097105496e-01 1.0630190206214243e+00 -2.0917438682926254e-02 1.8882015765129350e+00 -3.1228104656656082e+00 -1.6010582233812271e-01 3.8351563253444010e-01 -1.9830388128022998e+00 -2.0449004991560041e-01 2.2755805087517849e+00 -1.7279197133539229e-01 4.3866008393953965e-01 5.6901964957381912e-01 -1.6744717243924061e+00 -1.7874663676041069e+00 -2.0138956774254932e+00 
        </Neuron>
        <Neuron NSynapses="21">
          9.4639266436472622e-02 4.6756945089525184e+00 -1.2029176800937080e+00 3.2759503633277789e+00 -4.0225554725239956e+00 2.8193948248203484e+00 3.0364541776482401e-01 -1.5699163212044924e+00 -1.1655124669003127e+00 -4.6346755358787393e+00 -1.9042238294328053e+00 -5.1266556067990514e+00 -2.6768113432855403e+00 -8.4831899996063620e-01 -1.6363991568229026e+00 -4.5623407160233551e+00 -2.0594482299776842e+00 4.0836427248020174e-01 -5.7759489782873485e-01 6.7933033703318946e-01 -6.4665934274892178e-01 
        </Neuron>
      </Layer>
      <Layer Index="1" NNeurons="22">
        <Neuron NSynapses="11">
          6.0333510118369149e-01 2.1528729876369117e+00 1.6023607849204973e+00 -6.0964938997164053e-01 -7.3113788109597899e-01 -1.5979499469077978e+00 -6.8313086578553550e-01 -3.0004462532826999e+00 1.7903903357907960e+00 4.5191805628382981e-01 1.8788505489811649e+00 
        </Neuron>
        <Neuron NSynapses="11">
          -1.3270186391472527e+00 6.4146637990389388e-01 -4.5862060854309972e-01 -1.3548180278797743e+00 4.5791204874142954e-01 1.3272658790652641e+00 -1.0034849394028580e+00 -3.0553208739161914e+00 -5.1417545628684669e-01 3.3156395280588193e+00 4.6681332565797923e-01 
        </Neuron>
        <Neuron NSynapses="11">
          -3.3330585590568096e-01 1.9056318517618112e-01 1.2842881681758613e+00 1.6684358578913328e+00 6.5922027888853429e-01 -1.1466396767905660e+00 8.1539956601313268e-01 -5.1004039705206794e-01 -2.5857123655548562e+00 -6.8186590672468239e-01 -1.7561167982992434e+00 
        </Neuron>
        <Neuron NSynapses="11">
          -6.1311480451485856e-01 -6.4694208001415643e-01 1.8582975487954547e+00 -1.1789152691785725e+00 9.3711645284797263e-01 -1.3379662236548244e+00 7.2958928418769142e-01 -1.9257403127572637e+00 1.0444460376332678e+00 2.8588937116656727e+00 -1.8699755632359822e+00 
        </Neuron>
        <Neuron NSynapses="11">
          8.2999487413173378e-01 7.5812353833663360e-01 -2.0893778014596744e+00 -1.5990748976338873e+00 -1.9601121287172567e+00 -9.4436104069429261e-01 1.9959810182511124e+00 -1.6785128421739779e+00 -4.9290099899186735e-01 -1.4833021001178415e+00 -1.1815435817181559e+00 
        </Neuron>
        <Neuron NSynapses="11">
          -1.5682173472650507e+00 -3.2973299181344196e-01 -1.3494472422259904e+00 1.5584602866450212e+00 3.8244614203020283e-01 -1.8884306434426856e+00 2.0712073151819217e+00 6.2615952513038378e-02 -6.1249533091058594e-01 2.3611993214513909e+00 -1.8171712301026233e+00 
        </Neuron>
        <Neuron NSynapses="11">
          1.4499063235032554e+00 1.1305962469942379e+00 -8.3091500815192754e-01 -1.6039649881685625e-01 3.6103379593916618e-01 -5.5071390696621314e-01 -3.9896309937201596e-01 7.2288925364268286e-01 2.2943486272169165e+00 2.5881947310199345e+00 -1.3810573314858337e+00 
        </Neuron>
        <Neuron NSynapses="11">
          4.0936261684331776e-01 -2.2436576338906158e+00 3.4376143706541212e-01 -2.3009750715901527e+00 -2.8696904126585117e+00 1.1922782269114102e-01 8.2713007526911220e-01 1.7742560272829255e-01 8.1353807156729308e-01 7.0309524522973876e-01 -1.8225669799083061e-01 
        </Neuron>
        <Neuron NSynapses="11">
          4.1958099201395571e-01 8.0385434663452188e-02 1.8145630296598254e+00 -1.3103011874218191e+00 2.5839321764086853e-01 -8.9660207842217854e-01 -7.5606811846254829e-01 -7.5313502129848942e-01 3.0017893267560464e-01 -1.1784577714023079e+00 9.6568173727779349e-01 
        </Neuron>
        <Neuron NSynapses="11">
          3.1042741782782244e+00 7.9946714986421363e-01 1.5781464251042243e-01 -8.6838294227435531e-01 -1.2900650116896069e+00 -1.8255311995732995e+00 1.1182239983723385e+00 -2.4601216278539364e+00 -6.0969353346118782e-01 -1.8095283569529297e-01 -1.6995379470283438e+00 
        </Neuron>
        <Neuron NSynapses="11">
          -8.0444546103469294e-01 -1.6039922679823500e+00 9.5766587570875217e-01 -8.8867726323222884e-01 -2.2886349451969314e+00 -4.9360010351281725e-01 -8.0798846702963911e-01 -2.3275697259370238e+00 2.4186187484843610e-01 -2.7513131971114357e+00 -1.2312810723666197e+00 
        </Neuron>
        <Neuron NSynapses="11">
          3.0698718709059634e+00 4.1815901275809497e-01 2.1222897898351470e-01 9.7358270889714804e-01 7.5958329401827596e-01 1.7709140829196353e+00 -5.1342185619725492e-02 -3.5657510015374489e+00 -3.5222405962455627e-01 -2.6280202850751047e+00 9.1243684617788678e-01 
        </Neuron>
        <Neuron NSynapses="11">
          -1.1619352804949686e-01 6.2970636775803836e-03 1.3788167768981501e+00 4.9043635611640374e-01 1.8577439619972806e+00 -1.4059699597794153e+00 1.4055196604841107e+00 1.6544249823669981e+00 -2.1341993168892972e+00 5.0053920971432708e-01 -1.0642394722187702e+00 
        </Neuron>
        <Neuron NSynapses="11">
          1.1062128166807714e+00 7.3332319103672106e-01 1.1595618118224289e+00 2.2815492470596364e+00 -1.2090432654906376e+00 2.1784123804231461e+00 1.2907003581994030e+00 1.1633729059552465e+00 -1.6722585541872701e+00 1.6584711282245621e+00 -1.9653453624770711e+00 
        </Neuron>
        <Neuron NSynapses="11">
          3.3486277687941719e+00 2.1305101708153944e+00 -2.5747456380682138e-01 1.2417708435224941e+00 1.5978168026903092e-02 -1.4960083051469790e+00 6.1529079633132888e-01 -3.4935865112339424e+00 1.7701148465944574e+00 -2.5185763490754248e-01 1.6611312305182260e+00 
        </Neuron>
        <Neuron NSynapses="11">
          1.5155880568649280e+00 1.6576371654748072e+00 -3.2591221895557454e-01 -5.8466764276022508e-03 7.2257807577448374e-01 1.4810116238242914e+00 -1.9692939280495663e+00 -1.4864324759478800e+00 5.1545593659195710e-01 -3.3645050643944061e+00 -1.6935536872638965e+00 
        </Neuron>
        <Neuron NSynapses="11">
          -1.3881153368249561e+00 1.0233320737242966e+00 -9.5728588074028842e-02 -1.9674476124557128e+00 -2.2255557448046428e+00 -2.5474987453596792e-01 1.8257751402642202e+00 5.7027393218024591e-01 6.6204038069631488e-01 -6.8623601245432320e-01 -1.9371470612825741e+00 
        </Neuron>
        <Neuron NSynapses="11">
          -6.1265605797986844e-01 -7.9559155610664134e-01 -1.4711377822758660e+00 5.8956848654575435e-02 1.0752971879602207e+00 -2.0683354708242376e+00 1.8601192473116823e+00 3.8788823181989329e-01 4.4980917151248251e-01 -1.4858463991047413e-01 -8.6556616658902841e-01 
        </Neuron>
        <Neuron NSynapses="11">
          1.9229250575751178e+00 -4.1350082835888619e-01 2.2710852322433664e-01 1.7419307505064230e+00 1.0334407373724803e+00 -1.0922225323554242e+00 1.4695849262860352e+00 -2.2440513083899369e+00 1.0562824097420569e+00 2.1458330569889474e+00 -1.5830805083102537e-01 
        </Neuron>
        <Neuron NSynapses="11">
          -1.3167218643624421e+00 6.7094581897121952e-01 -7.7442498101953661e-01 1.0531209801636665e+00 -3.8496516494555177e-01 -1.0068594943171576e+00 -1.1008326522742629e+00 -2.7688684164225724e-01 -4.2059207483573358e-01 9.3389277308423946e-01 -7.3890550919967057e-01 
        </Neuron>
        <Neuron NSynapses="11">
          -3.3941241028613458e+00 2.1510842126419258e+00 9.8993318330408619e-01 -2.2881117966020965e+00 5.7090848702526442e-01 -1.9425672077426077e+00 1.4553124183458477e+00 3.7115473296360890e+00 -4.8957750973024344e-01 -9.0109199671972284e-02 1.5903270687762350e+00 
        </Neuron>
        <Neuron NSynapses="11">
          1.2928133459434281e+00 6.8713513074859489e-01 1.9332048527772033e-01 -9.2564991418690012e-01 -2.2122677225320913e+00 1.2643935786717315e+00 -4.1281578266760488e-02 -8.6957014895567619e-02 -2.8573861350717276e+00 -8.2711249408700704e-01 -1.9430117582638804e+00 
        </Neuron>
      </Layer>
      <Layer Index="2" NNeurons="12">
        <Neuron NSynapses="1">
          -3.1903889816304991e+00 
        </Neuron>
        <Neuron NSynapses="1">
          -1.6022052076793871e+00 
        </Neuron>
        <Neuron NSynapses="1">
          1.0574860157560466e+00 
        </Neuron>
        <Neuron NSynapses="1">
          -2.3578757695171264e+00 
        </Neuron>
        <Neuron NSynapses="1">
          2.1141019351824668e+00 
        </Neuron>
        <Neuron NSynapses="1">
          2.1304196297592100e+00 
        </Neuron>
        <Neuron NSynapses="1">
          -2.1522734694563255e+00 
        </Neuron>
        <Neuron NSynapses="1">
          4.7332818360233437e+00 
        </Neuron>
        <Neuron NSynapses="1">
          3.3285290926435267e+00 
        </Neuron>
        <Neuron NSynapses="1">
          4.1589311199259154e+00 
        </Neuron>
        <Neuron NSynapses="1">
          -4.7869655553230578e-01 
        </Neuron>
        <Neuron NSynapses="1">
          -1.0032696270165864e+00 
        </Neuron>
      </Layer>
      <Layer Index="3" NNeurons="1">
        <Neuron NSynapses="0"/>
      </Layer>
    </Layout>
  </Weights>
</MethodSetup>
