<?xml version="1.0"?>
<MethodSetup Method="MLP::MLP">
  <GeneralInfo>
    <Info name="TMVA Release" value="4.2.1 [262657]"/>
    <Info name="ROOT Release" value="6.22/06 [398854]"/>
    <Info name="Creator" value="konstantin"/>
    <Info name="Date" value="Wed Mar 24 00:21:56 2021"/>
    <Info name="Host" value="Linux mach 5.8.0-43-generic #49~20.04.1-Ubuntu SMP Fri Feb 5 09:57:56 UTC 2021 x86_64 x86_64 x86_64 GNU/Linux"/>
    <Info name="Dir" value="/home/konstantin/Projects/CERN/TMVA_MLP"/>
    <Info name="Training events" value="170672"/>
    <Info name="TrainingTime" value="3.51233585e+02"/>
    <Info name="AnalysisType" value="Classification"/>
  </GeneralInfo>
  <Options>
    <Option name="NCycles" modified="Yes">400</Option>
    <Option name="HiddenLayers" modified="Yes">N+10,N+10</Option>
    <Option name="NeuronType" modified="Yes">sigmoid</Option>
    <Option name="RandomSeed" modified="No">1</Option>
    <Option name="EstimatorType" modified="No">CE</Option>
    <Option name="NeuronInputType" modified="No">sum</Option>
    <Option name="V" modified="Yes">False</Option>
    <Option name="VerbosityLevel" modified="No">Default</Option>
    <Option name="VarTransform" modified="Yes">N</Option>
    <Option name="H" modified="Yes">True</Option>
    <Option name="CreateMVAPdfs" modified="No">False</Option>
    <Option name="IgnoreNegWeightsInTraining" modified="No">False</Option>
    <Option name="TrainingMethod" modified="No">BP</Option>
    <Option name="LearningRate" modified="Yes">2.000000e-02</Option>
    <Option name="DecayRate" modified="No">1.000000e-02</Option>
    <Option name="TestRate" modified="Yes">5</Option>
    <Option name="EpochMonitoring" modified="No">False</Option>
    <Option name="Sampling" modified="No">1.000000e+00</Option>
    <Option name="SamplingEpoch" modified="No">1.000000e+00</Option>
    <Option name="SamplingImportance" modified="No">1.000000e+00</Option>
    <Option name="SamplingTraining" modified="No">True</Option>
    <Option name="SamplingTesting" modified="No">False</Option>
    <Option name="ResetStep" modified="No">50</Option>
    <Option name="Tau" modified="No">3.000000e+00</Option>
    <Option name="BPMode" modified="Yes">batch</Option>
    <Option name="BatchSize" modified="Yes">7</Option>
    <Option name="ConvergenceImprove" modified="Yes">2.500000e-03</Option>
    <Option name="ConvergenceTests" modified="Yes">5</Option>
    <Option name="UseRegulator" modified="Yes">False</Option>
    <Option name="UpdateLimit" modified="No">10000</Option>
    <Option name="CalculateErrors" modified="No">False</Option>
    <Option name="WeightRange" modified="No">1.000000e+00</Option>
  </Options>
  <Variables NVar="11">
    <Variable VarIndex="0" Expression="mJJ" Label="mJJ" Title="mJJ" Unit="" Internal="mJJ" Type="F" Min="2.27864819e+01" Max="7.83875537e+03"/>
    <Variable VarIndex="1" Expression="deltaYJJ" Label="deltaYJJ" Title="deltaYJJ" Unit="" Internal="deltaYJJ" Type="F" Min="2.21196096e-05" Max="8.68471050e+00"/>
    <Variable VarIndex="2" Expression="metPt" Label="metPt" Title="metPt" Unit="" Internal="metPt" Type="F" Min="1.25825294e+02" Max="2.27749878e+03"/>
    <Variable VarIndex="3" Expression="ptBalance" Label="ptBalance" Title="ptBalance" Unit="" Internal="ptBalance" Type="F" Min="4.91857872e-06" Max="4.76490766e-01"/>
    <Variable VarIndex="4" Expression="subleadJetEta" Label="subleadJetEta" Title="subleadJetEta" Unit="" Internal="subleadJetEta" Type="F" Min="-4.50663424e+00" Max="4.51134682e+00"/>
    <Variable VarIndex="5" Expression="leadJetPt" Label="leadJetPt" Title="leadJetPt" Unit="" Internal="leadJetPt" Type="F" Min="5.00584755e+01" Max="2.75328247e+03"/>
    <Variable VarIndex="6" Expression="photonEta" Label="photonEta" Title="photonEta" Unit="" Internal="photonEta" Type="F" Min="-2.40109253e+00" Max="2.39041257e+00"/>
    <Variable VarIndex="7" Expression="ptBalanceRed" Label="ptBalanceRed" Title="ptBalanceRed" Unit="" Internal="ptBalanceRed" Type="F" Min="2.29892414e-02" Max="9.99983788e-01"/>
    <Variable VarIndex="8" Expression="nJets" Label="nJets" Title="nJets" Unit="" Internal="nJets" Type="F" Min="2.00000000e+00" Max="9.00000000e+00"/>
    <Variable VarIndex="9" Expression="sinDeltaPhiJJOver2" Label="sinDeltaPhiJJOver2" Title="sinDeltaPhiJJOver2" Unit="" Internal="sinDeltaPhiJJOver2" Type="F" Min="1.59144402e-05" Max="1.00000000e+00"/>
    <Variable VarIndex="10" Expression="deltaYJPh" Label="deltaYJPh" Title="deltaYJPh" Unit="" Internal="deltaYJPh" Type="F" Min="1.18112052e-06" Max="6.68952894e+00"/>
  </Variables>
  <Spectators NSpec="1">
    <Spectator SpecIndex="0" Expression="weightModified" Label="weightModified" Title="F" Unit="" Internal="weightModified" Type="F" Min="-1.91263646e-01" Max="1.09073341e+00"/>
  </Spectators>
  <Classes NClass="2">
    <Class Name="Signal" Index="0"/>
    <Class Name="Background" Index="1"/>
  </Classes>
  <Transformations NTransformations="1">
    <Transform Name="Normalize">
      <Selection>
        <Input NInputs="11">
          <Input Type="Variable" Label="mJJ" Expression="mJJ"/>
          <Input Type="Variable" Label="deltaYJJ" Expression="deltaYJJ"/>
          <Input Type="Variable" Label="metPt" Expression="metPt"/>
          <Input Type="Variable" Label="ptBalance" Expression="ptBalance"/>
          <Input Type="Variable" Label="subleadJetEta" Expression="subleadJetEta"/>
          <Input Type="Variable" Label="leadJetPt" Expression="leadJetPt"/>
          <Input Type="Variable" Label="photonEta" Expression="photonEta"/>
          <Input Type="Variable" Label="ptBalanceRed" Expression="ptBalanceRed"/>
          <Input Type="Variable" Label="nJets" Expression="nJets"/>
          <Input Type="Variable" Label="sinDeltaPhiJJOver2" Expression="sinDeltaPhiJJOver2"/>
          <Input Type="Variable" Label="deltaYJPh" Expression="deltaYJPh"/>
        </Input>
        <Output NOutputs="11">
          <Output Type="Variable" Label="mJJ" Expression="mJJ"/>
          <Output Type="Variable" Label="deltaYJJ" Expression="deltaYJJ"/>
          <Output Type="Variable" Label="metPt" Expression="metPt"/>
          <Output Type="Variable" Label="ptBalance" Expression="ptBalance"/>
          <Output Type="Variable" Label="subleadJetEta" Expression="subleadJetEta"/>
          <Output Type="Variable" Label="leadJetPt" Expression="leadJetPt"/>
          <Output Type="Variable" Label="photonEta" Expression="photonEta"/>
          <Output Type="Variable" Label="ptBalanceRed" Expression="ptBalanceRed"/>
          <Output Type="Variable" Label="nJets" Expression="nJets"/>
          <Output Type="Variable" Label="sinDeltaPhiJJOver2" Expression="sinDeltaPhiJJOver2"/>
          <Output Type="Variable" Label="deltaYJPh" Expression="deltaYJPh"/>
        </Output>
      </Selection>
      <Class ClassIndex="0">
        <Ranges>
          <Range Index="0" Min="2.2786481857299805e+01" Max="7.5057304687500000e+03"/>
          <Range Index="1" Min="1.5035811520647258e-04" Max="8.6847105026245117e+00"/>
          <Range Index="2" Min="1.2697845458984375e+02" Max="2.2774987792968750e+03"/>
          <Range Index="3" Min="4.9185787247552071e-06" Max="4.0502533316612244e-01"/>
          <Range Index="4" Min="-4.5066342353820801e+00" Max="4.5113468170166016e+00"/>
          <Range Index="5" Min="5.0105968475341797e+01" Max="1.9641448974609375e+03"/>
          <Range Index="6" Min="-2.4010925292968750e+00" Max="2.3904125690460205e+00"/>
          <Range Index="7" Min="4.8834752291440964e-02" Max="9.9988257884979248e-01"/>
          <Range Index="8" Min="2.0000000000000000e+00" Max="8.0000000000000000e+00"/>
          <Range Index="9" Min="1.5914440155029297e-05" Max="1.0000000000000000e+00"/>
          <Range Index="10" Min="3.2652555091772228e-05" Max="6.5068273544311523e+00"/>
        </Ranges>
      </Class>
      <Class ClassIndex="1">
        <Ranges>
          <Range Index="0" Min="2.3556308746337891e+01" Max="7.8387553710937500e+03"/>
          <Range Index="1" Min="2.2119609639048576e-05" Max="8.6838493347167969e+00"/>
          <Range Index="2" Min="1.2582529449462891e+02" Max="1.9265614013671875e+03"/>
          <Range Index="3" Min="5.9500340285012498e-05" Max="4.7649076581001282e-01"/>
          <Range Index="4" Min="-4.5036110877990723e+00" Max="4.5083436965942383e+00"/>
          <Range Index="5" Min="5.0058475494384766e+01" Max="2.7532824707031250e+03"/>
          <Range Index="6" Min="-2.3863203525543213e+00" Max="2.3830773830413818e+00"/>
          <Range Index="7" Min="2.2989241406321526e-02" Max="9.9998378753662109e-01"/>
          <Range Index="8" Min="2.0000000000000000e+00" Max="9.0000000000000000e+00"/>
          <Range Index="9" Min="1.9311904907226562e-05" Max="1.0000000000000000e+00"/>
          <Range Index="10" Min="1.1811205240519485e-06" Max="6.6895289421081543e+00"/>
        </Ranges>
      </Class>
      <Class ClassIndex="2">
        <Ranges>
          <Range Index="0" Min="2.2786481857299805e+01" Max="7.8387553710937500e+03"/>
          <Range Index="1" Min="2.2119609639048576e-05" Max="8.6847105026245117e+00"/>
          <Range Index="2" Min="1.2582529449462891e+02" Max="2.2774987792968750e+03"/>
          <Range Index="3" Min="4.9185787247552071e-06" Max="4.7649076581001282e-01"/>
          <Range Index="4" Min="-4.5066342353820801e+00" Max="4.5113468170166016e+00"/>
          <Range Index="5" Min="5.0058475494384766e+01" Max="2.7532824707031250e+03"/>
          <Range Index="6" Min="-2.4010925292968750e+00" Max="2.3904125690460205e+00"/>
          <Range Index="7" Min="2.2989241406321526e-02" Max="9.9998378753662109e-01"/>
          <Range Index="8" Min="2.0000000000000000e+00" Max="9.0000000000000000e+00"/>
          <Range Index="9" Min="1.5914440155029297e-05" Max="1.0000000000000000e+00"/>
          <Range Index="10" Min="1.1811205240519485e-06" Max="6.6895289421081543e+00"/>
        </Ranges>
      </Class>
    </Transform>
  </Transformations>
  <MVAPdfs/>
  <Weights>
    <Layout NLayers="4">
      <Layer Index="0" NNeurons="12">
        <Neuron NSynapses="21">
          3.7530206683468947e-01 4.2802926766870577e+00 6.2753880737093190e-02 4.1359367109240202e+00 -4.1187327441194714e+00 -2.4510262549809640e+00 -2.4532612889583616e+00 1.2893832919107842e+00 -7.1712728007063797e-01 2.1610812669332038e-01 -3.4811645120834087e+00 -4.2761193963472593e-01 -1.3450067423031795e+00 -1.5752131468609707e+00 1.4980629475365121e+00 1.5415226125424072e-01 -1.9655103973227742e-01 -7.2131858883039668e-01 7.8500596893008967e-01 1.4845736339146083e+00 2.9619046644318496e+00 
        </Neuron>
        <Neuron NSynapses="21">
          -9.7849335942889426e-01 1.6821167800906285e+00 -1.0658453712848794e+00 -1.5492676220069428e+00 7.1706091502775404e-01 9.0276165901768146e-01 -2.9648379069307320e+00 -3.8238082367694211e+00 -1.4147601957765335e-01 3.0375825459273953e+00 2.3471764387430269e+00 -9.0182234863606658e-01 -9.6504177047521411e-01 -2.2009731327254709e+00 1.5524062362480442e+00 8.3456711822537410e-01 2.0883959906685958e+00 -1.4538056574187175e+00 1.4952845072570726e+00 5.1941240553908152e-01 1.3591332082046368e+00 
        </Neuron>
        <Neuron NSynapses="21">
          1.0914146546657355e+00 5.9729842866242566e-01 -7.7090435104674271e-01 -1.2851047278405081e+00 2.3703907317168313e-01 4.5373657719284849e-01 1.9319929118371606e+00 7.4868560140475848e-01 1.0107534644894762e+00 1.9652736806096920e+00 -2.5301255838175414e+00 9.5384174635277819e-01 -4.7897188680608721e-01 -1.4358943846307650e+00 -2.2906142055723651e+00 -1.3943335688147147e+00 1.4678621677327883e+00 -2.2082590587671941e-01 -1.0990619384285996e+00 -3.2522224933551491e-01 2.6748478034474404e-01 
        </Neuron>
        <Neuron NSynapses="21">
          1.2653292941340024e+00 8.9346956881475070e-01 -1.6537713596453135e-01 -1.0743565240294448e-01 -1.1191711448185948e+00 2.7707869077534135e+00 2.5665399340585088e-01 -4.8263461007376357e-02 -2.2720144522757537e+00 -7.2493667056586913e-02 8.0015991216597770e-01 1.6154548275153879e+00 -2.6417490381729553e-01 -7.8915079435684976e-01 -2.6108673129743925e+00 1.2904152725837077e+00 9.0515597892731103e-01 4.3147221736238910e+00 1.1105686044484417e+00 4.7780789664541451e-01 -3.3589268600586353e+00 
        </Neuron>
        <Neuron NSynapses="21">
          -4.0788758031571586e+00 1.3494870706671344e-01 2.1397580079151903e+00 -1.2513369650830072e-01 -6.4103822745640604e-01 2.5082130732961622e-01 -3.8194435612994598e-01 -8.2317806130103546e-02 2.6247283956874052e+00 -3.6886548493037496e+00 -8.9379663532770537e-01 3.7314977044393984e+00 -1.0048161852095003e+00 -4.0770034035674847e+00 -1.8280969847578366e+00 4.4551786570020180e-02 -1.6681857804718199e+00 5.0693478671298031e-01 4.8472998111743698e-01 3.2704412418860329e-01 -1.5064727943967948e+00 
        </Neuron>
        <Neuron NSynapses="21">
          1.6955916411412020e+00 -5.2798758593295336e-01 1.7383119917118289e-01 1.4012048421133638e+00 -4.6885349625570505e-01 -1.8600119457160789e+00 -4.8051314607152767e-01 5.0674291370166180e-01 -2.8010053387539979e-01 -2.2694689371207684e+00 1.5242809061973321e+00 1.7882297833292027e-01 -9.1934960133221066e-01 6.9768092711346896e-01 -1.1137112582964130e+00 -1.1677048505858378e+00 4.1737023278211299e-01 -1.8665338421463673e+00 2.2965378091620106e+00 1.0970878447821046e+00 1.1141006330677641e+00 
        </Neuron>
        <Neuron NSynapses="21">
          3.4525243515338244e-01 -2.4722504593679095e-01 -1.8407158086118285e+00 4.5834098173443716e-01 2.0596570696044553e-02 -1.2883679678815314e+00 1.0516732194108230e-02 -7.0435141354260256e-01 -4.0211687846813615e-01 1.6369904796339767e+00 7.4032169565926242e-01 -4.9503717875265273e-02 4.9233318773471818e-01 2.0768073679009889e+00 8.9831299402072878e-02 -6.4651062330037679e-01 -9.6559013189392107e-01 5.3085835987337626e-01 -7.8205067462716626e-01 4.7353424573520098e-01 1.7102362575897415e-01 
        </Neuron>
        <Neuron NSynapses="21">
          -7.2035244830818124e-01 -9.1630994090989271e-01 8.3163381234027878e-01 7.2481782578503895e-01 3.9157963875260998e-01 5.4517990804912142e-01 -2.6393010303209291e-01 -1.2896208188432401e-01 2.2293114926766591e-01 2.3355106750893914e-01 -5.2624127123989194e-02 -2.2292061294402271e-01 -6.9784172301239877e-01 1.8853576594263874e-01 5.5393105374945628e-01 -4.5737257064616810e-01 3.6539724988232952e-01 1.1337914111474969e+00 -7.0910285684917318e-01 -1.4472788556364335e+00 8.0837950656918700e-01 
        </Neuron>
        <Neuron NSynapses="21">
          -2.0587857475300389e-01 -1.4547603507426698e+00 1.6262904029091074e+00 2.1550535317163364e+00 -1.1569431817760174e+00 2.0284438716032285e+00 2.2380714362075738e+00 -1.8768317790787690e+00 8.2744482822343746e-01 -4.3496131242513819e-01 6.7637965286654733e-01 -1.0082262677337364e+00 -1.3602954482233942e+00 1.6379541530108119e+00 2.7605337633318823e+00 -1.4005385086347655e+00 -7.0871907877028906e-02 -8.1587055561903543e-01 1.0236077042260598e+00 1.6895372122335204e+00 -5.1991670396774359e-01 
        </Neuron>
        <Neuron NSynapses="21">
          -1.6405251283345587e-01 -1.4233702809578672e-02 4.2672846852246193e-01 2.3508581126464448e-01 2.5410842049205667e-01 3.6895799217474323e-01 -8.6389123587680321e-04 -1.4356178210332873e+00 7.0058106441123491e-01 3.5273463794847321e-01 -6.8090100649070062e-01 -3.6287753262277311e-01 7.6059294400275423e-02 4.5001673146776044e-01 -8.4697446746439786e-01 1.5681098471926913e+00 3.2785694769398999e-01 -3.6041509813901779e-01 -4.4024236643366799e-02 1.1723139585584477e+00 -5.0978912422991261e-02 
        </Neuron>
        <Neuron NSynapses="21">
          2.5342460013627632e-01 7.4748656076689957e-01 -1.7835343113046069e+00 -9.4799910204108628e-01 9.7403383304602562e-02 1.1880961783057655e+00 -2.7043162230382412e-01 5.5587479068142029e-02 1.3569295598177262e+00 -3.0035831006932572e+00 -1.1495135186669641e+00 1.8284900339160731e-01 -1.7976343762215969e+00 2.0313019343689964e+00 7.0944620052264795e-01 -1.0983758914193648e-01 1.1193961489579058e+00 5.9900591183191097e-02 -1.1059668494299133e+00 1.0913445535667644e-01 -5.6463835792526134e-03 
        </Neuron>
        <Neuron NSynapses="21">
          7.6313119915411576e-01 4.9654807985825542e+00 -3.6771367746367813e+00 4.1258757392899872e+00 -5.7946197869584193e+00 1.5144669574531311e+00 -1.0111897622221260e+00 -2.1934927075965747e+00 -1.9825301203874952e+00 -4.2437532665164240e-01 -3.0651506440410814e+00 -2.2228542829527997e+00 -2.7135669873770412e+00 -2.5840434291167949e+00 6.7069748073450963e-01 -3.6463363576912688e+00 -1.8234849880031632e+00 1.4889474442212220e+00 -1.4301406856568462e+00 1.8857353246865123e+00 4.1015817943003674e-01 
        </Neuron>
      </Layer>
      <Layer Index="1" NNeurons="22">
        <Neuron NSynapses="21">
          1.2824419863038843e+00 2.0261366036905475e+00 1.3979861512412517e+00 -1.0693040869220878e+00 -2.4687283205829513e+00 -9.7283137242435036e-01 -2.3393802225588661e-01 -3.9077757199822089e-01 3.3107372644897420e-01 6.1042140191564753e-01 2.4429546740399073e+00 -2.6119891278398105e-01 -1.0241550230255086e-01 -6.2972351855282704e-01 -3.1360527308717798e+00 1.4129914338501819e+00 1.1245286345734300e+00 -1.3628846331249362e+00 -5.2327670917728919e-01 1.2443875391613759e+00 1.5103459732911324e+00 
        </Neuron>
        <Neuron NSynapses="21">
          8.5263382623130013e-01 -1.1357632536760085e+00 -3.3367453209706421e-01 1.0597743427309263e+00 2.8327915745430801e+00 1.0264476935513858e+00 -1.4407139511823486e+00 3.2640956867689191e-01 -1.6439251528047830e-02 -1.2267215783304215e+00 2.4538223629718794e+00 -1.9217604371232195e+00 -1.4044665446885276e+00 -1.7361886785949825e+00 1.2069242972951746e+00 -1.9251828350927389e+00 1.6359664453388578e+00 -1.9506110739313764e+00 1.5645144176836812e+00 -1.4833189177090516e+00 1.3981380052263004e-01 
        </Neuron>
        <Neuron NSynapses="21">
          7.8515282420173260e-01 -1.9862794332996545e+00 1.4207563332900836e-01 1.1488996015645867e+00 -2.2036842684650360e+00 -1.4876155756341314e+00 -1.8622483734537090e+00 -1.2594629496956060e+00 1.8657409990281362e+00 -3.7361835509287644e-01 4.6965460733661124e-01 -7.9428917327570014e-01 -1.4128877579839652e+00 -1.6844808686002068e+00 -7.0494483493558979e-01 -1.6030204946108979e+00 9.4038059701431298e-01 -7.3991504987004009e-01 -1.5322021551829477e+00 1.0271067666828848e+00 3.3264548431652863e-01 
        </Neuron>
        <Neuron NSynapses="21">
          -7.8952720710379776e-01 1.3555229140403167e+00 -1.8694583927530501e+00 2.4879667252808377e+00 1.2257622725669381e+00 -1.0170955414661298e+00 -2.6679650399558841e+00 1.9599314978643531e-01 -1.7270940373544090e+00 4.8587198153678790e-01 4.5527788131485565e+00 1.6115980980312765e+00 2.2604941102753555e+00 -1.5571940256508456e+00 9.2439966584174149e-01 -2.0847258915636386e+00 4.3791105771942923e-01 -2.2804716843671025e+00 -2.6731425369759907e+00 -3.0558993973912757e-01 8.1023677957890183e-01 
        </Neuron>
        <Neuron NSynapses="21">
          2.4197715770244385e-01 1.0192904772105098e+00 2.3155774383883423e-01 -1.0086507676823748e+00 -2.2338037364003109e+00 9.7620275033849888e-02 2.9277734893702725e+00 -2.0866597945333609e+00 4.1311656778405070e-01 -1.7437683346212993e+00 -2.5383324726117285e+00 -2.2672363394422937e-01 -7.2612395787119688e-01 -1.1624210250542335e+00 7.7799014316500759e-01 1.8281832744375224e+00 4.8197670553269900e-01 2.6558899142626752e-01 -4.4664699470646207e-01 -1.4247422653939512e+00 -1.8364789907553651e+00 
        </Neuron>
        <Neuron NSynapses="21">
          1.1244640404195829e+00 -8.0629343124031050e-01 -1.2397193834000946e+00 -2.1880542408093109e-01 -1.0341186868796135e+00 -1.1172699457007613e+00 -1.5590242511958712e+00 2.7966538624494235e+00 -7.5235752427759928e-01 -2.0254653333057737e+00 3.0112313163102966e-01 -1.6701073984123309e+00 -1.9081605229431671e+00 9.6062343612800327e-01 -2.4676634048623569e+00 -9.8114348931199524e-01 1.6884423213576356e+00 1.3506060729539013e+00 -1.9461042230574688e-01 -2.0697115627313248e-01 2.0242027525169561e+00 
        </Neuron>
        <Neuron NSynapses="21">
          2.1125307904384290e+00 1.2350051741050547e+00 -1.0013475983381614e+00 -1.1704130403644735e+00 -3.0356959746570062e+00 9.1382882330707216e-01 9.0843832804686120e-01 2.1245545375648245e+00 1.5196921661967850e+00 9.6223934967869573e-01 2.0319851464144327e+00 -1.3456870869732536e+00 1.6500393743397583e+00 4.3692120020210529e-01 -2.2249444706799144e+00 -5.1148593655590635e-01 -1.2203255297380342e+00 5.0460027771192395e-01 8.9671853482033637e-01 1.3380958153748470e+00 1.6958498197879364e+00 
        </Neuron>
        <Neuron NSynapses="21">
          1.0389649066394036e-01 1.7601355132734171e+00 1.7232374487279551e+00 7.5453703781003134e-01 -1.6096112374393632e+00 1.6790293335765465e+00 -1.1311279387691962e+00 -2.6940128712448125e-01 1.7177295813173881e+00 1.5492390580735038e-01 -1.7959537949996707e-01 1.2868259877980423e-01 -1.8107211999844921e+00 4.0549359058841616e-01 -1.5804714795991444e+00 -1.4537263479669532e-01 -2.8694808903540392e-01 1.9334947547061714e+00 1.9518345036179898e+00 1.3611880534364962e+00 -6.4647811384695275e-01 
        </Neuron>
        <Neuron NSynapses="21">
          -1.0914948687294691e-01 1.0411931130167429e+00 1.6727551627989676e+00 -2.5180406858874584e+00 -2.4054582654059975e+00 -6.3747116578775609e-01 -1.3686481056127930e+00 -1.7059978965679201e+00 -2.5602417875857070e-01 7.2223027799412598e-01 -6.7941434243893228e-01 -2.1458433730929833e+00 -1.9136943031371074e+00 -1.9794290238281209e-01 6.1986724811088079e-01 1.2917861557101786e+00 1.3048780668496673e+00 -6.8913886774638633e-01 -2.0482413804030717e+00 -3.5478862931146010e-01 -1.5462408175765394e+00 
        </Neuron>
        <Neuron NSynapses="21">
          -2.3959584726541285e+00 -1.1092268417545037e+00 -6.6148441635451253e-03 -1.6584383018227165e+00 2.4113189716888463e+00 1.2728297035093268e+00 7.3768027755102317e-01 2.8116998822034500e-01 -1.9467278141884059e+00 1.7944911255028815e+00 -1.3736888497337476e+00 4.5559514907554749e-01 7.0795181791709072e-01 1.3606698427204282e+00 -2.5123621483783415e-01 2.4077563004089733e+00 -2.3486172086580330e+00 1.0486072253046126e+00 2.0869035687455360e+00 1.6682130808452553e-01 -1.6341089617909718e-01 
        </Neuron>
        <Neuron NSynapses="21">
          7.5921887853826531e-01 -3.4006529419506698e-01 1.1384310870853072e+00 4.4590756183929714e-01 -2.2290811860137461e+00 -1.5302344670539745e+00 -9.4135509054382699e-02 1.8692569144319893e+00 5.0666753420918853e-01 -9.3088305825344697e-01 -2.4118095399879320e+00 1.8575747569462309e+00 7.1362571040829215e-01 -1.2209657382604271e+00 -6.8798697005775411e-01 -1.0679386714753190e+00 9.6864945113529644e-01 1.1011645702102959e+00 -1.1921200514799730e+00 -1.0586888879402419e+00 1.6370944933312661e+00 
        </Neuron>
        <Neuron NSynapses="21">
          1.4172850582070669e+00 6.9971865038753811e-01 1.6182390009715217e-01 -1.3910172425570935e+00 -1.6060730110276511e+00 1.1366674959127385e+00 4.0292348162430092e-01 6.4714445662988296e-01 -1.5050323736005620e+00 -1.7721554646032383e+00 -1.9394282890855277e+00 -4.0944925123774240e-01 -1.8420884262876194e+00 7.4360069737409229e-01 -8.0340050068838165e-01 1.4605243006844379e+00 2.9151848724290108e-01 -2.0904513439971613e+00 1.2666204582749359e+00 1.8126501663062198e+00 1.2014682596392401e+00 
        </Neuron>
        <Neuron NSynapses="21">
          -1.5977074926777132e-01 -1.0265231546221696e+00 1.7052454731343583e+00 -1.8696400289118700e+00 8.7130309045760646e-01 -1.3783983225205474e+00 8.2419604020747539e-01 -1.5482313310344906e+00 1.5388438682207278e-01 -5.7924097403981745e-01 1.0869778855731778e+00 -7.1741429953730707e-01 -1.2707977119261464e+00 5.5252286692941610e-01 9.4812236104701231e-01 3.3827931787431631e-01 6.7204764505482195e-01 -1.4608956324001319e+00 2.3877566504866312e+00 -2.1315345437687134e+00 7.1560962706006614e-01 
        </Neuron>
        <Neuron NSynapses="21">
          1.7657708196576130e+00 9.3352164457775200e-01 1.5741152294895984e+00 6.9602856868107033e-01 -3.6446900994704894e+00 -7.3052388369643884e-01 -3.8042332904027509e-01 7.3351188271372514e-01 4.0536326409824674e-01 1.7981754387525128e-01 -7.4966522390499757e-01 3.7003827136793829e-02 -9.4759294992100496e-01 -5.2864375540289088e-01 -2.7673430989072312e+00 5.2547085446169303e-02 -3.9764879522853208e-02 -1.6098665809140087e+00 -2.6246606734265798e+00 1.5382341266836055e+00 2.3518972801408308e-01 
        </Neuron>
        <Neuron NSynapses="21">
          -6.3133804475448341e-01 -1.7767764551344556e+00 1.8162493309200316e+00 -1.5360065363371070e-01 8.7810410847224440e-01 6.9224284061872987e-01 -2.0039978440275927e+00 -1.9586480029921918e+00 -1.0253142985469832e-01 -3.2617366335359401e+00 -4.3873746124365509e-01 -1.1590244971678498e+00 1.0233223098643651e+00 -2.0999357446243025e+00 1.4293997674682051e+00 2.0220598707436386e+00 1.3196183372273806e+00 1.7578210418817211e+00 -4.9005591047856834e-01 3.0486247838768027e-01 -1.1719763608837250e+00 
        </Neuron>
        <Neuron NSynapses="21">
          -1.4227002584735351e+00 -1.7006645584240063e+00 -8.2955104311978722e-01 1.5228332441050139e+00 -1.4490160690488169e-01 1.4452469446403141e-01 1.7843760342518964e+00 2.4520003432928905e-01 -1.6344690925415231e+00 6.7094063156432304e-01 -2.1868025842034262e+00 8.0652430565169042e-01 -2.2558613920102664e+00 7.9001514286776861e-02 -3.2465200108743220e-01 6.7672626465517516e-01 -2.0898329992742055e+00 5.9096302330763739e-01 -1.0426886301203755e+00 -6.3660784285564309e-01 1.2731931244242618e+00 
        </Neuron>
        <Neuron NSynapses="21">
          -6.5170181961201001e-01 4.5024572868448082e-01 -1.7175694327258830e+00 1.1043706412794803e+00 -4.9302214436263114e-01 8.3182980752188063e-01 -1.6102272340493604e+00 -1.0952049795061225e+00 1.8818907529334974e+00 -1.8217538886747227e+00 -1.3046670780268879e+00 -8.6397220660811813e-01 1.2570265399958380e+00 1.4606084638512373e+00 1.3020875657538749e+00 -1.6514005800263842e+00 7.6557268371941600e-01 6.8528505492849112e-01 2.1846182842091436e-01 -1.2507776034738467e+00 -1.3978500489438634e+00 
        </Neuron>
        <Neuron NSynapses="21">
          5.9794438626135360e-01 -3.0882211286128813e-01 1.5212258022043073e+00 -2.7522147398760788e-01 -5.2355191531566481e-01 -1.0583935361659942e+00 1.8545571357898181e+00 1.1587184169970357e+00 1.8617330499354949e+00 -1.5521800150548018e-01 -6.8072117179439873e-01 1.7492148613647613e+00 1.7692755179798766e-01 1.3624140997078187e+00 -7.4631703783734693e-01 -1.3842142725937427e+00 -1.4633845481664425e+00 -1.2363020081825913e+00 -6.0614614764951380e-01 -1.6568758893373601e+00 3.0333397772103893e-01 
        </Neuron>
        <Neuron NSynapses="21">
          7.8220283748229508e-02 -7.6229617942449468e-01 9.1582438423617840e-01 -1.7014932966313843e+00 -9.5984553306319709e-01 3.3154783749464997e-02 -1.0822067858671161e+00 4.8188137927013142e-01 1.4266041384806820e+00 -1.7720547978617258e+00 -1.1751943415720975e-01 -1.3591974742702313e+00 5.4760485475680520e-01 4.3525953690281066e-01 -9.6804400033274918e-01 -8.0190751703456864e-01 -1.5760366107853971e+00 1.6748267816456588e+00 -1.1098264279727613e-01 9.8816901059820317e-01 -5.7722593642023416e-02 
        </Neuron>
        <Neuron NSynapses="21">
          -1.0389105920224733e+00 -1.8716525861782796e+00 -1.3996063588992766e+00 1.2461252174159752e+00 9.5546365173943615e-01 2.2555397636756858e-01 -1.7589754902064936e+00 6.3628263165053600e-01 2.5205975666558178e-01 -1.3871694212862224e+00 1.8369384199400445e+00 9.9891303724330571e-01 -1.0561137773700580e+00 -1.1148725784471383e+00 -2.0950560122338597e+00 -4.0712618799749084e-01 1.5490599814062511e+00 1.1273920360059195e+00 3.2604887825453066e-01 -2.1302489689133712e+00 -9.1623407393779233e-01 
        </Neuron>
        <Neuron NSynapses="21">
          -8.3291452396894239e-01 -1.0341905538669027e+00 1.5307612859706461e+00 -1.5313631438410580e+00 1.2894929510277355e+00 -5.9929357612984513e-01 -1.0149952798986897e+00 -3.4757929296809329e+00 1.5037897784032310e+00 1.5265906152661360e-01 2.8591099215502562e+00 -1.0724027915709000e+00 9.6476445000151201e-01 4.0760407748563438e-01 1.4450181389546586e+00 -2.9507246318462049e-01 -1.7533101898863808e+00 -2.2999639682628201e+00 -5.7518512446256154e-01 8.7055690874928660e-01 4.2229698071441135e-01 
        </Neuron>
        <Neuron NSynapses="21">
          1.4302133390655969e+00 -2.6031036233624023e-02 -5.7632161771273338e-01 1.4358193659407612e+00 5.6808474189976288e-01 -1.8431286368415094e+00 -1.9889570359765874e-01 4.6431956363494853e-01 2.1413347824143294e+00 9.1369832989511801e-01 1.5567285963891009e-01 -9.9988959792768617e-01 -1.0094905730863195e+00 -1.2361395070923604e+00 -1.2200291875970062e+00 -1.6176339028577298e-02 3.7953793908277345e-01 -1.9521552313051757e-01 1.3060791007551651e+00 5.2597173302267775e-01 -1.7630484843974401e-01 
        </Neuron>
      </Layer>
      <Layer Index="2" NNeurons="22">
        <Neuron NSynapses="1">
          -2.2521015601701659e+00 
        </Neuron>
        <Neuron NSynapses="1">
          2.1904364203668036e+00 
        </Neuron>
        <Neuron NSynapses="1">
          -5.6627731464960529e-01 
        </Neuron>
        <Neuron NSynapses="1">
          -2.0911751694677330e+00 
        </Neuron>
        <Neuron NSynapses="1">
          2.6186286393321914e+00 
        </Neuron>
        <Neuron NSynapses="1">
          -3.0895938102955928e-01 
        </Neuron>
        <Neuron NSynapses="1">
          -1.8067519942422228e+00 
        </Neuron>
        <Neuron NSynapses="1">
          2.5854367587197515e+00 
        </Neuron>
        <Neuron NSynapses="1">
          -2.6111942306801046e+00 
        </Neuron>
        <Neuron NSynapses="1">
          -1.9183935576121209e+00 
        </Neuron>
        <Neuron NSynapses="1">
          3.6530275775086567e+00 
        </Neuron>
        <Neuron NSynapses="1">
          -1.2309940075252017e+00 
        </Neuron>
        <Neuron NSynapses="1">
          -1.5393372103954077e+00 
        </Neuron>
        <Neuron NSynapses="1">
          1.0296525070996344e-01 
        </Neuron>
        <Neuron NSynapses="1">
          2.4347008598819531e+00 
        </Neuron>
        <Neuron NSynapses="1">
          1.3418150885952094e+00 
        </Neuron>
        <Neuron NSynapses="1">
          -2.4891148117107945e-01 
        </Neuron>
        <Neuron NSynapses="1">
          -2.2874795737472375e+00 
        </Neuron>
        <Neuron NSynapses="1">
          2.0051192421090671e+00 
        </Neuron>
        <Neuron NSynapses="1">
          1.7441108575924533e+00 
        </Neuron>
        <Neuron NSynapses="1">
          -1.7833214743853021e+00 
        </Neuron>
        <Neuron NSynapses="1">
          -9.1587023478702345e-01 
        </Neuron>
      </Layer>
      <Layer Index="3" NNeurons="1">
        <Neuron NSynapses="0"/>
      </Layer>
    </Layout>
  </Weights>
</MethodSetup>
