<?xml version="1.0"?>
<MethodSetup Method="MLP::MLP">
  <GeneralInfo>
    <Info name="TMVA Release" value="4.2.1 [262657]"/>
    <Info name="ROOT Release" value="6.22/06 [398854]"/>
    <Info name="Creator" value="konstantin"/>
    <Info name="Date" value="Thu Apr  1 19:43:58 2021"/>
    <Info name="Host" value="Linux mach 5.8.0-43-generic #49~20.04.1-Ubuntu SMP Fri Feb 5 09:57:56 UTC 2021 x86_64 x86_64 x86_64 GNU/Linux"/>
    <Info name="Dir" value="/home/konstantin/Projects/CERN/TMVA_MLP"/>
    <Info name="Training events" value="170672"/>
    <Info name="TrainingTime" value="1.11572235e+02"/>
    <Info name="AnalysisType" value="Classification"/>
  </GeneralInfo>
  <Options>
    <Option name="NCycles" modified="Yes">400</Option>
    <Option name="HiddenLayers" modified="Yes">N,N</Option>
    <Option name="NeuronType" modified="Yes">sigmoid</Option>
    <Option name="RandomSeed" modified="No">1</Option>
    <Option name="EstimatorType" modified="No">CE</Option>
    <Option name="NeuronInputType" modified="No">sum</Option>
    <Option name="V" modified="Yes">False</Option>
    <Option name="VerbosityLevel" modified="No">Default</Option>
    <Option name="VarTransform" modified="Yes">N</Option>
    <Option name="H" modified="Yes">True</Option>
    <Option name="CreateMVAPdfs" modified="No">False</Option>
    <Option name="IgnoreNegWeightsInTraining" modified="No">False</Option>
    <Option name="TrainingMethod" modified="No">BP</Option>
    <Option name="LearningRate" modified="Yes">2.000000e-02</Option>
    <Option name="DecayRate" modified="No">1.000000e-02</Option>
    <Option name="TestRate" modified="Yes">5</Option>
    <Option name="EpochMonitoring" modified="No">False</Option>
    <Option name="Sampling" modified="No">1.000000e+00</Option>
    <Option name="SamplingEpoch" modified="No">1.000000e+00</Option>
    <Option name="SamplingImportance" modified="No">1.000000e+00</Option>
    <Option name="SamplingTraining" modified="No">True</Option>
    <Option name="SamplingTesting" modified="No">False</Option>
    <Option name="ResetStep" modified="No">50</Option>
    <Option name="Tau" modified="No">3.000000e+00</Option>
    <Option name="BPMode" modified="Yes">batch</Option>
    <Option name="BatchSize" modified="Yes">3</Option>
    <Option name="ConvergenceImprove" modified="Yes">2.500000e-03</Option>
    <Option name="ConvergenceTests" modified="Yes">5</Option>
    <Option name="UseRegulator" modified="Yes">False</Option>
    <Option name="UpdateLimit" modified="No">10000</Option>
    <Option name="CalculateErrors" modified="No">False</Option>
    <Option name="WeightRange" modified="No">1.000000e+00</Option>
  </Options>
  <Variables NVar="11">
    <Variable VarIndex="0" Expression="mJJ" Label="mJJ" Title="mJJ" Unit="" Internal="mJJ" Type="F" Min="2.27864819e+01" Max="7.83875537e+03"/>
    <Variable VarIndex="1" Expression="deltaYJJ" Label="deltaYJJ" Title="deltaYJJ" Unit="" Internal="deltaYJJ" Type="F" Min="2.21196096e-05" Max="8.68471050e+00"/>
    <Variable VarIndex="2" Expression="metPt" Label="metPt" Title="metPt" Unit="" Internal="metPt" Type="F" Min="1.25825294e+02" Max="2.27749878e+03"/>
    <Variable VarIndex="3" Expression="ptBalance" Label="ptBalance" Title="ptBalance" Unit="" Internal="ptBalance" Type="F" Min="4.91857872e-06" Max="4.76490766e-01"/>
    <Variable VarIndex="4" Expression="subleadJetEta" Label="subleadJetEta" Title="subleadJetEta" Unit="" Internal="subleadJetEta" Type="F" Min="-4.50663424e+00" Max="4.51134682e+00"/>
    <Variable VarIndex="5" Expression="leadJetPt" Label="leadJetPt" Title="leadJetPt" Unit="" Internal="leadJetPt" Type="F" Min="5.00584755e+01" Max="2.75328247e+03"/>
    <Variable VarIndex="6" Expression="photonEta" Label="photonEta" Title="photonEta" Unit="" Internal="photonEta" Type="F" Min="-2.40109253e+00" Max="2.39041257e+00"/>
    <Variable VarIndex="7" Expression="ptBalanceRed" Label="ptBalanceRed" Title="ptBalanceRed" Unit="" Internal="ptBalanceRed" Type="F" Min="2.29892414e-02" Max="9.99983788e-01"/>
    <Variable VarIndex="8" Expression="nJets" Label="nJets" Title="nJets" Unit="" Internal="nJets" Type="F" Min="2.00000000e+00" Max="9.00000000e+00"/>
    <Variable VarIndex="9" Expression="sinDeltaPhiJJOver2" Label="sinDeltaPhiJJOver2" Title="sinDeltaPhiJJOver2" Unit="" Internal="sinDeltaPhiJJOver2" Type="F" Min="1.59144402e-05" Max="1.00000000e+00"/>
    <Variable VarIndex="10" Expression="deltaYJPh" Label="deltaYJPh" Title="deltaYJPh" Unit="" Internal="deltaYJPh" Type="F" Min="1.18112052e-06" Max="6.68952894e+00"/>
  </Variables>
  <Spectators NSpec="1">
    <Spectator SpecIndex="0" Expression="weightModified" Label="weightModified" Title="F" Unit="" Internal="weightModified" Type="F" Min="-1.91263646e-01" Max="1.09073341e+00"/>
  </Spectators>
  <Classes NClass="2">
    <Class Name="Signal" Index="0"/>
    <Class Name="Background" Index="1"/>
  </Classes>
  <Transformations NTransformations="1">
    <Transform Name="Normalize">
      <Selection>
        <Input NInputs="11">
          <Input Type="Variable" Label="mJJ" Expression="mJJ"/>
          <Input Type="Variable" Label="deltaYJJ" Expression="deltaYJJ"/>
          <Input Type="Variable" Label="metPt" Expression="metPt"/>
          <Input Type="Variable" Label="ptBalance" Expression="ptBalance"/>
          <Input Type="Variable" Label="subleadJetEta" Expression="subleadJetEta"/>
          <Input Type="Variable" Label="leadJetPt" Expression="leadJetPt"/>
          <Input Type="Variable" Label="photonEta" Expression="photonEta"/>
          <Input Type="Variable" Label="ptBalanceRed" Expression="ptBalanceRed"/>
          <Input Type="Variable" Label="nJets" Expression="nJets"/>
          <Input Type="Variable" Label="sinDeltaPhiJJOver2" Expression="sinDeltaPhiJJOver2"/>
          <Input Type="Variable" Label="deltaYJPh" Expression="deltaYJPh"/>
        </Input>
        <Output NOutputs="11">
          <Output Type="Variable" Label="mJJ" Expression="mJJ"/>
          <Output Type="Variable" Label="deltaYJJ" Expression="deltaYJJ"/>
          <Output Type="Variable" Label="metPt" Expression="metPt"/>
          <Output Type="Variable" Label="ptBalance" Expression="ptBalance"/>
          <Output Type="Variable" Label="subleadJetEta" Expression="subleadJetEta"/>
          <Output Type="Variable" Label="leadJetPt" Expression="leadJetPt"/>
          <Output Type="Variable" Label="photonEta" Expression="photonEta"/>
          <Output Type="Variable" Label="ptBalanceRed" Expression="ptBalanceRed"/>
          <Output Type="Variable" Label="nJets" Expression="nJets"/>
          <Output Type="Variable" Label="sinDeltaPhiJJOver2" Expression="sinDeltaPhiJJOver2"/>
          <Output Type="Variable" Label="deltaYJPh" Expression="deltaYJPh"/>
        </Output>
      </Selection>
      <Class ClassIndex="0">
        <Ranges>
          <Range Index="0" Min="2.2786481857299805e+01" Max="7.5057304687500000e+03"/>
          <Range Index="1" Min="1.5035811520647258e-04" Max="8.6847105026245117e+00"/>
          <Range Index="2" Min="1.2697845458984375e+02" Max="2.2774987792968750e+03"/>
          <Range Index="3" Min="4.9185787247552071e-06" Max="4.0502533316612244e-01"/>
          <Range Index="4" Min="-4.5066342353820801e+00" Max="4.5113468170166016e+00"/>
          <Range Index="5" Min="5.0105968475341797e+01" Max="1.9641448974609375e+03"/>
          <Range Index="6" Min="-2.4010925292968750e+00" Max="2.3904125690460205e+00"/>
          <Range Index="7" Min="4.8834752291440964e-02" Max="9.9988257884979248e-01"/>
          <Range Index="8" Min="2.0000000000000000e+00" Max="8.0000000000000000e+00"/>
          <Range Index="9" Min="1.5914440155029297e-05" Max="1.0000000000000000e+00"/>
          <Range Index="10" Min="3.2652555091772228e-05" Max="6.5068273544311523e+00"/>
        </Ranges>
      </Class>
      <Class ClassIndex="1">
        <Ranges>
          <Range Index="0" Min="2.3556308746337891e+01" Max="7.8387553710937500e+03"/>
          <Range Index="1" Min="2.2119609639048576e-05" Max="8.6838493347167969e+00"/>
          <Range Index="2" Min="1.2582529449462891e+02" Max="1.9265614013671875e+03"/>
          <Range Index="3" Min="5.9500340285012498e-05" Max="4.7649076581001282e-01"/>
          <Range Index="4" Min="-4.5036110877990723e+00" Max="4.5083436965942383e+00"/>
          <Range Index="5" Min="5.0058475494384766e+01" Max="2.7532824707031250e+03"/>
          <Range Index="6" Min="-2.3863203525543213e+00" Max="2.3830773830413818e+00"/>
          <Range Index="7" Min="2.2989241406321526e-02" Max="9.9998378753662109e-01"/>
          <Range Index="8" Min="2.0000000000000000e+00" Max="9.0000000000000000e+00"/>
          <Range Index="9" Min="1.9311904907226562e-05" Max="1.0000000000000000e+00"/>
          <Range Index="10" Min="1.1811205240519485e-06" Max="6.6895289421081543e+00"/>
        </Ranges>
      </Class>
      <Class ClassIndex="2">
        <Ranges>
          <Range Index="0" Min="2.2786481857299805e+01" Max="7.8387553710937500e+03"/>
          <Range Index="1" Min="2.2119609639048576e-05" Max="8.6847105026245117e+00"/>
          <Range Index="2" Min="1.2582529449462891e+02" Max="2.2774987792968750e+03"/>
          <Range Index="3" Min="4.9185787247552071e-06" Max="4.7649076581001282e-01"/>
          <Range Index="4" Min="-4.5066342353820801e+00" Max="4.5113468170166016e+00"/>
          <Range Index="5" Min="5.0058475494384766e+01" Max="2.7532824707031250e+03"/>
          <Range Index="6" Min="-2.4010925292968750e+00" Max="2.3904125690460205e+00"/>
          <Range Index="7" Min="2.2989241406321526e-02" Max="9.9998378753662109e-01"/>
          <Range Index="8" Min="2.0000000000000000e+00" Max="9.0000000000000000e+00"/>
          <Range Index="9" Min="1.5914440155029297e-05" Max="1.0000000000000000e+00"/>
          <Range Index="10" Min="1.1811205240519485e-06" Max="6.6895289421081543e+00"/>
        </Ranges>
      </Class>
    </Transform>
  </Transformations>
  <MVAPdfs/>
  <Weights>
    <Layout NLayers="4">
      <Layer Index="0" NNeurons="12">
        <Neuron NSynapses="11">
          -6.0630873551052145e-01 -4.5153817680607881e-02 1.0279705572019087e+00 6.5766064564016666e+00 -3.3082316731326045e+00 -6.5341570041749442e-01 -1.1793682837143298e+00 1.4857656354875406e+00 3.5002635104878213e+00 -4.0345270225663183e+00 -6.8182097931752539e+00 
        </Neuron>
        <Neuron NSynapses="11">
          -5.9130639320665521e-02 2.9356738826888362e-01 -1.7243215626811878e-01 -5.2552499038142098e-01 -1.0011546422230533e+00 2.4452108116057478e+00 2.5575061427336192e+00 -7.3293005365727659e-01 4.1563309897703657e+00 -4.7028851821462831e+00 -1.8191191763714958e+00 
        </Neuron>
        <Neuron NSynapses="11">
          4.9840868726821288e+00 -4.5285637680909951e-01 -1.2917601998912793e+00 7.4717103659877782e-01 7.1432160639207176e-01 1.7911308640811030e-01 -1.8032520306962474e+00 -1.4780332923319393e+00 1.6498830764031813e-01 1.3406742469455075e+00 -7.6168689815834201e-01 
        </Neuron>
        <Neuron NSynapses="11">
          2.5970980534535903e-01 -9.1999512175921949e-01 -4.8424346895936732e-01 -6.5445850893109876e+00 1.5175542020007995e-01 -1.2122563617079365e-01 -1.4036862335489007e+00 4.4128867305037522e-01 -4.2374927872679569e-01 4.8791591389860178e-01 2.6399160955546941e-01 
        </Neuron>
        <Neuron NSynapses="11">
          -7.3563240257190743e-01 1.0517964918015860e-01 6.2366865356126067e-01 2.3993502894148686e-01 -1.0649816211569246e-01 5.4289016184554129e+00 -4.8344438044052396e-01 1.0910164747473682e-01 -5.7872002922962142e+00 -1.3620508855984055e+00 -1.7344600618872534e+00 
        </Neuron>
        <Neuron NSynapses="11">
          -2.3339428298996481e+00 -1.2365974060878033e+00 -1.8038645615631752e+00 3.6886264972078648e+00 1.6546611390579975e+00 -2.9005061631365887e+00 6.0697769332907570e-01 1.8181343314912188e-01 -1.5942343750212626e+00 1.7398256675201464e+00 -4.6396837049439404e-01 
        </Neuron>
        <Neuron NSynapses="11">
          9.2441110000389815e-01 2.8735523083791981e-01 2.3454513778255612e-01 -4.0751912540209984e-01 -2.9253202178405097e-01 -1.4968593957628009e+00 8.0063699297650903e-01 2.2388712793359886e+00 3.0442007489945269e+00 1.3348988870010978e+00 2.9890974810544602e-01 
        </Neuron>
        <Neuron NSynapses="11">
          -1.0923364232972359e+00 2.3255838845295305e+00 5.5508550179876637e-01 -2.7800766763445235e-02 3.9737075714491782e-01 -2.2632613549364911e-01 9.6904648008589417e-02 8.2990303404074017e-01 2.3676775882709450e-01 -6.5181115784045740e-01 -2.2526587390766725e-01 
        </Neuron>
        <Neuron NSynapses="11">
          -3.1198156031596938e+00 -2.1127092043605940e+00 -7.7394729950310392e-01 -9.4239710888204942e-01 5.1515267492440109e-01 -2.5412184562407023e+00 -3.5763402525306529e+00 2.3776898000466220e+00 3.3876129655697917e-02 -6.4148765037559974e-01 -5.3823657016741977e-01 
        </Neuron>
        <Neuron NSynapses="11">
          4.0273227846280496e-01 -1.4228366094124072e+00 -1.8719247985815650e+00 -1.9190346707189731e-02 3.7365870110259363e+00 3.7209555189540791e-02 -4.9213837472349642e-02 -9.1442473368647900e-02 6.2553919204935304e-02 9.9665030133202978e-03 3.4409668464710365e-02 
        </Neuron>
        <Neuron NSynapses="11">
          -2.5029282320949822e+00 6.9343776022705772e-01 2.5396236665876748e-01 4.4560744582550466e-01 6.2251905138810715e-01 3.6192027453478554e-01 2.0247471991058125e-01 -2.0165056373581431e+00 -9.2756261965196951e-01 2.9357453849804691e+00 -4.6203186441771343e-01 
        </Neuron>
        <Neuron NSynapses="11">
          -3.3464564116792561e-01 -2.4745003495488209e+00 1.8866919054017379e+00 1.8432271849182296e+00 -3.6089633278989055e+00 -6.1472291149631664e-01 -5.5118986452601657e+00 -9.8056531602671071e-01 4.7394967733272688e+00 -2.5789070368225904e+00 -9.6942240381974170e+00 
        </Neuron>
      </Layer>
      <Layer Index="1" NNeurons="12">
        <Neuron NSynapses="11">
          -8.5689750976165191e-01 -2.5588753836231874e+00 8.7174886312640010e-01 9.2059074302186752e-02 1.8342247611343740e+00 -1.9500842902308937e+00 -5.5261969237543107e-01 1.7437107992577248e+00 2.1771645742867727e+00 -9.0866751728896411e-01 -1.6640540119427405e+00 
        </Neuron>
        <Neuron NSynapses="11">
          5.2006566649756136e-01 -2.4564884261430082e+00 7.5561970592518479e-01 6.5879979405531386e-01 -5.5927948371329317e-01 -8.3748659929264180e-01 -4.8221774550487212e-01 -2.9236815488640713e+00 3.2704109898947492e-01 2.6754212419727086e-01 5.1701185586068188e-01 
        </Neuron>
        <Neuron NSynapses="11">
          -2.2615206759348845e+00 5.3351380578791641e-01 1.2962961410270375e+00 -1.3943444049062600e-01 -2.5122098783704816e+00 -1.1474766949077357e+00 1.5533673656490787e+00 -8.4150165074312366e-01 2.7906400901370271e-01 4.6137189307757592e-01 -1.7452789942018454e-01 
        </Neuron>
        <Neuron NSynapses="11">
          -6.2673684952825814e-01 1.4056848009048271e+00 -1.9100293353023909e-01 -8.8122282932323437e-02 1.3818594041541308e+00 2.1607850910196822e+00 2.6039413506985949e+00 1.7982697372146546e+00 1.7441096133017799e+00 8.0675246064854633e-01 -5.9122542656019030e+00 
        </Neuron>
        <Neuron NSynapses="11">
          -6.5658440810721430e-01 -6.7585753485571731e-01 1.0528836559004773e+00 -2.7537519292201438e+00 -3.7448299361978687e-01 1.6427708719101397e+00 9.4900631664450297e-01 -5.7078789375210515e-01 -1.9489912513568305e-01 -1.4262781091426751e+00 1.1330423670885144e+00 
        </Neuron>
        <Neuron NSynapses="11">
          1.7708437748418286e+00 -5.5260840081173068e-01 -2.3645539936174127e+00 -2.3492405225778157e+00 2.5492184057904086e+00 2.1121169310319337e+00 1.8613242750082557e+00 1.2964742395091626e+00 -9.8744963724914217e-02 -2.3640625731843024e+00 -1.4756833752447246e-01 
        </Neuron>
        <Neuron NSynapses="11">
          1.8279680920534117e-01 -1.2019689006723291e+00 1.9294255878052954e-01 -2.0988537180454978e-01 1.1474584187631272e+00 -1.6761466377401992e+00 3.6505326970174825e+00 2.1035910671939053e+00 -2.6745641641501079e+00 -1.2765691194321795e+00 5.9170367089890830e+00 
        </Neuron>
        <Neuron NSynapses="11">
          2.8463747494071123e+00 1.7869649568247838e+00 6.5697126117716220e-02 -2.4225549300502816e+00 -7.1557936047796156e-01 1.3226998073927099e+00 1.1876533497656629e+00 -1.2520412251075324e+00 1.2932399205927131e-01 2.4667299954567410e+00 -1.1330175567647240e+00 
        </Neuron>
        <Neuron NSynapses="11">
          -2.9411706890925902e+00 6.3397617781196702e-01 -4.4889405435835164e+00 5.5327942478519165e-01 3.9627782193101786e+00 -6.2550518994422899e-01 1.3132258235492622e-01 3.3310858205348763e+00 -1.6037742590591662e+00 -1.0672478860544923e+00 -1.9467402952612463e+00 
        </Neuron>
        <Neuron NSynapses="11">
          1.7587183039030814e+00 8.7354428092139591e-01 -3.5709937567512680e+00 2.5895933263160922e+00 -5.0119679549340832e+00 1.0235239569009249e+00 -1.4971948063276073e+00 -3.0700178946454924e+00 -1.9211224396269750e+00 -3.3113258026663113e+00 -8.2592612768047069e-01 
        </Neuron>
        <Neuron NSynapses="11">
          -4.4990537121948515e+00 -1.3523580178338717e+00 -2.8171775246037468e-02 4.9759946411493494e-01 -2.6487521936599219e+00 -1.0935081346878848e+00 2.8280287030119666e-01 -4.8420365320769738e+00 -1.1516481224088735e+00 -1.3061971931234171e+00 2.0020700773304285e+00 
        </Neuron>
        <Neuron NSynapses="11">
          1.2276634384221820e-01 1.4564700336683289e+00 -5.0862507848025851e-01 -2.1530957005586719e+00 -4.6910546815284562e+00 -5.7078500402903820e-01 -1.6687108370127630e+00 -1.1288253625731746e+00 2.6925064305222562e-01 1.7483043140559085e+00 -1.5861737314794062e+00 
        </Neuron>
      </Layer>
      <Layer Index="2" NNeurons="12">
        <Neuron NSynapses="1">
          3.4231900652749752e+00 
        </Neuron>
        <Neuron NSynapses="1">
          -1.4823109641250758e+00 
        </Neuron>
        <Neuron NSynapses="1">
          -3.6366658711805084e+00 
        </Neuron>
        <Neuron NSynapses="1">
          2.5770950269983728e+00 
        </Neuron>
        <Neuron NSynapses="1">
          3.3881351079299318e+00 
        </Neuron>
        <Neuron NSynapses="1">
          -1.0768760301299656e+00 
        </Neuron>
        <Neuron NSynapses="1">
          -2.4584522836889833e+00 
        </Neuron>
        <Neuron NSynapses="1">
          2.4419468171283172e+00 
        </Neuron>
        <Neuron NSynapses="1">
          1.1021312237995511e+00 
        </Neuron>
        <Neuron NSynapses="1">
          -1.4536090736839613e+00 
        </Neuron>
        <Neuron NSynapses="1">
          -3.7257467996891869e+00 
        </Neuron>
        <Neuron NSynapses="1">
          3.7390660683616822e-02 
        </Neuron>
      </Layer>
      <Layer Index="3" NNeurons="1">
        <Neuron NSynapses="0"/>
      </Layer>
    </Layout>
  </Weights>
</MethodSetup>
