<?xml version="1.0"?>
<MethodSetup Method="MLP::MLP">
  <GeneralInfo>
    <Info name="TMVA Release" value="4.2.1 [262657]"/>
    <Info name="ROOT Release" value="6.22/06 [398854]"/>
    <Info name="Creator" value="konstantin"/>
    <Info name="Date" value="Thu Apr  1 19:50:54 2021"/>
    <Info name="Host" value="Linux mach 5.8.0-43-generic #49~20.04.1-Ubuntu SMP Fri Feb 5 09:57:56 UTC 2021 x86_64 x86_64 x86_64 GNU/Linux"/>
    <Info name="Dir" value="/home/konstantin/Projects/CERN/TMVA_MLP"/>
    <Info name="Training events" value="170672"/>
    <Info name="TrainingTime" value="1.02270227e+02"/>
    <Info name="AnalysisType" value="Classification"/>
  </GeneralInfo>
  <Options>
    <Option name="NCycles" modified="Yes">400</Option>
    <Option name="HiddenLayers" modified="Yes">N+5</Option>
    <Option name="NeuronType" modified="Yes">sigmoid</Option>
    <Option name="RandomSeed" modified="No">1</Option>
    <Option name="EstimatorType" modified="No">CE</Option>
    <Option name="NeuronInputType" modified="No">sum</Option>
    <Option name="V" modified="Yes">False</Option>
    <Option name="VerbosityLevel" modified="No">Default</Option>
    <Option name="VarTransform" modified="Yes">N</Option>
    <Option name="H" modified="Yes">True</Option>
    <Option name="CreateMVAPdfs" modified="No">False</Option>
    <Option name="IgnoreNegWeightsInTraining" modified="No">False</Option>
    <Option name="TrainingMethod" modified="No">BP</Option>
    <Option name="LearningRate" modified="Yes">1.000000e-02</Option>
    <Option name="DecayRate" modified="No">1.000000e-02</Option>
    <Option name="TestRate" modified="Yes">5</Option>
    <Option name="EpochMonitoring" modified="No">False</Option>
    <Option name="Sampling" modified="No">1.000000e+00</Option>
    <Option name="SamplingEpoch" modified="No">1.000000e+00</Option>
    <Option name="SamplingImportance" modified="No">1.000000e+00</Option>
    <Option name="SamplingTraining" modified="No">True</Option>
    <Option name="SamplingTesting" modified="No">False</Option>
    <Option name="ResetStep" modified="No">50</Option>
    <Option name="Tau" modified="No">3.000000e+00</Option>
    <Option name="BPMode" modified="Yes">batch</Option>
    <Option name="BatchSize" modified="Yes">3</Option>
    <Option name="ConvergenceImprove" modified="Yes">2.500000e-03</Option>
    <Option name="ConvergenceTests" modified="Yes">5</Option>
    <Option name="UseRegulator" modified="Yes">False</Option>
    <Option name="UpdateLimit" modified="No">10000</Option>
    <Option name="CalculateErrors" modified="No">False</Option>
    <Option name="WeightRange" modified="No">1.000000e+00</Option>
  </Options>
  <Variables NVar="11">
    <Variable VarIndex="0" Expression="mJJ" Label="mJJ" Title="mJJ" Unit="" Internal="mJJ" Type="F" Min="2.27864819e+01" Max="7.83875537e+03"/>
    <Variable VarIndex="1" Expression="deltaYJJ" Label="deltaYJJ" Title="deltaYJJ" Unit="" Internal="deltaYJJ" Type="F" Min="2.21196096e-05" Max="8.68471050e+00"/>
    <Variable VarIndex="2" Expression="metPt" Label="metPt" Title="metPt" Unit="" Internal="metPt" Type="F" Min="1.25825294e+02" Max="2.27749878e+03"/>
    <Variable VarIndex="3" Expression="ptBalance" Label="ptBalance" Title="ptBalance" Unit="" Internal="ptBalance" Type="F" Min="4.91857872e-06" Max="4.76490766e-01"/>
    <Variable VarIndex="4" Expression="subleadJetEta" Label="subleadJetEta" Title="subleadJetEta" Unit="" Internal="subleadJetEta" Type="F" Min="-4.50663424e+00" Max="4.51134682e+00"/>
    <Variable VarIndex="5" Expression="leadJetPt" Label="leadJetPt" Title="leadJetPt" Unit="" Internal="leadJetPt" Type="F" Min="5.00584755e+01" Max="2.75328247e+03"/>
    <Variable VarIndex="6" Expression="photonEta" Label="photonEta" Title="photonEta" Unit="" Internal="photonEta" Type="F" Min="-2.40109253e+00" Max="2.39041257e+00"/>
    <Variable VarIndex="7" Expression="ptBalanceRed" Label="ptBalanceRed" Title="ptBalanceRed" Unit="" Internal="ptBalanceRed" Type="F" Min="2.29892414e-02" Max="9.99983788e-01"/>
    <Variable VarIndex="8" Expression="nJets" Label="nJets" Title="nJets" Unit="" Internal="nJets" Type="F" Min="2.00000000e+00" Max="9.00000000e+00"/>
    <Variable VarIndex="9" Expression="sinDeltaPhiJJOver2" Label="sinDeltaPhiJJOver2" Title="sinDeltaPhiJJOver2" Unit="" Internal="sinDeltaPhiJJOver2" Type="F" Min="1.59144402e-05" Max="1.00000000e+00"/>
    <Variable VarIndex="10" Expression="deltaYJPh" Label="deltaYJPh" Title="deltaYJPh" Unit="" Internal="deltaYJPh" Type="F" Min="1.18112052e-06" Max="6.68952894e+00"/>
  </Variables>
  <Spectators NSpec="1">
    <Spectator SpecIndex="0" Expression="weightModified" Label="weightModified" Title="F" Unit="" Internal="weightModified" Type="F" Min="-1.91263646e-01" Max="1.09073341e+00"/>
  </Spectators>
  <Classes NClass="2">
    <Class Name="Signal" Index="0"/>
    <Class Name="Background" Index="1"/>
  </Classes>
  <Transformations NTransformations="1">
    <Transform Name="Normalize">
      <Selection>
        <Input NInputs="11">
          <Input Type="Variable" Label="mJJ" Expression="mJJ"/>
          <Input Type="Variable" Label="deltaYJJ" Expression="deltaYJJ"/>
          <Input Type="Variable" Label="metPt" Expression="metPt"/>
          <Input Type="Variable" Label="ptBalance" Expression="ptBalance"/>
          <Input Type="Variable" Label="subleadJetEta" Expression="subleadJetEta"/>
          <Input Type="Variable" Label="leadJetPt" Expression="leadJetPt"/>
          <Input Type="Variable" Label="photonEta" Expression="photonEta"/>
          <Input Type="Variable" Label="ptBalanceRed" Expression="ptBalanceRed"/>
          <Input Type="Variable" Label="nJets" Expression="nJets"/>
          <Input Type="Variable" Label="sinDeltaPhiJJOver2" Expression="sinDeltaPhiJJOver2"/>
          <Input Type="Variable" Label="deltaYJPh" Expression="deltaYJPh"/>
        </Input>
        <Output NOutputs="11">
          <Output Type="Variable" Label="mJJ" Expression="mJJ"/>
          <Output Type="Variable" Label="deltaYJJ" Expression="deltaYJJ"/>
          <Output Type="Variable" Label="metPt" Expression="metPt"/>
          <Output Type="Variable" Label="ptBalance" Expression="ptBalance"/>
          <Output Type="Variable" Label="subleadJetEta" Expression="subleadJetEta"/>
          <Output Type="Variable" Label="leadJetPt" Expression="leadJetPt"/>
          <Output Type="Variable" Label="photonEta" Expression="photonEta"/>
          <Output Type="Variable" Label="ptBalanceRed" Expression="ptBalanceRed"/>
          <Output Type="Variable" Label="nJets" Expression="nJets"/>
          <Output Type="Variable" Label="sinDeltaPhiJJOver2" Expression="sinDeltaPhiJJOver2"/>
          <Output Type="Variable" Label="deltaYJPh" Expression="deltaYJPh"/>
        </Output>
      </Selection>
      <Class ClassIndex="0">
        <Ranges>
          <Range Index="0" Min="2.2786481857299805e+01" Max="7.5057304687500000e+03"/>
          <Range Index="1" Min="1.5035811520647258e-04" Max="8.6847105026245117e+00"/>
          <Range Index="2" Min="1.2697845458984375e+02" Max="2.2774987792968750e+03"/>
          <Range Index="3" Min="4.9185787247552071e-06" Max="4.0502533316612244e-01"/>
          <Range Index="4" Min="-4.5066342353820801e+00" Max="4.5113468170166016e+00"/>
          <Range Index="5" Min="5.0105968475341797e+01" Max="1.9641448974609375e+03"/>
          <Range Index="6" Min="-2.4010925292968750e+00" Max="2.3904125690460205e+00"/>
          <Range Index="7" Min="4.8834752291440964e-02" Max="9.9988257884979248e-01"/>
          <Range Index="8" Min="2.0000000000000000e+00" Max="8.0000000000000000e+00"/>
          <Range Index="9" Min="1.5914440155029297e-05" Max="1.0000000000000000e+00"/>
          <Range Index="10" Min="3.2652555091772228e-05" Max="6.5068273544311523e+00"/>
        </Ranges>
      </Class>
      <Class ClassIndex="1">
        <Ranges>
          <Range Index="0" Min="2.3556308746337891e+01" Max="7.8387553710937500e+03"/>
          <Range Index="1" Min="2.2119609639048576e-05" Max="8.6838493347167969e+00"/>
          <Range Index="2" Min="1.2582529449462891e+02" Max="1.9265614013671875e+03"/>
          <Range Index="3" Min="5.9500340285012498e-05" Max="4.7649076581001282e-01"/>
          <Range Index="4" Min="-4.5036110877990723e+00" Max="4.5083436965942383e+00"/>
          <Range Index="5" Min="5.0058475494384766e+01" Max="2.7532824707031250e+03"/>
          <Range Index="6" Min="-2.3863203525543213e+00" Max="2.3830773830413818e+00"/>
          <Range Index="7" Min="2.2989241406321526e-02" Max="9.9998378753662109e-01"/>
          <Range Index="8" Min="2.0000000000000000e+00" Max="9.0000000000000000e+00"/>
          <Range Index="9" Min="1.9311904907226562e-05" Max="1.0000000000000000e+00"/>
          <Range Index="10" Min="1.1811205240519485e-06" Max="6.6895289421081543e+00"/>
        </Ranges>
      </Class>
      <Class ClassIndex="2">
        <Ranges>
          <Range Index="0" Min="2.2786481857299805e+01" Max="7.8387553710937500e+03"/>
          <Range Index="1" Min="2.2119609639048576e-05" Max="8.6847105026245117e+00"/>
          <Range Index="2" Min="1.2582529449462891e+02" Max="2.2774987792968750e+03"/>
          <Range Index="3" Min="4.9185787247552071e-06" Max="4.7649076581001282e-01"/>
          <Range Index="4" Min="-4.5066342353820801e+00" Max="4.5113468170166016e+00"/>
          <Range Index="5" Min="5.0058475494384766e+01" Max="2.7532824707031250e+03"/>
          <Range Index="6" Min="-2.4010925292968750e+00" Max="2.3904125690460205e+00"/>
          <Range Index="7" Min="2.2989241406321526e-02" Max="9.9998378753662109e-01"/>
          <Range Index="8" Min="2.0000000000000000e+00" Max="9.0000000000000000e+00"/>
          <Range Index="9" Min="1.5914440155029297e-05" Max="1.0000000000000000e+00"/>
          <Range Index="10" Min="1.1811205240519485e-06" Max="6.6895289421081543e+00"/>
        </Ranges>
      </Class>
    </Transform>
  </Transformations>
  <MVAPdfs/>
  <Weights>
    <Layout NLayers="3">
      <Layer Index="0" NNeurons="12">
        <Neuron NSynapses="16">
          -2.4967801455601060e+00 1.8745784870480331e+00 1.8156947623216018e+00 -3.3059818716790832e+00 -6.6117323983310925e+00 -6.9781813552295680e-01 -1.3888425088438072e-01 4.5342506547261968e-01 -1.5342024453715739e+00 -2.9621863316698707e+00 -1.0032780221739723e+00 -2.8349660709084032e+00 -2.2957621742326433e+00 -1.1145228395496090e+00 -6.4017622742640012e-01 -1.0869348423990468e+00 
        </Neuron>
        <Neuron NSynapses="16">
          -4.7824708297552121e+00 2.5697995116011780e+00 -1.3221915920072822e+00 1.3931290924023747e+00 -3.2812288188570613e+00 -3.7775129868525514e-01 2.7100480480812896e+00 -1.3197695022982585e+00 7.5382037648240108e-01 3.8227689565933581e-01 2.8217876319834478e+00 -4.1939974589966793e+00 -3.3908501593873930e+00 7.8266957402454251e-01 3.5460370420725879e-01 3.1708931236359432e+00 
        </Neuron>
        <Neuron NSynapses="16">
          1.2575998817180903e-01 1.8642174711416432e-01 4.2013099760158229e-01 -1.4050095210667566e+00 2.2889604141092194e-02 2.6955449942492664e+00 -8.3400659082335027e-01 7.5260344225494769e-01 -7.5998413758704453e-01 3.0920388958255143e+00 9.9745363002270748e-01 -5.4051991404866906e-01 -1.7752932149530340e-01 -2.8494198756144846e+00 -1.5234432511095727e-01 -9.7722563187492473e-01 
        </Neuron>
        <Neuron NSynapses="16">
          2.6940756871010856e+00 5.3140442589418191e-01 1.3578814764805087e+00 2.1011287249100614e+00 5.6490658274820349e-01 1.4743328824805551e+00 -7.4301722661111558e-01 -3.1722660000581143e-01 2.3027187676166644e-01 4.3806854655914683e-02 3.0039378351081081e-01 1.8091889948365361e-01 -5.1477888612051981e-01 -2.1516135223104402e-01 -8.9807285749157240e-01 7.7307994026706495e-01 
        </Neuron>
        <Neuron NSynapses="16">
          3.1533272605119578e-01 -1.1248842471976450e+00 4.3293636283055636e-01 -1.7648786100776090e-01 3.2063193553737972e+00 -1.2947295520708038e-01 1.7159477784401420e-03 -3.0655950265679190e+00 -8.7903529710969874e-02 -4.5010289657656349e-01 2.6052811824403332e-01 -2.6431159716941135e+00 -4.5152538443691661e+00 -2.7426237813129619e+00 2.6559752818094267e+00 5.2165246248456609e-01 
        </Neuron>
        <Neuron NSynapses="16">
          1.0318462016675232e+00 3.4771544669794080e-01 1.4014744814170770e+00 -4.5871514970766925e-01 8.8154101437432952e-01 1.9704058499520352e-01 3.6718690013151184e-01 2.4697315497785410e-01 -1.4498644905757625e+00 -2.1491883807205485e+00 6.4077702593631203e-01 -6.2016399962877715e-02 8.6454747759611317e-01 -2.6840253287056046e+00 -2.0591217051525872e+00 3.1901315475254838e-01 
        </Neuron>
        <Neuron NSynapses="16">
          -1.7472322463387127e-01 4.6795483962736105e-02 -4.9397602971834104e-01 -5.9943926336555466e-02 -1.0401971058846684e+00 -2.1159606432564200e+00 8.5874257688674960e-01 2.8281431947731153e+00 -4.7275026542040449e-01 5.3138367482273263e-01 1.6435623143185721e-01 6.9185397887827604e-01 1.4271180252495033e+00 1.8383943413064621e+00 -1.9227179996282981e+00 -2.7381559065368699e-01 
        </Neuron>
        <Neuron NSynapses="16">
          2.1057372982486730e-01 -1.7835654538543888e-01 -1.8860244994438669e+00 5.2651608929742577e-01 -4.3377385050861986e-02 -6.9864928314366059e-01 -1.2269772334666863e-01 -6.9649714757413120e-02 -2.6046599919026754e+00 -8.1425064904140365e-01 1.3142146384242059e-01 1.8233452633377786e-01 4.1908313026327521e-01 -7.5717746676222708e-01 -5.5488783046039025e-01 1.6114986073265685e+00 
        </Neuron>
        <Neuron NSynapses="16">
          1.0475296638319984e+00 1.7261754249817113e-01 -5.2745326216988721e-02 -3.5258606777071768e+00 6.4217133495154621e-01 -9.0575600211749818e-01 1.3523013933337653e+00 -3.1566288040687601e-01 1.6685336256015202e+00 -3.5149286344950421e+00 1.8143590565076817e+00 1.2728091507232997e+00 1.7920180523660845e+00 7.2359296185735278e-01 -1.4583624581481274e+00 1.0101593706383281e-01 
        </Neuron>
        <Neuron NSynapses="16">
          -9.4812114490357813e-02 2.0012808339257675e+00 1.0130404189744140e+00 7.6759223738451458e-03 -2.4502008960248842e-01 -2.2308399535947682e-01 -2.9972823850290138e+00 9.4307768466122321e-01 6.1232180236710243e-01 2.6652080394071492e-02 5.4745821713618870e-01 -2.9673840452725381e-01 -4.1135839419554954e-01 -4.8923165852669032e-01 -2.6328999454458335e-01 -1.6710537620137196e+00 
        </Neuron>
        <Neuron NSynapses="16">
          1.0607375433488386e+00 -1.3685397391616112e+00 4.8190896460126070e-01 -4.7246758514013026e-01 8.7857372658656308e-01 6.4401952230241297e-02 -9.8780837496878893e-01 1.1437444325097454e+00 -1.6942091116595262e-01 -2.9605512317571570e-01 2.5347811809896981e+00 1.4902783728737021e+00 4.6094469423339901e-01 2.6342546338459822e+00 3.5810994506850982e+00 -2.8063081562239383e+00 
        </Neuron>
        <Neuron NSynapses="16">
          -1.8731386158143397e+00 3.1916388119651173e-01 1.0457872803887764e+00 -6.9627289149048073e+00 -5.4181086153687437e+00 8.8572472485464981e-01 3.6479610514911562e+00 -1.6553393566858297e+00 -2.7584882336425531e-01 -2.9293358375395262e+00 1.9883207616602181e+00 -2.5591154036994608e+00 1.5819548271187367e-01 4.3461678126411840e-01 1.1495411925986947e+00 7.4214075037009525e-02 
        </Neuron>
      </Layer>
      <Layer Index="1" NNeurons="17">
        <Neuron NSynapses="1">
          5.3309293786280696e+00 
        </Neuron>
        <Neuron NSynapses="1">
          1.9741720191494760e+00 
        </Neuron>
        <Neuron NSynapses="1">
          -2.0998409099912401e+00 
        </Neuron>
        <Neuron NSynapses="1">
          -4.6627162832799787e+00 
        </Neuron>
        <Neuron NSynapses="1">
          -4.6204605886682719e+00 
        </Neuron>
        <Neuron NSynapses="1">
          -3.0862668108538601e-02 
        </Neuron>
        <Neuron NSynapses="1">
          2.1900338693402612e+00 
        </Neuron>
        <Neuron NSynapses="1">
          -2.7585560306662567e+00 
        </Neuron>
        <Neuron NSynapses="1">
          -1.5942793446477679e+00 
        </Neuron>
        <Neuron NSynapses="1">
          3.5061189077317843e+00 
        </Neuron>
        <Neuron NSynapses="1">
          -2.5599518863565511e+00 
        </Neuron>
        <Neuron NSynapses="1">
          -4.8780008972706543e+00 
        </Neuron>
        <Neuron NSynapses="1">
          8.4437822301235155e-01 
        </Neuron>
        <Neuron NSynapses="1">
          2.1417409099523947e+00 
        </Neuron>
        <Neuron NSynapses="1">
          2.0380807432065060e+00 
        </Neuron>
        <Neuron NSynapses="1">
          -1.7911965780082826e+00 
        </Neuron>
        <Neuron NSynapses="1">
          -1.9629657381993444e+00 
        </Neuron>
      </Layer>
      <Layer Index="2" NNeurons="1">
        <Neuron NSynapses="0"/>
      </Layer>
    </Layout>
  </Weights>
</MethodSetup>
