<?xml version="1.0"?>
<MethodSetup Method="MLP::MLP">
  <GeneralInfo>
    <Info name="TMVA Release" value="4.2.1 [262657]"/>
    <Info name="ROOT Release" value="6.22/06 [398854]"/>
    <Info name="Creator" value="konstantin"/>
    <Info name="Date" value="Thu Apr  1 20:07:26 2021"/>
    <Info name="Host" value="Linux mach 5.8.0-43-generic #49~20.04.1-Ubuntu SMP Fri Feb 5 09:57:56 UTC 2021 x86_64 x86_64 x86_64 GNU/Linux"/>
    <Info name="Dir" value="/home/konstantin/Projects/CERN/TMVA_MLP"/>
    <Info name="Training events" value="170672"/>
    <Info name="TrainingTime" value="2.70797108e+02"/>
    <Info name="AnalysisType" value="Classification"/>
  </GeneralInfo>
  <Options>
    <Option name="NCycles" modified="Yes">400</Option>
    <Option name="HiddenLayers" modified="Yes">N+10,N+5</Option>
    <Option name="NeuronType" modified="Yes">sigmoid</Option>
    <Option name="RandomSeed" modified="No">1</Option>
    <Option name="EstimatorType" modified="No">CE</Option>
    <Option name="NeuronInputType" modified="No">sum</Option>
    <Option name="V" modified="Yes">False</Option>
    <Option name="VerbosityLevel" modified="No">Default</Option>
    <Option name="VarTransform" modified="Yes">N</Option>
    <Option name="H" modified="Yes">True</Option>
    <Option name="CreateMVAPdfs" modified="No">False</Option>
    <Option name="IgnoreNegWeightsInTraining" modified="No">False</Option>
    <Option name="TrainingMethod" modified="No">BP</Option>
    <Option name="LearningRate" modified="Yes">1.000000e-02</Option>
    <Option name="DecayRate" modified="No">1.000000e-02</Option>
    <Option name="TestRate" modified="Yes">5</Option>
    <Option name="EpochMonitoring" modified="No">False</Option>
    <Option name="Sampling" modified="No">1.000000e+00</Option>
    <Option name="SamplingEpoch" modified="No">1.000000e+00</Option>
    <Option name="SamplingImportance" modified="No">1.000000e+00</Option>
    <Option name="SamplingTraining" modified="No">True</Option>
    <Option name="SamplingTesting" modified="No">False</Option>
    <Option name="ResetStep" modified="No">50</Option>
    <Option name="Tau" modified="No">3.000000e+00</Option>
    <Option name="BPMode" modified="Yes">batch</Option>
    <Option name="BatchSize" modified="Yes">5</Option>
    <Option name="ConvergenceImprove" modified="Yes">2.500000e-03</Option>
    <Option name="ConvergenceTests" modified="Yes">5</Option>
    <Option name="UseRegulator" modified="Yes">False</Option>
    <Option name="UpdateLimit" modified="No">10000</Option>
    <Option name="CalculateErrors" modified="No">False</Option>
    <Option name="WeightRange" modified="No">1.000000e+00</Option>
  </Options>
  <Variables NVar="11">
    <Variable VarIndex="0" Expression="mJJ" Label="mJJ" Title="mJJ" Unit="" Internal="mJJ" Type="F" Min="2.27864819e+01" Max="7.83875537e+03"/>
    <Variable VarIndex="1" Expression="deltaYJJ" Label="deltaYJJ" Title="deltaYJJ" Unit="" Internal="deltaYJJ" Type="F" Min="2.21196096e-05" Max="8.68471050e+00"/>
    <Variable VarIndex="2" Expression="metPt" Label="metPt" Title="metPt" Unit="" Internal="metPt" Type="F" Min="1.25825294e+02" Max="2.27749878e+03"/>
    <Variable VarIndex="3" Expression="ptBalance" Label="ptBalance" Title="ptBalance" Unit="" Internal="ptBalance" Type="F" Min="4.91857872e-06" Max="4.76490766e-01"/>
    <Variable VarIndex="4" Expression="subleadJetEta" Label="subleadJetEta" Title="subleadJetEta" Unit="" Internal="subleadJetEta" Type="F" Min="-4.50663424e+00" Max="4.51134682e+00"/>
    <Variable VarIndex="5" Expression="leadJetPt" Label="leadJetPt" Title="leadJetPt" Unit="" Internal="leadJetPt" Type="F" Min="5.00584755e+01" Max="2.75328247e+03"/>
    <Variable VarIndex="6" Expression="photonEta" Label="photonEta" Title="photonEta" Unit="" Internal="photonEta" Type="F" Min="-2.40109253e+00" Max="2.39041257e+00"/>
    <Variable VarIndex="7" Expression="ptBalanceRed" Label="ptBalanceRed" Title="ptBalanceRed" Unit="" Internal="ptBalanceRed" Type="F" Min="2.29892414e-02" Max="9.99983788e-01"/>
    <Variable VarIndex="8" Expression="nJets" Label="nJets" Title="nJets" Unit="" Internal="nJets" Type="F" Min="2.00000000e+00" Max="9.00000000e+00"/>
    <Variable VarIndex="9" Expression="sinDeltaPhiJJOver2" Label="sinDeltaPhiJJOver2" Title="sinDeltaPhiJJOver2" Unit="" Internal="sinDeltaPhiJJOver2" Type="F" Min="1.59144402e-05" Max="1.00000000e+00"/>
    <Variable VarIndex="10" Expression="deltaYJPh" Label="deltaYJPh" Title="deltaYJPh" Unit="" Internal="deltaYJPh" Type="F" Min="1.18112052e-06" Max="6.68952894e+00"/>
  </Variables>
  <Spectators NSpec="1">
    <Spectator SpecIndex="0" Expression="weightModified" Label="weightModified" Title="F" Unit="" Internal="weightModified" Type="F" Min="-1.91263646e-01" Max="1.09073341e+00"/>
  </Spectators>
  <Classes NClass="2">
    <Class Name="Signal" Index="0"/>
    <Class Name="Background" Index="1"/>
  </Classes>
  <Transformations NTransformations="1">
    <Transform Name="Normalize">
      <Selection>
        <Input NInputs="11">
          <Input Type="Variable" Label="mJJ" Expression="mJJ"/>
          <Input Type="Variable" Label="deltaYJJ" Expression="deltaYJJ"/>
          <Input Type="Variable" Label="metPt" Expression="metPt"/>
          <Input Type="Variable" Label="ptBalance" Expression="ptBalance"/>
          <Input Type="Variable" Label="subleadJetEta" Expression="subleadJetEta"/>
          <Input Type="Variable" Label="leadJetPt" Expression="leadJetPt"/>
          <Input Type="Variable" Label="photonEta" Expression="photonEta"/>
          <Input Type="Variable" Label="ptBalanceRed" Expression="ptBalanceRed"/>
          <Input Type="Variable" Label="nJets" Expression="nJets"/>
          <Input Type="Variable" Label="sinDeltaPhiJJOver2" Expression="sinDeltaPhiJJOver2"/>
          <Input Type="Variable" Label="deltaYJPh" Expression="deltaYJPh"/>
        </Input>
        <Output NOutputs="11">
          <Output Type="Variable" Label="mJJ" Expression="mJJ"/>
          <Output Type="Variable" Label="deltaYJJ" Expression="deltaYJJ"/>
          <Output Type="Variable" Label="metPt" Expression="metPt"/>
          <Output Type="Variable" Label="ptBalance" Expression="ptBalance"/>
          <Output Type="Variable" Label="subleadJetEta" Expression="subleadJetEta"/>
          <Output Type="Variable" Label="leadJetPt" Expression="leadJetPt"/>
          <Output Type="Variable" Label="photonEta" Expression="photonEta"/>
          <Output Type="Variable" Label="ptBalanceRed" Expression="ptBalanceRed"/>
          <Output Type="Variable" Label="nJets" Expression="nJets"/>
          <Output Type="Variable" Label="sinDeltaPhiJJOver2" Expression="sinDeltaPhiJJOver2"/>
          <Output Type="Variable" Label="deltaYJPh" Expression="deltaYJPh"/>
        </Output>
      </Selection>
      <Class ClassIndex="0">
        <Ranges>
          <Range Index="0" Min="2.2786481857299805e+01" Max="7.5057304687500000e+03"/>
          <Range Index="1" Min="1.5035811520647258e-04" Max="8.6847105026245117e+00"/>
          <Range Index="2" Min="1.2697845458984375e+02" Max="2.2774987792968750e+03"/>
          <Range Index="3" Min="4.9185787247552071e-06" Max="4.0502533316612244e-01"/>
          <Range Index="4" Min="-4.5066342353820801e+00" Max="4.5113468170166016e+00"/>
          <Range Index="5" Min="5.0105968475341797e+01" Max="1.9641448974609375e+03"/>
          <Range Index="6" Min="-2.4010925292968750e+00" Max="2.3904125690460205e+00"/>
          <Range Index="7" Min="4.8834752291440964e-02" Max="9.9988257884979248e-01"/>
          <Range Index="8" Min="2.0000000000000000e+00" Max="8.0000000000000000e+00"/>
          <Range Index="9" Min="1.5914440155029297e-05" Max="1.0000000000000000e+00"/>
          <Range Index="10" Min="3.2652555091772228e-05" Max="6.5068273544311523e+00"/>
        </Ranges>
      </Class>
      <Class ClassIndex="1">
        <Ranges>
          <Range Index="0" Min="2.3556308746337891e+01" Max="7.8387553710937500e+03"/>
          <Range Index="1" Min="2.2119609639048576e-05" Max="8.6838493347167969e+00"/>
          <Range Index="2" Min="1.2582529449462891e+02" Max="1.9265614013671875e+03"/>
          <Range Index="3" Min="5.9500340285012498e-05" Max="4.7649076581001282e-01"/>
          <Range Index="4" Min="-4.5036110877990723e+00" Max="4.5083436965942383e+00"/>
          <Range Index="5" Min="5.0058475494384766e+01" Max="2.7532824707031250e+03"/>
          <Range Index="6" Min="-2.3863203525543213e+00" Max="2.3830773830413818e+00"/>
          <Range Index="7" Min="2.2989241406321526e-02" Max="9.9998378753662109e-01"/>
          <Range Index="8" Min="2.0000000000000000e+00" Max="9.0000000000000000e+00"/>
          <Range Index="9" Min="1.9311904907226562e-05" Max="1.0000000000000000e+00"/>
          <Range Index="10" Min="1.1811205240519485e-06" Max="6.6895289421081543e+00"/>
        </Ranges>
      </Class>
      <Class ClassIndex="2">
        <Ranges>
          <Range Index="0" Min="2.2786481857299805e+01" Max="7.8387553710937500e+03"/>
          <Range Index="1" Min="2.2119609639048576e-05" Max="8.6847105026245117e+00"/>
          <Range Index="2" Min="1.2582529449462891e+02" Max="2.2774987792968750e+03"/>
          <Range Index="3" Min="4.9185787247552071e-06" Max="4.7649076581001282e-01"/>
          <Range Index="4" Min="-4.5066342353820801e+00" Max="4.5113468170166016e+00"/>
          <Range Index="5" Min="5.0058475494384766e+01" Max="2.7532824707031250e+03"/>
          <Range Index="6" Min="-2.4010925292968750e+00" Max="2.3904125690460205e+00"/>
          <Range Index="7" Min="2.2989241406321526e-02" Max="9.9998378753662109e-01"/>
          <Range Index="8" Min="2.0000000000000000e+00" Max="9.0000000000000000e+00"/>
          <Range Index="9" Min="1.5914440155029297e-05" Max="1.0000000000000000e+00"/>
          <Range Index="10" Min="1.1811205240519485e-06" Max="6.6895289421081543e+00"/>
        </Ranges>
      </Class>
    </Transform>
  </Transformations>
  <MVAPdfs/>
  <Weights>
    <Layout NLayers="4">
      <Layer Index="0" NNeurons="12">
        <Neuron NSynapses="21">
          1.5057733430231229e-01 2.5489702906392919e+00 6.9903003223844268e-02 2.9701629387101152e+00 -2.8787752798494548e+00 -1.6815169494195961e+00 -8.3877307632636533e-01 2.0439251574688750e+00 -3.7042538679067629e+00 -1.7319697590868064e+00 -2.6133528366206575e+00 -1.3495470460465028e-01 -1.9066149977211335e+00 6.7397064989239655e-02 -8.8017701668666726e-01 -6.2548453983975141e-02 -1.9767114552915362e-02 -8.4422974958243591e-01 6.0265160842870438e-02 1.3565076511546583e+00 1.2217723631626323e+00 
        </Neuron>
        <Neuron NSynapses="21">
          -1.7743493980608704e-02 7.2483492541624717e-01 -2.2383406269335664e+00 -4.5414991269427252e-01 -2.4394188992994361e+00 2.5497413056123114e-01 -3.5958480652489362e+00 -1.5632457926838259e+00 4.9382579699796147e-01 -2.1322299040391970e-01 1.3519959745188337e+00 -4.3511212512507597e-01 -1.5084368817368318e-01 1.3073750603859999e+00 -7.4020114620564026e-01 -9.0549152282957290e-01 2.2404876591235037e+00 -1.8756409109725722e+00 1.4921989755785305e+00 1.9398178876563232e-01 3.5659342027452618e+00 
        </Neuron>
        <Neuron NSynapses="21">
          3.4235399575576788e+00 1.0208767517524633e+00 1.7075245827426849e-01 -1.0461662140497971e+00 -1.9611749428693911e-01 6.1224603197278314e-02 8.2853795443552403e-01 1.9369006370827826e+00 6.8464846830199788e-01 1.8590380769176018e+00 -2.3883972986726794e+00 1.6447353089125101e+00 -7.3303341429499680e-01 -1.5283726876486174e+00 -9.5822178139957870e-01 -7.6744536046597289e-01 1.4499060388571536e+00 -1.3766137260789659e+00 -1.7774337853053175e+00 2.9949421193485519e-03 1.5354546014029850e-03 
        </Neuron>
        <Neuron NSynapses="21">
          -4.3566988879754964e-01 1.6898685646668647e+00 -1.5412860645057877e-01 -3.5044501742818196e-01 5.3272265669471741e-01 1.7294526270943893e+00 -7.2908288665788412e-01 -6.0815246866459072e-01 8.0258157840817815e-02 1.4059219549011659e-01 9.4559915396546157e-01 1.4849284159174949e+00 3.3631286750886341e-01 -3.0619230806807258e+00 -1.1545421930404756e+00 1.9269484689927778e+00 -7.6645062087231419e-01 5.3379490008856978e+00 7.8449059510403041e-01 1.6736145530951836e+00 -8.5005102521340903e-01 
        </Neuron>
        <Neuron NSynapses="21">
          -2.7282753728255522e-02 -7.3910700033432952e-01 1.6031870805216917e+00 -2.3033705770158777e-01 -3.8407697085343071e+00 -2.5746836650951899e+00 -1.1803771179792886e+00 -1.2673723631974649e+00 1.1230554134570905e+00 -1.3210134568589498e+00 -4.9704041250493630e-01 1.6200130541930611e+00 -3.6387592542310604e-01 -5.5950547334404632e-01 -8.2848432938736027e-01 6.9447670757061453e-01 -1.8373502969080719e+00 -5.0074931380580820e-02 6.1567270599983383e-02 6.5462608969314173e-01 -3.4452055660014693e+00 
        </Neuron>
        <Neuron NSynapses="21">
          1.4121218969858760e+00 -3.4604504631417699e-01 4.0318389846463887e-01 5.7375133055587835e-01 8.6588263036744917e-01 -1.2328929561281730e+00 1.5740110598633530e+00 -8.7974155823573163e-03 -8.9175379223483298e-01 -1.3277091997934241e+00 1.7818566106108664e+00 6.7210533499908764e-01 -1.2602142212597842e+00 8.9815403703697871e-01 -9.4497936180939945e-01 -2.2877937768759598e+00 -6.1270200509261186e-01 -1.2966722021956005e+00 1.4565072804658716e+00 5.9973756820763358e-01 -8.5650874538638577e-01 
        </Neuron>
        <Neuron NSynapses="21">
          1.1925075441565139e-02 5.0158650784028636e-01 -9.0105778807648795e-01 8.8267848180886377e-01 1.7636406727843195e+00 -1.8201991067847774e+00 -7.9802031137631102e-01 -1.0113969652076893e+00 -4.8408443162030151e-01 6.1460306978875734e-01 5.9198522118690944e-01 -5.6129389438200583e-01 4.5245362389103028e-01 4.6415724841961259e-01 1.8376955988444250e+00 -4.5933543047564745e-01 -3.0239769053105525e-01 -1.0535478575622104e-01 -1.3135989128122771e+00 1.3633080443471701e+00 1.5131623377765198e+00 
        </Neuron>
        <Neuron NSynapses="21">
          -2.2243500881925357e-01 -1.5579718393987532e-01 8.4116758096932165e-01 -7.7078274677977232e-01 -2.7420763439617235e-01 1.0363227580603094e+00 -3.9200915632618227e-01 3.2866459470858567e-01 1.7141814807473271e-01 2.8632531074877982e-01 -5.8091672008754136e-01 3.4301538591985115e-01 -8.0953502210853845e-01 1.0662047730716722e+00 8.7135107994306549e-01 6.5269043436257412e-01 3.5678655254964065e-01 3.5756931229385347e-01 2.0386678203977274e-01 -2.7587135261489099e-01 6.4441614574480766e-01 
        </Neuron>
        <Neuron NSynapses="21">
          -9.2873809290274323e-01 -6.0947343134316956e-01 5.1168172938893131e-01 1.6218797447213380e+00 -1.0636868730507232e+00 2.3162690876450922e+00 2.2840015947339642e+00 -2.0725662004968624e+00 -7.7811313183091091e-01 -1.1539587980205897e-01 -1.1628794168449974e-01 -1.2213892373656567e+00 -2.2157291227417910e+00 -6.3902784898256881e-01 2.1335822634009927e+00 -2.9422069501923511e+00 -4.0489208505143892e-01 2.9909585937297067e-01 2.3391146374074576e-01 2.5759218015478909e+00 7.0209884884482798e-01 
        </Neuron>
        <Neuron NSynapses="21">
          -7.0063187085935608e-01 -5.5654993311587886e-01 1.8966151383441721e-01 7.3652116390453992e-01 2.4475691230109201e-01 -7.2556868902232063e-02 -5.6885402763274096e-01 -1.8968307516833216e+00 9.4377632892412289e-01 7.2500307328661773e-01 -2.0589210552996851e+00 -1.4408709927853884e+00 -5.7024020341854616e-02 -1.1414177679749860e-01 -2.2780248505757128e+00 7.5772214850273620e-02 -1.1727689965387635e-01 2.5795391446861371e-01 -1.2059267235008009e+00 3.6730397083624561e-01 3.6214352390152316e-01 
        </Neuron>
        <Neuron NSynapses="21">
          -2.0847824623941486e-01 6.2287100190126132e-01 -2.6010647201053914e+00 -5.1058909806901376e-01 1.0151590853624957e+00 1.3589852073514166e+00 1.0334850877137509e+00 -6.7798428661047794e-02 1.8623434571160737e+00 -1.6109795413070103e+00 -1.0753021520809882e+00 9.1166221757343360e-02 -9.1961437702685411e-01 -6.2921955935926255e-01 1.4290640960898764e+00 -1.1761369671893342e+00 -4.1373831865595168e-01 -4.6636157385908505e-01 -2.6866195888416455e+00 -1.1325156803031629e+00 -1.3296598832923783e+00 
        </Neuron>
        <Neuron NSynapses="21">
          3.8298824385392631e+00 1.0636443704361025e+00 -3.5514322674135235e+00 2.5898837194055258e+00 -4.1975095485521265e+00 1.7562087177115465e-01 -8.7364468811525420e-01 -1.6687894778765719e+00 -4.1336774041035458e+00 -4.3059322107227249e+00 -2.2406005453586584e+00 -1.9176460272599896e+00 -3.0046993933096369e+00 -2.6853144125006625e+00 -3.0697004680003670e-01 -2.6267538514353062e+00 1.7886180191208761e-01 2.4654873136063924e+00 -7.7235471656018773e-01 9.5173580192833307e-01 1.6828966637104676e+00 
        </Neuron>
      </Layer>
      <Layer Index="1" NNeurons="22">
        <Neuron NSynapses="16">
          1.8854594223493532e-01 1.7045660172229762e+00 1.5113311892902268e+00 -5.9489848463395378e-01 -2.6891038104499549e+00 -9.3563202170066695e-01 -1.8205286143193484e+00 -7.9818388830166687e-01 3.0453078580275061e-01 3.6134013313110291e-01 1.8060227781119473e+00 -4.4529909339198809e-01 1.1823584553190087e+00 -6.5028135391065534e-01 -2.0464504684165514e+00 1.3091631684737968e+00 
        </Neuron>
        <Neuron NSynapses="16">
          1.2279220081748627e+00 -8.6668248304946705e-01 -9.4322016398445563e-01 3.1541770112315820e-01 1.1028703428655333e+00 4.9847410789547214e-01 -4.8073709195691172e-01 -2.5995282992335084e-01 1.5131563646989792e+00 1.0764458800594092e+00 9.8849758713528402e-01 -2.8739678460666834e-01 3.6099047761006364e-01 -3.1522492168007926e-01 -1.6038351951750123e+00 -5.4577503062700961e-01 
        </Neuron>
        <Neuron NSynapses="16">
          -1.8650616809568907e+00 -1.2750304956394110e+00 -1.8981439488976228e+00 3.0619553656545078e+00 -1.7846036672317909e+00 1.7040238039723008e+00 -1.4575112329502942e+00 1.5158155139418452e+00 -1.7919653254198127e+00 4.1309971904060000e-01 7.9300883989025284e-01 -2.0055035317887948e+00 1.9121979087799662e-01 4.1661744100315468e-01 -2.3030163405249113e+00 -1.4923768941919671e+00 
        </Neuron>
        <Neuron NSynapses="16">
          -1.5770870296768404e+00 -9.3095416977707968e-01 2.0499821632475670e+00 -1.5795700519008704e+00 -2.1229739305034249e-02 -5.2840042711251667e-01 -2.2468117488611465e+00 -1.5406885796170515e+00 -9.7660741747152147e-01 -1.1683014132290541e+00 1.0032954296816945e+00 -1.4246300400207810e+00 1.0005799040943273e+00 1.3878620684791469e+00 7.3787620794423558e-01 -4.8141444892770158e-01 
        </Neuron>
        <Neuron NSynapses="16">
          2.1997304360386933e+00 -2.8276686553190733e+00 7.2578807510149779e-01 3.8820704119508624e+00 -1.2143759170086175e+00 -6.3329400365587230e-01 1.3202079179085807e-01 -1.3252241032659917e+00 9.9489819525300371e-01 2.0510848759318265e+00 1.3347724694788445e+00 1.4479916599382643e+00 -2.3744474876599253e+00 7.9534425109451556e-01 -2.1526691498483461e+00 6.1459661997084136e-01 
        </Neuron>
        <Neuron NSynapses="16">
          -1.2537685257077089e+00 -1.8233821144223687e+00 -1.0519554397786182e+00 3.1072436033930895e-01 9.2033382116180129e-01 1.5677055896831729e+00 1.7615051475312410e-01 -5.6648941073790238e-01 -9.2105838831594267e-01 3.6816578564301056e-01 1.9344239032747381e+00 -1.6730404252260243e+00 1.3889742890276600e+00 -1.4637311297402360e+00 -9.8273280558434628e-01 1.5906723997959653e-02 
        </Neuron>
        <Neuron NSynapses="16">
          6.1205571813043624e-01 -1.4357187793097259e+00 1.3326334820796339e+00 2.7633508355537386e+00 4.3965315015357814e-01 2.3111634225242028e-01 -1.2995280412807944e+00 -1.0365117829603814e+00 -2.5897900710272994e+00 1.0667836568062536e+00 -5.7406951368271597e-01 -1.1714893556718631e+00 1.6671180549018987e+00 -2.1226576440459093e+00 -2.1379754388678851e+00 -1.5958635975090030e+00 
        </Neuron>
        <Neuron NSynapses="16">
          1.0397381863784536e+00 -1.5900270275925270e+00 -1.9308877646092999e+00 2.5046406421447803e-01 -8.8069083911429669e-01 -1.6328708063817745e+00 1.0922415112681036e+00 -1.3355663521680170e+00 -1.0062967609032030e+00 1.7158055062306417e+00 5.2884866549583642e-01 2.8077143083976303e-01 1.6261983715188547e-01 1.2666172766028712e+00 1.7337677129119802e+00 5.0128878738178884e-01 
        </Neuron>
        <Neuron NSynapses="16">
          -9.5477430787138118e-01 -1.6188172841444795e-01 -1.3473455184666365e+00 2.6115790351643655e+00 1.1898132657645162e+00 8.2919520629600091e-02 1.8486107276038013e+00 1.1488951755766765e+00 1.1541825745853258e+00 -1.4280575381730936e+00 1.6549307105666495e+00 6.8845241354613296e-01 -2.7689951848552714e+00 4.8655828057552759e-02 -1.3996743674237502e+00 8.5796353756451404e-01 
        </Neuron>
        <Neuron NSynapses="16">
          3.5819963377919689e-01 7.0837274559921060e-01 1.6418417325341024e+00 1.9607117954517852e+00 1.4036072469249199e+00 1.7199229131750644e+00 2.2905366827337570e-01 -1.2533087818529260e+00 1.9000050442018066e+00 -2.0651194153759329e+00 5.7315324233415554e-01 1.6080060773361988e+00 -1.2234383024664250e+00 -9.9633357366205288e-01 -2.0148020758240986e-01 -1.3365814014988446e+00 
        </Neuron>
        <Neuron NSynapses="16">
          3.9011782228380076e-01 -1.7853981459938641e+00 9.3849560722709766e-02 7.5718937172358758e-01 2.1002280027341804e+00 1.4818920186349407e+00 1.5321316178743463e+00 -3.7306523044629780e-01 -1.3052498108106070e-01 3.1298850077408108e-01 1.8584600186732416e+00 -1.9189199980865270e+00 -2.0275112363104970e+00 -7.1148536654989114e-01 -1.4883939501492280e+00 -1.6977686056566323e+00 
        </Neuron>
        <Neuron NSynapses="16">
          -1.4600373235707391e+00 8.6976820408701838e-01 3.6916675539466696e-02 -1.5682936577365689e+00 -1.9540058443837760e+00 -1.8000994705529857e-01 1.7787459403072559e+00 1.9464739901821662e+00 1.2434455658978436e+00 -6.9305533465251545e-01 -1.9596850939746013e+00 -1.3187450084872981e-01 -1.3440128384973855e+00 -1.6014146241172071e+00 -7.3421633968539379e-01 1.3462001966916120e-02 
        </Neuron>
        <Neuron NSynapses="16">
          -1.4250061378329126e+00 2.1825880878028423e+00 1.3226909605162567e+00 -7.0296431063215292e-01 -1.4431548175523290e+00 -7.1714819951338249e-01 2.2990904689398044e+00 -1.6310596767522470e-01 -5.3406297338644482e-01 1.5265481996658450e+00 1.4456172851533882e+00 -1.2379722592026610e+00 2.3052864534154711e+00 -1.7977877770693831e+00 1.5624422906796624e+00 1.8252497647784913e+00 
        </Neuron>
        <Neuron NSynapses="16">
          -2.4202899158317390e-01 -3.2463157053873354e-01 2.8094280405180422e-01 1.7588565124736579e-02 1.3249518671935652e+00 2.1987637582733935e-01 -2.6704411865491751e-01 -1.4079324879958230e+00 2.8418954708368745e-02 1.9067969215634215e+00 3.9581626222027616e-01 -7.8421279630963669e-01 -2.5250443446213442e+00 2.1416772728684395e+00 8.6613374205765481e-01 -1.1979525604244865e+00 
        </Neuron>
        <Neuron NSynapses="16">
          -1.1264424803579161e-01 -9.0311149086937836e-01 1.6143454241253827e+00 1.2574495451539889e+00 -6.3565301058193429e-03 -6.4026874497429942e-01 8.7238584090489812e-01 2.0866935098559742e+00 6.2190303675068992e-01 1.2622269472486120e-01 -1.3137437976992012e+00 -1.2298837411187871e+00 1.3821747952057639e+00 2.2911139549341356e-01 -9.5435747436879645e-02 -1.8653956500692737e+00 
        </Neuron>
        <Neuron NSynapses="16">
          -1.8296846847392960e+00 -1.3518941380021376e+00 -3.8462792685946423e-01 -2.5744125768291810e+00 -2.2967858332815277e-01 -2.6782879964052098e-01 2.5760682945046254e+00 7.2299446796280820e-01 -2.8655384088964282e+00 1.3651022658190739e+00 1.8323491425843825e+00 9.2544926038603093e-01 -3.3140012486941282e-02 -8.1103136556398003e-01 2.2578808722666301e+00 -1.7290292993989387e+00 
        </Neuron>
        <Neuron NSynapses="16">
          4.4068534649363345e-01 -8.3836523161956944e-01 1.1880067870889834e+00 -7.8291036415774717e-01 -5.5915738662497239e-01 -5.0653523077787233e-01 9.5743808859810742e-01 -9.2216076838214223e-01 -1.1019682056660542e+00 9.8942022872813840e-01 3.4362689429864557e-01 7.0321330793324011e-01 8.7720543502531567e-01 -1.2974339978980045e+00 1.8053083269815826e+00 -1.8848590328556962e+00 
        </Neuron>
        <Neuron NSynapses="16">
          1.1565588508814453e+00 6.1910582073934095e-01 1.6529700672543055e-01 2.4595887577658595e+00 2.1108741780248383e+00 -1.6159770247749277e+00 -1.0080565594475073e+00 -2.2273705568634181e-01 9.7339886598498315e-01 -2.9779392695612361e-01 -2.7841303399234363e-01 -8.0716882608459051e-01 -1.3303456522621098e+00 -1.7233653081345763e+00 -1.4858663866220159e+00 -1.8342226709570217e+00 
        </Neuron>
        <Neuron NSynapses="16">
          -3.7717351637161456e-01 4.7975257691376183e-01 -1.0034756248984082e+00 -1.0715715039359457e+00 6.9883605673217397e-01 3.7708394562708519e-01 -5.3364271853066314e-01 -1.4157524974476892e+00 1.7818951562769143e+00 -2.7280739357862144e-01 6.9688764730892205e-01 6.1837355466652266e-01 -1.1333294934324243e+00 -8.7368328711599252e-01 -1.7589375757813272e-01 -1.9778493693394625e+00 
        </Neuron>
        <Neuron NSynapses="16">
          -6.6899048603829570e-01 -1.3486877514330464e+00 1.4071409436943896e+00 -1.7717803753656198e+00 1.7370269857835559e+00 1.9689863696189176e+00 1.2326611261918177e+00 1.2805463358641960e+00 1.0940391920475931e+00 1.9776176338192955e-01 -9.2405971876017479e-01 -1.9278458950634583e+00 -7.8851995031935151e-01 -8.6503106391725915e-01 1.6393268093492532e+00 1.7165943120548569e-01 
        </Neuron>
        <Neuron NSynapses="16">
          2.5317077023201784e-01 1.3793696076668505e+00 1.8328352583395671e+00 -2.6513531200322649e+00 -4.7779276877766208e-01 -1.6367393854251087e+00 9.9839553165240680e-01 -2.1028839525727148e+00 2.7921017248188679e-01 1.1478566109951358e-01 1.1206859775510254e+00 -1.9607287699051081e+00 7.7167558046545737e-01 -1.4322027845896368e+00 -9.4952652709298126e-03 1.1877500496002773e+00 
        </Neuron>
        <Neuron NSynapses="16">
          -5.8527584127561738e-01 9.0388013438357973e-01 -1.5666557541113237e+00 8.3713687171106066e-01 -9.8910113587899606e-01 1.1011084754463720e+00 -1.7215734171299955e+00 -4.2515066481014591e-01 1.4900260138619486e+00 -1.7605671283712030e+00 -1.3582028195754616e+00 -1.0829201368513499e+00 1.8761821789696627e+00 1.4532376447114517e+00 1.7221623985895984e+00 -1.7382995649886017e+00 
        </Neuron>
      </Layer>
      <Layer Index="2" NNeurons="17">
        <Neuron NSynapses="1">
          9.2226850965201113e-01 
        </Neuron>
        <Neuron NSynapses="1">
          9.7333632756762967e-01 
        </Neuron>
        <Neuron NSynapses="1">
          1.8397169935707658e+00 
        </Neuron>
        <Neuron NSynapses="1">
          -5.0308177682080091e+00 
        </Neuron>
        <Neuron NSynapses="1">
          -2.6310598656409021e+00 
        </Neuron>
        <Neuron NSynapses="1">
          -9.1883424521697610e-01 
        </Neuron>
        <Neuron NSynapses="1">
          2.7939580142836760e+00 
        </Neuron>
        <Neuron NSynapses="1">
          2.2605225867853127e+00 
        </Neuron>
        <Neuron NSynapses="1">
          -2.1344679236489359e+00 
        </Neuron>
        <Neuron NSynapses="1">
          -6.2576228929146316e-01 
        </Neuron>
        <Neuron NSynapses="1">
          -1.4216667184485885e+00 
        </Neuron>
        <Neuron NSynapses="1">
          1.2240797747710148e+00 
        </Neuron>
        <Neuron NSynapses="1">
          3.4200641630571496e+00 
        </Neuron>
        <Neuron NSynapses="1">
          1.3119234816870080e+00 
        </Neuron>
        <Neuron NSynapses="1">
          -3.2357633816532752e+00 
        </Neuron>
        <Neuron NSynapses="1">
          -1.4222058531077657e+00 
        </Neuron>
        <Neuron NSynapses="1">
          1.4089515869822284e+00 
        </Neuron>
      </Layer>
      <Layer Index="3" NNeurons="1">
        <Neuron NSynapses="0"/>
      </Layer>
    </Layout>
  </Weights>
</MethodSetup>
