<?xml version="1.0"?>
<MethodSetup Method="MLP::MLP">
  <GeneralInfo>
    <Info name="TMVA Release" value="4.2.1 [262657]"/>
    <Info name="ROOT Release" value="6.22/06 [398854]"/>
    <Info name="Creator" value="konstantin"/>
    <Info name="Date" value="Thu Apr  1 19:50:01 2021"/>
    <Info name="Host" value="Linux mach 5.8.0-43-generic #49~20.04.1-Ubuntu SMP Fri Feb 5 09:57:56 UTC 2021 x86_64 x86_64 x86_64 GNU/Linux"/>
    <Info name="Dir" value="/home/konstantin/Projects/CERN/TMVA_MLP"/>
    <Info name="Training events" value="170672"/>
    <Info name="TrainingTime" value="4.96570060e+01"/>
    <Info name="AnalysisType" value="Classification"/>
  </GeneralInfo>
  <Options>
    <Option name="NCycles" modified="Yes">400</Option>
    <Option name="HiddenLayers" modified="Yes">N</Option>
    <Option name="NeuronType" modified="Yes">sigmoid</Option>
    <Option name="RandomSeed" modified="No">1</Option>
    <Option name="EstimatorType" modified="No">CE</Option>
    <Option name="NeuronInputType" modified="No">sum</Option>
    <Option name="V" modified="Yes">False</Option>
    <Option name="VerbosityLevel" modified="No">Default</Option>
    <Option name="VarTransform" modified="Yes">N</Option>
    <Option name="H" modified="Yes">True</Option>
    <Option name="CreateMVAPdfs" modified="No">False</Option>
    <Option name="IgnoreNegWeightsInTraining" modified="No">False</Option>
    <Option name="TrainingMethod" modified="No">BP</Option>
    <Option name="LearningRate" modified="Yes">1.000000e-02</Option>
    <Option name="DecayRate" modified="No">1.000000e-02</Option>
    <Option name="TestRate" modified="Yes">5</Option>
    <Option name="EpochMonitoring" modified="No">False</Option>
    <Option name="Sampling" modified="No">1.000000e+00</Option>
    <Option name="SamplingEpoch" modified="No">1.000000e+00</Option>
    <Option name="SamplingImportance" modified="No">1.000000e+00</Option>
    <Option name="SamplingTraining" modified="No">True</Option>
    <Option name="SamplingTesting" modified="No">False</Option>
    <Option name="ResetStep" modified="No">50</Option>
    <Option name="Tau" modified="No">3.000000e+00</Option>
    <Option name="BPMode" modified="Yes">batch</Option>
    <Option name="BatchSize" modified="Yes">3</Option>
    <Option name="ConvergenceImprove" modified="Yes">2.500000e-03</Option>
    <Option name="ConvergenceTests" modified="Yes">5</Option>
    <Option name="UseRegulator" modified="Yes">False</Option>
    <Option name="UpdateLimit" modified="No">10000</Option>
    <Option name="CalculateErrors" modified="No">False</Option>
    <Option name="WeightRange" modified="No">1.000000e+00</Option>
  </Options>
  <Variables NVar="11">
    <Variable VarIndex="0" Expression="mJJ" Label="mJJ" Title="mJJ" Unit="" Internal="mJJ" Type="F" Min="2.27864819e+01" Max="7.83875537e+03"/>
    <Variable VarIndex="1" Expression="deltaYJJ" Label="deltaYJJ" Title="deltaYJJ" Unit="" Internal="deltaYJJ" Type="F" Min="2.21196096e-05" Max="8.68471050e+00"/>
    <Variable VarIndex="2" Expression="metPt" Label="metPt" Title="metPt" Unit="" Internal="metPt" Type="F" Min="1.25825294e+02" Max="2.27749878e+03"/>
    <Variable VarIndex="3" Expression="ptBalance" Label="ptBalance" Title="ptBalance" Unit="" Internal="ptBalance" Type="F" Min="4.91857872e-06" Max="4.76490766e-01"/>
    <Variable VarIndex="4" Expression="subleadJetEta" Label="subleadJetEta" Title="subleadJetEta" Unit="" Internal="subleadJetEta" Type="F" Min="-4.50663424e+00" Max="4.51134682e+00"/>
    <Variable VarIndex="5" Expression="leadJetPt" Label="leadJetPt" Title="leadJetPt" Unit="" Internal="leadJetPt" Type="F" Min="5.00584755e+01" Max="2.75328247e+03"/>
    <Variable VarIndex="6" Expression="photonEta" Label="photonEta" Title="photonEta" Unit="" Internal="photonEta" Type="F" Min="-2.40109253e+00" Max="2.39041257e+00"/>
    <Variable VarIndex="7" Expression="ptBalanceRed" Label="ptBalanceRed" Title="ptBalanceRed" Unit="" Internal="ptBalanceRed" Type="F" Min="2.29892414e-02" Max="9.99983788e-01"/>
    <Variable VarIndex="8" Expression="nJets" Label="nJets" Title="nJets" Unit="" Internal="nJets" Type="F" Min="2.00000000e+00" Max="9.00000000e+00"/>
    <Variable VarIndex="9" Expression="sinDeltaPhiJJOver2" Label="sinDeltaPhiJJOver2" Title="sinDeltaPhiJJOver2" Unit="" Internal="sinDeltaPhiJJOver2" Type="F" Min="1.59144402e-05" Max="1.00000000e+00"/>
    <Variable VarIndex="10" Expression="deltaYJPh" Label="deltaYJPh" Title="deltaYJPh" Unit="" Internal="deltaYJPh" Type="F" Min="1.18112052e-06" Max="6.68952894e+00"/>
  </Variables>
  <Spectators NSpec="1">
    <Spectator SpecIndex="0" Expression="weightModified" Label="weightModified" Title="F" Unit="" Internal="weightModified" Type="F" Min="-1.91263646e-01" Max="1.09073341e+00"/>
  </Spectators>
  <Classes NClass="2">
    <Class Name="Signal" Index="0"/>
    <Class Name="Background" Index="1"/>
  </Classes>
  <Transformations NTransformations="1">
    <Transform Name="Normalize">
      <Selection>
        <Input NInputs="11">
          <Input Type="Variable" Label="mJJ" Expression="mJJ"/>
          <Input Type="Variable" Label="deltaYJJ" Expression="deltaYJJ"/>
          <Input Type="Variable" Label="metPt" Expression="metPt"/>
          <Input Type="Variable" Label="ptBalance" Expression="ptBalance"/>
          <Input Type="Variable" Label="subleadJetEta" Expression="subleadJetEta"/>
          <Input Type="Variable" Label="leadJetPt" Expression="leadJetPt"/>
          <Input Type="Variable" Label="photonEta" Expression="photonEta"/>
          <Input Type="Variable" Label="ptBalanceRed" Expression="ptBalanceRed"/>
          <Input Type="Variable" Label="nJets" Expression="nJets"/>
          <Input Type="Variable" Label="sinDeltaPhiJJOver2" Expression="sinDeltaPhiJJOver2"/>
          <Input Type="Variable" Label="deltaYJPh" Expression="deltaYJPh"/>
        </Input>
        <Output NOutputs="11">
          <Output Type="Variable" Label="mJJ" Expression="mJJ"/>
          <Output Type="Variable" Label="deltaYJJ" Expression="deltaYJJ"/>
          <Output Type="Variable" Label="metPt" Expression="metPt"/>
          <Output Type="Variable" Label="ptBalance" Expression="ptBalance"/>
          <Output Type="Variable" Label="subleadJetEta" Expression="subleadJetEta"/>
          <Output Type="Variable" Label="leadJetPt" Expression="leadJetPt"/>
          <Output Type="Variable" Label="photonEta" Expression="photonEta"/>
          <Output Type="Variable" Label="ptBalanceRed" Expression="ptBalanceRed"/>
          <Output Type="Variable" Label="nJets" Expression="nJets"/>
          <Output Type="Variable" Label="sinDeltaPhiJJOver2" Expression="sinDeltaPhiJJOver2"/>
          <Output Type="Variable" Label="deltaYJPh" Expression="deltaYJPh"/>
        </Output>
      </Selection>
      <Class ClassIndex="0">
        <Ranges>
          <Range Index="0" Min="2.2786481857299805e+01" Max="7.5057304687500000e+03"/>
          <Range Index="1" Min="1.5035811520647258e-04" Max="8.6847105026245117e+00"/>
          <Range Index="2" Min="1.2697845458984375e+02" Max="2.2774987792968750e+03"/>
          <Range Index="3" Min="4.9185787247552071e-06" Max="4.0502533316612244e-01"/>
          <Range Index="4" Min="-4.5066342353820801e+00" Max="4.5113468170166016e+00"/>
          <Range Index="5" Min="5.0105968475341797e+01" Max="1.9641448974609375e+03"/>
          <Range Index="6" Min="-2.4010925292968750e+00" Max="2.3904125690460205e+00"/>
          <Range Index="7" Min="4.8834752291440964e-02" Max="9.9988257884979248e-01"/>
          <Range Index="8" Min="2.0000000000000000e+00" Max="8.0000000000000000e+00"/>
          <Range Index="9" Min="1.5914440155029297e-05" Max="1.0000000000000000e+00"/>
          <Range Index="10" Min="3.2652555091772228e-05" Max="6.5068273544311523e+00"/>
        </Ranges>
      </Class>
      <Class ClassIndex="1">
        <Ranges>
          <Range Index="0" Min="2.3556308746337891e+01" Max="7.8387553710937500e+03"/>
          <Range Index="1" Min="2.2119609639048576e-05" Max="8.6838493347167969e+00"/>
          <Range Index="2" Min="1.2582529449462891e+02" Max="1.9265614013671875e+03"/>
          <Range Index="3" Min="5.9500340285012498e-05" Max="4.7649076581001282e-01"/>
          <Range Index="4" Min="-4.5036110877990723e+00" Max="4.5083436965942383e+00"/>
          <Range Index="5" Min="5.0058475494384766e+01" Max="2.7532824707031250e+03"/>
          <Range Index="6" Min="-2.3863203525543213e+00" Max="2.3830773830413818e+00"/>
          <Range Index="7" Min="2.2989241406321526e-02" Max="9.9998378753662109e-01"/>
          <Range Index="8" Min="2.0000000000000000e+00" Max="9.0000000000000000e+00"/>
          <Range Index="9" Min="1.9311904907226562e-05" Max="1.0000000000000000e+00"/>
          <Range Index="10" Min="1.1811205240519485e-06" Max="6.6895289421081543e+00"/>
        </Ranges>
      </Class>
      <Class ClassIndex="2">
        <Ranges>
          <Range Index="0" Min="2.2786481857299805e+01" Max="7.8387553710937500e+03"/>
          <Range Index="1" Min="2.2119609639048576e-05" Max="8.6847105026245117e+00"/>
          <Range Index="2" Min="1.2582529449462891e+02" Max="2.2774987792968750e+03"/>
          <Range Index="3" Min="4.9185787247552071e-06" Max="4.7649076581001282e-01"/>
          <Range Index="4" Min="-4.5066342353820801e+00" Max="4.5113468170166016e+00"/>
          <Range Index="5" Min="5.0058475494384766e+01" Max="2.7532824707031250e+03"/>
          <Range Index="6" Min="-2.4010925292968750e+00" Max="2.3904125690460205e+00"/>
          <Range Index="7" Min="2.2989241406321526e-02" Max="9.9998378753662109e-01"/>
          <Range Index="8" Min="2.0000000000000000e+00" Max="9.0000000000000000e+00"/>
          <Range Index="9" Min="1.5914440155029297e-05" Max="1.0000000000000000e+00"/>
          <Range Index="10" Min="1.1811205240519485e-06" Max="6.6895289421081543e+00"/>
        </Ranges>
      </Class>
    </Transform>
  </Transformations>
  <MVAPdfs/>
  <Weights>
    <Layout NLayers="3">
      <Layer Index="0" NNeurons="12">
        <Neuron NSynapses="11">
          -1.2255965848345614e+00 1.6406143524749544e+00 1.2226986593787543e+00 5.7770211206614732e+00 -1.2259970505626954e+00 -2.0917125769421507e+00 -4.7061756127867266e-01 2.2559606087551534e+00 2.1510219740781951e+00 -7.2982706407140663e-01 -5.8845470972932246e+00 
        </Neuron>
        <Neuron NSynapses="11">
          6.1810867716313188e-02 -5.2488592360587685e+00 3.9154693585306544e-01 3.1104554922614418e+00 1.2268521494792886e+00 -1.0412511919350353e+00 5.8544437677828887e+00 1.6912957564350059e-01 5.5649509112691664e+00 -1.2770090008890513e+00 1.6392481821789850e+00 
        </Neuron>
        <Neuron NSynapses="11">
          3.1604337615032896e+00 -5.3352710035258055e-01 2.4167824406289476e-01 6.7629696258277849e-01 2.0619180624321038e+00 -1.8196277138648627e+00 -5.5667946937239998e-01 6.9199916906307102e-01 7.8556841465482175e-01 2.9899798882384050e+00 -1.0301515022769843e+00 
        </Neuron>
        <Neuron NSynapses="11">
          3.9536451434757758e-02 1.2048483697391020e-01 2.1007536198868132e-01 -5.3908226059893671e+00 2.2600516698279662e+00 -1.8267477918104249e+00 -1.4059162762770467e+00 1.4924504142106099e+00 3.5644525570363822e-01 6.8504204032373583e-01 1.0488694219724806e+00 
        </Neuron>
        <Neuron NSynapses="11">
          -1.9681099890729032e+00 -4.1130713429323178e+00 2.2744272188011720e+00 -1.9515690330995075e-01 1.0764552635059821e+00 9.8834337778149539e-01 5.8192275921662351e-01 1.2162424826810774e+00 -3.3835825027369562e+00 1.8908424603119627e+00 -2.2273527302164239e-01 
        </Neuron>
        <Neuron NSynapses="11">
          -8.1782022382333519e-01 -3.6964476468213769e-01 -1.4873708947346003e+00 1.9549800565041813e+00 1.2586183508901216e+00 -2.1770707461801933e+00 -5.0314639268514297e-03 1.6059143266738940e-01 -2.9580764185003955e-01 2.7028956486217903e+00 -8.5479538040052461e-01 
        </Neuron>
        <Neuron NSynapses="11">
          1.6678089164789882e+00 1.3384474006913867e+00 -2.2204002551006079e+00 -9.4586302524912874e-02 -3.9867564106908149e-01 -5.8286757949473533e-01 1.3116888262553614e-01 8.5398016406238908e-01 1.0693194901746317e+00 -1.4793699115121177e+00 1.6772677571279976e-01 
        </Neuron>
        <Neuron NSynapses="11">
          -7.5040935108387918e-01 -2.8090053634857580e-02 -6.6383921397850243e-01 -3.3781302525345225e-01 3.5020532235460117e-01 9.0808440413264424e-01 -2.8869376409052289e-01 -7.7165813181888254e-01 1.0441069343673832e-01 8.1875773327065755e-03 1.7225961074328500e-01 
        </Neuron>
        <Neuron NSynapses="11">
          -1.7821487467146950e+00 7.8339231260290765e-01 -6.6017459687125091e-01 -2.3596543546134341e+00 1.9329413758515048e+00 -1.9330294911898198e+00 1.1952663132394227e-01 1.5798722962173772e+00 -9.9148091341415656e-01 -1.8418587381190421e+00 -1.7532929342481915e+00 
        </Neuron>
        <Neuron NSynapses="11">
          -2.0442844520062539e-01 -4.8664340533885853e-01 -1.2971826213867568e+00 2.4121402258002878e-01 8.5759936854549834e-01 -2.0800149754053796e-01 5.6525714128659821e-01 -9.4363255260034351e-01 4.3918003123877691e-01 8.3195264504564781e-01 -1.3890549057209295e-01 
        </Neuron>
        <Neuron NSynapses="11">
          -2.0827918372395144e+00 1.4464450724054034e+00 -1.2643326224208806e+00 -3.1164907577990864e-01 -7.0567936085588023e-01 8.1209974476976010e-01 -1.8164550481515658e+00 -5.6462090264712594e-01 -2.1463638562278358e+00 -2.3883063632312012e+00 -8.2090771128746276e-01 
        </Neuron>
        <Neuron NSynapses="11">
          4.7028335575786923e-01 -7.8545747734381710e-01 1.8121256400876182e+00 2.8416541620837887e-01 -8.4890131761184318e-01 9.6816838819596551e-01 2.3547037593901599e+00 -2.5418280028791802e+00 3.3581526786543003e+00 -1.7496755075005288e+00 -8.6269370840108497e+00 
        </Neuron>
      </Layer>
      <Layer Index="1" NNeurons="12">
        <Neuron NSynapses="1">
          3.6708961853329121e+00 
        </Neuron>
        <Neuron NSynapses="1">
          -3.5675396617146529e+00 
        </Neuron>
        <Neuron NSynapses="1">
          2.6587549506523005e+00 
        </Neuron>
        <Neuron NSynapses="1">
          1.7475045965395795e+00 
        </Neuron>
        <Neuron NSynapses="1">
          -4.9339068996756402e-01 
        </Neuron>
        <Neuron NSynapses="1">
          -3.5628266967611188e-01 
        </Neuron>
        <Neuron NSynapses="1">
          -4.9534631513777301e+00 
        </Neuron>
        <Neuron NSynapses="1">
          8.1515394819181552e-01 
        </Neuron>
        <Neuron NSynapses="1">
          3.1097442500138444e+00 
        </Neuron>
        <Neuron NSynapses="1">
          -2.9023958117905400e+00 
        </Neuron>
        <Neuron NSynapses="1">
          -5.4583502155075685e+00 
        </Neuron>
        <Neuron NSynapses="1">
          -1.8107807637648973e-01 
        </Neuron>
      </Layer>
      <Layer Index="2" NNeurons="1">
        <Neuron NSynapses="0"/>
      </Layer>
    </Layout>
  </Weights>
</MethodSetup>
