<?xml version="1.0"?>
<MethodSetup Method="MLP::MLP">
  <GeneralInfo>
    <Info name="TMVA Release" value="4.2.1 [262657]"/>
    <Info name="ROOT Release" value="6.22/06 [398854]"/>
    <Info name="Creator" value="konstantin"/>
    <Info name="Date" value="Thu Apr  1 19:59:06 2021"/>
    <Info name="Host" value="Linux mach 5.8.0-43-generic #49~20.04.1-Ubuntu SMP Fri Feb 5 09:57:56 UTC 2021 x86_64 x86_64 x86_64 GNU/Linux"/>
    <Info name="Dir" value="/home/konstantin/Projects/CERN/TMVA_MLP"/>
    <Info name="Training events" value="170672"/>
    <Info name="TrainingTime" value="3.19239924e+02"/>
    <Info name="AnalysisType" value="Classification"/>
  </GeneralInfo>
  <Options>
    <Option name="NCycles" modified="Yes">400</Option>
    <Option name="HiddenLayers" modified="Yes">N+10,N+10</Option>
    <Option name="NeuronType" modified="Yes">sigmoid</Option>
    <Option name="RandomSeed" modified="No">1</Option>
    <Option name="EstimatorType" modified="No">CE</Option>
    <Option name="NeuronInputType" modified="No">sum</Option>
    <Option name="V" modified="Yes">False</Option>
    <Option name="VerbosityLevel" modified="No">Default</Option>
    <Option name="VarTransform" modified="Yes">N</Option>
    <Option name="H" modified="Yes">True</Option>
    <Option name="CreateMVAPdfs" modified="No">False</Option>
    <Option name="IgnoreNegWeightsInTraining" modified="No">False</Option>
    <Option name="TrainingMethod" modified="No">BP</Option>
    <Option name="LearningRate" modified="Yes">2.000000e-02</Option>
    <Option name="DecayRate" modified="No">1.000000e-02</Option>
    <Option name="TestRate" modified="Yes">5</Option>
    <Option name="EpochMonitoring" modified="No">False</Option>
    <Option name="Sampling" modified="No">1.000000e+00</Option>
    <Option name="SamplingEpoch" modified="No">1.000000e+00</Option>
    <Option name="SamplingImportance" modified="No">1.000000e+00</Option>
    <Option name="SamplingTraining" modified="No">True</Option>
    <Option name="SamplingTesting" modified="No">False</Option>
    <Option name="ResetStep" modified="No">50</Option>
    <Option name="Tau" modified="No">3.000000e+00</Option>
    <Option name="BPMode" modified="Yes">batch</Option>
    <Option name="BatchSize" modified="Yes">5</Option>
    <Option name="ConvergenceImprove" modified="Yes">2.500000e-03</Option>
    <Option name="ConvergenceTests" modified="Yes">5</Option>
    <Option name="UseRegulator" modified="Yes">False</Option>
    <Option name="UpdateLimit" modified="No">10000</Option>
    <Option name="CalculateErrors" modified="No">False</Option>
    <Option name="WeightRange" modified="No">1.000000e+00</Option>
  </Options>
  <Variables NVar="11">
    <Variable VarIndex="0" Expression="mJJ" Label="mJJ" Title="mJJ" Unit="" Internal="mJJ" Type="F" Min="2.27864819e+01" Max="7.83875537e+03"/>
    <Variable VarIndex="1" Expression="deltaYJJ" Label="deltaYJJ" Title="deltaYJJ" Unit="" Internal="deltaYJJ" Type="F" Min="2.21196096e-05" Max="8.68471050e+00"/>
    <Variable VarIndex="2" Expression="metPt" Label="metPt" Title="metPt" Unit="" Internal="metPt" Type="F" Min="1.25825294e+02" Max="2.27749878e+03"/>
    <Variable VarIndex="3" Expression="ptBalance" Label="ptBalance" Title="ptBalance" Unit="" Internal="ptBalance" Type="F" Min="4.91857872e-06" Max="4.76490766e-01"/>
    <Variable VarIndex="4" Expression="subleadJetEta" Label="subleadJetEta" Title="subleadJetEta" Unit="" Internal="subleadJetEta" Type="F" Min="-4.50663424e+00" Max="4.51134682e+00"/>
    <Variable VarIndex="5" Expression="leadJetPt" Label="leadJetPt" Title="leadJetPt" Unit="" Internal="leadJetPt" Type="F" Min="5.00584755e+01" Max="2.75328247e+03"/>
    <Variable VarIndex="6" Expression="photonEta" Label="photonEta" Title="photonEta" Unit="" Internal="photonEta" Type="F" Min="-2.40109253e+00" Max="2.39041257e+00"/>
    <Variable VarIndex="7" Expression="ptBalanceRed" Label="ptBalanceRed" Title="ptBalanceRed" Unit="" Internal="ptBalanceRed" Type="F" Min="2.29892414e-02" Max="9.99983788e-01"/>
    <Variable VarIndex="8" Expression="nJets" Label="nJets" Title="nJets" Unit="" Internal="nJets" Type="F" Min="2.00000000e+00" Max="9.00000000e+00"/>
    <Variable VarIndex="9" Expression="sinDeltaPhiJJOver2" Label="sinDeltaPhiJJOver2" Title="sinDeltaPhiJJOver2" Unit="" Internal="sinDeltaPhiJJOver2" Type="F" Min="1.59144402e-05" Max="1.00000000e+00"/>
    <Variable VarIndex="10" Expression="deltaYJPh" Label="deltaYJPh" Title="deltaYJPh" Unit="" Internal="deltaYJPh" Type="F" Min="1.18112052e-06" Max="6.68952894e+00"/>
  </Variables>
  <Spectators NSpec="1">
    <Spectator SpecIndex="0" Expression="weightModified" Label="weightModified" Title="F" Unit="" Internal="weightModified" Type="F" Min="-1.91263646e-01" Max="1.09073341e+00"/>
  </Spectators>
  <Classes NClass="2">
    <Class Name="Signal" Index="0"/>
    <Class Name="Background" Index="1"/>
  </Classes>
  <Transformations NTransformations="1">
    <Transform Name="Normalize">
      <Selection>
        <Input NInputs="11">
          <Input Type="Variable" Label="mJJ" Expression="mJJ"/>
          <Input Type="Variable" Label="deltaYJJ" Expression="deltaYJJ"/>
          <Input Type="Variable" Label="metPt" Expression="metPt"/>
          <Input Type="Variable" Label="ptBalance" Expression="ptBalance"/>
          <Input Type="Variable" Label="subleadJetEta" Expression="subleadJetEta"/>
          <Input Type="Variable" Label="leadJetPt" Expression="leadJetPt"/>
          <Input Type="Variable" Label="photonEta" Expression="photonEta"/>
          <Input Type="Variable" Label="ptBalanceRed" Expression="ptBalanceRed"/>
          <Input Type="Variable" Label="nJets" Expression="nJets"/>
          <Input Type="Variable" Label="sinDeltaPhiJJOver2" Expression="sinDeltaPhiJJOver2"/>
          <Input Type="Variable" Label="deltaYJPh" Expression="deltaYJPh"/>
        </Input>
        <Output NOutputs="11">
          <Output Type="Variable" Label="mJJ" Expression="mJJ"/>
          <Output Type="Variable" Label="deltaYJJ" Expression="deltaYJJ"/>
          <Output Type="Variable" Label="metPt" Expression="metPt"/>
          <Output Type="Variable" Label="ptBalance" Expression="ptBalance"/>
          <Output Type="Variable" Label="subleadJetEta" Expression="subleadJetEta"/>
          <Output Type="Variable" Label="leadJetPt" Expression="leadJetPt"/>
          <Output Type="Variable" Label="photonEta" Expression="photonEta"/>
          <Output Type="Variable" Label="ptBalanceRed" Expression="ptBalanceRed"/>
          <Output Type="Variable" Label="nJets" Expression="nJets"/>
          <Output Type="Variable" Label="sinDeltaPhiJJOver2" Expression="sinDeltaPhiJJOver2"/>
          <Output Type="Variable" Label="deltaYJPh" Expression="deltaYJPh"/>
        </Output>
      </Selection>
      <Class ClassIndex="0">
        <Ranges>
          <Range Index="0" Min="2.2786481857299805e+01" Max="7.5057304687500000e+03"/>
          <Range Index="1" Min="1.5035811520647258e-04" Max="8.6847105026245117e+00"/>
          <Range Index="2" Min="1.2697845458984375e+02" Max="2.2774987792968750e+03"/>
          <Range Index="3" Min="4.9185787247552071e-06" Max="4.0502533316612244e-01"/>
          <Range Index="4" Min="-4.5066342353820801e+00" Max="4.5113468170166016e+00"/>
          <Range Index="5" Min="5.0105968475341797e+01" Max="1.9641448974609375e+03"/>
          <Range Index="6" Min="-2.4010925292968750e+00" Max="2.3904125690460205e+00"/>
          <Range Index="7" Min="4.8834752291440964e-02" Max="9.9988257884979248e-01"/>
          <Range Index="8" Min="2.0000000000000000e+00" Max="8.0000000000000000e+00"/>
          <Range Index="9" Min="1.5914440155029297e-05" Max="1.0000000000000000e+00"/>
          <Range Index="10" Min="3.2652555091772228e-05" Max="6.5068273544311523e+00"/>
        </Ranges>
      </Class>
      <Class ClassIndex="1">
        <Ranges>
          <Range Index="0" Min="2.3556308746337891e+01" Max="7.8387553710937500e+03"/>
          <Range Index="1" Min="2.2119609639048576e-05" Max="8.6838493347167969e+00"/>
          <Range Index="2" Min="1.2582529449462891e+02" Max="1.9265614013671875e+03"/>
          <Range Index="3" Min="5.9500340285012498e-05" Max="4.7649076581001282e-01"/>
          <Range Index="4" Min="-4.5036110877990723e+00" Max="4.5083436965942383e+00"/>
          <Range Index="5" Min="5.0058475494384766e+01" Max="2.7532824707031250e+03"/>
          <Range Index="6" Min="-2.3863203525543213e+00" Max="2.3830773830413818e+00"/>
          <Range Index="7" Min="2.2989241406321526e-02" Max="9.9998378753662109e-01"/>
          <Range Index="8" Min="2.0000000000000000e+00" Max="9.0000000000000000e+00"/>
          <Range Index="9" Min="1.9311904907226562e-05" Max="1.0000000000000000e+00"/>
          <Range Index="10" Min="1.1811205240519485e-06" Max="6.6895289421081543e+00"/>
        </Ranges>
      </Class>
      <Class ClassIndex="2">
        <Ranges>
          <Range Index="0" Min="2.2786481857299805e+01" Max="7.8387553710937500e+03"/>
          <Range Index="1" Min="2.2119609639048576e-05" Max="8.6847105026245117e+00"/>
          <Range Index="2" Min="1.2582529449462891e+02" Max="2.2774987792968750e+03"/>
          <Range Index="3" Min="4.9185787247552071e-06" Max="4.7649076581001282e-01"/>
          <Range Index="4" Min="-4.5066342353820801e+00" Max="4.5113468170166016e+00"/>
          <Range Index="5" Min="5.0058475494384766e+01" Max="2.7532824707031250e+03"/>
          <Range Index="6" Min="-2.4010925292968750e+00" Max="2.3904125690460205e+00"/>
          <Range Index="7" Min="2.2989241406321526e-02" Max="9.9998378753662109e-01"/>
          <Range Index="8" Min="2.0000000000000000e+00" Max="9.0000000000000000e+00"/>
          <Range Index="9" Min="1.5914440155029297e-05" Max="1.0000000000000000e+00"/>
          <Range Index="10" Min="1.1811205240519485e-06" Max="6.6895289421081543e+00"/>
        </Ranges>
      </Class>
    </Transform>
  </Transformations>
  <MVAPdfs/>
  <Weights>
    <Layout NLayers="4">
      <Layer Index="0" NNeurons="12">
        <Neuron NSynapses="21">
          6.3188735571813381e-01 4.7134497432624718e+00 -6.2342675135288170e-02 4.7062868770588855e+00 -4.4630413557033544e+00 -2.8782271424173884e+00 -2.9430313579868228e+00 1.1891860361304174e+00 -8.9538717058077433e-01 2.3753363488043844e-01 -3.9920790316023149e+00 -2.6929679150964658e-01 -1.5116121254387755e+00 -1.7808726045307786e+00 1.7184015349855217e+00 -7.6017653519756187e-02 -3.1698860743869617e-01 -1.1002146984461421e+00 8.0615519682378223e-01 1.5950064473244114e+00 3.1199580222848553e+00 
        </Neuron>
        <Neuron NSynapses="21">
          -1.0996095794999152e+00 1.9468103507084749e+00 -1.3533802433330384e+00 -1.3023271825806744e+00 1.0576811443467065e+00 9.5004947324111244e-01 -3.0972108171189778e+00 -4.1521535737247390e+00 -6.0670359351089975e-01 3.1255626023464087e+00 2.3370528174345697e+00 -4.0275134750684799e-01 -1.0316559601378590e+00 -2.7341585697662780e+00 1.6345533852707124e+00 8.7612958726336876e-01 2.1721349643148353e+00 -1.3821380125021465e+00 1.4916195255164846e+00 4.7225003517768011e-01 9.3765253862410924e-01 
        </Neuron>
        <Neuron NSynapses="21">
          7.6386778709703373e-01 1.1228756172234589e+00 -7.1880017519743344e-01 -1.3385396816026827e+00 -2.7540830701931321e-02 1.0580322266882833e+00 2.3881368179893268e+00 3.4824347443766807e-01 1.0177123023621435e+00 2.4050075709456014e+00 -2.6475697602648283e+00 1.2862270415573851e+00 3.1929244180650060e-02 -1.3189271278310848e+00 -2.0167723004138201e+00 -1.5789738597916425e+00 1.3106642921506877e+00 -4.5205591329900241e-01 -1.1089029228235918e+00 -5.1383403645517833e-01 3.7327029337790391e-01 
        </Neuron>
        <Neuron NSynapses="21">
          1.4889594186807593e+00 8.5994589987272407e-01 2.0731419589270730e-01 -3.8439962192897546e-02 -9.4541460907249109e-01 3.1822591415831312e+00 2.8090849171389587e-01 2.3234256863735944e-01 -2.4764779717802150e+00 1.5136758188894708e-01 6.8114873503481232e-01 1.5431292029638624e+00 -3.4449857276261586e-01 -6.9121497173858193e-01 -2.9001562947627928e+00 1.5686728658775635e+00 8.1876335128100064e-01 4.7454551123037723e+00 1.1199213433139545e+00 1.5275677513294172e-01 -3.3461907205557946e+00 
        </Neuron>
        <Neuron NSynapses="21">
          -4.2077319657761709e+00 1.5327103412652669e-02 2.4448877174785437e+00 -1.2623220005277311e-01 -3.7532971345560340e-01 6.1333733620155328e-01 -4.8618787277860515e-01 8.0470745372673125e-02 2.6429007877650106e+00 -3.8480411356121418e+00 -1.1094915853385918e+00 3.4678985641324238e+00 -1.0723736186319595e+00 -4.4826168420743064e+00 -2.4159291508566398e+00 -1.6548487777246462e-01 -1.8198417070227921e+00 3.3697154411645708e-01 4.5384785481235496e-01 2.8101394159979448e-01 -1.6345102799665996e+00 
        </Neuron>
        <Neuron NSynapses="21">
          1.7307065388004172e+00 -3.1327838467372315e-01 3.4737462352060161e-01 1.3273921771812711e+00 -6.6365817361169788e-01 -1.9836553185658083e+00 -4.4127915498783987e-01 3.2822796516809821e-01 -6.1821739831682820e-01 -2.7460622017349929e+00 1.6585276357736931e+00 3.3289172289921537e-01 -8.4076921631672485e-01 8.7801963650492987e-01 -1.0818222285953638e+00 -1.2946139087797872e+00 3.0334682359665627e-01 -1.9390801542212042e+00 2.3149872726551615e+00 1.3220841192237751e+00 1.2664854276219026e+00 
        </Neuron>
        <Neuron NSynapses="21">
          3.2220171321827695e-01 -1.2761512086100102e-01 -2.0147731005998541e+00 6.0453368017666820e-01 1.6821739335960004e-01 -1.0592490986434111e+00 -4.3337958175514425e-02 -6.5724340196018061e-01 -2.8672826418827763e-01 1.8652741636527665e+00 8.2733831779194178e-01 -2.9472007132436367e-01 7.1049049598941627e-01 2.3261823376765864e+00 5.5249135565874262e-02 -6.9996757291346368e-01 -9.4814975064616425e-01 4.5504576376902350e-01 -7.4704438226167025e-01 1.1567204476383637e-01 4.0908886335857826e-02 
        </Neuron>
        <Neuron NSynapses="21">
          -8.8777297673008382e-01 -9.4296908750595620e-01 9.4488818137689745e-01 1.0806145493265997e+00 2.9432635141008801e-01 4.6990910976430977e-01 -2.0958380086852749e-01 -5.7315248701290483e-02 1.3190039648652277e-01 2.2468728808937616e-01 1.4031227882332509e-01 1.7234196842544411e-01 -5.5432946176884967e-01 1.5828314237933996e-01 9.3878569954909674e-01 -4.8290486837961782e-01 6.4005223291524482e-01 1.3335129795600751e+00 -6.6846913706369782e-01 -1.3411184107212184e+00 9.1149784386916666e-01 
        </Neuron>
        <Neuron NSynapses="21">
          -2.7334034440171773e-01 -1.7381994512939696e+00 1.2143388839050981e+00 2.4782601440641847e+00 -1.1466656268454236e+00 2.2615718620569889e+00 2.1425730641696328e+00 -1.8429125810383362e+00 1.3332602856435110e+00 -8.0857778759771104e-01 8.2890643634323624e-01 -1.1441593711325937e+00 -1.5388311953975318e+00 1.4880527373759598e+00 2.6983609590558624e+00 -1.4775425226739516e+00 -2.0210312678966308e-01 -5.3568539615952349e-01 1.0504976927290610e+00 1.5526683226755398e+00 -5.4282546363109307e-01 
        </Neuron>
        <Neuron NSynapses="21">
          -2.7651991716482172e-01 -4.5028136133642045e-03 6.6403222997761047e-01 2.3097559296059592e-01 2.6156647451207454e-01 3.9321621299382892e-01 2.2493717548509035e-01 -1.5974175638334920e+00 5.2848100251101271e-01 2.8427055027555742e-01 -6.1870226176035203e-01 -1.7144150102971528e-01 -2.9672015761464235e-02 5.2918860715959448e-01 -8.7349924973526316e-01 1.7391376633152464e+00 3.1723828635623236e-01 -3.6499516031918300e-01 -8.2819761427720684e-02 5.8805687019068964e-01 1.4391688804412572e-01 
        </Neuron>
        <Neuron NSynapses="21">
          2.9006189932762472e-01 7.1745648453611299e-01 -2.1072216149271541e+00 -1.4953124376237297e+00 -1.4858064876596316e-01 8.8442581690901478e-01 -4.4556821304377797e-01 3.1701901496071799e-02 1.4124565932012210e+00 -3.2444188200110213e+00 -1.2236909750274638e+00 6.0534193017749031e-02 -2.0586797793644012e+00 2.4951328338327259e+00 4.1432373644295512e-01 5.9989723135797382e-02 1.0895460287714982e+00 -5.6385669930899239e-02 -1.0542295769970327e+00 6.2530739737098462e-01 -7.3654577756035247e-02 
        </Neuron>
        <Neuron NSynapses="21">
          7.5740515654457985e-01 5.9917322019850081e+00 -4.2349454713845462e+00 4.3949410713265253e+00 -6.4384161259420534e+00 1.8539310407627605e+00 -1.2117231786751461e+00 -2.5221671781388921e+00 -2.2445493274672406e+00 -4.3247042099767707e-01 -3.6727304514143952e+00 -2.2691128964093856e+00 -2.7788007148200395e+00 -2.6679292704251298e+00 4.7150638850582399e-01 -3.9378830969030352e+00 -1.7376639187046232e+00 1.5046368941750730e+00 -1.4213062128224976e+00 2.6652905276140220e+00 5.8840554981086024e-01 
        </Neuron>
      </Layer>
      <Layer Index="1" NNeurons="22">
        <Neuron NSynapses="21">
          1.3249019164933169e+00 1.6738798219038458e+00 1.3154948154431745e+00 -1.1829009931898347e+00 -2.5835160156787587e+00 -9.5187356469483753e-01 7.5585180996123380e-02 -3.2500600536539015e-01 1.6450862717485645e-01 6.1018097217042899e-01 2.2940987528389511e+00 -3.3689951682051944e-01 -1.0821546165568784e-01 -6.3993386812026509e-01 -3.2725810566351767e+00 1.5311664461342971e+00 1.0665336379481145e+00 -1.4907857123193640e+00 -5.3299123413738836e-01 1.8146854610388479e+00 1.5723281768543054e+00 
        </Neuron>
        <Neuron NSynapses="21">
          6.7361298578546991e-01 -1.3629729686543766e+00 -3.8947128222731175e-01 1.0691743064273027e+00 2.9653910533863179e+00 1.0241906642612735e+00 -1.2566760079225305e+00 4.3710919665618281e-01 -1.0942870884141280e-02 -1.1656712407741412e+00 3.0623601078985452e+00 -1.9770520027242624e+00 -1.5352278411802815e+00 -1.7761346241711595e+00 9.4041572365582615e-01 -1.9076434093386294e+00 1.3875471679773714e+00 -2.1947015594712722e+00 1.8366432699101378e+00 -1.7658822820924114e+00 1.5530881153398024e-03 
        </Neuron>
        <Neuron NSynapses="21">
          9.0839869972292253e-01 -2.0222456061024330e+00 1.3809801977818276e-01 1.3550830127854951e+00 -2.1968200566704867e+00 -1.4867588404931291e+00 -1.7037117611824368e+00 -1.4976602592372366e+00 1.8838773317659439e+00 -1.2503716719559368e-01 3.1679198217234533e-01 -6.7148367414514354e-01 -1.4583019932077548e+00 -1.7312240989451761e+00 -6.5509118491074281e-01 -1.6196133212321335e+00 8.8415132248944106e-01 -4.5097531806903435e-01 -1.7017653318030057e+00 9.6256247157779828e-01 3.3241329806121650e-01 
        </Neuron>
        <Neuron NSynapses="21">
          -7.2002629234219517e-01 1.4881092087055789e+00 -1.9712258356149028e+00 2.7548206212035287e+00 1.3157699387058259e+00 -1.0019758777510415e+00 -2.6510616111855696e+00 7.8853426581630137e-01 -1.6036894531832953e+00 2.9631428474356808e-01 4.7828589759273088e+00 1.7778979698607444e+00 2.3538629750180382e+00 -1.5969673417748445e+00 1.0254321697349624e+00 -1.8322579381755026e+00 3.3338417376305618e-01 -2.3872701126656901e+00 -2.9628776379049468e+00 -4.4379099792807958e-01 8.8449518772301039e-01 
        </Neuron>
        <Neuron NSynapses="21">
          2.7009347471829931e-01 7.2945395387502698e-01 1.7195920004624712e-01 -1.1939764499381971e+00 -2.3645376775505653e+00 6.3140149107333510e-02 2.6835724865195498e+00 -2.1699748862873380e+00 5.0678014434952146e-01 -1.8800388767572340e+00 -2.8992718345470978e+00 -2.3257937058203057e-01 -6.8626036434162496e-01 -1.2009656218990372e+00 1.0560436113784311e+00 1.6687268625661693e+00 3.8625174910697618e-01 2.5278034295590668e-01 -3.4921329148028407e-01 -1.4759166969544022e+00 -1.8780819627952665e+00 
        </Neuron>
        <Neuron NSynapses="21">
          8.5293989305456419e-01 -1.5800662397000814e-01 -1.2414113515703493e+00 -5.2804392989802940e-01 -1.2432131206554722e+00 -1.0993922015612962e+00 -1.4174984927900625e+00 3.1875608000843827e+00 -6.3977913044127410e-01 -2.1790707469205888e+00 9.4743455573158511e-02 -1.9234461811829380e+00 -2.0087590586996171e+00 9.1168382760598965e-01 -2.6441612354613597e+00 -1.4004050516500763e+00 1.5057013710926161e+00 1.5744213651536711e+00 -4.4157454122903134e-03 -1.1444742590559334e-01 2.3187030535694659e+00 
        </Neuron>
        <Neuron NSynapses="21">
          2.3095142386044984e+00 1.1088374105998577e+00 -1.0725698674948605e+00 -1.0876422425947301e+00 -3.0251374791901688e+00 9.0857343851950212e-01 7.7840571522923596e-01 2.3299472224008224e+00 1.5698498276962285e+00 7.3679206606888703e-01 1.9798864497143205e+00 -1.4361913420474177e+00 1.4730848990187189e+00 3.8910884292737191e-01 -2.4413631229188422e+00 -3.1723347545241598e-01 -1.3781044967308917e+00 3.4670196483154059e-01 6.5817476962477539e-01 1.4109869562458086e+00 1.6099459212535121e+00 
        </Neuron>
        <Neuron NSynapses="21">
          7.2905507902945033e-02 1.6949437138728869e+00 1.7282568567123262e+00 5.9260988594637010e-01 -1.8810600744104962e+00 1.6408736745442631e+00 -1.3961913182815364e+00 -2.4686878364583689e-01 1.7862015262973689e+00 5.2083419895378763e-02 -1.0075079538356049e-01 5.5572054240453049e-02 -1.8811407576713308e+00 3.8531101131599654e-01 -1.5993385324131157e+00 3.2889662143283732e-02 -4.4466024042277119e-01 1.7328811448191250e+00 1.9561740864342541e+00 1.3803970165843853e+00 -9.0201315271511595e-01 
        </Neuron>
        <Neuron NSynapses="21">
          -1.7057141396649467e-01 1.4097406131225230e+00 1.5737251737446674e+00 -2.6818986194427765e+00 -2.3941411694638419e+00 -6.5421643417251385e-01 -1.4482526785420760e+00 -1.9729142759610816e+00 -5.6079215453838482e-02 4.9739948819295876e-01 -8.4442282332754337e-01 -2.1801114868658829e+00 -2.0526482830654764e+00 -2.1354399735690685e-01 8.1035465234949910e-01 1.0714529668789567e+00 1.1310968710753964e+00 -8.4649684210734977e-01 -1.7727616464180229e+00 -7.9787151288036495e-01 -1.7149035278062126e+00 
        </Neuron>
        <Neuron NSynapses="21">
          -2.7351194071928213e+00 -1.9118316407693028e+00 1.5034476507356271e-02 -1.7133730972572834e+00 2.5293174346529836e+00 1.2266600951833087e+00 7.8215542468605859e-01 5.2746081824892888e-01 -2.1272235489430851e+00 1.8491260556932123e+00 -1.6998223428187165e+00 5.7348250962885883e-01 7.4051067701836393e-01 1.2970943538804776e+00 7.8395179960802017e-02 2.4829830887341138e+00 -2.4809820036729469e+00 8.5517689647713868e-01 2.3556271587946216e+00 5.2022084118637268e-01 -7.1854669571360441e-02 
        </Neuron>
        <Neuron NSynapses="21">
          7.9950213716296126e-01 -1.2108091757522864e-01 1.1029373334725712e+00 2.6139629561181049e-01 -2.3473818259965955e+00 -1.5584854846554255e+00 -3.9343187046401010e-02 1.8581552658674205e+00 4.6069029329537192e-01 -1.0843960039718228e+00 -2.5587989407174985e+00 1.8733577408965110e+00 8.6481383631184594e-01 -1.2260161774267961e+00 -7.3611327962287221e-01 -1.0648735757534196e+00 8.8766215372416890e-01 8.6071492151050655e-01 -1.2963987368862915e+00 -1.2360780875844941e+00 1.6718527728845096e+00 
        </Neuron>
        <Neuron NSynapses="21">
          1.4605417057526262e+00 6.3076270571317061e-01 2.1622226900764027e-01 -1.0694085576751033e+00 -1.7456070405770820e+00 1.1557746966662625e+00 6.6640331518589146e-01 3.0255710107682793e-01 -1.4652896590549149e+00 -1.6637777584636564e+00 -2.1040019008416313e+00 -3.4662244632177275e-01 -1.8495104360362975e+00 7.3378190306242097e-01 -9.2298858565935304e-01 1.4200760892899962e+00 2.7235831560983431e-01 -2.0344461697422211e+00 1.2124806033169357e+00 1.5517609726043595e+00 1.3182234638425638e+00 
        </Neuron>
        <Neuron NSynapses="21">
          -1.6990101796886617e-01 -1.3563667109436723e+00 1.5318094373588984e+00 -1.8914060618777329e+00 8.4794186049772013e-01 -1.4149373724314753e+00 8.0816778743228113e-01 -1.8779896300579200e+00 7.1336822519362839e-02 -6.3797396887945190e-01 9.5187554355079773e-01 -7.3615917307705048e-01 -1.3991863957717408e+00 4.6581608414068959e-01 1.0542676373443840e+00 2.9252903974086264e-01 3.2463672514720748e-01 -1.5425257494244555e+00 2.5766249242944648e+00 -2.3972867597721175e+00 7.3194650984789333e-01 
        </Neuron>
        <Neuron NSynapses="21">
          2.0745843695946755e+00 -5.3688382662638631e-02 1.5360394969143922e+00 5.9824966592089579e-01 -3.5634206020557984e+00 -7.6075978069978245e-01 -5.0173889196575094e-01 6.0293505893897703e-01 4.1418319538870901e-01 2.0127930902304098e-01 -3.7155645556394595e-01 1.4337635333965990e-01 -8.3386774774324335e-01 -5.4962790019068097e-01 -2.8744643006180226e+00 2.8964336231617077e-01 -1.1437557375723460e-01 -1.8209705413327735e+00 -2.6634122831507745e+00 2.2267704955544239e+00 1.9855553208826296e-01 
        </Neuron>
        <Neuron NSynapses="21">
          -5.5319044656461658e-01 -2.3592074328722279e+00 1.7668602377243665e+00 -2.7492618697532295e-01 6.5144582518270000e-01 6.6586504194800844e-01 -2.0665759885779265e+00 -1.9845359634478890e+00 -2.6961738184589445e-01 -3.3982199194310057e+00 -5.6877929659703352e-01 -1.0711418421140617e+00 9.9774717503974564e-01 -2.1400443965723785e+00 1.3441640839251323e+00 2.1541416242172948e+00 1.1787442671411419e+00 2.1066442154696339e+00 -9.5453497068924054e-01 4.8734314794809963e-01 -9.0791987076854597e-01 
        </Neuron>
        <Neuron NSynapses="21">
          -1.6663949628153798e+00 -1.9190299197780241e+00 -9.2392108506891679e-01 1.5738652614591748e+00 1.3144537413964716e-01 1.4451091042393882e-01 1.8152940383217444e+00 3.8412125045554808e-02 -1.9007796737779523e+00 9.5263054665086189e-01 -2.1906823890600684e+00 7.0669930411928528e-01 -2.1835413133308439e+00 4.0762832496292201e-02 -3.6661691267212186e-02 5.6282173179572681e-01 -2.2623592834467745e+00 5.8862977718941145e-01 -1.0042602883982990e+00 -8.4272904621989309e-01 1.2561409199909002e+00 
        </Neuron>
        <Neuron NSynapses="21">
          -6.7358235802644073e-01 4.1237459485621997e-01 -1.7552805596850294e+00 1.0645854655248554e+00 -5.7820569554935941e-01 8.3210691916184298e-01 -1.5304550361697435e+00 -1.1003416568952384e+00 1.8116151076302160e+00 -1.8296185589639087e+00 -1.4778870387014067e+00 -8.6106233555662504e-01 1.2316361577138486e+00 1.4597721350796686e+00 1.3112607960546023e+00 -1.6208049133490621e+00 7.5989186674062492e-01 6.8221086324814673e-01 2.5060795261172936e-01 -1.2858113595237926e+00 -1.4536046270802625e+00 
        </Neuron>
        <Neuron NSynapses="21">
          5.1679014122632605e-01 -4.2817710422756483e-01 1.5141575237653822e+00 -3.4635256475412868e-01 -6.6993593363895276e-01 -1.0662658423567686e+00 1.7676499556553049e+00 1.1711853004363688e+00 1.9518539589666954e+00 -1.9195344388164251e-01 -5.3567582657456470e-01 1.7290381970094286e+00 1.1733964224054506e-01 1.2872223206868803e+00 -1.1050842030915109e+00 -1.5195146171265486e+00 -1.8103231005225058e+00 -1.3111362490156380e+00 -7.8169920791418168e-01 -1.9660202086451468e+00 4.5695853512771445e-01 
        </Neuron>
        <Neuron NSynapses="21">
          8.4256684346804542e-02 -7.6204439982930983e-01 9.0344236427070834e-01 -1.6977755271819401e+00 -9.4345065986706922e-01 3.6998598417102839e-02 -1.0850008485856344e+00 4.8800840882316626e-01 1.4332043225170463e+00 -1.7767693346244480e+00 -1.2057653521198214e-01 -1.3680272469606858e+00 5.7052745830256546e-01 4.3512045190857424e-01 -1.0011420527439827e+00 -8.0490046871498211e-01 -1.5798482964292488e+00 1.6749226106906150e+00 -1.2703183159593709e-01 9.3782537530048127e-01 -4.4326579469885934e-02 
        </Neuron>
        <Neuron NSynapses="21">
          -9.0496885632717305e-01 -2.0399716917725876e+00 -1.4860991992617918e+00 1.3923431378676230e+00 1.1036960174105457e+00 2.4539630077421729e-01 -1.8565829399273468e+00 6.5449155671424963e-01 3.2504512845889555e-01 -1.3611883060324927e+00 2.2363544435652618e+00 8.8182897553094208e-01 -9.1268362185535157e-01 -1.1342723263018395e+00 -2.4798971886525023e+00 -4.4158003606192064e-01 1.4416078599313036e+00 1.0634286329152460e+00 1.8693008372295478e-01 -2.1694006488703796e+00 -8.6874238611743748e-01 
        </Neuron>
        <Neuron NSynapses="21">
          -6.6380409625333348e-01 -1.5073564331294167e+00 1.4681367684433866e+00 -1.5614296855957108e+00 1.0932069466736707e+00 -6.3016330621572147e-01 -6.7007299302206624e-01 -3.3627519153327095e+00 1.4696437218951561e+00 3.5982501640998824e-02 2.7781057268330365e+00 -8.6931597256447868e-01 9.5126948872233119e-01 3.7390559373921506e-01 1.5984519747931552e+00 -1.3835446100973614e-01 -1.8196995855733666e+00 -2.3933864099376221e+00 -6.0730010933938317e-01 9.8683325359949770e-01 4.6480475380433817e-01 
        </Neuron>
        <Neuron NSynapses="21">
          1.5400723848275566e+00 -2.2602935122197115e-01 -7.1516492812787646e-01 1.4130235671774358e+00 5.0853110924696376e-01 -1.8674743843876251e+00 -2.9788146479145816e-01 3.4855621133653747e-01 2.2164957526620639e+00 7.6918564472825501e-01 2.9851539235537433e-01 -9.9733922886231496e-01 -1.1098096852437092e+00 -1.3284835552855883e+00 -1.4445695118907849e+00 -6.5354587185698504e-02 -1.6404271233259896e-02 -3.0992935998878307e-01 1.3804759050223039e+00 1.3109524415791635e-01 -2.0398262582081506e-01 
        </Neuron>
      </Layer>
      <Layer Index="2" NNeurons="22">
        <Neuron NSynapses="1">
          -1.9771607080592044e+00 
        </Neuron>
        <Neuron NSynapses="1">
          2.9933744166600267e+00 
        </Neuron>
        <Neuron NSynapses="1">
          -7.4205479453174250e-01 
        </Neuron>
        <Neuron NSynapses="1">
          -1.6772862479792343e+00 
        </Neuron>
        <Neuron NSynapses="1">
          2.1817507232114131e+00 
        </Neuron>
        <Neuron NSynapses="1">
          -2.2931037057208414e-01 
        </Neuron>
        <Neuron NSynapses="1">
          -1.3923406782435330e+00 
        </Neuron>
        <Neuron NSynapses="1">
          2.0883816972996478e+00 
        </Neuron>
        <Neuron NSynapses="1">
          -2.4340686064362664e+00 
        </Neuron>
        <Neuron NSynapses="1">
          -1.6773318499199512e+00 
        </Neuron>
        <Neuron NSynapses="1">
          3.6199427927008188e+00 
        </Neuron>
        <Neuron NSynapses="1">
          -1.2011814146766897e+00 
        </Neuron>
        <Neuron NSynapses="1">
          -1.5253876371368047e+00 
        </Neuron>
        <Neuron NSynapses="1">
          5.7573990299294164e-02 
        </Neuron>
        <Neuron NSynapses="1">
          3.0201693112720345e+00 
        </Neuron>
        <Neuron NSynapses="1">
          1.1258263214687358e+00 
        </Neuron>
        <Neuron NSynapses="1">
          7.8973322835466153e-02 
        </Neuron>
        <Neuron NSynapses="1">
          -2.3489714158177426e+00 
        </Neuron>
        <Neuron NSynapses="1">
          1.9392388897853661e+00 
        </Neuron>
        <Neuron NSynapses="1">
          2.6722806020647836e+00 
        </Neuron>
        <Neuron NSynapses="1">
          -1.9665920599978797e+00 
        </Neuron>
        <Neuron NSynapses="1">
          -1.0732247302631710e+00 
        </Neuron>
      </Layer>
      <Layer Index="3" NNeurons="1">
        <Neuron NSynapses="0"/>
      </Layer>
    </Layout>
  </Weights>
</MethodSetup>
