<?xml version="1.0"?>
<MethodSetup Method="MLP::MLP">
  <GeneralInfo>
    <Info name="TMVA Release" value="4.2.1 [262657]"/>
    <Info name="ROOT Release" value="6.22/06 [398854]"/>
    <Info name="Creator" value="konstantin"/>
    <Info name="Date" value="Thu Apr  1 20:24:04 2021"/>
    <Info name="Host" value="Linux mach 5.8.0-43-generic #49~20.04.1-Ubuntu SMP Fri Feb 5 09:57:56 UTC 2021 x86_64 x86_64 x86_64 GNU/Linux"/>
    <Info name="Dir" value="/home/konstantin/Projects/CERN/TMVA_MLP"/>
    <Info name="Training events" value="170672"/>
    <Info name="TrainingTime" value="2.56562631e+02"/>
    <Info name="AnalysisType" value="Classification"/>
  </GeneralInfo>
  <Options>
    <Option name="NCycles" modified="Yes">400</Option>
    <Option name="HiddenLayers" modified="Yes">N+10,N+10</Option>
    <Option name="NeuronType" modified="Yes">sigmoid</Option>
    <Option name="RandomSeed" modified="No">1</Option>
    <Option name="EstimatorType" modified="No">CE</Option>
    <Option name="NeuronInputType" modified="No">sum</Option>
    <Option name="V" modified="Yes">False</Option>
    <Option name="VerbosityLevel" modified="No">Default</Option>
    <Option name="VarTransform" modified="Yes">N</Option>
    <Option name="H" modified="Yes">True</Option>
    <Option name="CreateMVAPdfs" modified="No">False</Option>
    <Option name="IgnoreNegWeightsInTraining" modified="No">False</Option>
    <Option name="TrainingMethod" modified="No">BP</Option>
    <Option name="LearningRate" modified="Yes">1.000000e-02</Option>
    <Option name="DecayRate" modified="No">1.000000e-02</Option>
    <Option name="TestRate" modified="Yes">5</Option>
    <Option name="EpochMonitoring" modified="No">False</Option>
    <Option name="Sampling" modified="No">1.000000e+00</Option>
    <Option name="SamplingEpoch" modified="No">1.000000e+00</Option>
    <Option name="SamplingImportance" modified="No">1.000000e+00</Option>
    <Option name="SamplingTraining" modified="No">True</Option>
    <Option name="SamplingTesting" modified="No">False</Option>
    <Option name="ResetStep" modified="No">50</Option>
    <Option name="Tau" modified="No">3.000000e+00</Option>
    <Option name="BPMode" modified="Yes">batch</Option>
    <Option name="BatchSize" modified="Yes">7</Option>
    <Option name="ConvergenceImprove" modified="Yes">2.500000e-03</Option>
    <Option name="ConvergenceTests" modified="Yes">5</Option>
    <Option name="UseRegulator" modified="Yes">False</Option>
    <Option name="UpdateLimit" modified="No">10000</Option>
    <Option name="CalculateErrors" modified="No">False</Option>
    <Option name="WeightRange" modified="No">1.000000e+00</Option>
  </Options>
  <Variables NVar="11">
    <Variable VarIndex="0" Expression="mJJ" Label="mJJ" Title="mJJ" Unit="" Internal="mJJ" Type="F" Min="2.27864819e+01" Max="7.83875537e+03"/>
    <Variable VarIndex="1" Expression="deltaYJJ" Label="deltaYJJ" Title="deltaYJJ" Unit="" Internal="deltaYJJ" Type="F" Min="2.21196096e-05" Max="8.68471050e+00"/>
    <Variable VarIndex="2" Expression="metPt" Label="metPt" Title="metPt" Unit="" Internal="metPt" Type="F" Min="1.25825294e+02" Max="2.27749878e+03"/>
    <Variable VarIndex="3" Expression="ptBalance" Label="ptBalance" Title="ptBalance" Unit="" Internal="ptBalance" Type="F" Min="4.91857872e-06" Max="4.76490766e-01"/>
    <Variable VarIndex="4" Expression="subleadJetEta" Label="subleadJetEta" Title="subleadJetEta" Unit="" Internal="subleadJetEta" Type="F" Min="-4.50663424e+00" Max="4.51134682e+00"/>
    <Variable VarIndex="5" Expression="leadJetPt" Label="leadJetPt" Title="leadJetPt" Unit="" Internal="leadJetPt" Type="F" Min="5.00584755e+01" Max="2.75328247e+03"/>
    <Variable VarIndex="6" Expression="photonEta" Label="photonEta" Title="photonEta" Unit="" Internal="photonEta" Type="F" Min="-2.40109253e+00" Max="2.39041257e+00"/>
    <Variable VarIndex="7" Expression="ptBalanceRed" Label="ptBalanceRed" Title="ptBalanceRed" Unit="" Internal="ptBalanceRed" Type="F" Min="2.29892414e-02" Max="9.99983788e-01"/>
    <Variable VarIndex="8" Expression="nJets" Label="nJets" Title="nJets" Unit="" Internal="nJets" Type="F" Min="2.00000000e+00" Max="9.00000000e+00"/>
    <Variable VarIndex="9" Expression="sinDeltaPhiJJOver2" Label="sinDeltaPhiJJOver2" Title="sinDeltaPhiJJOver2" Unit="" Internal="sinDeltaPhiJJOver2" Type="F" Min="1.59144402e-05" Max="1.00000000e+00"/>
    <Variable VarIndex="10" Expression="deltaYJPh" Label="deltaYJPh" Title="deltaYJPh" Unit="" Internal="deltaYJPh" Type="F" Min="1.18112052e-06" Max="6.68952894e+00"/>
  </Variables>
  <Spectators NSpec="1">
    <Spectator SpecIndex="0" Expression="weightModified" Label="weightModified" Title="F" Unit="" Internal="weightModified" Type="F" Min="-1.91263646e-01" Max="1.09073341e+00"/>
  </Spectators>
  <Classes NClass="2">
    <Class Name="Signal" Index="0"/>
    <Class Name="Background" Index="1"/>
  </Classes>
  <Transformations NTransformations="1">
    <Transform Name="Normalize">
      <Selection>
        <Input NInputs="11">
          <Input Type="Variable" Label="mJJ" Expression="mJJ"/>
          <Input Type="Variable" Label="deltaYJJ" Expression="deltaYJJ"/>
          <Input Type="Variable" Label="metPt" Expression="metPt"/>
          <Input Type="Variable" Label="ptBalance" Expression="ptBalance"/>
          <Input Type="Variable" Label="subleadJetEta" Expression="subleadJetEta"/>
          <Input Type="Variable" Label="leadJetPt" Expression="leadJetPt"/>
          <Input Type="Variable" Label="photonEta" Expression="photonEta"/>
          <Input Type="Variable" Label="ptBalanceRed" Expression="ptBalanceRed"/>
          <Input Type="Variable" Label="nJets" Expression="nJets"/>
          <Input Type="Variable" Label="sinDeltaPhiJJOver2" Expression="sinDeltaPhiJJOver2"/>
          <Input Type="Variable" Label="deltaYJPh" Expression="deltaYJPh"/>
        </Input>
        <Output NOutputs="11">
          <Output Type="Variable" Label="mJJ" Expression="mJJ"/>
          <Output Type="Variable" Label="deltaYJJ" Expression="deltaYJJ"/>
          <Output Type="Variable" Label="metPt" Expression="metPt"/>
          <Output Type="Variable" Label="ptBalance" Expression="ptBalance"/>
          <Output Type="Variable" Label="subleadJetEta" Expression="subleadJetEta"/>
          <Output Type="Variable" Label="leadJetPt" Expression="leadJetPt"/>
          <Output Type="Variable" Label="photonEta" Expression="photonEta"/>
          <Output Type="Variable" Label="ptBalanceRed" Expression="ptBalanceRed"/>
          <Output Type="Variable" Label="nJets" Expression="nJets"/>
          <Output Type="Variable" Label="sinDeltaPhiJJOver2" Expression="sinDeltaPhiJJOver2"/>
          <Output Type="Variable" Label="deltaYJPh" Expression="deltaYJPh"/>
        </Output>
      </Selection>
      <Class ClassIndex="0">
        <Ranges>
          <Range Index="0" Min="2.2786481857299805e+01" Max="7.5057304687500000e+03"/>
          <Range Index="1" Min="1.5035811520647258e-04" Max="8.6847105026245117e+00"/>
          <Range Index="2" Min="1.2697845458984375e+02" Max="2.2774987792968750e+03"/>
          <Range Index="3" Min="4.9185787247552071e-06" Max="4.0502533316612244e-01"/>
          <Range Index="4" Min="-4.5066342353820801e+00" Max="4.5113468170166016e+00"/>
          <Range Index="5" Min="5.0105968475341797e+01" Max="1.9641448974609375e+03"/>
          <Range Index="6" Min="-2.4010925292968750e+00" Max="2.3904125690460205e+00"/>
          <Range Index="7" Min="4.8834752291440964e-02" Max="9.9988257884979248e-01"/>
          <Range Index="8" Min="2.0000000000000000e+00" Max="8.0000000000000000e+00"/>
          <Range Index="9" Min="1.5914440155029297e-05" Max="1.0000000000000000e+00"/>
          <Range Index="10" Min="3.2652555091772228e-05" Max="6.5068273544311523e+00"/>
        </Ranges>
      </Class>
      <Class ClassIndex="1">
        <Ranges>
          <Range Index="0" Min="2.3556308746337891e+01" Max="7.8387553710937500e+03"/>
          <Range Index="1" Min="2.2119609639048576e-05" Max="8.6838493347167969e+00"/>
          <Range Index="2" Min="1.2582529449462891e+02" Max="1.9265614013671875e+03"/>
          <Range Index="3" Min="5.9500340285012498e-05" Max="4.7649076581001282e-01"/>
          <Range Index="4" Min="-4.5036110877990723e+00" Max="4.5083436965942383e+00"/>
          <Range Index="5" Min="5.0058475494384766e+01" Max="2.7532824707031250e+03"/>
          <Range Index="6" Min="-2.3863203525543213e+00" Max="2.3830773830413818e+00"/>
          <Range Index="7" Min="2.2989241406321526e-02" Max="9.9998378753662109e-01"/>
          <Range Index="8" Min="2.0000000000000000e+00" Max="9.0000000000000000e+00"/>
          <Range Index="9" Min="1.9311904907226562e-05" Max="1.0000000000000000e+00"/>
          <Range Index="10" Min="1.1811205240519485e-06" Max="6.6895289421081543e+00"/>
        </Ranges>
      </Class>
      <Class ClassIndex="2">
        <Ranges>
          <Range Index="0" Min="2.2786481857299805e+01" Max="7.8387553710937500e+03"/>
          <Range Index="1" Min="2.2119609639048576e-05" Max="8.6847105026245117e+00"/>
          <Range Index="2" Min="1.2582529449462891e+02" Max="2.2774987792968750e+03"/>
          <Range Index="3" Min="4.9185787247552071e-06" Max="4.7649076581001282e-01"/>
          <Range Index="4" Min="-4.5066342353820801e+00" Max="4.5113468170166016e+00"/>
          <Range Index="5" Min="5.0058475494384766e+01" Max="2.7532824707031250e+03"/>
          <Range Index="6" Min="-2.4010925292968750e+00" Max="2.3904125690460205e+00"/>
          <Range Index="7" Min="2.2989241406321526e-02" Max="9.9998378753662109e-01"/>
          <Range Index="8" Min="2.0000000000000000e+00" Max="9.0000000000000000e+00"/>
          <Range Index="9" Min="1.5914440155029297e-05" Max="1.0000000000000000e+00"/>
          <Range Index="10" Min="1.1811205240519485e-06" Max="6.6895289421081543e+00"/>
        </Ranges>
      </Class>
    </Transform>
  </Transformations>
  <MVAPdfs/>
  <Weights>
    <Layout NLayers="4">
      <Layer Index="0" NNeurons="12">
        <Neuron NSynapses="21">
          -4.5609677725463892e-02 3.3274581449759766e+00 3.1212542283268285e-01 3.1289759589592356e+00 -3.4722547282421092e+00 -1.9486686656269878e+00 -1.8957940407590035e+00 1.5117101523818279e+00 -8.8573495680458558e-01 -4.3641884582788454e-01 -2.4717124960447823e+00 -3.5694734110091891e-01 -1.2346125780787354e+00 -1.4912559034132453e+00 4.7377184094455055e-01 4.4154179599516485e-01 -2.1577941597139000e-01 -5.7940960030619895e-02 7.6185650287485418e-01 1.3612750068654178e+00 2.1176606445464667e+00 
        </Neuron>
        <Neuron NSynapses="21">
          -1.8069914868773942e+00 7.7091890639704874e-01 -5.4577891026235847e-01 -1.4034738610306112e+00 4.0761740843559496e-01 5.1457958389957270e-01 -3.4115437669885029e+00 -3.1488503666991501e+00 3.8486554362164277e-01 1.9755130966771075e+00 2.2492709460600100e+00 -7.4464202935137480e-01 -5.6250344409819808e-01 -2.0345370922290709e+00 1.0416936377890564e+00 8.4949277332136164e-01 1.9495045629223093e+00 -2.1200633811998202e+00 1.4611071440981915e+00 8.0816434201926246e-01 2.1111388195811012e+00 
        </Neuron>
        <Neuron NSynapses="21">
          1.5056032507361656e+00 5.0452324593190012e-01 -9.0172001027901960e-01 -1.0042635934123341e+00 4.8150382951095522e-01 3.2614675964599452e-02 1.7314030254581807e+00 1.2562493286436742e+00 1.1420577770053850e+00 1.6705328175963696e+00 -2.0451893945233905e+00 1.1501750419716847e+00 -1.4883884335308555e+00 -1.2417478751391227e+00 -2.0064742840035641e+00 -1.3408849708310990e+00 1.5373421343576490e+00 -9.3780708998425763e-02 -1.1163210911946506e+00 2.7912299747018400e-02 1.8159254169810782e-01 
        </Neuron>
        <Neuron NSynapses="21">
          1.4695214612336693e+00 9.5480723273178447e-01 -7.1968569935982929e-01 -7.2135426123509039e-02 -1.0024153904631774e+00 2.0817460355714270e+00 2.9621305980882789e-01 -5.4098338295018422e-01 -2.0689544805904005e+00 -6.6926119667180553e-02 9.7649580288410298e-01 1.7526447275851829e+00 -1.1008442885237021e-01 -5.0468366031567002e-01 -2.1731154454544561e+00 1.2052178982708843e+00 8.7308814843674609e-01 3.4546774073641409e+00 1.0782753245148400e+00 8.1448405838943427e-01 -2.9194500668823489e+00 
        </Neuron>
        <Neuron NSynapses="21">
          -2.3750633557918817e+00 1.3085647870217024e-01 1.2548433237444749e+00 -4.6304237263343695e-01 -4.8752842442044525e-01 -8.6899046927878953e-01 -2.5074287546285262e-01 -1.7277667536808694e-01 2.4463254133309795e+00 -3.1900402724962178e+00 -9.0774455269999288e-01 2.6058220460684347e+00 -7.4986539912852168e-01 -3.9141465346723323e+00 -1.2999292781939737e+00 6.4797894433875847e-02 -1.6592675720945067e+00 2.7853571773962665e-01 4.9394646412675725e-01 7.8533180110853129e-01 -2.0155049254085493e+00 
        </Neuron>
        <Neuron NSynapses="21">
          1.5989820813841433e+00 -8.0947672647639257e-01 -3.7087512011291984e-01 8.6368568740876461e-01 -1.6693430169851645e-01 -1.7748027731500629e+00 -1.9910383901500531e-01 4.2362598212808666e-01 8.7814081050829773e-02 -1.6907415810115920e+00 1.6108618664539198e+00 2.6119281229634989e-01 -9.1052911229246603e-01 4.4034541607109073e-01 -1.1919904607787057e+00 -1.1444758826024548e+00 3.5598052079678077e-01 -1.5722635333095489e+00 2.2897431051349701e+00 8.3225340080918220e-01 9.0965858366655872e-01 
        </Neuron>
        <Neuron NSynapses="21">
          1.4013229277185074e-01 -1.5958933623425989e-01 -1.2551404239963817e+00 4.5013123383687292e-01 -6.8260465719004154e-02 -1.3419295908942404e+00 4.6819918675938016e-01 -1.1241510030211030e+00 8.3300552025161040e-02 1.3155999026158045e+00 1.0370137479465242e+00 -4.1759779444173817e-01 3.4606176269417149e-01 1.7715208608641100e+00 6.0666136700217987e-01 -4.2422366272974571e-01 -1.1313415476042192e+00 3.0932061044685355e-01 -8.6814180970107546e-01 1.1573244689893194e+00 3.5126923347962624e-01 
        </Neuron>
        <Neuron NSynapses="21">
          -9.6189273209197190e-01 -4.5073074434820032e-01 6.8155342886861237e-01 1.2851482346793699e-01 2.6520122417657765e-01 7.7762660537578598e-01 -2.6209415568015615e-01 -5.4622384489398557e-01 5.6683499684690908e-01 4.9348745423499124e-01 -1.1727566429877205e-01 5.7361459603108456e-01 -1.0654026186969261e+00 1.5001740259871471e-01 9.4228416911186205e-02 -2.3074041277507359e-01 2.4470082498311824e-01 1.1126191608864442e+00 -7.2194764125942967e-01 -1.1179839165135859e+00 4.9713598551998295e-01 
        </Neuron>
        <Neuron NSynapses="21">
          -2.9052858511276969e-01 -8.8993229309415023e-01 2.1207920171215817e+00 1.9482227020568086e+00 -9.9132870744520729e-01 2.1520818126810961e+00 1.8200892701653559e+00 -1.9025377658722267e+00 2.2294200676295187e-01 -5.0433107544183498e-01 2.0642401671781538e-01 -1.4134942924255192e+00 -1.4993910778117532e+00 1.5635210684731342e+00 2.4351893896844330e+00 -1.2646672093004070e+00 3.1483092891064796e-02 -8.1333313885446712e-01 9.1986284659868811e-01 1.9170204142264671e+00 -5.7190912228834068e-01 
        </Neuron>
        <Neuron NSynapses="21">
          -3.0833505727947624e-01 -1.8120644783399933e-01 4.0180487779040180e-02 4.5671910423085671e-01 1.2207512324648999e-01 3.9082567956076519e-01 -3.4167249513979275e-01 -1.3746552288632412e+00 7.7783216923430454e-01 3.6185419781731565e-01 -5.6974836640078907e-01 -3.6119308992739602e-01 3.5130986362606155e-03 2.8287816803785726e-01 -1.4772838051438895e+00 1.0821203915767632e+00 5.1135738544547960e-01 -3.3601415585465511e-01 3.6476684637313676e-02 1.6256223667015335e+00 -5.5957802283809081e-02 
        </Neuron>
        <Neuron NSynapses="21">
          5.6333805198966336e-01 5.6636036554621216e-01 -1.5458903137952793e+00 -7.4525660991804765e-01 6.7424666157527369e-01 1.4550571697379902e+00 -3.3939027290425257e-02 1.5117923046034001e-01 1.4632955263377188e+00 -2.7577726372901088e+00 -1.1390719516717573e+00 2.4460698230449421e-01 -1.3455007230554348e+00 1.5890963182355475e+00 1.3032011928689669e+00 -6.0878540188816122e-01 1.0614985890656292e+00 4.1399161162197351e-01 -1.1703398780955809e+00 -8.4360128101538390e-01 2.9875258354414177e-02 
        </Neuron>
        <Neuron NSynapses="21">
          3.0915513167863101e-01 3.5463831395365895e+00 -2.9868964171294308e+00 2.9211306706340343e+00 -4.3786044653832041e+00 8.6601413921880810e-01 -1.0900847111065788e+00 -1.6294925931438629e+00 -1.4181543459240755e+00 -8.9280585458972228e-01 -2.0996332052715183e+00 -2.1151527588514480e+00 -2.4386183595224189e+00 -2.4213587025466503e+00 1.2143494514101205e+00 -3.0271174283352003e+00 -1.7535016029784947e+00 1.5213364208695723e+00 -1.4123221068123346e+00 1.2162660456383927e+00 3.4076270961623395e-01 
        </Neuron>
      </Layer>
      <Layer Index="1" NNeurons="22">
        <Neuron NSynapses="21">
          7.1582673648835560e-01 1.9250410205280408e+00 1.4036374787347459e+00 -1.4125595556300741e+00 -1.9567179337997256e+00 -1.0207373495356968e+00 -8.4232967642863810e-01 -7.4827345052278882e-01 3.4257178830362423e-01 5.8886185559909010e-01 2.4635057164613587e+00 -2.7748966590611285e-01 9.1354712028527879e-02 -6.1853492190142867e-01 -2.5383417419739387e+00 1.2892159456442682e+00 1.1607766565914392e+00 -1.2061067591234771e+00 -6.5607063263517584e-01 8.5524047861852937e-01 1.3286642111391418e+00 
        </Neuron>
        <Neuron NSynapses="21">
          7.8843322872867283e-01 -6.9617956956525262e-01 -2.3754441017271161e-01 1.3432016876163362e+00 2.2467804823107733e+00 1.0305839745727108e+00 -1.2973316122281702e+00 2.2074840593001105e-01 -1.9361858605290669e-01 -1.5494190479998329e+00 1.2021598223743908e+00 -1.7983530052646914e+00 -1.3278242697838054e+00 -1.6967577796670104e+00 1.8002374235442813e+00 -1.7891018299729098e+00 1.7045070911534883e+00 -1.7109142699699833e+00 1.2173109071239689e+00 -1.1619217736627878e+00 4.6027182721539989e-01 
        </Neuron>
        <Neuron NSynapses="21">
          9.8108473025856247e-01 -1.8279222064725813e+00 1.7448268132764522e-01 1.1513242959772554e+00 -2.2155210217042436e+00 -1.4769661188953658e+00 -1.8467166730165654e+00 -1.2381843862664095e+00 1.9063174621735979e+00 -4.8986689986406312e-01 4.4250738452806487e-01 -8.1002256561449948e-01 -1.2510918366055932e+00 -1.6508488774672674e+00 -7.8350330386013434e-01 -1.6258697720646433e+00 9.4356516466291751e-01 -8.5424669741721537e-01 -1.5151023768142871e+00 1.1784006198806345e+00 3.9903306450949733e-01 
        </Neuron>
        <Neuron NSynapses="21">
          -2.9871281508818853e-01 1.4582496565886387e+00 -1.6882970471497500e+00 1.8649657492952454e+00 1.2165567114418046e+00 -1.0201779213845619e+00 -2.2244059354785368e+00 -1.4881689879600660e-01 -1.5510746531354285e+00 5.9494268400799022e-01 3.4252525719243705e+00 1.4356722640698103e+00 1.8197433417494109e+00 -1.5094113355816421e+00 7.1883392532575952e-01 -2.4155795815376919e+00 5.6618380685227054e-01 -1.9823274341723758e+00 -2.0778555196894470e+00 -2.3535336181219532e-01 1.1693521341578361e+00 
        </Neuron>
        <Neuron NSynapses="21">
          3.8376574823598558e-01 1.0174610112808109e+00 2.8150851496831092e-01 -1.1079281485636380e-01 -2.1055140284963727e+00 1.2300534328454486e-01 3.0042530138932539e+00 -1.7961213209885585e+00 3.6106882627041742e-01 -1.4824418252946172e+00 -1.7472033013169963e+00 -4.5481738106781015e-02 -2.5197845316607609e-01 -1.0862676142220447e+00 4.4115144449740828e-01 1.6708266766041688e+00 5.8269064861337350e-01 1.2601325643933187e-01 -8.6230991348546271e-01 -1.5397780988888792e+00 -1.7327054792445304e+00 
        </Neuron>
        <Neuron NSynapses="21">
          1.2663277300717524e+00 -4.3899734838018295e-01 -1.1404451412908145e+00 3.7478963429443091e-01 -8.9807771718077301e-01 -1.1109522604760937e+00 -1.6153550220408817e+00 2.2608342694245156e+00 -9.5879144896917823e-01 -1.9831800927094689e+00 1.9885851800047200e-01 -1.2091580114184883e+00 -1.8740796388798040e+00 1.0239917976444801e+00 -2.0565947277877790e+00 -8.4944672053570836e-01 1.7737095831446543e+00 9.4112146943706976e-01 -2.3461310543598024e-01 -2.3727038625598071e-01 1.6511974639765734e+00 
        </Neuron>
        <Neuron NSynapses="21">
          2.1609858364770691e+00 9.3632555323007005e-01 -9.2287962122761147e-01 -1.4157990049179585e+00 -3.1487465997521871e+00 9.2352184051453878e-01 5.5941980970592498e-01 2.0183437530111314e+00 1.3162161347187948e+00 1.1323567949710343e+00 2.1863784506106940e+00 -1.2878299507550797e+00 1.6379324350563380e+00 4.8683877720966351e-01 -2.0913648407541880e+00 -8.9080366414025766e-02 -1.2044569198541044e+00 5.6987277898153199e-01 1.2354358625266806e+00 1.0169718121738078e+00 1.7126338333206104e+00 
        </Neuron>
        <Neuron NSynapses="21">
          1.0496651060123134e-01 1.8151812715991942e+00 1.7053436169532576e+00 4.9435812678813951e-01 -1.4309230595048064e+00 1.7059229140242711e+00 -1.6026220469547763e+00 1.5551559292948638e-01 1.7026862491962214e+00 -6.1395618605056324e-02 -4.0524372886415333e-01 9.0024238311010432e-02 -1.6059224253356279e+00 4.5493353673064496e-01 -1.6279509675147936e+00 -1.2128418042297230e-01 -2.9565018380768510e-01 2.0489515005747490e+00 1.8298746553033094e+00 1.3143913520452630e+00 -6.1341964960839479e-01 
        </Neuron>
        <Neuron NSynapses="21">
          -1.1649522959657573e-01 5.9077677351276214e-01 1.7874069633925558e+00 -1.6763340650915262e+00 -2.4391226628079092e+00 -5.9899701997638255e-01 -1.4295413630563709e+00 -1.5381378919039292e+00 -6.5250515336746961e-01 8.9452185788517591e-01 -1.8001213405719749e-01 -2.0123872838329966e+00 -1.8392679362635138e+00 -1.4807322325023978e-01 1.1526506376842973e+00 1.8944319014770052e+00 1.2792405478299615e+00 -6.0208475799571937e-01 -2.3433752929903395e+00 -2.7285326919773639e-01 -1.3644116746255264e+00 
        </Neuron>
        <Neuron NSynapses="21">
          -1.9349943269377059e+00 -9.7671845710100791e-01 7.6101137826697043e-02 -1.4544746737008898e+00 2.2903695682910019e+00 1.2717981358817327e+00 5.3530227370494299e-01 -6.4233987296530626e-01 -1.9018591441481347e+00 1.9786049705526365e+00 -6.5740763571037253e-01 4.5323350808918195e-01 1.1890020946987643e+00 1.4175871643535785e+00 -6.6107658604597841e-01 1.6958515033254840e+00 -2.0867727379152967e+00 1.5748578795205186e+00 1.9686849428463908e+00 -1.8581987095940825e-01 -9.9877694324961172e-02 
        </Neuron>
        <Neuron NSynapses="21">
          5.4869894648947370e-01 -5.3746542775644324e-01 1.2124703077168251e+00 6.9960955717991558e-01 -1.9684133978542508e+00 -1.5036604863877945e+00 3.2227238438126096e-02 1.7003159072211829e+00 4.8125964396862386e-01 -6.6217073791786485e-01 -2.1558566097107472e+00 1.8891478582077481e+00 4.4598416658977597e-01 -1.2092959197103588e+00 -7.6178614434581637e-01 -8.4532263753475922e-01 1.0843226083103417e+00 1.3081645838511358e+00 -1.0017747368181111e+00 -1.1101432679372876e+00 1.6176450950407495e+00 
        </Neuron>
        <Neuron NSynapses="21">
          1.3722917646622421e+00 3.9985635214580312e-01 1.5070561259299936e-01 -1.2767208695798111e+00 -1.4874829436899233e+00 1.1537437374140691e+00 3.8045928465972717e-01 5.1137665160245194e-01 -1.7154039932113636e+00 -1.7358982080444207e+00 -1.8884407800112502e+00 -3.4102964982390038e-01 -1.8199427971953839e+00 7.3640533894254412e-01 -4.5350812665511903e-01 1.6518271362446209e+00 2.9232942745694201e-01 -1.9621230826761225e+00 1.3988785671330839e+00 1.7284499710618191e+00 1.1647421022734532e+00 
        </Neuron>
        <Neuron NSynapses="21">
          -1.5712252669655424e-01 -1.0081521284497648e+00 1.9252139504545736e+00 -1.5801766331124849e+00 5.0007532117421982e-01 -1.3485384532974982e+00 9.0666406412974065e-01 -1.0868050872376849e+00 2.6425200956633685e-02 -4.6845778562454027e-01 1.2777657423319209e+00 -5.9321770995354850e-01 -1.1518366327453375e+00 6.4605888434611813e-01 9.0825015675300036e-01 7.5360626302817779e-01 8.8013491152596324e-01 -1.3843297030342556e+00 1.9307442917218554e+00 -2.1334187026940574e+00 1.0078870636983723e+00 
        </Neuron>
        <Neuron NSynapses="21">
          1.4028736271972799e+00 9.4273347453996603e-01 1.6291494531465447e+00 7.2186791440203868e-01 -3.4542045922739470e+00 -7.4359161461412482e-01 -6.4698156060900935e-01 1.2654400399102144e+00 2.8945066565694832e-01 -1.0990747682128675e-01 -1.2101558763935101e+00 -3.2531156851836968e-01 -1.1647593842714159e+00 -5.0475625942553048e-01 -2.8902439525161849e+00 -1.8366756333031697e-01 5.4501829509223318e-02 -1.4843836285315608e+00 -2.4709107356767035e+00 8.8480476190532120e-01 2.6951611141614190e-01 
        </Neuron>
        <Neuron NSynapses="21">
          -2.3528268979411215e-01 -1.3759470377058842e+00 1.9392430440734612e+00 -3.8104728319743382e-02 1.0029013611692759e+00 7.2874871155917509e-01 -1.7075645652540192e+00 -1.4706536592175785e+00 1.6971938298283931e-02 -2.5775367889978278e+00 -2.3188943595112971e-01 -1.1687528618572967e+00 9.6391075409048910e-01 -2.0623902796772011e+00 1.3549450806589600e+00 1.8372891283930921e+00 1.5581903807231794e+00 1.3117606280754057e+00 6.7714177655900015e-02 3.1882505325255162e-02 -1.0044499028678506e+00 
        </Neuron>
        <Neuron NSynapses="21">
          -1.7356314872306728e+00 -1.1403842857558624e+00 -7.5404652143208672e-01 1.5280876787173876e+00 -5.3395624845545842e-01 1.2300953800829294e-01 1.6988283932525490e+00 7.3961291694006226e-01 -1.6039947824001441e+00 1.8941780900784966e-01 -1.8526905344826079e+00 9.5929876697928540e-01 -2.0835251906940413e+00 1.1330225570893503e-01 -2.2864014293329898e-01 9.2144498315656731e-01 -2.0213414590343528e+00 7.0459206348233638e-01 -1.5617553272728582e+00 -4.4963736766749740e-01 1.2977069367200480e+00 
        </Neuron>
        <Neuron NSynapses="21">
          -6.2935497283112729e-01 5.0587218566051129e-01 -1.7103680147922120e+00 1.1012142320951057e+00 -3.7794471839068311e-01 8.2604577493030396e-01 -1.6693585902989236e+00 -1.1262802823903399e+00 1.9488250245318131e+00 -1.8294336311235582e+00 -1.1191991186126944e+00 -8.5848022432744098e-01 1.2700730662173370e+00 1.4598794459891107e+00 1.3358319286345974e+00 -1.6802080084419910e+00 7.6413905332662968e-01 6.5782749162329457e-01 1.8558202783083047e-01 -1.2423212343538801e+00 -1.3926318711087120e+00 
        </Neuron>
        <Neuron NSynapses="21">
          7.4414272679666160e-01 -3.1253391186327986e-02 1.6406097420748353e+00 -2.0367262266248465e-01 -7.5158491020725438e-01 -1.0510779072024150e+00 1.7442436920373172e+00 1.2565538951945747e+00 1.6414606777167944e+00 -2.9284234916169410e-01 -8.6191417617527755e-01 1.8286882084822045e+00 9.8467816665527508e-02 1.4546069756243749e+00 -4.2578885854393594e-01 -8.9954118921316883e-01 -1.3478589729332726e+00 -1.3253618842933201e+00 -4.6446138534072018e-01 -1.5287852557318529e+00 9.5681033275894195e-02 
        </Neuron>
        <Neuron NSynapses="21">
          5.5195989136012945e-02 -7.1918476573765444e-01 9.2554538695652233e-01 -1.7205558101374034e+00 -9.3723213878213640e-01 2.8141288545070489e-02 -1.0836021597392032e+00 4.6640636274993807e-01 1.4280297378674283e+00 -1.7887989123318113e+00 -1.3420823238803997e-01 -1.3506142375455630e+00 5.1049934391085894e-01 4.3631609521512743e-01 -9.3326276620046822e-01 -7.7512594624694664e-01 -1.5766719984849098e+00 1.6936658473224890e+00 -8.1745259112048801e-02 1.0418034316527025e+00 -7.3601636084579841e-02 
        </Neuron>
        <Neuron NSynapses="21">
          -9.2943715245932745e-01 -1.6563595103468225e+00 -1.2489128949489738e+00 1.1575403356903076e+00 1.0931333422373306e+00 2.0048483344340520e-01 -1.7418536724173384e+00 4.0464447148893989e-01 3.4871560674577828e-01 -1.4080648639478195e+00 1.7798020325573871e+00 1.0128748391029285e+00 -1.2037746613257039e+00 -1.0955820356628190e+00 -2.1921588663342466e+00 -2.9468903324329391e-02 1.5792361353731570e+00 1.2463670046363031e+00 2.6217844870404994e-01 -2.0952442642654354e+00 -7.4328122467826530e-01 
        </Neuron>
        <Neuron NSynapses="21">
          -8.1545905167848709e-01 -8.5871923258841942e-01 1.5932698825181757e+00 -1.7878104677447293e+00 1.8401544107506234e+00 -6.0132309380152538e-01 -9.6891696706696240e-01 -3.3545104906502701e+00 1.4542674960532267e+00 1.9666484673707391e-01 2.5534232311805543e+00 -1.1460333924187889e+00 1.2017980679829585e+00 4.4692079488817449e-01 1.4280295726503553e+00 -9.0118873254060938e-01 -1.5929274578853168e+00 -2.1080017103181814e+00 -2.6271397375981748e-01 1.0259663331759850e+00 6.1022571680879856e-01 
        </Neuron>
        <Neuron NSynapses="21">
          1.5246553153435973e+00 2.4921994378652115e-01 -3.5194488996924955e-01 1.7278865185600119e+00 4.5846477461904639e-01 -1.8187549535111973e+00 -1.1379388007135398e-01 7.2161427187746985e-01 1.9468344407452824e+00 9.5740270019925144e-01 -6.1373795446017215e-03 -8.9505929566958831e-01 -9.2613126253246636e-01 -1.1173367078233951e+00 -9.4891288917614180e-01 3.3859810653532524e-01 5.6982648311182538e-01 -1.8211449439966335e-01 1.0783843832514217e+00 7.1804258603332161e-01 8.6841833970503296e-02 
        </Neuron>
      </Layer>
      <Layer Index="2" NNeurons="22">
        <Neuron NSynapses="1">
          -1.9899833634946480e+00 
        </Neuron>
        <Neuron NSynapses="1">
          1.1244037886636620e+00 
        </Neuron>
        <Neuron NSynapses="1">
          -4.3951117278970447e-01 
        </Neuron>
        <Neuron NSynapses="1">
          -3.1158018830931229e+00 
        </Neuron>
        <Neuron NSynapses="1">
          3.6176936100073687e+00 
        </Neuron>
        <Neuron NSynapses="1">
          -3.7932131826906640e-01 
        </Neuron>
        <Neuron NSynapses="1">
          -2.4832534975225315e+00 
        </Neuron>
        <Neuron NSynapses="1">
          3.1638332124371908e+00 
        </Neuron>
        <Neuron NSynapses="1">
          -2.9219657654478453e+00 
        </Neuron>
        <Neuron NSynapses="1">
          -1.6969094815404495e+00 
        </Neuron>
        <Neuron NSynapses="1">
          3.0126803372009188e+00 
        </Neuron>
        <Neuron NSynapses="1">
          -1.0733460127132484e+00 
        </Neuron>
        <Neuron NSynapses="1">
          -1.0324794185938275e+00 
        </Neuron>
        <Neuron NSynapses="1">
          -2.0112412693189508e-01 
        </Neuron>
        <Neuron NSynapses="1">
          2.0568089224044241e+00 
        </Neuron>
        <Neuron NSynapses="1">
          1.8560686082163544e+00 
        </Neuron>
        <Neuron NSynapses="1">
          -3.0185445587533144e-01 
        </Neuron>
        <Neuron NSynapses="1">
          -2.1391065478061990e+00 
        </Neuron>
        <Neuron NSynapses="1">
          2.5051711442964337e+00 
        </Neuron>
        <Neuron NSynapses="1">
          1.3586126043692113e+00 
        </Neuron>
        <Neuron NSynapses="1">
          -1.2977056944931540e+00 
        </Neuron>
        <Neuron NSynapses="1">
          -8.9439894450365987e-01 
        </Neuron>
      </Layer>
      <Layer Index="3" NNeurons="1">
        <Neuron NSynapses="0"/>
      </Layer>
    </Layout>
  </Weights>
</MethodSetup>
