<?xml version="1.0"?>
<MethodSetup Method="MLP::MLP">
  <GeneralInfo>
    <Info name="TMVA Release" value="4.2.1 [262657]"/>
    <Info name="ROOT Release" value="6.22/06 [398854]"/>
    <Info name="Creator" value="konstantin"/>
    <Info name="Date" value="Wed Mar 24 00:17:56 2021"/>
    <Info name="Host" value="Linux mach 5.8.0-43-generic #49~20.04.1-Ubuntu SMP Fri Feb 5 09:57:56 UTC 2021 x86_64 x86_64 x86_64 GNU/Linux"/>
    <Info name="Dir" value="/home/konstantin/Projects/CERN/TMVA_MLP"/>
    <Info name="Training events" value="170672"/>
    <Info name="TrainingTime" value="3.21103963e+02"/>
    <Info name="AnalysisType" value="Classification"/>
  </GeneralInfo>
  <Options>
    <Option name="NCycles" modified="Yes">400</Option>
    <Option name="HiddenLayers" modified="Yes">N+10,N+10</Option>
    <Option name="NeuronType" modified="Yes">sigmoid</Option>
    <Option name="RandomSeed" modified="No">1</Option>
    <Option name="EstimatorType" modified="No">CE</Option>
    <Option name="NeuronInputType" modified="No">sum</Option>
    <Option name="V" modified="Yes">False</Option>
    <Option name="VerbosityLevel" modified="No">Default</Option>
    <Option name="VarTransform" modified="Yes">N</Option>
    <Option name="H" modified="Yes">True</Option>
    <Option name="CreateMVAPdfs" modified="No">False</Option>
    <Option name="IgnoreNegWeightsInTraining" modified="No">False</Option>
    <Option name="TrainingMethod" modified="No">BP</Option>
    <Option name="LearningRate" modified="Yes">1.000000e-02</Option>
    <Option name="DecayRate" modified="No">1.000000e-02</Option>
    <Option name="TestRate" modified="Yes">5</Option>
    <Option name="EpochMonitoring" modified="No">False</Option>
    <Option name="Sampling" modified="No">1.000000e+00</Option>
    <Option name="SamplingEpoch" modified="No">1.000000e+00</Option>
    <Option name="SamplingImportance" modified="No">1.000000e+00</Option>
    <Option name="SamplingTraining" modified="No">True</Option>
    <Option name="SamplingTesting" modified="No">False</Option>
    <Option name="ResetStep" modified="No">50</Option>
    <Option name="Tau" modified="No">3.000000e+00</Option>
    <Option name="BPMode" modified="Yes">batch</Option>
    <Option name="BatchSize" modified="Yes">5</Option>
    <Option name="ConvergenceImprove" modified="Yes">2.500000e-03</Option>
    <Option name="ConvergenceTests" modified="Yes">5</Option>
    <Option name="UseRegulator" modified="Yes">False</Option>
    <Option name="UpdateLimit" modified="No">10000</Option>
    <Option name="CalculateErrors" modified="No">False</Option>
    <Option name="WeightRange" modified="No">1.000000e+00</Option>
  </Options>
  <Variables NVar="11">
    <Variable VarIndex="0" Expression="mJJ" Label="mJJ" Title="mJJ" Unit="" Internal="mJJ" Type="F" Min="2.27864819e+01" Max="7.83875537e+03"/>
    <Variable VarIndex="1" Expression="deltaYJJ" Label="deltaYJJ" Title="deltaYJJ" Unit="" Internal="deltaYJJ" Type="F" Min="2.21196096e-05" Max="8.68471050e+00"/>
    <Variable VarIndex="2" Expression="metPt" Label="metPt" Title="metPt" Unit="" Internal="metPt" Type="F" Min="1.25825294e+02" Max="2.27749878e+03"/>
    <Variable VarIndex="3" Expression="ptBalance" Label="ptBalance" Title="ptBalance" Unit="" Internal="ptBalance" Type="F" Min="4.91857872e-06" Max="4.76490766e-01"/>
    <Variable VarIndex="4" Expression="subleadJetEta" Label="subleadJetEta" Title="subleadJetEta" Unit="" Internal="subleadJetEta" Type="F" Min="-4.50663424e+00" Max="4.51134682e+00"/>
    <Variable VarIndex="5" Expression="leadJetPt" Label="leadJetPt" Title="leadJetPt" Unit="" Internal="leadJetPt" Type="F" Min="5.00584755e+01" Max="2.75328247e+03"/>
    <Variable VarIndex="6" Expression="photonEta" Label="photonEta" Title="photonEta" Unit="" Internal="photonEta" Type="F" Min="-2.40109253e+00" Max="2.39041257e+00"/>
    <Variable VarIndex="7" Expression="ptBalanceRed" Label="ptBalanceRed" Title="ptBalanceRed" Unit="" Internal="ptBalanceRed" Type="F" Min="2.29892414e-02" Max="9.99983788e-01"/>
    <Variable VarIndex="8" Expression="nJets" Label="nJets" Title="nJets" Unit="" Internal="nJets" Type="F" Min="2.00000000e+00" Max="9.00000000e+00"/>
    <Variable VarIndex="9" Expression="sinDeltaPhiJJOver2" Label="sinDeltaPhiJJOver2" Title="sinDeltaPhiJJOver2" Unit="" Internal="sinDeltaPhiJJOver2" Type="F" Min="1.59144402e-05" Max="1.00000000e+00"/>
    <Variable VarIndex="10" Expression="deltaYJPh" Label="deltaYJPh" Title="deltaYJPh" Unit="" Internal="deltaYJPh" Type="F" Min="1.18112052e-06" Max="6.68952894e+00"/>
  </Variables>
  <Spectators NSpec="1">
    <Spectator SpecIndex="0" Expression="weightModified" Label="weightModified" Title="F" Unit="" Internal="weightModified" Type="F" Min="-1.91263646e-01" Max="1.09073341e+00"/>
  </Spectators>
  <Classes NClass="2">
    <Class Name="Signal" Index="0"/>
    <Class Name="Background" Index="1"/>
  </Classes>
  <Transformations NTransformations="1">
    <Transform Name="Normalize">
      <Selection>
        <Input NInputs="11">
          <Input Type="Variable" Label="mJJ" Expression="mJJ"/>
          <Input Type="Variable" Label="deltaYJJ" Expression="deltaYJJ"/>
          <Input Type="Variable" Label="metPt" Expression="metPt"/>
          <Input Type="Variable" Label="ptBalance" Expression="ptBalance"/>
          <Input Type="Variable" Label="subleadJetEta" Expression="subleadJetEta"/>
          <Input Type="Variable" Label="leadJetPt" Expression="leadJetPt"/>
          <Input Type="Variable" Label="photonEta" Expression="photonEta"/>
          <Input Type="Variable" Label="ptBalanceRed" Expression="ptBalanceRed"/>
          <Input Type="Variable" Label="nJets" Expression="nJets"/>
          <Input Type="Variable" Label="sinDeltaPhiJJOver2" Expression="sinDeltaPhiJJOver2"/>
          <Input Type="Variable" Label="deltaYJPh" Expression="deltaYJPh"/>
        </Input>
        <Output NOutputs="11">
          <Output Type="Variable" Label="mJJ" Expression="mJJ"/>
          <Output Type="Variable" Label="deltaYJJ" Expression="deltaYJJ"/>
          <Output Type="Variable" Label="metPt" Expression="metPt"/>
          <Output Type="Variable" Label="ptBalance" Expression="ptBalance"/>
          <Output Type="Variable" Label="subleadJetEta" Expression="subleadJetEta"/>
          <Output Type="Variable" Label="leadJetPt" Expression="leadJetPt"/>
          <Output Type="Variable" Label="photonEta" Expression="photonEta"/>
          <Output Type="Variable" Label="ptBalanceRed" Expression="ptBalanceRed"/>
          <Output Type="Variable" Label="nJets" Expression="nJets"/>
          <Output Type="Variable" Label="sinDeltaPhiJJOver2" Expression="sinDeltaPhiJJOver2"/>
          <Output Type="Variable" Label="deltaYJPh" Expression="deltaYJPh"/>
        </Output>
      </Selection>
      <Class ClassIndex="0">
        <Ranges>
          <Range Index="0" Min="2.2786481857299805e+01" Max="7.5057304687500000e+03"/>
          <Range Index="1" Min="1.5035811520647258e-04" Max="8.6847105026245117e+00"/>
          <Range Index="2" Min="1.2697845458984375e+02" Max="2.2774987792968750e+03"/>
          <Range Index="3" Min="4.9185787247552071e-06" Max="4.0502533316612244e-01"/>
          <Range Index="4" Min="-4.5066342353820801e+00" Max="4.5113468170166016e+00"/>
          <Range Index="5" Min="5.0105968475341797e+01" Max="1.9641448974609375e+03"/>
          <Range Index="6" Min="-2.4010925292968750e+00" Max="2.3904125690460205e+00"/>
          <Range Index="7" Min="4.8834752291440964e-02" Max="9.9988257884979248e-01"/>
          <Range Index="8" Min="2.0000000000000000e+00" Max="8.0000000000000000e+00"/>
          <Range Index="9" Min="1.5914440155029297e-05" Max="1.0000000000000000e+00"/>
          <Range Index="10" Min="3.2652555091772228e-05" Max="6.5068273544311523e+00"/>
        </Ranges>
      </Class>
      <Class ClassIndex="1">
        <Ranges>
          <Range Index="0" Min="2.3556308746337891e+01" Max="7.8387553710937500e+03"/>
          <Range Index="1" Min="2.2119609639048576e-05" Max="8.6838493347167969e+00"/>
          <Range Index="2" Min="1.2582529449462891e+02" Max="1.9265614013671875e+03"/>
          <Range Index="3" Min="5.9500340285012498e-05" Max="4.7649076581001282e-01"/>
          <Range Index="4" Min="-4.5036110877990723e+00" Max="4.5083436965942383e+00"/>
          <Range Index="5" Min="5.0058475494384766e+01" Max="2.7532824707031250e+03"/>
          <Range Index="6" Min="-2.3863203525543213e+00" Max="2.3830773830413818e+00"/>
          <Range Index="7" Min="2.2989241406321526e-02" Max="9.9998378753662109e-01"/>
          <Range Index="8" Min="2.0000000000000000e+00" Max="9.0000000000000000e+00"/>
          <Range Index="9" Min="1.9311904907226562e-05" Max="1.0000000000000000e+00"/>
          <Range Index="10" Min="1.1811205240519485e-06" Max="6.6895289421081543e+00"/>
        </Ranges>
      </Class>
      <Class ClassIndex="2">
        <Ranges>
          <Range Index="0" Min="2.2786481857299805e+01" Max="7.8387553710937500e+03"/>
          <Range Index="1" Min="2.2119609639048576e-05" Max="8.6847105026245117e+00"/>
          <Range Index="2" Min="1.2582529449462891e+02" Max="2.2774987792968750e+03"/>
          <Range Index="3" Min="4.9185787247552071e-06" Max="4.7649076581001282e-01"/>
          <Range Index="4" Min="-4.5066342353820801e+00" Max="4.5113468170166016e+00"/>
          <Range Index="5" Min="5.0058475494384766e+01" Max="2.7532824707031250e+03"/>
          <Range Index="6" Min="-2.4010925292968750e+00" Max="2.3904125690460205e+00"/>
          <Range Index="7" Min="2.2989241406321526e-02" Max="9.9998378753662109e-01"/>
          <Range Index="8" Min="2.0000000000000000e+00" Max="9.0000000000000000e+00"/>
          <Range Index="9" Min="1.5914440155029297e-05" Max="1.0000000000000000e+00"/>
          <Range Index="10" Min="1.1811205240519485e-06" Max="6.6895289421081543e+00"/>
        </Ranges>
      </Class>
    </Transform>
  </Transformations>
  <MVAPdfs/>
  <Weights>
    <Layout NLayers="4">
      <Layer Index="0" NNeurons="12">
        <Neuron NSynapses="21">
          9.2591348084460776e-02 3.7259074371211356e+00 1.8372203615889468e-01 3.4159987147661788e+00 -3.7709604900120324e+00 -2.1052893190954096e+00 -2.0511024848043475e+00 1.4277891652512089e+00 -7.6219947174275504e-01 -1.0061524313822132e-01 -2.7823930072604233e+00 -4.2885590010739721e-01 -1.2131935506315992e+00 -1.4906858733991006e+00 8.3981346514899369e-01 3.1561373664968784e-01 -1.8589990377868773e-01 -3.4770006144564447e-01 7.7795606148091412e-01 1.4105891392679366e+00 2.4918740230893235e+00 
        </Neuron>
        <Neuron NSynapses="21">
          -1.5131064082591141e+00 1.1565171920969493e+00 -7.1119822648638353e-01 -1.5574510180386756e+00 3.7131132747417595e-01 6.8614133105900499e-01 -3.2427168160867552e+00 -3.4519401338751066e+00 3.6144245140555231e-01 2.4656165491482436e+00 2.3688202570256096e+00 -9.6856103336783284e-01 -7.2003057054942810e-01 -2.0673445868710663e+00 1.3052086840640886e+00 9.1473651859111671e-01 2.0109997617499422e+00 -1.9128330127654654e+00 1.4753954833641163e+00 7.1901224893129190e-01 1.7883932042975779e+00 
        </Neuron>
        <Neuron NSynapses="21">
          1.3886905143449664e+00 4.7715490161096258e-01 -9.4853570446181668e-01 -1.0619430760242845e+00 4.5557254473007253e-01 1.2810392104401372e-01 1.7707314416948234e+00 1.1815115585738813e+00 1.0297457998891590e+00 1.7454826044201768e+00 -2.2081503323233513e+00 9.5226355310794031e-01 -1.2381604681880385e+00 -1.2699398697927249e+00 -2.2267722323291506e+00 -1.3792580137653359e+00 1.4973891308741620e+00 -1.1841651933435426e-01 -1.0958660246751217e+00 -9.4494327279138340e-02 1.8806578067718560e-01 
        </Neuron>
        <Neuron NSynapses="21">
          1.3864853955815015e+00 9.1566559283460958e-01 -6.2437035174538780e-01 -9.8470353678444922e-02 -9.9652084791796747e-01 2.3042863132497833e+00 3.2458949677942717e-01 -3.4725971448852339e-01 -2.1353361839032203e+00 -1.9404848023920079e-01 8.6779151938577515e-01 1.7854699375028975e+00 -2.0125324588995802e-01 -6.0381245833525032e-01 -2.2334216647932337e+00 1.1738973072432068e+00 8.7402216140537237e-01 3.7977426911858818e+00 1.0979481987753388e+00 7.2460784325656180e-01 -3.1516189818267457e+00 
        </Neuron>
        <Neuron NSynapses="21">
          -2.9824709250106425e+00 2.1992762782326833e-01 1.4862594522473511e+00 -3.0049437163129961e-01 -5.8883177391332475e-01 -5.8748851235700394e-01 -3.2477642264885426e-01 -2.0690065965029728e-01 2.4667753226496858e+00 -3.4276326790090179e+00 -9.4782454230698854e-01 3.2064762258479522e+00 -8.4886285584381882e-01 -4.0865774564100601e+00 -1.3226085934303728e+00 7.2728037866493650e-02 -1.6684700175818592e+00 3.5720943631151592e-01 4.9215503050593978e-01 5.8270681512298450e-01 -1.9087067521343752e+00 
        </Neuron>
        <Neuron NSynapses="21">
          1.6144638147516939e+00 -6.7849081734022687e-01 -2.2559119223038482e-01 1.0636605213338830e+00 -3.0403442909034017e-01 -1.7840217342540243e+00 -3.0938386102409920e-01 4.9880805209010259e-01 -6.8122704543241069e-02 -1.8415655266442501e+00 1.5369231465339208e+00 1.6658511706339643e-01 -9.0087267277116390e-01 5.2071797638036199e-01 -1.2096583527197682e+00 -1.1844013698985074e+00 3.7282682634595238e-01 -1.6728605969404255e+00 2.3030487237813135e+00 9.0911298919998040e-01 1.0056024613732064e+00 
        </Neuron>
        <Neuron NSynapses="21">
          1.6125878891280157e-01 -3.1317019987992428e-01 -1.4872381542732556e+00 3.9296819047350101e-01 -6.3863632484351784e-02 -1.2925717306544142e+00 3.3796038307084775e-01 -9.8985323968084693e-01 -7.2881166315793194e-02 1.3709817283118357e+00 9.3951148390955774e-01 -1.8050496829079649e-01 3.6805290592221157e-01 1.8504763628774261e+00 3.9331832879063622e-01 -4.8463234549095158e-01 -1.0629111802855673e+00 3.3723684200158516e-01 -8.2776596980460015e-01 1.0490479535977488e+00 4.1214409821233799e-01 
        </Neuron>
        <Neuron NSynapses="21">
          -9.0314736091780345e-01 -6.0508925713276485e-01 7.6112251154569766e-01 3.6663922105262831e-01 3.4954151002128142e-01 6.0559832400396818e-01 -2.7609707642488995e-01 -2.7267303801760973e-01 4.9426577614760786e-01 3.8696619897349377e-01 -1.3320469041240876e-01 5.2873562932382413e-02 -9.5833309670144429e-01 1.6795156277121323e-01 1.0649415129116638e-01 -3.6137186683398281e-01 2.2167791379870774e-01 1.0302717735330911e+00 -7.0978368030273697e-01 -1.2250288202830153e+00 6.0210031667863018e-01 
        </Neuron>
        <Neuron NSynapses="21">
          -1.9907459489716270e-01 -1.0886758417123497e+00 1.9593768669864253e+00 2.0230777678162979e+00 -1.0157902142682613e+00 2.0785165305093236e+00 1.9382490230531633e+00 -1.8971323991041966e+00 3.3642697763285029e-01 -4.4493184467101954e-01 3.4006807350677293e-01 -1.2506115489013754e+00 -1.4157171498253049e+00 1.5676454845977106e+00 2.6083912402266245e+00 -1.2667328444992085e+00 -3.4485725117988572e-02 -8.7818275373256449e-01 9.6841170613798178e-01 1.8588395220525293e+00 -5.3357202979890717e-01 
        </Neuron>
        <Neuron NSynapses="21">
          -2.5121103364862163e-01 -2.9497396570975731e-02 1.6169586053251012e-01 3.5940483815805480e-01 1.7106840763433631e-01 3.7024790917104911e-01 -2.6007090236006847e-01 -1.3832514303667882e+00 8.3872183285200119e-01 4.4881588531318606e-01 -5.6468886090708148e-01 -2.4546076083834575e-01 5.0180878524092379e-02 3.5186501645930529e-01 -1.2839097858402029e+00 1.2652305023802726e+00 4.7901285108072933e-01 -3.5214795478073285e-01 8.8960412156057801e-03 1.5137005051607613e+00 -8.7574268001255173e-02 
        </Neuron>
        <Neuron NSynapses="21">
          5.2696602183505326e-01 7.0361309368760128e-01 -1.5701168995902404e+00 -7.3947243256020589e-01 4.5510100085807875e-01 1.3986891320453432e+00 -7.0642492455017941e-02 6.4445328056434992e-02 1.5051518055274968e+00 -2.7971233684799572e+00 -1.1321756737117150e+00 1.7159754942084976e-01 -1.4770484168998410e+00 1.7012509579856341e+00 1.1707901629125417e+00 -3.6637039388052256e-01 1.0968839007459863e+00 3.0722986017743270e-01 -1.1386386147184342e+00 -5.3052323680188695e-01 9.3733103688308148e-05 
        </Neuron>
        <Neuron NSynapses="21">
          4.5839179787265455e-01 4.0454922820356005e+00 -3.2819550711090208e+00 3.3602900075005504e+00 -4.9622108226226365e+00 1.0621775719443318e+00 -1.0273988948179409e+00 -1.7916460055513739e+00 -1.5479516928085535e+00 -7.2087547004070418e-01 -2.4403361559124903e+00 -2.1011009921148647e+00 -2.5329695606330569e+00 -2.5159151613889987e+00 1.1285680175106398e+00 -3.3823611027943223e+00 -1.7503940969356011e+00 1.5393037572152777e+00 -1.4377024652042623e+00 1.4326544341947114e+00 3.9454522073657738e-01 
        </Neuron>
      </Layer>
      <Layer Index="1" NNeurons="22">
        <Neuron NSynapses="21">
          9.1867950066101822e-01 1.9365991065923569e+00 1.4058399422321166e+00 -1.2764193694320511e+00 -2.0542502640962303e+00 -1.0066868686967048e+00 -6.9888488656181169e-01 -6.3075935300956354e-01 3.8419833798806619e-01 6.3467733652369074e-01 2.4777965421445303e+00 -2.7791851635565662e-01 2.6046677174931525e-02 -6.1755957581907983e-01 -2.7511947507954506e+00 1.2180336117997077e+00 1.1540219720467606e+00 -1.2609268555732391e+00 -5.7220886958193073e-01 9.7544387438250424e-01 1.3787609012642714e+00 
        </Neuron>
        <Neuron NSynapses="21">
          8.4452986508299388e-01 -8.6359502048831527e-01 -2.5140221980586402e-01 1.3320681999776651e+00 2.4191782592664239e+00 1.0326330282662057e+00 -1.4215308843457486e+00 3.1013321030159874e-01 -8.0015030062560402e-02 -1.4479924148058751e+00 1.6173090247636626e+00 -1.8618524882606216e+00 -1.3253704022508024e+00 -1.6994637321690160e+00 1.6160675377499372e+00 -1.7993279751710429e+00 1.6948935640988021e+00 -1.7724451799372445e+00 1.2297808108406298e+00 -1.2637129337307278e+00 3.7220769837354478e-01 
        </Neuron>
        <Neuron NSynapses="21">
          9.1082646544691481e-01 -1.8369849024588525e+00 1.6011267695921891e-01 1.1177371407597771e+00 -2.1744017396271866e+00 -1.4817891314170228e+00 -1.8765140236318014e+00 -1.2235672176793477e+00 1.8945860153065364e+00 -5.0087690939324092e-01 4.4210878632009271e-01 -8.0677926748547257e-01 -1.3117132119581150e+00 -1.6591355295127459e+00 -7.4145508416494332e-01 -1.6116354854037773e+00 9.2773443822006729e-01 -8.2990960769077160e-01 -1.5033671988838198e+00 1.1525169873063146e+00 3.8940300476692885e-01 
        </Neuron>
        <Neuron NSynapses="21">
          -4.4488386299266586e-01 1.3879382717178022e+00 -1.7295639565525907e+00 1.9468977438065593e+00 1.2244071848604914e+00 -1.0207762270180067e+00 -2.4050791282789712e+00 -1.3329349313078295e-01 -1.6561958004679747e+00 5.9505372742324325e-01 3.8661950227014761e+00 1.4833727087283184e+00 1.9802286395290680e+00 -1.5397418096082420e+00 7.3967343173892031e-01 -2.3173808456948670e+00 5.3744366267464583e-01 -2.1109895774416518e+00 -2.1779550068142393e+00 -1.9718735252663910e-01 1.0223343419925552e+00 
        </Neuron>
        <Neuron NSynapses="21">
          2.9863072112192868e-01 1.0190810169341420e+00 2.7290674769037448e-01 -4.0411914010889627e-01 -2.1524065031485815e+00 1.1203478434652883e-01 3.0622003624353309e+00 -1.8559317721460362e+00 3.0433849184250150e-01 -1.5717086906783995e+00 -2.0015307169224048e+00 -1.1903462682721062e-01 -4.4914819547909302e-01 -1.1126667657031395e+00 5.3494743652169496e-01 1.7252021533532675e+00 5.3317491751221457e-01 1.8770283483234301e-01 -7.1822161922785732e-01 -1.4406883272881559e+00 -1.7769951961493244e+00 
        </Neuron>
        <Neuron NSynapses="21">
          1.3206028006235417e+00 -5.2366892289239420e-01 -1.1593203062108308e+00 2.9703277325883382e-01 -9.0079366151236495e-01 -1.1108336114846875e+00 -1.5633621139531748e+00 2.5233965770937670e+00 -8.8295000275619950e-01 -2.0093512432186049e+00 3.2615372899176065e-01 -1.3470563569694933e+00 -1.8833244675877552e+00 9.9680914726880732e-01 -2.1227956074200911e+00 -7.2700665640158624e-01 1.7377123698916559e+00 1.0886609251580903e+00 -2.6879442446105223e-01 -2.0015140871013332e-01 1.7452863848672797e+00 
        </Neuron>
        <Neuron NSynapses="21">
          2.1807854845328909e+00 1.1061794523853559e+00 -9.5283959273772700e-01 -1.3361930443559502e+00 -3.0680571682234876e+00 9.1685269281981197e-01 7.3165219111479629e-01 1.9978913969346450e+00 1.3878704354772589e+00 1.1118279338913659e+00 2.1325852958198062e+00 -1.2923874366300585e+00 1.6780151135812293e+00 4.6073623705174044e-01 -2.0817930387549990e+00 -1.8065897563870581e-01 -1.2036083872584662e+00 5.7300633243426791e-01 1.1706054233374548e+00 1.2587934301844927e+00 1.6952995369045500e+00 
        </Neuron>
        <Neuron NSynapses="21">
          1.6720881312184788e-01 1.8053642006542876e+00 1.7083719104011705e+00 6.1788146564726276e-01 -1.4955752232881934e+00 1.6958693686951358e+00 -1.4131534003176960e+00 -4.2020336701679470e-02 1.6984596554437643e+00 4.8668032084276093e-02 -3.6294186495521774e-01 1.0756158123956602e-01 -1.7119448650200757e+00 4.3771384575066186e-01 -1.5843445091431470e+00 -1.6622292155207871e-01 -3.0251284416655666e-01 2.0308320711292907e+00 1.9092434459676324e+00 1.4154856453679976e+00 -6.3495278687095047e-01 
        </Neuron>
        <Neuron NSynapses="21">
          -9.2475355488624358e-02 6.9898553340930225e-01 1.7605488772433628e+00 -1.8125678581710916e+00 -2.4711976461240965e+00 -6.0982564677177065e-01 -1.3448318239543327e+00 -1.5657791608875151e+00 -4.5625736325945987e-01 8.9383102306636042e-01 -3.4865396981472940e-01 -2.0610980381726964e+00 -1.8632510829589959e+00 -1.5640709474928968e-01 8.6347830753388233e-01 1.9063664023999054e+00 1.3125586880011832e+00 -5.9481119374622404e-01 -2.3577080845392291e+00 -2.9038932039869270e-01 -1.4002804850323731e+00 
        </Neuron>
        <Neuron NSynapses="21">
          -2.0827624898476498e+00 -1.0483504132860977e+00 6.0517776453234626e-02 -1.6427180383488518e+00 2.3320223634619381e+00 1.2751691889826067e+00 5.4035205566129041e-01 -3.7347570970817112e-01 -1.9863879425926676e+00 1.8723469335742147e+00 -7.9419163251745262e-01 4.3078261643790178e-01 1.0273869351693201e+00 1.3881140205193778e+00 -5.9139264650769297e-01 1.7578664052529644e+00 -2.2147811776161448e+00 1.4035204101949124e+00 2.0185294538817082e+00 -6.8228148672387898e-02 -1.5478352672632970e-01 
        </Neuron>
        <Neuron NSynapses="21">
          6.0123930139567872e-01 -4.8865004332198031e-01 1.1988046059193762e+00 6.6506079503639493e-01 -2.0515781105035678e+00 -1.5112811682122862e+00 -1.9082021094366713e-02 1.7787823637792686e+00 4.7398451242970863e-01 -7.4178850120158624e-01 -2.2495068736378716e+00 1.8804626471736476e+00 5.2351134339721228e-01 -1.2223227305476867e+00 -7.3523234043303132e-01 -8.3413911960019427e-01 1.0442090952793543e+00 1.2483935006015410e+00 -1.0647591184755463e+00 -1.0790850146412154e+00 1.6172327913539195e+00 
        </Neuron>
        <Neuron NSynapses="21">
          1.4285877390586303e+00 5.1655366952127713e-01 1.4828341696463193e-01 -1.3597710689818121e+00 -1.5385166135744861e+00 1.1452004907624667e+00 3.5400743554954517e-01 6.5632472892119076e-01 -1.6182215448011412e+00 -1.7240884185975205e+00 -1.9009133505059501e+00 -3.6948080647433384e-01 -1.8236036923479320e+00 7.3111071901859814e-01 -5.8033454824159159e-01 1.7037912689045120e+00 2.9913209285546694e-01 -2.0153705096626138e+00 1.3283584764935992e+00 1.7738411551126532e+00 1.1946280395757047e+00 
        </Neuron>
        <Neuron NSynapses="21">
          -1.2601903999336103e-01 -1.0245563471653436e+00 1.8796323093105813e+00 -1.5974652170548824e+00 6.2716475178137976e-01 -1.3597788242839879e+00 8.7967110357383216e-01 -1.1835955996330092e+00 5.6768581156225156e-02 -4.9527208256136179e-01 1.2373275585163925e+00 -6.5186850526636386e-01 -1.1956193101856671e+00 6.0836095340232510e-01 9.0436610992862931e-01 7.3468463617253921e-01 8.0841459271723770e-01 -1.3763614639110695e+00 2.0567907306266058e+00 -2.0138226872240703e+00 9.1173567665910171e-01 
        </Neuron>
        <Neuron NSynapses="21">
          1.4985792737344403e+00 9.5427282894423049e-01 1.6162121112380659e+00 7.0820346534466549e-01 -3.6762020662191501e+00 -7.3947690174418135e-01 -4.7946699779910307e-01 1.1027701507489724e+00 3.0635502843076934e-01 -3.4285707657215447e-02 -1.1454108843452036e+00 -2.1660550616584445e-01 -1.0963300861750023e+00 -5.1509947179647564e-01 -2.8196138989770101e+00 -2.2897278087747872e-01 1.9605793333867586e-02 -1.5245424624620387e+00 -2.5575508771822406e+00 1.1499636062420360e+00 2.3638416026615847e-01 
        </Neuron>
        <Neuron NSynapses="21">
          -4.4624713010662781e-01 -1.5290183806617130e+00 1.9120857250101484e+00 -5.8717958868160017e-02 9.9748478493035664e-01 7.0628387214435751e-01 -1.7571446647424391e+00 -1.6340928082167294e+00 -3.4238855661091375e-02 -2.8341324941591823e+00 -3.0791433390334344e-01 -1.1897384945275680e+00 1.0032434094224270e+00 -2.0876599166091987e+00 1.3609476791005857e+00 1.9103871953644933e+00 1.4662555385918714e+00 1.4371396279084256e+00 -8.9729084964612335e-02 2.3153110709859179e-01 -1.1366504821066077e+00 
        </Neuron>
        <Neuron NSynapses="21">
          -1.6464957483001326e+00 -1.2815406513968861e+00 -7.6176498926568847e-01 1.5967314966850565e+00 -4.6687875524238276e-01 1.2994679163935613e-01 1.7778659483956101e+00 5.6039204871537884e-01 -1.5705852762708534e+00 3.2059848833617149e-01 -2.0092528710128228e+00 9.2640236649054342e-01 -2.1644505338680915e+00 1.1211561337436285e-01 -2.6108600687302874e-01 9.0442373847175239e-01 -2.0333095014751992e+00 7.0608355155474789e-01 -1.4369847319318625e+00 -4.9343054597640917e-01 1.2682025754527788e+00 
        </Neuron>
        <Neuron NSynapses="21">
          -6.2711177548335117e-01 4.8773256310103669e-01 -1.7104368172403481e+00 1.1146376308940271e+00 -4.1413823932233684e-01 8.2878574624019907e-01 -1.6526258924689921e+00 -1.1134134769156405e+00 1.9474996766433710e+00 -1.8239033511008984e+00 -1.1675651080693368e+00 -8.5999406648702226e-01 1.2741587375151591e+00 1.4611003284596145e+00 1.3182745704948926e+00 -1.6813096319551211e+00 7.6731387997338074e-01 6.6718739530375581e-01 1.8198662015903300e-01 -1.2491267017592986e+00 -1.3932273670738864e+00 
        </Neuron>
        <Neuron NSynapses="21">
          7.5875231396914000e-01 -6.3162659674342356e-02 1.6109681140067371e+00 -1.4723086883424324e-01 -5.7442630038537834e-01 -1.0549033302055906e+00 1.8209754359603250e+00 1.2537599685212559e+00 1.6992770266308337e+00 -2.3490904173689589e-01 -8.0658640011953775e-01 1.7930777527973532e+00 1.2806859783534996e-01 1.4134583057620846e+00 -4.9120165936498894e-01 -9.5028289626889240e-01 -1.3832388938386668e+00 -1.2523367304319664e+00 -5.4407772747705074e-01 -1.4609249111008831e+00 1.4650923042744221e-01 
        </Neuron>
        <Neuron NSynapses="21">
          6.4151527307220860e-02 -7.3420755130942139e-01 9.2374126375374244e-01 -1.7005283453570428e+00 -9.5650367860994190e-01 2.9711301121627304e-02 -1.0827510391811215e+00 4.6881689878199018e-01 1.4341303348559979e+00 -1.7823226056329411e+00 -1.3039943153913311e-01 -1.3518602717510477e+00 5.2156751375756871e-01 4.3591614217028041e-01 -9.4263444243447470e-01 -7.7029267397645063e-01 -1.5756434438715550e+00 1.6866039929966745e+00 -9.1312454541532626e-02 1.0257402245948006e+00 -7.0940366623346046e-02 
        </Neuron>
        <Neuron NSynapses="21">
          -9.5204952611421834e-01 -1.7137421582638188e+00 -1.2830034329698501e+00 1.2353947134781258e+00 1.0694549545967169e+00 2.0757702213205823e-01 -1.7459714169182980e+00 4.6785246712436757e-01 3.7292758364619938e-01 -1.4037737651147975e+00 1.7527474940509715e+00 1.0172212720896370e+00 -1.1476747813090946e+00 -1.0957063001335068e+00 -2.1756121377261093e+00 -4.5095588755185616e-03 1.5872363782580332e+00 1.2220967869622359e+00 3.0907058283057876e-01 -2.1018896602033839e+00 -8.1409953343778274e-01 
        </Neuron>
        <Neuron NSynapses="21">
          -8.7922646338323984e-01 -9.5869328597861136e-01 1.5804491022180638e+00 -1.8362945596498101e+00 1.5234947550997198e+00 -6.0158180704167097e-01 -1.0723131581276859e+00 -3.4780208204039753e+00 1.4467101535797706e+00 1.3957661011199760e-01 2.6422543851239184e+00 -1.1492550757536084e+00 1.1063979763605778e+00 4.4237783349031767e-01 1.3956533760476830e+00 -8.5149238328750654e-01 -1.6677491003018052e+00 -2.1839484847628214e+00 -3.2661054857133126e-01 9.8822973200971598e-01 4.6224256933096175e-01 
        </Neuron>
        <Neuron NSynapses="21">
          1.5009592523831501e+00 1.4452229105919140e-01 -4.0102191113812286e-01 1.7053175121698831e+00 4.8124933548717758e-01 -1.8272393710415671e+00 -1.1957474923104544e-01 6.3900806924032516e-01 1.9907239491524265e+00 9.6413238663957712e-01 2.3798409540009127e-02 -9.5041173469007378e-01 -9.5299874558592934e-01 -1.1578510521963608e+00 -1.0330903915604113e+00 3.2349832341614043e-01 5.1288965573044465e-01 -1.5483943672615222e-01 1.1314237168042653e+00 7.5375200225341810e-01 -1.4332815783715763e-02 
        </Neuron>
      </Layer>
      <Layer Index="2" NNeurons="22">
        <Neuron NSynapses="1">
          -2.1560011756183033e+00 
        </Neuron>
        <Neuron NSynapses="1">
          1.4317986182551459e+00 
        </Neuron>
        <Neuron NSynapses="1">
          -4.6279570235752299e-01 
        </Neuron>
        <Neuron NSynapses="1">
          -2.6946612062884174e+00 
        </Neuron>
        <Neuron NSynapses="1">
          3.2445823751275413e+00 
        </Neuron>
        <Neuron NSynapses="1">
          -3.5130256795889914e-01 
        </Neuron>
        <Neuron NSynapses="1">
          -2.3126351726096432e+00 
        </Neuron>
        <Neuron NSynapses="1">
          2.9622455223573971e+00 
        </Neuron>
        <Neuron NSynapses="1">
          -2.7867510703039571e+00 
        </Neuron>
        <Neuron NSynapses="1">
          -1.7705151648360951e+00 
        </Neuron>
        <Neuron NSynapses="1">
          3.2497327022159577e+00 
        </Neuron>
        <Neuron NSynapses="1">
          -1.1418403388244502e+00 
        </Neuron>
        <Neuron NSynapses="1">
          -1.2789295176595588e+00 
        </Neuron>
        <Neuron NSynapses="1">
          -1.2850611789799948e-01 
        </Neuron>
        <Neuron NSynapses="1">
          1.9967534212486406e+00 
        </Neuron>
        <Neuron NSynapses="1">
          1.7522455634889527e+00 
        </Neuron>
        <Neuron NSynapses="1">
          -4.3927782772718527e-01 
        </Neuron>
        <Neuron NSynapses="1">
          -2.1964211686489334e+00 
        </Neuron>
        <Neuron NSynapses="1">
          2.2709926304105013e+00 
        </Neuron>
        <Neuron NSynapses="1">
          1.5098551226341208e+00 
        </Neuron>
        <Neuron NSynapses="1">
          -1.4239768986023675e+00 
        </Neuron>
        <Neuron NSynapses="1">
          -8.8567810425250892e-01 
        </Neuron>
      </Layer>
      <Layer Index="3" NNeurons="1">
        <Neuron NSynapses="0"/>
      </Layer>
    </Layout>
  </Weights>
</MethodSetup>
