<?xml version="1.0"?>
<MethodSetup Method="MLP::MLP">
  <GeneralInfo>
    <Info name="TMVA Release" value="4.2.1 [262657]"/>
    <Info name="ROOT Release" value="6.22/06 [398854]"/>
    <Info name="Creator" value="konstantin"/>
    <Info name="Date" value="Thu Apr  1 19:56:32 2021"/>
    <Info name="Host" value="Linux mach 5.8.0-43-generic #49~20.04.1-Ubuntu SMP Fri Feb 5 09:57:56 UTC 2021 x86_64 x86_64 x86_64 GNU/Linux"/>
    <Info name="Dir" value="/home/konstantin/Projects/CERN/TMVA_MLP"/>
    <Info name="Training events" value="170672"/>
    <Info name="TrainingTime" value="1.65728676e+02"/>
    <Info name="AnalysisType" value="Classification"/>
  </GeneralInfo>
  <Options>
    <Option name="NCycles" modified="Yes">400</Option>
    <Option name="HiddenLayers" modified="Yes">N+10,N</Option>
    <Option name="NeuronType" modified="Yes">sigmoid</Option>
    <Option name="RandomSeed" modified="No">1</Option>
    <Option name="EstimatorType" modified="No">CE</Option>
    <Option name="NeuronInputType" modified="No">sum</Option>
    <Option name="V" modified="Yes">False</Option>
    <Option name="VerbosityLevel" modified="No">Default</Option>
    <Option name="VarTransform" modified="Yes">N</Option>
    <Option name="H" modified="Yes">True</Option>
    <Option name="CreateMVAPdfs" modified="No">False</Option>
    <Option name="IgnoreNegWeightsInTraining" modified="No">False</Option>
    <Option name="TrainingMethod" modified="No">BP</Option>
    <Option name="LearningRate" modified="Yes">2.000000e-02</Option>
    <Option name="DecayRate" modified="No">1.000000e-02</Option>
    <Option name="TestRate" modified="Yes">5</Option>
    <Option name="EpochMonitoring" modified="No">False</Option>
    <Option name="Sampling" modified="No">1.000000e+00</Option>
    <Option name="SamplingEpoch" modified="No">1.000000e+00</Option>
    <Option name="SamplingImportance" modified="No">1.000000e+00</Option>
    <Option name="SamplingTraining" modified="No">True</Option>
    <Option name="SamplingTesting" modified="No">False</Option>
    <Option name="ResetStep" modified="No">50</Option>
    <Option name="Tau" modified="No">3.000000e+00</Option>
    <Option name="BPMode" modified="Yes">batch</Option>
    <Option name="BatchSize" modified="Yes">5</Option>
    <Option name="ConvergenceImprove" modified="Yes">2.500000e-03</Option>
    <Option name="ConvergenceTests" modified="Yes">5</Option>
    <Option name="UseRegulator" modified="Yes">False</Option>
    <Option name="UpdateLimit" modified="No">10000</Option>
    <Option name="CalculateErrors" modified="No">False</Option>
    <Option name="WeightRange" modified="No">1.000000e+00</Option>
  </Options>
  <Variables NVar="11">
    <Variable VarIndex="0" Expression="mJJ" Label="mJJ" Title="mJJ" Unit="" Internal="mJJ" Type="F" Min="2.27864819e+01" Max="7.83875537e+03"/>
    <Variable VarIndex="1" Expression="deltaYJJ" Label="deltaYJJ" Title="deltaYJJ" Unit="" Internal="deltaYJJ" Type="F" Min="2.21196096e-05" Max="8.68471050e+00"/>
    <Variable VarIndex="2" Expression="metPt" Label="metPt" Title="metPt" Unit="" Internal="metPt" Type="F" Min="1.25825294e+02" Max="2.27749878e+03"/>
    <Variable VarIndex="3" Expression="ptBalance" Label="ptBalance" Title="ptBalance" Unit="" Internal="ptBalance" Type="F" Min="4.91857872e-06" Max="4.76490766e-01"/>
    <Variable VarIndex="4" Expression="subleadJetEta" Label="subleadJetEta" Title="subleadJetEta" Unit="" Internal="subleadJetEta" Type="F" Min="-4.50663424e+00" Max="4.51134682e+00"/>
    <Variable VarIndex="5" Expression="leadJetPt" Label="leadJetPt" Title="leadJetPt" Unit="" Internal="leadJetPt" Type="F" Min="5.00584755e+01" Max="2.75328247e+03"/>
    <Variable VarIndex="6" Expression="photonEta" Label="photonEta" Title="photonEta" Unit="" Internal="photonEta" Type="F" Min="-2.40109253e+00" Max="2.39041257e+00"/>
    <Variable VarIndex="7" Expression="ptBalanceRed" Label="ptBalanceRed" Title="ptBalanceRed" Unit="" Internal="ptBalanceRed" Type="F" Min="2.29892414e-02" Max="9.99983788e-01"/>
    <Variable VarIndex="8" Expression="nJets" Label="nJets" Title="nJets" Unit="" Internal="nJets" Type="F" Min="2.00000000e+00" Max="9.00000000e+00"/>
    <Variable VarIndex="9" Expression="sinDeltaPhiJJOver2" Label="sinDeltaPhiJJOver2" Title="sinDeltaPhiJJOver2" Unit="" Internal="sinDeltaPhiJJOver2" Type="F" Min="1.59144402e-05" Max="1.00000000e+00"/>
    <Variable VarIndex="10" Expression="deltaYJPh" Label="deltaYJPh" Title="deltaYJPh" Unit="" Internal="deltaYJPh" Type="F" Min="1.18112052e-06" Max="6.68952894e+00"/>
  </Variables>
  <Spectators NSpec="1">
    <Spectator SpecIndex="0" Expression="weightModified" Label="weightModified" Title="F" Unit="" Internal="weightModified" Type="F" Min="-1.91263646e-01" Max="1.09073341e+00"/>
  </Spectators>
  <Classes NClass="2">
    <Class Name="Signal" Index="0"/>
    <Class Name="Background" Index="1"/>
  </Classes>
  <Transformations NTransformations="1">
    <Transform Name="Normalize">
      <Selection>
        <Input NInputs="11">
          <Input Type="Variable" Label="mJJ" Expression="mJJ"/>
          <Input Type="Variable" Label="deltaYJJ" Expression="deltaYJJ"/>
          <Input Type="Variable" Label="metPt" Expression="metPt"/>
          <Input Type="Variable" Label="ptBalance" Expression="ptBalance"/>
          <Input Type="Variable" Label="subleadJetEta" Expression="subleadJetEta"/>
          <Input Type="Variable" Label="leadJetPt" Expression="leadJetPt"/>
          <Input Type="Variable" Label="photonEta" Expression="photonEta"/>
          <Input Type="Variable" Label="ptBalanceRed" Expression="ptBalanceRed"/>
          <Input Type="Variable" Label="nJets" Expression="nJets"/>
          <Input Type="Variable" Label="sinDeltaPhiJJOver2" Expression="sinDeltaPhiJJOver2"/>
          <Input Type="Variable" Label="deltaYJPh" Expression="deltaYJPh"/>
        </Input>
        <Output NOutputs="11">
          <Output Type="Variable" Label="mJJ" Expression="mJJ"/>
          <Output Type="Variable" Label="deltaYJJ" Expression="deltaYJJ"/>
          <Output Type="Variable" Label="metPt" Expression="metPt"/>
          <Output Type="Variable" Label="ptBalance" Expression="ptBalance"/>
          <Output Type="Variable" Label="subleadJetEta" Expression="subleadJetEta"/>
          <Output Type="Variable" Label="leadJetPt" Expression="leadJetPt"/>
          <Output Type="Variable" Label="photonEta" Expression="photonEta"/>
          <Output Type="Variable" Label="ptBalanceRed" Expression="ptBalanceRed"/>
          <Output Type="Variable" Label="nJets" Expression="nJets"/>
          <Output Type="Variable" Label="sinDeltaPhiJJOver2" Expression="sinDeltaPhiJJOver2"/>
          <Output Type="Variable" Label="deltaYJPh" Expression="deltaYJPh"/>
        </Output>
      </Selection>
      <Class ClassIndex="0">
        <Ranges>
          <Range Index="0" Min="2.2786481857299805e+01" Max="7.5057304687500000e+03"/>
          <Range Index="1" Min="1.5035811520647258e-04" Max="8.6847105026245117e+00"/>
          <Range Index="2" Min="1.2697845458984375e+02" Max="2.2774987792968750e+03"/>
          <Range Index="3" Min="4.9185787247552071e-06" Max="4.0502533316612244e-01"/>
          <Range Index="4" Min="-4.5066342353820801e+00" Max="4.5113468170166016e+00"/>
          <Range Index="5" Min="5.0105968475341797e+01" Max="1.9641448974609375e+03"/>
          <Range Index="6" Min="-2.4010925292968750e+00" Max="2.3904125690460205e+00"/>
          <Range Index="7" Min="4.8834752291440964e-02" Max="9.9988257884979248e-01"/>
          <Range Index="8" Min="2.0000000000000000e+00" Max="8.0000000000000000e+00"/>
          <Range Index="9" Min="1.5914440155029297e-05" Max="1.0000000000000000e+00"/>
          <Range Index="10" Min="3.2652555091772228e-05" Max="6.5068273544311523e+00"/>
        </Ranges>
      </Class>
      <Class ClassIndex="1">
        <Ranges>
          <Range Index="0" Min="2.3556308746337891e+01" Max="7.8387553710937500e+03"/>
          <Range Index="1" Min="2.2119609639048576e-05" Max="8.6838493347167969e+00"/>
          <Range Index="2" Min="1.2582529449462891e+02" Max="1.9265614013671875e+03"/>
          <Range Index="3" Min="5.9500340285012498e-05" Max="4.7649076581001282e-01"/>
          <Range Index="4" Min="-4.5036110877990723e+00" Max="4.5083436965942383e+00"/>
          <Range Index="5" Min="5.0058475494384766e+01" Max="2.7532824707031250e+03"/>
          <Range Index="6" Min="-2.3863203525543213e+00" Max="2.3830773830413818e+00"/>
          <Range Index="7" Min="2.2989241406321526e-02" Max="9.9998378753662109e-01"/>
          <Range Index="8" Min="2.0000000000000000e+00" Max="9.0000000000000000e+00"/>
          <Range Index="9" Min="1.9311904907226562e-05" Max="1.0000000000000000e+00"/>
          <Range Index="10" Min="1.1811205240519485e-06" Max="6.6895289421081543e+00"/>
        </Ranges>
      </Class>
      <Class ClassIndex="2">
        <Ranges>
          <Range Index="0" Min="2.2786481857299805e+01" Max="7.8387553710937500e+03"/>
          <Range Index="1" Min="2.2119609639048576e-05" Max="8.6847105026245117e+00"/>
          <Range Index="2" Min="1.2582529449462891e+02" Max="2.2774987792968750e+03"/>
          <Range Index="3" Min="4.9185787247552071e-06" Max="4.7649076581001282e-01"/>
          <Range Index="4" Min="-4.5066342353820801e+00" Max="4.5113468170166016e+00"/>
          <Range Index="5" Min="5.0058475494384766e+01" Max="2.7532824707031250e+03"/>
          <Range Index="6" Min="-2.4010925292968750e+00" Max="2.3904125690460205e+00"/>
          <Range Index="7" Min="2.2989241406321526e-02" Max="9.9998378753662109e-01"/>
          <Range Index="8" Min="2.0000000000000000e+00" Max="9.0000000000000000e+00"/>
          <Range Index="9" Min="1.5914440155029297e-05" Max="1.0000000000000000e+00"/>
          <Range Index="10" Min="1.1811205240519485e-06" Max="6.6895289421081543e+00"/>
        </Ranges>
      </Class>
    </Transform>
  </Transformations>
  <MVAPdfs/>
  <Weights>
    <Layout NLayers="4">
      <Layer Index="0" NNeurons="12">
        <Neuron NSynapses="21">
          -6.1872983854003571e-01 2.4177937908299079e+00 8.8956743647945558e-01 3.0593271750266795e+00 -2.0910646971585058e+00 8.6014065367269715e-02 -1.3418586456594640e-02 2.5972153565516023e+00 -2.1770044295747426e+00 -1.7729614237834004e+00 -3.7310695494011865e+00 -4.7742514626846040e+00 -1.3632714341432690e+00 6.5672964460004823e-01 -1.0259399396913973e+00 -3.2719623680349019e+00 5.9695805060778609e-02 1.6467672105189413e+00 2.2969599865350884e-01 1.6370537844328581e+00 6.4210680128106656e-01 
        </Neuron>
        <Neuron NSynapses="21">
          -2.9889434609087466e+00 -6.7034479370557176e-01 1.3175600662710044e-01 -2.7660081362365609e+00 -1.6709030097147901e+00 3.8154981399005310e+00 -2.4680732872870688e+00 -1.4155323137953486e+00 1.3174184579333239e+00 -9.3379315336358948e-01 3.1025078684484808e+00 -1.2464843219681447e+00 3.4095783883022612e-01 2.6660142841149520e-01 -3.4930041304207715e+00 -2.1583018518770691e+00 1.9898216846655430e+00 -1.4275408305565713e+00 6.4442559177093306e-01 1.7726476241900795e+00 3.1645275487543252e+00 
        </Neuron>
        <Neuron NSynapses="21">
          2.2052871616038869e+00 2.1191766538935655e+00 -1.2792811861756905e+00 -4.5265759239210557e-02 4.3721454005078597e-01 4.8695430005808171e-02 1.5008905646655795e+00 1.5509847597820525e+00 1.4265500752365494e+00 1.3833672142252764e+00 -2.3922755657166141e+00 1.4826599852555999e+00 -8.0095408718067840e-01 -1.7072617748391417e+00 -2.2578246631826100e+00 -1.4360666428842308e+00 1.2656350044956748e+00 1.0820789712939163e+00 -1.3764026040430282e+00 2.5740001248237171e-01 1.1660575702895599e+00 
        </Neuron>
        <Neuron NSynapses="21">
          1.0599625929598031e+00 3.7638922548948024e+00 6.2265918431144984e-01 4.1343596400881683e-01 1.3315972867852890e-01 5.7040123017002953e-01 -9.9343774419191444e-01 -4.7672916356164557e-01 -1.0267252468469266e+00 1.0875951841080733e+00 2.1304608452224065e+00 1.3634788841080052e+00 -1.4829557417603442e-01 -1.8604181329864142e+00 1.6484889799477304e-01 3.1767519253595955e+00 -4.9520313166887969e-01 2.6930547971541232e+00 7.0050688814838802e-01 8.8333227729193331e-01 -6.9553487808201242e-01 
        </Neuron>
        <Neuron NSynapses="21">
          -2.4219316943812865e+00 1.1887266901831667e-01 1.6037716280699772e+00 -3.1807969760698812e-01 -9.9186556369589352e-01 -7.9426213737477069e-01 -2.9198042130408713e-01 2.1171962838160369e-01 1.5817562845580146e+00 -2.0692807394893884e+00 -5.2140449413468570e-01 1.4554154224280924e+00 -8.2420561640274381e-01 6.3860747554379860e-01 -3.9847854207713236e+00 -2.9135115631000985e-01 -1.5726512341910091e+00 -1.7443226966262699e+00 1.1762160216297828e+00 1.1384555548360791e+00 -3.4284750149944925e+00 
        </Neuron>
        <Neuron NSynapses="21">
          2.1382470799511095e+00 -1.4370713932119299e+00 -2.6799453594476286e-01 9.3389017783250805e-01 1.2593197893135708e+00 -1.6778903647506169e+00 -5.3331947890725206e-01 7.2207082996642669e-01 -2.5943135883438667e-01 -4.5348365152197828e-01 1.1515080759438356e+00 -2.6706845386730771e-01 -6.4485261895723767e-01 1.2763800250411936e+00 2.2822325552130318e-01 -2.6497199778833291e+00 2.6109256122285163e-01 -4.6793456757396734e-01 2.4427318684814252e+00 6.0658605768760643e-01 -1.4927486094752294e+00 
        </Neuron>
        <Neuron NSynapses="21">
          -3.0972273356594782e-01 3.4212121394185578e-02 -2.6472048000546575e+00 4.4243478388556989e-01 7.2434129570271200e-01 -4.6331546809507113e-01 -6.1395506655782228e-01 -1.1761696964251556e+00 6.2254458854680605e-01 1.2376832911204014e+00 7.2937631693122962e-01 -1.0231326544857755e+00 8.9596507488450008e-02 1.9588138500116516e+00 1.7519900548066030e+00 3.2505704245992512e-01 -1.8503944326900470e+00 -1.3337015502122378e+00 -1.3478281598236594e+00 8.1241927198202235e-01 1.8311548105845692e+00 
        </Neuron>
        <Neuron NSynapses="21">
          -4.1918169270502065e-01 2.8978703842135339e-02 -2.8856609609740175e-01 -9.6234217193685001e-01 2.2716347946804669e-01 4.1344746311836544e-01 5.9858649596584590e-01 -1.4760682526802245e+00 3.6441479973479685e-01 2.8620547510180516e-01 -4.1265055153624086e-01 -3.7897198183377051e-01 -6.8568221272689567e-01 1.1291916799140165e+00 1.4285424663097154e-01 8.9475710364982819e-01 6.7792214189653824e-02 1.0821418092956647e+00 1.0431856395504273e+00 -9.0337062786818176e-02 3.9842330454635408e-02 
        </Neuron>
        <Neuron NSynapses="21">
          -6.3078896627537184e-01 1.4767049811280067e-01 2.6774868054862808e+00 1.4494743541615145e+00 -2.0996798123134519e-01 9.8191953873338067e-01 1.5824031514913683e+00 -1.5092250026143756e+00 8.8728212153135244e-01 5.3274512752674597e-01 -7.3924903311567661e-02 -2.4497503727953114e+00 -1.6584231236625695e+00 2.3549129203569472e+00 2.5002778379623218e+00 -6.3958737799725807e-01 -1.0006841008625271e+00 -6.1052036509549690e-01 1.1413292900462380e+00 1.2236599987146075e+00 -2.5898131262006743e+00 
        </Neuron>
        <Neuron NSynapses="21">
          -1.6808661868943409e-01 -2.1970784149733011e-01 1.2967129179875663e+00 7.5376752929730817e-01 3.1571789391476832e+00 6.3357277724210948e-01 -1.9792205809546413e+00 -7.9985677349105466e-01 7.9930092206994008e-01 5.2699859998124343e-01 -9.9186443339438768e-01 8.2092237920592045e-02 1.8586510149017207e-01 -3.0705477844486257e-02 9.9566194709015707e-04 4.7338324949367523e-02 5.3318042324166121e-02 -8.2360791181885207e-01 1.2795235193081655e-01 1.5471533209990156e+00 -3.0103007914368328e-03 
        </Neuron>
        <Neuron NSynapses="21">
          -2.1879861009772211e-01 5.2261774196920430e-01 -2.0719379716825390e+00 -1.1441160324498283e-01 1.2503196842954138e+00 8.5284027076880853e-01 6.0879421646229603e-01 4.2342250331191700e-01 2.0554905782291280e+00 -3.3735868898372390e+00 -8.4383902877673234e-01 4.3039479803506708e-01 -1.6643308216852826e+00 -5.6069115534692859e-01 2.7700604897694787e+00 -1.8339329878331528e-01 -2.4132127939308942e-01 4.0914044854547482e-01 -1.8798260304017889e+00 -1.5775957522409116e+00 -2.2407147116793578e+00 
        </Neuron>
        <Neuron NSynapses="21">
          5.2983537865281339e-03 5.9142405751449036e+00 -1.3973269397152157e+00 3.7798901825345088e+00 -4.7558403946205026e+00 3.2465947962463164e+00 3.6762663852694799e-01 -2.0573585153808178e+00 -1.2583181974400444e+00 -5.2145638650388095e+00 -1.8501180630176230e+00 -5.4714261697639159e+00 -2.7853551555572262e+00 -9.3395380257922189e-01 -1.8319543911734240e+00 -5.4452661003139502e+00 -1.6883252003083398e+00 5.3061349221538734e-01 -8.3546958229220025e-01 5.7938362017643563e-01 -8.4229833845149771e-01 
        </Neuron>
      </Layer>
      <Layer Index="1" NNeurons="22">
        <Neuron NSynapses="11">
          8.5660882032792207e-01 2.0243137359035899e+00 1.6526068747094440e+00 -5.0932846538249177e-01 -4.6174620117332843e-01 -1.8989138906858334e+00 -5.2316128958591224e-01 -3.1120626339875974e+00 2.1294472883439095e+00 1.9004795033409480e-01 1.9313537585947309e+00 
        </Neuron>
        <Neuron NSynapses="11">
          -1.2990455522721305e+00 7.3857586079389237e-01 -2.8122764581998200e-01 -1.4482624462391069e+00 7.3404391885553033e-01 1.2630940288144374e+00 -8.8128539410250561e-01 -4.0585743587350978e+00 -4.4748778548879126e-01 3.5462486935276170e+00 5.1433430949177572e-01 
        </Neuron>
        <Neuron NSynapses="11">
          -4.4331307376651918e-01 2.6257363183634624e-01 1.3001904332169432e+00 1.6940468614288771e+00 9.7919129229745006e-01 -1.1856592299017983e+00 1.0387675001486689e+00 -3.6348900975186799e-01 -2.4011321077674062e+00 -5.7264361325251645e-01 -1.7418379831152129e+00 
        </Neuron>
        <Neuron NSynapses="11">
          -4.5049839940574155e-01 -8.0346313156133287e-01 2.1369951926537865e+00 -1.9284422618234285e+00 5.8412363507496701e-01 -1.5135748130143600e+00 5.2564736564194503e-01 -1.7884455929312257e+00 8.3019428493803638e-01 3.6724578423085132e+00 -1.8068393250181802e+00 
        </Neuron>
        <Neuron NSynapses="11">
          7.1890347086625206e-01 6.4446049025133401e-01 -2.0492425331303856e+00 -1.3189947588842632e+00 -1.3043611742159571e+00 -9.5066338014714957e-01 2.2538877671226083e+00 -1.7337843468434913e+00 -5.1041333544763656e-01 -2.1921112789001587e+00 -1.1534041173473986e+00 
        </Neuron>
        <Neuron NSynapses="11">
          -1.8049693471857802e+00 -3.3356639920732511e-01 -1.2789321567040621e+00 1.2308829118415925e+00 -5.1847613164267836e-02 -1.5327907186866587e+00 2.2888806583338757e+00 2.4586850901919954e-01 -5.0537251311185238e-01 2.3769544472075990e+00 -1.8131702951049207e+00 
        </Neuron>
        <Neuron NSynapses="11">
          1.3531225314458224e+00 1.1912078113441718e+00 -8.3851654540283982e-01 -1.4812082095857521e-01 2.7774556670359141e-01 -3.7949345641770121e-01 -7.8029338028072603e-01 4.5801016942664663e-01 2.0145632378933134e+00 2.4227746608099530e+00 -1.3575818815957188e+00 
        </Neuron>
        <Neuron NSynapses="11">
          7.8966435681076574e-01 -1.7690652312597919e+00 6.0660283605121401e-01 -1.7280949381503896e+00 -1.7612091097875489e+00 8.3298371180906355e-02 1.0939524576672555e+00 3.4351990937236959e-01 7.4591905839309158e-01 6.7397042114871075e-01 -1.9066456444030522e-01 
        </Neuron>
        <Neuron NSynapses="11">
          6.0678499734591707e-01 2.5268591769681603e-01 1.8272109907091629e+00 -1.4336907341954543e+00 2.4951291441764778e-01 -7.1131399301465936e-01 -1.0023444771939154e+00 -6.2952568024646627e-01 -9.9214356657737604e-02 -1.5552011820617844e+00 9.7505265362844828e-01 
        </Neuron>
        <Neuron NSynapses="11">
          3.0468501123394232e+00 7.6404959859368082e-01 3.8657544471120536e-01 -1.0351316038344673e+00 -1.9921181549243525e+00 -1.8524632732273529e+00 1.0847486741137407e+00 -2.4116226144309079e+00 1.5339467986434294e-01 2.1080635550294632e-01 -1.6891204878063333e+00 
        </Neuron>
        <Neuron NSynapses="11">
          -9.1601290342139030e-01 -1.4834882595331120e+00 1.0411903908990312e+00 -1.1350319374320581e+00 -2.4390670320657653e+00 -6.4942865310861475e-01 -2.9142116195403156e-01 -2.6676187844350414e+00 -1.6495754394969692e-01 -3.0478108991869455e+00 -1.2536403506766287e+00 
        </Neuron>
        <Neuron NSynapses="11">
          3.0390117160910060e+00 4.8992849212959144e-01 8.0952328025950732e-02 1.1019688703260344e+00 1.8167373747407323e+00 2.0405264542823809e+00 -1.7311057184183623e-01 -3.2459430237623725e+00 -9.0841061314419969e-01 -2.1585967441323723e+00 9.5878792903973931e-01 
        </Neuron>
        <Neuron NSynapses="11">
          3.8104842388189980e-01 9.9420697116096829e-02 1.4414197533875304e+00 4.6464451530481854e-01 2.6827132560905640e+00 -1.5325575500702329e+00 2.0402370143464035e+00 1.2780599016287217e+00 -2.3824207358570706e+00 5.1622293646919482e-01 -9.9777220321388405e-01 
        </Neuron>
        <Neuron NSynapses="11">
          1.1809995646340234e+00 7.3626075008983094e-01 1.2389903251389127e+00 1.8925590108816917e+00 -9.1699739153856907e-01 2.0825151793306200e+00 1.0422834649255914e+00 1.2730662230336138e+00 -2.3059824079214604e+00 1.4521686749532203e+00 -1.9576889514713001e+00 
        </Neuron>
        <Neuron NSynapses="11">
          3.3796601062212912e+00 2.2468792356538252e+00 -6.9735212554794937e-02 6.7769790195020940e-01 -8.4984727270366900e-01 -1.7303438848859669e+00 6.7305654635404144e-01 -3.4459203327927317e+00 1.9088987254181289e+00 1.8275165935625868e-02 1.6621683864274510e+00 
        </Neuron>
        <Neuron NSynapses="11">
          1.1916806117636971e+00 1.5916649431009764e+00 -2.5567560564713904e-01 6.4547436596357577e-01 5.1150996005922145e-01 1.4520383780831208e+00 -1.8630311315419870e+00 -1.8913495000214464e+00 9.8128535193034871e-01 -3.6455708405448490e+00 -1.6645065840973488e+00 
        </Neuron>
        <Neuron NSynapses="11">
          -8.3313066447287731e-01 9.5934222186504292e-01 -1.3442255701649614e-01 -2.1733313708736754e+00 -2.7489824260596118e+00 -2.5321668974067291e-01 1.9298640814246837e+00 6.8317682372799726e-01 1.8591131000525990e-01 -9.6968991040863706e-01 -1.9345031177886487e+00 
        </Neuron>
        <Neuron NSynapses="11">
          -5.5845440849342221e-01 -9.1878257760726789e-01 -1.5194936233033056e+00 9.7380793824196524e-02 9.9522502418326081e-02 -1.9560877123506060e+00 1.9434445122036956e+00 2.4885904841436851e-01 6.4715842211938623e-01 3.2981607238257127e-01 -8.5242520739033933e-01 
        </Neuron>
        <Neuron NSynapses="11">
          2.1024075787902525e+00 -2.4465492378768652e-01 1.9913734887842477e-01 1.9705209026243569e+00 1.0310289617380612e+00 -1.1853927995730325e+00 1.4121909291500809e+00 -2.1155716488212630e+00 1.0146969143732198e+00 2.3052119369923556e+00 -1.5362614156921783e-01 
        </Neuron>
        <Neuron NSynapses="11">
          -7.4928451565820764e-01 5.3275053463477950e-01 -7.4923292578000344e-01 1.0496495089041493e+00 -1.0949609902795407e-01 -9.0118514399797311e-01 -9.8145156219209584e-01 -6.1162048255022283e-01 -1.0097506670491138e-01 7.5264362918714212e-01 -7.2721732587149490e-01 
        </Neuron>
        <Neuron NSynapses="11">
          -3.1414658524637096e+00 1.6313389988013436e+00 1.0232076217557127e+00 -2.3800136006616586e+00 1.9816537703516199e+00 -2.0020110855714752e+00 2.0211564510669824e+00 3.7398858108057542e+00 1.4860479812865893e-01 -3.8888038179705248e-01 1.6339102308977225e+00 
        </Neuron>
        <Neuron NSynapses="11">
          1.3998145971819831e+00 7.5237953209626240e-01 3.6051783893527123e-01 -1.2826194770178851e+00 -1.0242482783068774e+00 1.4638849536000700e+00 1.1782249493874165e-01 4.5343078101339598e-02 -3.4102077486687450e+00 -5.5641025734682459e-01 -1.8738258400921790e+00 
        </Neuron>
      </Layer>
      <Layer Index="2" NNeurons="12">
        <Neuron NSynapses="1">
          -3.2755846359332277e+00 
        </Neuron>
        <Neuron NSynapses="1">
          -1.2945228725100912e+00 
        </Neuron>
        <Neuron NSynapses="1">
          6.9133572250955266e-01 
        </Neuron>
        <Neuron NSynapses="1">
          -2.2916594344135448e+00 
        </Neuron>
        <Neuron NSynapses="1">
          2.4825293032113307e+00 
        </Neuron>
        <Neuron NSynapses="1">
          1.7710519098722228e+00 
        </Neuron>
        <Neuron NSynapses="1">
          -2.5784084920089745e+00 
        </Neuron>
        <Neuron NSynapses="1">
          4.4127883122916369e+00 
        </Neuron>
        <Neuron NSynapses="1">
          3.5403000039725461e+00 
        </Neuron>
        <Neuron NSynapses="1">
          3.6606390679164904e+00 
        </Neuron>
        <Neuron NSynapses="1">
          -6.1051272022039660e-01 
        </Neuron>
        <Neuron NSynapses="1">
          -1.3402885232987318e+00 
        </Neuron>
      </Layer>
      <Layer Index="3" NNeurons="1">
        <Neuron NSynapses="0"/>
      </Layer>
    </Layout>
  </Weights>
</MethodSetup>
