<?xml version="1.0"?>
<MethodSetup Method="MLP::MLP">
  <GeneralInfo>
    <Info name="TMVA Release" value="4.2.1 [262657]"/>
    <Info name="ROOT Release" value="6.22/06 [398854]"/>
    <Info name="Creator" value="konstantin"/>
    <Info name="Date" value="Wed Mar 24 00:05:24 2021"/>
    <Info name="Host" value="Linux mach 5.8.0-43-generic #49~20.04.1-Ubuntu SMP Fri Feb 5 09:57:56 UTC 2021 x86_64 x86_64 x86_64 GNU/Linux"/>
    <Info name="Dir" value="/home/konstantin/Projects/CERN/TMVA_MLP"/>
    <Info name="Training events" value="170672"/>
    <Info name="TrainingTime" value="1.84652891e+02"/>
    <Info name="AnalysisType" value="Classification"/>
  </GeneralInfo>
  <Options>
    <Option name="NCycles" modified="Yes">400</Option>
    <Option name="HiddenLayers" modified="Yes">N+10,N+5</Option>
    <Option name="NeuronType" modified="Yes">sigmoid</Option>
    <Option name="RandomSeed" modified="No">1</Option>
    <Option name="EstimatorType" modified="No">CE</Option>
    <Option name="NeuronInputType" modified="No">sum</Option>
    <Option name="V" modified="Yes">False</Option>
    <Option name="VerbosityLevel" modified="No">Default</Option>
    <Option name="VarTransform" modified="Yes">N</Option>
    <Option name="H" modified="Yes">True</Option>
    <Option name="CreateMVAPdfs" modified="No">False</Option>
    <Option name="IgnoreNegWeightsInTraining" modified="No">False</Option>
    <Option name="TrainingMethod" modified="No">BP</Option>
    <Option name="LearningRate" modified="Yes">2.000000e-02</Option>
    <Option name="DecayRate" modified="No">1.000000e-02</Option>
    <Option name="TestRate" modified="Yes">5</Option>
    <Option name="EpochMonitoring" modified="No">False</Option>
    <Option name="Sampling" modified="No">1.000000e+00</Option>
    <Option name="SamplingEpoch" modified="No">1.000000e+00</Option>
    <Option name="SamplingImportance" modified="No">1.000000e+00</Option>
    <Option name="SamplingTraining" modified="No">True</Option>
    <Option name="SamplingTesting" modified="No">False</Option>
    <Option name="ResetStep" modified="No">50</Option>
    <Option name="Tau" modified="No">3.000000e+00</Option>
    <Option name="BPMode" modified="Yes">batch</Option>
    <Option name="BatchSize" modified="Yes">3</Option>
    <Option name="ConvergenceImprove" modified="Yes">2.500000e-03</Option>
    <Option name="ConvergenceTests" modified="Yes">5</Option>
    <Option name="UseRegulator" modified="Yes">False</Option>
    <Option name="UpdateLimit" modified="No">10000</Option>
    <Option name="CalculateErrors" modified="No">False</Option>
    <Option name="WeightRange" modified="No">1.000000e+00</Option>
  </Options>
  <Variables NVar="11">
    <Variable VarIndex="0" Expression="mJJ" Label="mJJ" Title="mJJ" Unit="" Internal="mJJ" Type="F" Min="2.27864819e+01" Max="7.83875537e+03"/>
    <Variable VarIndex="1" Expression="deltaYJJ" Label="deltaYJJ" Title="deltaYJJ" Unit="" Internal="deltaYJJ" Type="F" Min="2.21196096e-05" Max="8.68471050e+00"/>
    <Variable VarIndex="2" Expression="metPt" Label="metPt" Title="metPt" Unit="" Internal="metPt" Type="F" Min="1.25825294e+02" Max="2.27749878e+03"/>
    <Variable VarIndex="3" Expression="ptBalance" Label="ptBalance" Title="ptBalance" Unit="" Internal="ptBalance" Type="F" Min="4.91857872e-06" Max="4.76490766e-01"/>
    <Variable VarIndex="4" Expression="subleadJetEta" Label="subleadJetEta" Title="subleadJetEta" Unit="" Internal="subleadJetEta" Type="F" Min="-4.50663424e+00" Max="4.51134682e+00"/>
    <Variable VarIndex="5" Expression="leadJetPt" Label="leadJetPt" Title="leadJetPt" Unit="" Internal="leadJetPt" Type="F" Min="5.00584755e+01" Max="2.75328247e+03"/>
    <Variable VarIndex="6" Expression="photonEta" Label="photonEta" Title="photonEta" Unit="" Internal="photonEta" Type="F" Min="-2.40109253e+00" Max="2.39041257e+00"/>
    <Variable VarIndex="7" Expression="ptBalanceRed" Label="ptBalanceRed" Title="ptBalanceRed" Unit="" Internal="ptBalanceRed" Type="F" Min="2.29892414e-02" Max="9.99983788e-01"/>
    <Variable VarIndex="8" Expression="nJets" Label="nJets" Title="nJets" Unit="" Internal="nJets" Type="F" Min="2.00000000e+00" Max="9.00000000e+00"/>
    <Variable VarIndex="9" Expression="sinDeltaPhiJJOver2" Label="sinDeltaPhiJJOver2" Title="sinDeltaPhiJJOver2" Unit="" Internal="sinDeltaPhiJJOver2" Type="F" Min="1.59144402e-05" Max="1.00000000e+00"/>
    <Variable VarIndex="10" Expression="deltaYJPh" Label="deltaYJPh" Title="deltaYJPh" Unit="" Internal="deltaYJPh" Type="F" Min="1.18112052e-06" Max="6.68952894e+00"/>
  </Variables>
  <Spectators NSpec="1">
    <Spectator SpecIndex="0" Expression="weightModified" Label="weightModified" Title="F" Unit="" Internal="weightModified" Type="F" Min="-1.91263646e-01" Max="1.09073341e+00"/>
  </Spectators>
  <Classes NClass="2">
    <Class Name="Signal" Index="0"/>
    <Class Name="Background" Index="1"/>
  </Classes>
  <Transformations NTransformations="1">
    <Transform Name="Normalize">
      <Selection>
        <Input NInputs="11">
          <Input Type="Variable" Label="mJJ" Expression="mJJ"/>
          <Input Type="Variable" Label="deltaYJJ" Expression="deltaYJJ"/>
          <Input Type="Variable" Label="metPt" Expression="metPt"/>
          <Input Type="Variable" Label="ptBalance" Expression="ptBalance"/>
          <Input Type="Variable" Label="subleadJetEta" Expression="subleadJetEta"/>
          <Input Type="Variable" Label="leadJetPt" Expression="leadJetPt"/>
          <Input Type="Variable" Label="photonEta" Expression="photonEta"/>
          <Input Type="Variable" Label="ptBalanceRed" Expression="ptBalanceRed"/>
          <Input Type="Variable" Label="nJets" Expression="nJets"/>
          <Input Type="Variable" Label="sinDeltaPhiJJOver2" Expression="sinDeltaPhiJJOver2"/>
          <Input Type="Variable" Label="deltaYJPh" Expression="deltaYJPh"/>
        </Input>
        <Output NOutputs="11">
          <Output Type="Variable" Label="mJJ" Expression="mJJ"/>
          <Output Type="Variable" Label="deltaYJJ" Expression="deltaYJJ"/>
          <Output Type="Variable" Label="metPt" Expression="metPt"/>
          <Output Type="Variable" Label="ptBalance" Expression="ptBalance"/>
          <Output Type="Variable" Label="subleadJetEta" Expression="subleadJetEta"/>
          <Output Type="Variable" Label="leadJetPt" Expression="leadJetPt"/>
          <Output Type="Variable" Label="photonEta" Expression="photonEta"/>
          <Output Type="Variable" Label="ptBalanceRed" Expression="ptBalanceRed"/>
          <Output Type="Variable" Label="nJets" Expression="nJets"/>
          <Output Type="Variable" Label="sinDeltaPhiJJOver2" Expression="sinDeltaPhiJJOver2"/>
          <Output Type="Variable" Label="deltaYJPh" Expression="deltaYJPh"/>
        </Output>
      </Selection>
      <Class ClassIndex="0">
        <Ranges>
          <Range Index="0" Min="2.2786481857299805e+01" Max="7.5057304687500000e+03"/>
          <Range Index="1" Min="1.5035811520647258e-04" Max="8.6847105026245117e+00"/>
          <Range Index="2" Min="1.2697845458984375e+02" Max="2.2774987792968750e+03"/>
          <Range Index="3" Min="4.9185787247552071e-06" Max="4.0502533316612244e-01"/>
          <Range Index="4" Min="-4.5066342353820801e+00" Max="4.5113468170166016e+00"/>
          <Range Index="5" Min="5.0105968475341797e+01" Max="1.9641448974609375e+03"/>
          <Range Index="6" Min="-2.4010925292968750e+00" Max="2.3904125690460205e+00"/>
          <Range Index="7" Min="4.8834752291440964e-02" Max="9.9988257884979248e-01"/>
          <Range Index="8" Min="2.0000000000000000e+00" Max="8.0000000000000000e+00"/>
          <Range Index="9" Min="1.5914440155029297e-05" Max="1.0000000000000000e+00"/>
          <Range Index="10" Min="3.2652555091772228e-05" Max="6.5068273544311523e+00"/>
        </Ranges>
      </Class>
      <Class ClassIndex="1">
        <Ranges>
          <Range Index="0" Min="2.3556308746337891e+01" Max="7.8387553710937500e+03"/>
          <Range Index="1" Min="2.2119609639048576e-05" Max="8.6838493347167969e+00"/>
          <Range Index="2" Min="1.2582529449462891e+02" Max="1.9265614013671875e+03"/>
          <Range Index="3" Min="5.9500340285012498e-05" Max="4.7649076581001282e-01"/>
          <Range Index="4" Min="-4.5036110877990723e+00" Max="4.5083436965942383e+00"/>
          <Range Index="5" Min="5.0058475494384766e+01" Max="2.7532824707031250e+03"/>
          <Range Index="6" Min="-2.3863203525543213e+00" Max="2.3830773830413818e+00"/>
          <Range Index="7" Min="2.2989241406321526e-02" Max="9.9998378753662109e-01"/>
          <Range Index="8" Min="2.0000000000000000e+00" Max="9.0000000000000000e+00"/>
          <Range Index="9" Min="1.9311904907226562e-05" Max="1.0000000000000000e+00"/>
          <Range Index="10" Min="1.1811205240519485e-06" Max="6.6895289421081543e+00"/>
        </Ranges>
      </Class>
      <Class ClassIndex="2">
        <Ranges>
          <Range Index="0" Min="2.2786481857299805e+01" Max="7.8387553710937500e+03"/>
          <Range Index="1" Min="2.2119609639048576e-05" Max="8.6847105026245117e+00"/>
          <Range Index="2" Min="1.2582529449462891e+02" Max="2.2774987792968750e+03"/>
          <Range Index="3" Min="4.9185787247552071e-06" Max="4.7649076581001282e-01"/>
          <Range Index="4" Min="-4.5066342353820801e+00" Max="4.5113468170166016e+00"/>
          <Range Index="5" Min="5.0058475494384766e+01" Max="2.7532824707031250e+03"/>
          <Range Index="6" Min="-2.4010925292968750e+00" Max="2.3904125690460205e+00"/>
          <Range Index="7" Min="2.2989241406321526e-02" Max="9.9998378753662109e-01"/>
          <Range Index="8" Min="2.0000000000000000e+00" Max="9.0000000000000000e+00"/>
          <Range Index="9" Min="1.5914440155029297e-05" Max="1.0000000000000000e+00"/>
          <Range Index="10" Min="1.1811205240519485e-06" Max="6.6895289421081543e+00"/>
        </Ranges>
      </Class>
    </Transform>
  </Transformations>
  <MVAPdfs/>
  <Weights>
    <Layout NLayers="4">
      <Layer Index="0" NNeurons="12">
        <Neuron NSynapses="21">
          4.0502321164055621e-01 2.6963818963360500e+00 -8.1694883731691947e-01 4.5043779058841471e+00 -3.8821170693791158e+00 -1.8418229945023035e+00 -8.4738874700993561e-01 1.8441451489467846e+00 -4.7716139464545337e+00 -1.8382736253296053e+00 -3.2994711394269016e+00 -1.9437404791184779e-01 -2.2792402386544386e+00 -5.8052796462803546e-01 -1.2929354841316518e+00 -1.1339746377408075e-01 8.8393649124660423e-01 -2.7953535021335369e+00 -2.5809584396283425e-01 1.1734020423739338e+00 2.4735487017345270e+00 
        </Neuron>
        <Neuron NSynapses="21">
          -2.6271637287217015e-01 1.2875244970055975e+00 -2.3309476923156538e+00 -4.6124499270478397e-01 -3.3718418564477313e+00 -2.1955268947988166e-01 -4.2146551600467808e+00 -1.0548338970101552e+00 5.4359540503559467e-01 -8.3288609438558159e-01 9.8062908606194576e-01 -9.3399055001335640e-01 -6.0085117347462635e-01 9.4915660092900256e-01 -1.2584721832117869e+00 -6.7937024482410047e-01 3.2346680447839691e+00 -1.6193649831119952e+00 2.2756607270575033e+00 -2.5785180799895435e-01 4.4984328191884231e+00 
        </Neuron>
        <Neuron NSynapses="21">
          4.3652921788156140e+00 5.8046507670422343e-01 4.6758287990029734e-01 -1.0311512202526971e+00 -3.8601394766705532e-01 -1.8329884389281781e-01 2.9847029237579170e-01 2.1079497642795828e+00 3.6424171719873627e-01 1.5755656610739588e+00 -3.2011507702287072e+00 1.5387235809211477e+00 -5.6551605686361217e-01 -2.3380054065336302e+00 -7.2354010928871104e-01 -7.1396943500463578e-02 1.8666289089837413e+00 -1.6084561164309046e+00 -2.3015438425431589e+00 -1.0911463220767077e+00 8.5275400659993428e-01 
        </Neuron>
        <Neuron NSynapses="21">
          4.8516031495635392e-01 1.7195262098602220e+00 1.5334268960732775e-01 -9.4927082083951531e-01 3.0698218381738890e-01 2.1937352410658746e+00 -1.4342099712862162e+00 -7.1286717870225647e-01 1.2539251099951082e-01 7.6324576046314008e-01 1.3708374404230728e+00 1.2961537082502914e+00 -1.0052815006203803e-02 -4.1835891532054426e+00 -8.4710680165378027e-01 2.0619229238378440e+00 -6.0569059840574879e-01 7.2346372407770927e+00 7.5612049014205462e-01 1.1445003780808236e+00 -5.8997219794017430e-01 
        </Neuron>
        <Neuron NSynapses="21">
          -1.0323692207726365e-01 -1.2027328145056573e+00 2.6187007295510525e+00 5.0515204045943431e-02 -4.9957601713594544e+00 -3.5076117928767574e+00 -2.2839261208535994e-01 -8.7293457115989870e-01 1.1567954112723708e+00 -2.8255801327454231e+00 -5.0569012219575660e-01 1.6701662120426113e+00 -2.2242338381541815e+00 -3.9168433251664242e-01 -4.3471624759675892e-01 1.5991226103596019e+00 -1.3265311275718548e+00 1.3191736666909534e-01 -1.0209252823409200e-02 6.8086572334988094e-01 -4.4739898236497444e+00 
        </Neuron>
        <Neuron NSynapses="21">
          1.4933530736061049e+00 -2.9048098462995231e-01 5.2542893521037115e-01 9.9763481555504441e-01 1.4490609325088841e+00 -9.4092851042017489e-01 1.4847408832184046e+00 -8.5988245770475402e-01 -1.4541038476970312e+00 -1.0604063168163085e+00 1.7405826867191416e+00 7.9612344028366933e-01 -1.7989033313247946e+00 4.0248781865857569e-01 -1.1960127991211080e+00 -2.6471030446024426e+00 -7.4003645171217347e-01 -1.8789810956265993e+00 1.4777460084755842e+00 8.2730763371531280e-01 -1.3904280030982277e+00 
        </Neuron>
        <Neuron NSynapses="21">
          -1.1572077619416052e-01 6.5804355375034163e-01 -9.5639733530290216e-01 2.1569336923745006e-01 2.6259785915497442e+00 -7.7928260625520918e-01 -7.8801924203437246e-01 -8.9155692462429958e-01 -4.3037905538865151e-01 1.3451449202378813e+00 5.0078239314082718e-01 -2.5943181532989001e-01 1.6471255736962718e+00 2.5625472585133408e-01 1.0820518751805164e+00 -9.0644500584538190e-01 5.4151250170976983e-01 -1.0695612817483829e-01 -1.2181018724861397e+00 9.7967910096054478e-01 2.0858088685680909e+00 
        </Neuron>
        <Neuron NSynapses="21">
          3.1567709807197714e-01 1.3706340220844943e-01 8.2320841997850902e-01 -1.4584724111575356e+00 -6.7379335362781700e-01 7.0833713213402349e-01 2.7824257359872462e-01 2.7140539850673456e-01 3.3801097495300092e-01 1.1997975932248315e+00 -1.3276670650306943e+00 -1.7979998982342976e-01 -1.5822182637711726e+00 1.4563581910258001e+00 1.0008682935512725e+00 4.4736103472574595e-01 2.4187846398134621e-01 3.1180915584162583e-01 6.2148503112308873e-01 4.7304159819746355e-01 7.1155889321546628e-01 
        </Neuron>
        <Neuron NSynapses="21">
          -6.1746705014407621e-01 -8.5021815428737546e-01 2.7593413701076802e-01 1.4744436331222868e+00 -1.5633254885672461e+00 3.1550524769396189e+00 3.3323525349397491e+00 -2.6819145804755613e+00 -5.6062807800145587e-01 7.0478050953797916e-02 1.8109057512438204e-01 -1.1738715234587018e+00 -2.4808723246043671e+00 4.4529184767900042e-02 2.1110855189150195e+00 -3.7901842735352891e+00 -3.5719999561635457e-01 1.1683975816917189e+00 -6.9299909235291599e-02 3.3037613166582847e+00 7.5396484783847995e-01 
        </Neuron>
        <Neuron NSynapses="21">
          -1.8265742394677958e-01 -4.2257975156731403e-01 4.0720116108413079e-01 4.3662615198824839e-01 1.2629605373655919e-01 -3.6194233199272891e-01 -5.2635075789051100e-01 -1.7271364840896353e+00 1.4550675507521502e+00 1.5694966675574267e+00 -2.5485673061906668e+00 -1.7711693382590346e+00 1.5627406022975110e-01 -7.5855886443452647e-02 -3.3066487490222842e+00 -2.3204632582465304e-01 -2.6296972108153516e-01 3.2483579211714003e-01 -1.3804823939625215e+00 -3.5315631317904211e-01 5.9385258110689475e-02 
        </Neuron>
        <Neuron NSynapses="21">
          -1.8668936963558108e-01 9.1469294636403664e-01 -2.8463647899250359e+00 3.1261945627593579e-01 1.3355818847115541e+00 1.0644834054426808e+00 3.1690747672761571e-01 -1.5301389557359849e-01 2.5480105984141739e+00 -1.2084580346737721e+00 -1.0374525644404260e+00 1.4711577190054692e-01 -1.2372532685065996e+00 -8.6618711017448136e-01 1.4375256335252795e+00 -2.2759102839894418e+00 -4.2468346837749327e-01 -1.1490742699760122e-01 -2.9234934861634181e+00 -1.2312958258269908e+00 -2.1365229133170778e+00 
        </Neuron>
        <Neuron NSynapses="21">
          4.9101117456867369e+00 1.0551184383964041e+00 -4.8519066693766622e+00 4.3325500045122691e+00 -5.7732667017167891e+00 1.9442731921973377e-01 -2.8956140703463229e-01 -1.8032020508785702e+00 -5.6863966006864812e+00 -5.2499294318924674e+00 -3.0465381544280685e+00 -1.7686696766507963e+00 -2.7436608395108952e+00 -5.7786123520659807e+00 -4.3800307169447383e-01 -2.7570612677027739e+00 1.1616653256646137e+00 2.4298067641317331e+00 -1.2760539397321013e+00 2.1218527669193517e+00 3.3526743241872055e+00 
        </Neuron>
      </Layer>
      <Layer Index="1" NNeurons="22">
        <Neuron NSynapses="16">
          5.5655254451061672e-03 1.5033878335121753e+00 1.4716258939380817e+00 1.9582417910833527e-01 -3.5250017387049946e+00 -8.9415356220710196e-01 -2.1279543412596658e+00 -1.7678830388552247e-01 6.0811721111902906e-01 -1.8984609467292946e-01 1.7487326279072837e+00 -5.1400806429610757e-01 1.8972482896698100e+00 -1.5427265886029458e+00 -1.3521487981862119e+00 1.2923318125856971e+00 
        </Neuron>
        <Neuron NSynapses="16">
          1.2049216725335348e+00 -9.0498685900374498e-01 -9.6656921020916553e-01 1.8033809022766287e-01 1.1249658962322233e+00 5.4207590600344668e-01 -4.7432004235473219e-01 -2.7878813349150355e-01 1.3850185423207699e+00 1.0153933516282998e+00 1.0111699459027612e+00 -2.9373443098171054e-01 4.2401258313416462e-01 -1.0732547935928578e+00 -1.5797113155336608e+00 -4.9894761292600964e-01 
        </Neuron>
        <Neuron NSynapses="16">
          -2.0419148330689310e+00 -1.3775175487606388e+00 -2.0602324255630360e+00 2.7761762854228587e+00 -1.7418908290090798e+00 1.2299467663706669e+00 -1.7617994379327846e+00 2.1045694190464594e+00 -1.6733219035520446e+00 1.7842781758772103e-01 5.7397159290331468e-01 -2.0938675359190166e+00 -1.1608657177605775e-01 -5.0700875744453155e-01 -2.1717735168516357e+00 -1.5506545958099267e+00 
        </Neuron>
        <Neuron NSynapses="16">
          -1.4355352585592176e+00 -1.5244266689108525e+00 2.3835480320907716e+00 -2.2364049908256960e+00 -9.5672608764406952e-01 5.2271737898736925e-01 -2.7205144190511614e+00 -1.5280243902209798e+00 -1.6314026779068393e+00 -1.6879043076098492e+00 1.0038365461000234e+00 -1.4604640262449879e+00 1.3693224633169601e+00 7.4169780901577931e-01 7.9311504067848804e-01 5.5419741379287069e-02 
        </Neuron>
        <Neuron NSynapses="16">
          2.2608270809562527e+00 -3.1241543208062530e+00 1.3568607161752411e-01 3.8974649876545104e+00 -1.6987360842297961e+00 -3.9139864273299607e-01 -4.5767909037928534e-01 -1.7720448627515963e+00 1.7951930838916357e+00 1.6608929613458383e+00 1.5189042964530659e+00 1.3420022775831457e+00 -2.7591382518795049e+00 4.5813717805360327e-01 -1.9937826858550149e+00 4.0645078449910671e-01 
        </Neuron>
        <Neuron NSynapses="16">
          -9.7901254553274741e-01 -1.2757985758944308e+00 -1.4589176762072735e+00 3.9930770999442422e-01 9.0422643589874807e-01 2.0079491709631752e+00 6.9070151857911466e-01 -2.0034843220280112e+00 -1.5565709626552653e+00 1.2569734249156292e-01 2.1057888077911766e+00 -1.7076638738910455e+00 1.3064418912457110e+00 -1.4907324266085873e+00 -1.8785041826482958e+00 3.1163793509941532e-02 
        </Neuron>
        <Neuron NSynapses="16">
          8.5442002219453039e-01 -1.7344012025110194e+00 1.5922493517265919e+00 2.6290822555628450e+00 9.3459698242453815e-01 4.6286469997909929e-01 -1.4998065065287554e+00 4.8363708868780814e-01 -2.2333665796968374e+00 7.6615738173522896e-01 -9.8561209187993482e-01 -1.2238057559108571e+00 1.3219346711958735e+00 -3.0400028223839306e+00 -2.7315400386371183e+00 -1.3596773016003993e+00 
        </Neuron>
        <Neuron NSynapses="16">
          1.0132758930309154e+00 -1.6814572750032279e+00 -1.7750917410879992e+00 2.3233095785862815e-02 -1.4543038890588651e+00 -2.1771458154946712e+00 1.2830283045704480e+00 -1.2799880965512089e+00 -1.0714720374794875e+00 1.4769595034222736e+00 3.8333095886970076e-01 2.7411309141412082e-01 -8.4063971388454964e-02 1.5812568959127284e+00 1.2348783763589575e+00 4.7542551243206677e-01 
        </Neuron>
        <Neuron NSynapses="16">
          -1.0410746168213008e+00 -4.0959608826312388e-01 -9.1457193400396897e-01 2.8171312843739975e+00 2.1456281464454543e+00 1.3885245898770335e-01 1.7647594746096240e+00 1.0044535379172401e+00 1.3949500360075728e+00 -1.5591341127052283e+00 1.5418618285950989e+00 6.1612240394687134e-01 -3.0179492999523956e+00 -2.7549040056423546e-01 -8.5892189125434149e-01 9.0269046761578120e-01 
        </Neuron>
        <Neuron NSynapses="16">
          2.3967055840895657e-01 7.1964687508223568e-01 1.8225853055164201e+00 2.6537887721267110e+00 1.1742327816942668e+00 1.6850282146417095e+00 1.0246747534260879e-01 -1.1775746105455691e+00 2.2200450954621465e+00 -2.1586770312413708e+00 5.6141577492662831e-01 1.5465089332538136e+00 -1.3646760388093180e+00 -1.4493233629302107e+00 -6.7443315222330968e-01 -1.3906296617958926e+00 
        </Neuron>
        <Neuron NSynapses="16">
          3.2600703423396660e-01 -2.2937940684494764e+00 -4.3286220471415088e-01 1.0732301877403432e+00 1.7374633004924416e+00 1.1722995055445784e+00 1.8853700542489231e+00 -1.1419065099756474e-01 1.8893333950921920e-01 -8.6431364615993764e-04 1.7106105073925799e+00 -1.9303108840337067e+00 -2.6035946590250898e+00 -7.7230834632601442e-01 -1.4986989997152200e+00 -1.8153238679910777e+00 
        </Neuron>
        <Neuron NSynapses="16">
          -1.5313388692901146e+00 6.6014935368863525e-01 -3.0683633240955249e-01 -1.5488131916186716e+00 -1.8229810934561588e+00 -3.0973787806967690e-01 1.5925361285767932e+00 2.1240053986332557e+00 1.3526338642002200e+00 -7.1342652985730282e-01 -2.0232028746371933e+00 -1.4147531339086078e-01 -1.2400099739756214e+00 -1.8762102278601607e+00 -5.7263156529794201e-01 8.7688886470272433e-03 
        </Neuron>
        <Neuron NSynapses="16">
          -1.5509448905898731e+00 1.6235996138762496e+00 1.4923643886810627e+00 -3.9801244538795244e-01 -1.9302378871120327e+00 -1.6702095744235339e+00 2.3615430791419696e+00 -5.4349078104106019e-01 -6.1266675906413848e-01 5.6340934512776897e-01 1.3094848969967168e+00 -1.3729480668018312e+00 2.8693104020091291e+00 -9.2940150791493925e-01 1.7385730868049267e+00 2.0774711798457748e+00 
        </Neuron>
        <Neuron NSynapses="16">
          -4.5841873842350955e-01 1.3679007896585871e-01 6.1429286655202020e-01 -3.4996004879454773e-01 2.9848048123013045e+00 2.9276612637029781e-01 -3.6069909714370169e-01 -1.5285660400347942e+00 6.0150347425979100e-01 1.4034747369449687e+00 3.7814319320805762e-01 -8.2106158923836503e-01 -3.3251109178587956e+00 4.0414248458095923e+00 5.9371678977569786e-01 -1.5255619489072787e+00 
        </Neuron>
        <Neuron NSynapses="16">
          -1.0344511975393389e-01 -1.2804570136549940e+00 1.7414764033443570e+00 1.7367221630627516e+00 -1.4666905043108133e-01 -4.3751972429348363e-01 8.6029408406271790e-01 2.0699662116518387e+00 8.7292665682166082e-01 -4.3261137860822035e-01 -1.3784580753305569e+00 -1.2615104276146114e+00 1.4368291813815830e+00 1.4744689257920887e-01 -1.8259728470076880e-01 -1.9147463093567794e+00 
        </Neuron>
        <Neuron NSynapses="16">
          -2.0477234588732456e+00 -1.5230187602072611e+00 -8.3400426212361900e-01 -2.3379750421489125e+00 -6.5664036279577598e-01 -1.1353640234577755e+00 2.4549994040648371e+00 1.0808727988267017e-01 -2.9859519758141966e+00 4.5973922800868194e-01 1.7193539264350459e+00 7.7558433103454483e-01 -6.5051241469793967e-03 -3.3992212949611278e-01 2.7058012447521653e+00 -1.7639365479914744e+00 
        </Neuron>
        <Neuron NSynapses="16">
          2.8886882161876631e-01 -3.3466883246645646e-01 8.7620072724122533e-01 -1.0129254499667715e+00 -6.5748669257854542e-01 -4.3933587814136316e-01 1.0596444488387531e+00 -1.4975449204063473e+00 -1.1577032458340846e+00 6.0895355764653303e-01 3.8093648762524529e-01 6.7003765263832005e-01 1.3024734483154063e+00 -8.8839116749814151e-01 1.8236676655424289e+00 -2.1327850456320996e+00 
        </Neuron>
        <Neuron NSynapses="16">
          1.0947942484442255e+00 4.4456774217992401e-01 -2.3726251679702928e-01 1.5981763825814552e+00 1.4745491794417198e+00 -2.0835842805545135e+00 -3.8788160254410070e-01 -2.0580215589854173e-01 4.7510350171348953e-01 -9.6206740501346111e-01 -4.3387965480964119e-01 -9.7678805214743025e-01 -1.2074492101556040e+00 -3.7878131151179444e+00 -8.8406401635690823e-01 -1.7597881542797951e+00 
        </Neuron>
        <Neuron NSynapses="16">
          -5.5664159833487059e-01 2.3424073811922308e-01 -1.2714974515857984e+00 -1.3895143193945181e+00 4.5194377666031532e-01 6.8602800381279605e-01 -6.5518014401584235e-01 -1.8371608811496547e+00 1.5013089523043586e+00 -6.2839110087464800e-01 5.9319266110056401e-01 5.6587144510264753e-01 -1.1038387700209293e+00 -9.9543677650128459e-01 -1.4729298303483737e-01 -2.0658684923213460e+00 
        </Neuron>
        <Neuron NSynapses="16">
          -7.7716174787450187e-01 -8.2056397651016322e-01 2.4820351495171669e+00 -2.0634440285295645e+00 1.3650582923710570e+00 3.1017904130952894e+00 5.3267789468867555e-01 1.5119085929116933e+00 9.0011193425743741e-01 1.3635377463859277e-01 -9.5611440656673730e-01 -1.9190560108857144e+00 3.4470158169412896e-01 -1.5278148928846713e+00 2.0960092285277208e+00 1.3313461388091485e-01 
        </Neuron>
        <Neuron NSynapses="16">
          8.3081334089204234e-02 1.7928637851428997e+00 2.4166612759004820e+00 -2.5761789606478134e+00 -2.3347650077837737e-01 -1.0598337721223761e+00 1.2058667441751150e+00 -3.0711193647309498e+00 3.9064613227165657e-01 -5.3153148834490804e-01 1.3319099870712396e+00 -1.9896580194173346e+00 2.5374835632921294e-01 -6.1113295422035252e-01 -2.0310249492703847e-01 1.0883325021033086e+00 
        </Neuron>
        <Neuron NSynapses="16">
          -7.3142352057616156e-01 3.7229622013654523e-01 -1.8334925332981340e+00 1.3686491714171398e+00 -1.1831402964254700e+00 1.3155197047980993e+00 -2.0701034074817173e+00 -1.0321828681661935e+00 1.5239676162296296e+00 -2.7889227502461091e+00 -1.4360297868628409e+00 -1.2397317426430023e+00 2.2461992572829739e+00 1.2224979436632499e+00 2.3887792599829862e+00 -1.4913320085085786e+00 
        </Neuron>
      </Layer>
      <Layer Index="2" NNeurons="17">
        <Neuron NSynapses="1">
          9.1292979207449176e-01 
        </Neuron>
        <Neuron NSynapses="1">
          1.2096034034302201e+00 
        </Neuron>
        <Neuron NSynapses="1">
          1.8237863357525335e+00 
        </Neuron>
        <Neuron NSynapses="1">
          -2.8446885453068655e+00 
        </Neuron>
        <Neuron NSynapses="1">
          -2.8397877326898247e+00 
        </Neuron>
        <Neuron NSynapses="1">
          -1.6984321435640064e+00 
        </Neuron>
        <Neuron NSynapses="1">
          1.2600178657943861e+00 
        </Neuron>
        <Neuron NSynapses="1">
          2.4893316902053146e+00 
        </Neuron>
        <Neuron NSynapses="1">
          -1.1379261181449409e+00 
        </Neuron>
        <Neuron NSynapses="1">
          -1.5985631586646024e-01 
        </Neuron>
        <Neuron NSynapses="1">
          -1.8937954330618387e+00 
        </Neuron>
        <Neuron NSynapses="1">
          1.0845863390573180e+00 
        </Neuron>
        <Neuron NSynapses="1">
          2.4662524630466121e+00 
        </Neuron>
        <Neuron NSynapses="1">
          3.1263551614646512e+00 
        </Neuron>
        <Neuron NSynapses="1">
          -2.6320036858732321e+00 
        </Neuron>
        <Neuron NSynapses="1">
          -1.7283187801015967e+00 
        </Neuron>
        <Neuron NSynapses="1">
          8.9943813097521674e-01 
        </Neuron>
      </Layer>
      <Layer Index="3" NNeurons="1">
        <Neuron NSynapses="0"/>
      </Layer>
    </Layout>
  </Weights>
</MethodSetup>
