<?xml version="1.0"?>
<MethodSetup Method="MLP::MLP">
  <GeneralInfo>
    <Info name="TMVA Release" value="4.2.1 [262657]"/>
    <Info name="ROOT Release" value="6.22/06 [398854]"/>
    <Info name="Creator" value="konstantin"/>
    <Info name="Date" value="Wed Mar 24 00:06:01 2021"/>
    <Info name="Host" value="Linux mach 5.8.0-43-generic #49~20.04.1-Ubuntu SMP Fri Feb 5 09:57:56 UTC 2021 x86_64 x86_64 x86_64 GNU/Linux"/>
    <Info name="Dir" value="/home/konstantin/Projects/CERN/TMVA_MLP"/>
    <Info name="Training events" value="170672"/>
    <Info name="TrainingTime" value="2.20458930e+02"/>
    <Info name="AnalysisType" value="Classification"/>
  </GeneralInfo>
  <Options>
    <Option name="NCycles" modified="Yes">400</Option>
    <Option name="HiddenLayers" modified="Yes">N+10,N+10</Option>
    <Option name="NeuronType" modified="Yes">sigmoid</Option>
    <Option name="RandomSeed" modified="No">1</Option>
    <Option name="EstimatorType" modified="No">CE</Option>
    <Option name="NeuronInputType" modified="No">sum</Option>
    <Option name="V" modified="Yes">False</Option>
    <Option name="VerbosityLevel" modified="No">Default</Option>
    <Option name="VarTransform" modified="Yes">N</Option>
    <Option name="H" modified="Yes">True</Option>
    <Option name="CreateMVAPdfs" modified="No">False</Option>
    <Option name="IgnoreNegWeightsInTraining" modified="No">False</Option>
    <Option name="TrainingMethod" modified="No">BP</Option>
    <Option name="LearningRate" modified="Yes">2.000000e-02</Option>
    <Option name="DecayRate" modified="No">1.000000e-02</Option>
    <Option name="TestRate" modified="Yes">5</Option>
    <Option name="EpochMonitoring" modified="No">False</Option>
    <Option name="Sampling" modified="No">1.000000e+00</Option>
    <Option name="SamplingEpoch" modified="No">1.000000e+00</Option>
    <Option name="SamplingImportance" modified="No">1.000000e+00</Option>
    <Option name="SamplingTraining" modified="No">True</Option>
    <Option name="SamplingTesting" modified="No">False</Option>
    <Option name="ResetStep" modified="No">50</Option>
    <Option name="Tau" modified="No">3.000000e+00</Option>
    <Option name="BPMode" modified="Yes">batch</Option>
    <Option name="BatchSize" modified="Yes">3</Option>
    <Option name="ConvergenceImprove" modified="Yes">2.500000e-03</Option>
    <Option name="ConvergenceTests" modified="Yes">5</Option>
    <Option name="UseRegulator" modified="Yes">False</Option>
    <Option name="UpdateLimit" modified="No">10000</Option>
    <Option name="CalculateErrors" modified="No">False</Option>
    <Option name="WeightRange" modified="No">1.000000e+00</Option>
  </Options>
  <Variables NVar="11">
    <Variable VarIndex="0" Expression="mJJ" Label="mJJ" Title="mJJ" Unit="" Internal="mJJ" Type="F" Min="2.27864819e+01" Max="7.83875537e+03"/>
    <Variable VarIndex="1" Expression="deltaYJJ" Label="deltaYJJ" Title="deltaYJJ" Unit="" Internal="deltaYJJ" Type="F" Min="2.21196096e-05" Max="8.68471050e+00"/>
    <Variable VarIndex="2" Expression="metPt" Label="metPt" Title="metPt" Unit="" Internal="metPt" Type="F" Min="1.25825294e+02" Max="2.27749878e+03"/>
    <Variable VarIndex="3" Expression="ptBalance" Label="ptBalance" Title="ptBalance" Unit="" Internal="ptBalance" Type="F" Min="4.91857872e-06" Max="4.76490766e-01"/>
    <Variable VarIndex="4" Expression="subleadJetEta" Label="subleadJetEta" Title="subleadJetEta" Unit="" Internal="subleadJetEta" Type="F" Min="-4.50663424e+00" Max="4.51134682e+00"/>
    <Variable VarIndex="5" Expression="leadJetPt" Label="leadJetPt" Title="leadJetPt" Unit="" Internal="leadJetPt" Type="F" Min="5.00584755e+01" Max="2.75328247e+03"/>
    <Variable VarIndex="6" Expression="photonEta" Label="photonEta" Title="photonEta" Unit="" Internal="photonEta" Type="F" Min="-2.40109253e+00" Max="2.39041257e+00"/>
    <Variable VarIndex="7" Expression="ptBalanceRed" Label="ptBalanceRed" Title="ptBalanceRed" Unit="" Internal="ptBalanceRed" Type="F" Min="2.29892414e-02" Max="9.99983788e-01"/>
    <Variable VarIndex="8" Expression="nJets" Label="nJets" Title="nJets" Unit="" Internal="nJets" Type="F" Min="2.00000000e+00" Max="9.00000000e+00"/>
    <Variable VarIndex="9" Expression="sinDeltaPhiJJOver2" Label="sinDeltaPhiJJOver2" Title="sinDeltaPhiJJOver2" Unit="" Internal="sinDeltaPhiJJOver2" Type="F" Min="1.59144402e-05" Max="1.00000000e+00"/>
    <Variable VarIndex="10" Expression="deltaYJPh" Label="deltaYJPh" Title="deltaYJPh" Unit="" Internal="deltaYJPh" Type="F" Min="1.18112052e-06" Max="6.68952894e+00"/>
  </Variables>
  <Spectators NSpec="1">
    <Spectator SpecIndex="0" Expression="weightModified" Label="weightModified" Title="F" Unit="" Internal="weightModified" Type="F" Min="-1.91263646e-01" Max="1.09073341e+00"/>
  </Spectators>
  <Classes NClass="2">
    <Class Name="Signal" Index="0"/>
    <Class Name="Background" Index="1"/>
  </Classes>
  <Transformations NTransformations="1">
    <Transform Name="Normalize">
      <Selection>
        <Input NInputs="11">
          <Input Type="Variable" Label="mJJ" Expression="mJJ"/>
          <Input Type="Variable" Label="deltaYJJ" Expression="deltaYJJ"/>
          <Input Type="Variable" Label="metPt" Expression="metPt"/>
          <Input Type="Variable" Label="ptBalance" Expression="ptBalance"/>
          <Input Type="Variable" Label="subleadJetEta" Expression="subleadJetEta"/>
          <Input Type="Variable" Label="leadJetPt" Expression="leadJetPt"/>
          <Input Type="Variable" Label="photonEta" Expression="photonEta"/>
          <Input Type="Variable" Label="ptBalanceRed" Expression="ptBalanceRed"/>
          <Input Type="Variable" Label="nJets" Expression="nJets"/>
          <Input Type="Variable" Label="sinDeltaPhiJJOver2" Expression="sinDeltaPhiJJOver2"/>
          <Input Type="Variable" Label="deltaYJPh" Expression="deltaYJPh"/>
        </Input>
        <Output NOutputs="11">
          <Output Type="Variable" Label="mJJ" Expression="mJJ"/>
          <Output Type="Variable" Label="deltaYJJ" Expression="deltaYJJ"/>
          <Output Type="Variable" Label="metPt" Expression="metPt"/>
          <Output Type="Variable" Label="ptBalance" Expression="ptBalance"/>
          <Output Type="Variable" Label="subleadJetEta" Expression="subleadJetEta"/>
          <Output Type="Variable" Label="leadJetPt" Expression="leadJetPt"/>
          <Output Type="Variable" Label="photonEta" Expression="photonEta"/>
          <Output Type="Variable" Label="ptBalanceRed" Expression="ptBalanceRed"/>
          <Output Type="Variable" Label="nJets" Expression="nJets"/>
          <Output Type="Variable" Label="sinDeltaPhiJJOver2" Expression="sinDeltaPhiJJOver2"/>
          <Output Type="Variable" Label="deltaYJPh" Expression="deltaYJPh"/>
        </Output>
      </Selection>
      <Class ClassIndex="0">
        <Ranges>
          <Range Index="0" Min="2.2786481857299805e+01" Max="7.5057304687500000e+03"/>
          <Range Index="1" Min="1.5035811520647258e-04" Max="8.6847105026245117e+00"/>
          <Range Index="2" Min="1.2697845458984375e+02" Max="2.2774987792968750e+03"/>
          <Range Index="3" Min="4.9185787247552071e-06" Max="4.0502533316612244e-01"/>
          <Range Index="4" Min="-4.5066342353820801e+00" Max="4.5113468170166016e+00"/>
          <Range Index="5" Min="5.0105968475341797e+01" Max="1.9641448974609375e+03"/>
          <Range Index="6" Min="-2.4010925292968750e+00" Max="2.3904125690460205e+00"/>
          <Range Index="7" Min="4.8834752291440964e-02" Max="9.9988257884979248e-01"/>
          <Range Index="8" Min="2.0000000000000000e+00" Max="8.0000000000000000e+00"/>
          <Range Index="9" Min="1.5914440155029297e-05" Max="1.0000000000000000e+00"/>
          <Range Index="10" Min="3.2652555091772228e-05" Max="6.5068273544311523e+00"/>
        </Ranges>
      </Class>
      <Class ClassIndex="1">
        <Ranges>
          <Range Index="0" Min="2.3556308746337891e+01" Max="7.8387553710937500e+03"/>
          <Range Index="1" Min="2.2119609639048576e-05" Max="8.6838493347167969e+00"/>
          <Range Index="2" Min="1.2582529449462891e+02" Max="1.9265614013671875e+03"/>
          <Range Index="3" Min="5.9500340285012498e-05" Max="4.7649076581001282e-01"/>
          <Range Index="4" Min="-4.5036110877990723e+00" Max="4.5083436965942383e+00"/>
          <Range Index="5" Min="5.0058475494384766e+01" Max="2.7532824707031250e+03"/>
          <Range Index="6" Min="-2.3863203525543213e+00" Max="2.3830773830413818e+00"/>
          <Range Index="7" Min="2.2989241406321526e-02" Max="9.9998378753662109e-01"/>
          <Range Index="8" Min="2.0000000000000000e+00" Max="9.0000000000000000e+00"/>
          <Range Index="9" Min="1.9311904907226562e-05" Max="1.0000000000000000e+00"/>
          <Range Index="10" Min="1.1811205240519485e-06" Max="6.6895289421081543e+00"/>
        </Ranges>
      </Class>
      <Class ClassIndex="2">
        <Ranges>
          <Range Index="0" Min="2.2786481857299805e+01" Max="7.8387553710937500e+03"/>
          <Range Index="1" Min="2.2119609639048576e-05" Max="8.6847105026245117e+00"/>
          <Range Index="2" Min="1.2582529449462891e+02" Max="2.2774987792968750e+03"/>
          <Range Index="3" Min="4.9185787247552071e-06" Max="4.7649076581001282e-01"/>
          <Range Index="4" Min="-4.5066342353820801e+00" Max="4.5113468170166016e+00"/>
          <Range Index="5" Min="5.0058475494384766e+01" Max="2.7532824707031250e+03"/>
          <Range Index="6" Min="-2.4010925292968750e+00" Max="2.3904125690460205e+00"/>
          <Range Index="7" Min="2.2989241406321526e-02" Max="9.9998378753662109e-01"/>
          <Range Index="8" Min="2.0000000000000000e+00" Max="9.0000000000000000e+00"/>
          <Range Index="9" Min="1.5914440155029297e-05" Max="1.0000000000000000e+00"/>
          <Range Index="10" Min="1.1811205240519485e-06" Max="6.6895289421081543e+00"/>
        </Ranges>
      </Class>
    </Transform>
  </Transformations>
  <MVAPdfs/>
  <Weights>
    <Layout NLayers="4">
      <Layer Index="0" NNeurons="12">
        <Neuron NSynapses="21">
          7.2211487515692330e-01 4.6921734333400718e+00 -5.0838810623618935e-01 4.1113751076445952e+00 -5.0188128248161430e+00 -3.5942590326508497e+00 -3.1991954678572014e+00 6.9920825339908477e-01 -5.3839535160515806e-01 2.6637653723737281e-01 -4.1655982120002015e+00 2.3305305822505337e-01 -1.3351869979414814e+00 -2.5135341928393165e+00 1.7356143106999915e+00 -8.5726405248805837e-01 -4.8475349797992240e-01 -1.4792459127657671e+00 7.7833859966557906e-01 1.7483233908191764e+00 4.2381609428572720e+00 
        </Neuron>
        <Neuron NSynapses="21">
          -1.8045704527105570e+00 1.9348233035509657e+00 -1.5665764417317665e+00 -1.3270351182262636e+00 1.1846276054503824e+00 9.8659449565085833e-01 -4.1054605499526771e+00 -3.6022829843593724e+00 -6.1435752864018145e-01 2.9985120314067126e+00 2.2347278454583837e+00 5.3181461330093660e-02 -1.2511594938963140e+00 -3.1258228696658703e+00 2.0639150371088659e+00 1.4209497925946906e+00 2.3555021438938843e+00 -1.5813372324814450e+00 1.4456675237836343e+00 3.9485498581738221e-01 2.0573575344555715e+00 
        </Neuron>
        <Neuron NSynapses="21">
          7.4031860368189950e-01 2.3969207901069658e+00 -7.2247827708928392e-01 -6.0642328423936565e-01 1.2521639642304142e-01 1.5560068159374549e+00 2.1945098342486067e+00 6.8242340877028240e-01 4.3874128175604576e-01 2.8838563444569023e+00 -3.0951360016843017e+00 1.6539176637316426e+00 -3.4760923190047845e-02 -1.2368536663365084e+00 -1.8206401494285249e+00 -2.4824486359816080e+00 1.2830154039254162e+00 -8.1584542518285363e-01 -1.1034451347591283e+00 -4.1784133198771228e-01 -3.7530179711998507e-01 
        </Neuron>
        <Neuron NSynapses="21">
          1.4065639821667670e+00 1.0209566416685241e+00 4.2439362294150684e-01 7.9972020497231144e-01 -3.5734212690268569e-01 3.4048040462024307e+00 4.4208781539250624e-01 4.1999465867899505e-01 -3.0940701863475031e+00 9.7716103810916957e-02 5.4878784109499779e-01 1.8452426545117719e+00 -4.4519169468682707e-01 -1.4882629705572767e-01 -3.0355736037664616e+00 2.2229288069061837e+00 1.0522612620410565e+00 4.9595370385402564e+00 1.0755253767153330e+00 2.1081682804974325e-01 -3.3950399187676927e+00 
        </Neuron>
        <Neuron NSynapses="21">
          -3.6423138821020955e+00 1.0261850503076339e-01 2.8520398317816302e+00 -2.4126069547831289e-01 -1.6939685397827704e-02 6.5044734210986077e-01 -9.0233386350895750e-01 1.7295535722635505e-01 1.8291372431873805e+00 -3.9733599582952146e+00 -1.4933449441727848e+00 2.0750672642119592e+00 -1.3961210956883052e+00 -5.1236064358345459e+00 -3.6769411433655526e+00 -2.6090410722497953e-01 -2.0158203745443073e+00 -4.0013285121728685e-03 4.1488082430768353e-01 1.7708843388983309e-01 -1.6089759421975578e+00 
        </Neuron>
        <Neuron NSynapses="21">
          2.0614172100950108e+00 -7.3970677164897602e-01 5.1661736673474290e-01 9.5861123878799770e-01 -7.6649706349352842e-01 -2.1212467358812561e+00 -1.5519124718717245e-01 -2.5299916887550578e-01 -4.5956581346092479e-01 -2.9647857563223363e+00 1.4379237122548723e+00 7.1990875691939071e-01 -5.5155831696821855e-01 9.9291996417074369e-01 -1.3521861636744708e+00 -1.9730942761281816e+00 1.4750711962321456e-01 -1.9725668807907388e+00 2.3805021572069363e+00 1.5496738904457932e+00 1.0906695533944883e+00 
        </Neuron>
        <Neuron NSynapses="21">
          2.7658825569816782e-02 -1.2736876157216981e-01 -2.2404448214411810e+00 7.4499689212823383e-01 5.3127076273313978e-01 -9.3404408201610256e-01 2.6012726169331662e-01 -1.8783057693307875e-02 -4.9564444877527697e-01 2.1731579580997167e+00 1.0880721028161142e+00 -8.0529755286430738e-01 7.0314946219883279e-01 2.7798982644358396e+00 5.5430603242287391e-01 -9.3882897319094671e-01 -4.7350613405965597e-01 2.3126509793361844e-01 -8.1048956145826156e-01 2.2990331891531915e-01 9.1329505915947684e-02 
        </Neuron>
        <Neuron NSynapses="21">
          -1.2609440323208698e+00 -7.5340785462060678e-01 1.0074232684790885e+00 1.2920232256961111e+00 5.0989629694752092e-01 5.7996309854440997e-01 2.5810811724819782e-01 -3.9722761394438755e-02 4.4207117059327145e-01 1.4084460044573366e-01 2.6445764928072785e-01 6.1523089653149698e-01 -6.9518925195960435e-01 2.6417601315287077e-02 1.1253230832364431e+00 -5.1565341101618159e-02 5.5671634069591713e-01 1.6081062439007587e+00 -5.5021512738160894e-01 -1.1655718958238552e+00 1.1350447222749687e+00 
        </Neuron>
        <Neuron NSynapses="21">
          -6.9360236536141517e-01 -2.0080177222061590e+00 8.4951564613703057e-01 2.6532219722076249e+00 -1.4821707200325345e+00 2.9332918497448444e+00 2.0789443987395195e+00 -2.0331300406556680e+00 1.1216162026755443e+00 -1.2316390661802836e+00 1.1841294718126774e+00 -1.0728267754265279e+00 -1.5894651795307133e+00 1.4375819113958439e+00 2.2519787014608612e+00 -1.5745923672256199e+00 -1.0310442407277907e-01 -4.1545737126440346e-01 1.0689799945876461e+00 1.7548885271673553e+00 -4.4928796477002225e-01 
        </Neuron>
        <Neuron NSynapses="21">
          -3.3332585314947688e-01 2.0210048783022930e-01 5.1489519371112924e-01 2.3196562334779006e-01 3.4294928026297150e-01 3.0475346082622018e-01 4.3987326278063432e-01 -2.6749900775284381e+00 4.9343619956597701e-01 2.5919016812303886e-01 -8.8913358312893709e-01 -2.2745515174067818e-01 -1.7555102154585872e-01 8.6557549645921461e-01 -8.3154488905716317e-01 5.1938779073807539e-01 5.2123848380633686e-01 -6.0268239509677046e-01 -1.7875151127065952e-01 1.4782112967546759e-01 -4.3135461966473260e-01 
        </Neuron>
        <Neuron NSynapses="21">
          4.0742080705766764e-01 9.0079460955207269e-01 -2.5114744553635955e+00 -1.7841406001514473e+00 2.6804027829790848e-02 5.6029022282573004e-01 7.3176717471559072e-02 2.4489766901777538e-01 1.1198769994995430e+00 -3.5920226452404225e+00 -1.2473209955673326e+00 5.2811399676701976e-01 -2.1167141123751789e+00 2.8307115240864289e+00 4.9641305069294617e-01 8.1523823215893174e-02 1.0290708960006190e+00 3.8081982159885112e-02 -1.0171140402916203e+00 4.2604396290201096e-01 -1.4110225353868019e-01 
        </Neuron>
        <Neuron NSynapses="21">
          8.0221922433465520e-01 6.7272809989971156e+00 -4.9114216510615805e+00 4.4275706895088609e+00 -6.8484353438890331e+00 1.8888938538416415e+00 -1.7113390712957630e+00 -2.6054668380036610e+00 -2.2302659455358693e+00 -5.0636897952171711e-01 -4.1815782978385920e+00 -2.5878124881378763e+00 -2.7298919091303349e+00 -3.0952934948571103e+00 1.1359506565379551e+00 -4.5056131972787909e+00 -1.5461559606753217e+00 1.1644394791712600e+00 -1.4633479316472437e+00 3.8230862321014949e+00 8.9598725033578164e-01 
        </Neuron>
      </Layer>
      <Layer Index="1" NNeurons="22">
        <Neuron NSynapses="21">
          1.1872538657244164e-01 1.2949692263098433e+00 1.0022285924418732e+00 2.4951381247106061e-01 -2.5537216069629771e+00 -9.4895929249138977e-01 3.3769854590798043e-01 -5.1547891610334373e-01 2.0678929825431736e-01 9.4642434673773024e-01 2.5009551267084524e+00 -5.4624509522253062e-01 -2.9577350040096340e-01 -6.8387829977622139e-01 -3.0774435553497415e+00 9.0616710744852758e-01 1.1401323186266914e+00 -1.6453553543024309e+00 -5.7061685491424330e-01 2.6637096845190085e+00 1.7496145369330394e+00 
        </Neuron>
        <Neuron NSynapses="21">
          6.8086678298827930e-01 -1.7596093679565139e+00 -9.9993002551669208e-01 1.3950115204386710e+00 2.7429438340830554e+00 9.9927121291543219e-01 -1.0804899139031734e+00 6.3763104184088171e-01 -3.2893342006368365e-01 -8.6058903100241746e-01 2.7953241633586150e+00 -2.0813184270366589e+00 -1.6482190844299551e+00 -1.8190459130991401e+00 1.1028338631211687e+00 -1.7721579347427123e+00 1.1407266362587773e+00 -2.5573727650643239e+00 1.6079563838918489e+00 -2.2841414886443543e+00 5.8392806489192428e-02 
        </Neuron>
        <Neuron NSynapses="21">
          1.3467206662011164e+00 -1.8899586063863889e+00 -1.6765024765372918e-01 9.9399478960149190e-01 -2.4883298673369003e+00 -1.4840058001181180e+00 -1.4697856001166825e+00 -1.9388400200624061e+00 2.0788588566017543e+00 2.5813947755824901e-01 1.7817702352265971e-01 -6.7434967209836594e-01 -1.6072381453406395e+00 -1.8258182339164046e+00 -9.2295311390072254e-01 -1.6647984370931572e+00 8.3458203103195849e-01 -2.1882732465384838e-01 -1.7936809224019852e+00 6.3143519983013574e-01 3.5783284016167194e-01 
        </Neuron>
        <Neuron NSynapses="21">
          -5.6050262740817869e-02 1.4381826933008170e+00 -2.3620507252602487e+00 1.2461692032487919e+00 1.1013079705497493e+00 -9.2777974947682673e-01 -2.5646386404461610e+00 1.2366598695119579e+00 -1.4101437605705018e+00 2.7924735476213541e-01 4.5554729845209900e+00 1.9215298542024926e+00 2.3788158582863086e+00 -1.6107083474368016e+00 5.7718920266123652e-01 -1.9729944966611885e+00 3.2621652478055091e-01 -2.4171440152283554e+00 -3.0159139617756501e+00 -1.2292261521062556e-01 1.1931746019128382e+00 
        </Neuron>
        <Neuron NSynapses="21">
          2.2360813456637607e-01 6.3777133505885841e-01 -6.6973178081999221e-02 3.8875538531583326e-01 -2.3727630342561552e+00 3.1546579076898770e-02 2.8146088853985596e+00 -2.1505506971655430e+00 4.1404512970059681e-01 -1.9574540009864663e+00 -2.5802819992729860e+00 -2.7324756012044843e-01 -4.4211463245225341e-01 -1.2527815392224515e+00 7.9304134201877696e-01 1.0716400926935543e+00 2.9573965572517541e-01 -7.7669495027266791e-02 -8.3108155873277065e-02 -1.8595739009852661e+00 -1.9080943701527713e+00 
        </Neuron>
        <Neuron NSynapses="21">
          1.1813060722245994e+00 3.4763741284414718e-01 -1.6555962559922519e+00 1.6019036002554539e+00 -1.4098861586789428e+00 -1.1231653641504715e+00 -1.0495211827872490e+00 3.5603664297929165e+00 -5.3908970375199627e-01 -2.2054400727127699e+00 -3.1035024772652370e-01 -1.9852942327504244e+00 -2.2319925421992295e+00 8.6893119868645574e-01 -2.9367281356815007e+00 -2.2865070515273560e+00 1.4886865935164058e+00 1.4550323340479050e+00 5.2467964757187247e-01 7.3806280737563013e-01 1.3560635956279303e+00 
        </Neuron>
        <Neuron NSynapses="21">
          1.7397868851294489e+00 9.7413583096695100e-01 -1.5206127300472385e+00 2.5870554704200627e-01 -2.8588486555556543e+00 9.7623668888504278e-01 7.9875873735296254e-01 1.6940399067914049e+00 1.9201014853661320e+00 5.8267444147752023e-01 2.1064350723271259e+00 -1.2737267401087575e+00 1.4906107590474325e+00 3.9976559141497714e-01 -2.8613429545060551e+00 -1.0969396027905218e+00 -1.5121749899282084e+00 3.0625639111252073e-01 4.9110627947045110e-01 1.6879575231704833e+00 1.8996959105513072e+00 
        </Neuron>
        <Neuron NSynapses="21">
          -6.9560083354056335e-01 2.0205301692498407e+00 1.2400634964338306e+00 9.5177878901384338e-01 -2.1253586512183706e+00 1.5992572019505755e+00 -1.7957621731743458e+00 -1.8624367911433576e-01 1.6407738060837445e+00 -1.0027757317925534e-01 1.9266691511185255e-01 6.3240801065034538e-03 -1.5388333308020876e+00 3.8221922310121031e-01 -1.0224309885197349e+00 -4.2822927083873780e-02 -7.0059601592738452e-01 1.6907154906130155e+00 1.8779306826923545e+00 1.2117005711729700e+00 -7.5864996572554499e-01 
        </Neuron>
        <Neuron NSynapses="21">
          -7.8231438693422625e-02 1.4769950377913712e+00 1.5359016879087617e+00 -1.4092077733333079e+00 -2.2684035571988330e+00 -7.4197404055274485e-01 -1.6008709693946197e+00 -2.2904657112559041e+00 -4.5622344194604919e-01 4.0626131399296267e-01 -6.7804234584625289e-01 -2.1975274167013681e+00 -2.2034832501295165e+00 -1.8357786496774545e-01 1.2162728768131541e+00 1.6142179599317679e+00 8.9665703945709274e-01 -9.6384490782064058e-01 -1.4284698779535483e+00 -9.8093543165589014e-01 -1.5119739034120896e+00 
        </Neuron>
        <Neuron NSynapses="21">
          -2.6913101244192705e+00 -2.0848769140195142e+00 -6.4966354875539845e-01 -1.5365082053235704e+00 2.9075237429261933e+00 1.2033664910378352e+00 4.7446739407260935e-01 1.2626629448382792e-01 -3.1263598343653007e+00 2.0629295093211946e+00 -1.5060006350208386e+00 5.9968507935729776e-01 7.0966446856333998e-01 1.1491005564839338e+00 3.6657654025477882e-02 1.2961790336596528e+00 -2.5538690221080698e+00 8.4240704988275150e-01 3.1578864536410087e+00 4.7811032701543471e-01 -8.7700978909112515e-01 
        </Neuron>
        <Neuron NSynapses="21">
          3.6888411115719964e-02 -4.1233690387363697e-01 1.0713145183564221e+00 5.4767637597106578e-01 -2.5089457459202693e+00 -1.6084121137748542e+00 1.8242573873746784e-01 2.1026750482287344e+00 8.1657119451158411e-01 -1.2138402959345991e+00 -2.7414288434506560e+00 2.0245464897761041e+00 9.4618817105195263e-01 -1.2230154733104761e+00 -7.0078018951948362e-01 -1.1739852056435680e+00 7.8623017923628169e-01 6.9908011310364315e-01 -1.6262217201960856e+00 -1.2773216170228743e+00 1.3759972933714966e+00 
        </Neuron>
        <Neuron NSynapses="21">
          1.3979279864486116e+00 3.1750042381176818e-01 1.2597478597866515e-01 -9.5296161991641737e-01 -1.5149526231428916e+00 1.1669130062685138e+00 5.0268304113717088e-01 2.5903762279382664e-01 -1.6860922074447702e+00 -1.6610906386905904e+00 -1.9934388007223336e+00 -3.1928156933566737e-01 -1.8082019314446132e+00 7.3587318602112162e-01 -6.6544788405705491e-01 1.5447918089114216e+00 2.9466529873112685e-01 -1.9384047826691553e+00 1.2877124167768192e+00 1.6489014692481982e+00 1.1960278000321434e+00 
        </Neuron>
        <Neuron NSynapses="21">
          -6.0723515868689992e-01 -1.5112612555965832e+00 7.8648953540006472e-01 -1.1551964315983045e+00 4.5341497232970296e-01 -1.4839625127980884e+00 7.5466106836656000e-01 -2.1529392532855285e+00 1.0231314700654992e-01 -4.8267816878978659e-01 1.0057501966848308e+00 -5.9703830100244237e-01 -1.4168989007067865e+00 3.6356429691737896e-01 1.0179736033906006e+00 -2.4007455045934231e-01 5.1107473892283498e-03 -1.7711245895805248e+00 2.2028989453318939e+00 -2.6022122617442811e+00 2.4667353633701447e-01 
        </Neuron>
        <Neuron NSynapses="21">
          1.2337837336862489e+00 -2.8733224785553046e-01 1.2172485428237838e+00 1.7397372381439455e+00 -3.7126441660695559e+00 -7.8700844204126741e-01 -2.3552251607462071e-01 5.5750738269367661e-01 7.5115378353864615e-01 5.7802453906103113e-01 -5.3983541911855470e-01 5.6568249227827416e-01 -6.6058192782935299e-01 -5.4654005202758704e-01 -3.0724159405759193e+00 -1.8254237995494790e-01 -2.2448222515693442e-01 -1.8501454996225022e+00 -2.6800062796730013e+00 2.5145879300597156e+00 7.5611007517034579e-01 
        </Neuron>
        <Neuron NSynapses="21">
          -4.4210477481382598e-01 -3.1600581198641517e+00 1.0196599186940745e+00 -2.1603450314681200e-01 1.2045983224222852e+00 6.0323875001289773e-01 -2.0728898612639775e+00 -1.7629508906938289e+00 -5.9716454363037486e-01 -3.5264197595700537e+00 4.4382111943047545e-02 -1.0061996409282941e+00 1.0059772789332697e+00 -2.1998800669750995e+00 1.3830634912717090e+00 1.3263739669787586e+00 1.1723533212694390e+00 2.1382275371928396e+00 -1.0082654121658354e+00 6.3673877513237609e-01 -1.0201768416675241e+00 
        </Neuron>
        <Neuron NSynapses="21">
          -2.0334282968133328e+00 -2.1509278272603618e+00 -1.2918856374898751e+00 1.7023368240549737e+00 4.8098194375261208e-02 9.2693745784722739e-02 2.2875215221375900e+00 3.5550811193139298e-01 -2.1650589771553244e+00 8.6669179921948236e-01 -2.4801146580540454e+00 5.9107452612838185e-01 -2.2016370380749986e+00 -8.8211513914282461e-02 8.8210789319583108e-02 1.3270818311615390e-01 -2.4526863427702579e+00 9.2390820734248558e-01 -1.0829363857027998e+00 -1.0315119898251675e+00 7.5587957385197524e-01 
        </Neuron>
        <Neuron NSynapses="21">
          -5.7218560993779111e-01 4.1827162592488865e-01 -1.7646743742768389e+00 1.0638515590397732e+00 -6.7915165955201484e-01 8.4377440375718993e-01 -1.5067024167566538e+00 -1.1878698941184946e+00 2.0032971020151638e+00 -1.8736052285487885e+00 -1.7049936301236592e+00 -8.1293318585798124e-01 1.2892029134295693e+00 1.4554025998618807e+00 1.1471025856455490e+00 -1.6683906209024975e+00 7.5985142760858559e-01 7.6958721884368908e-01 -1.2261395138056489e-02 -1.3138710357289156e+00 -1.2721816288051715e+00 
        </Neuron>
        <Neuron NSynapses="21">
          9.1730007658701027e-02 -5.2678304401588223e-02 7.0114594194878876e-01 6.7475977282875665e-01 -6.6382107880206243e-01 -1.1344342964544583e+00 1.6318706209261200e+00 1.2169416931455088e+00 1.7625816897757169e+00 -2.2619360133008418e-01 -5.4970508768751247e-01 1.6588601291148772e+00 2.3140825072202587e-01 1.2360172958561069e+00 -1.0275510115668316e+00 -2.3125381396049893e+00 -2.0421072873537103e+00 -1.5633457686456118e+00 -9.1661148665795000e-01 -1.9504499450161221e+00 -1.1357005934996058e-01 
        </Neuron>
        <Neuron NSynapses="21">
          4.5697470604576435e-02 -7.8052955162754578e-01 8.8480349910778200e-01 -1.6753216961876713e+00 -9.1970179849616551e-01 4.1546859519429873e-02 -1.0875064693642602e+00 5.0343105980308578e-01 1.4118079899627654e+00 -1.7847679061937494e+00 -1.2480494423276946e-01 -1.3933408841641590e+00 5.8354670641911099e-01 4.3316939810850752e-01 -1.0228285348227726e+00 -8.0150164234723476e-01 -1.5819851904904525e+00 1.6798712313690152e+00 -6.3551453952639544e-02 8.8490402522923850e-01 -6.3725511494336667e-02 
        </Neuron>
        <Neuron NSynapses="21">
          -8.6529044302399216e-01 -2.0981297780914483e+00 -1.6151490617986088e+00 9.3077102958107150e-01 1.3869559780517375e+00 2.1188098873983569e-01 -2.1880041808536874e+00 1.1863377889710860e+00 4.7569429260558249e-01 -1.3728460069198407e+00 2.8101017568810800e+00 8.8502541101204169e-01 -8.7016790256278997e-01 -1.1606755173396606e+00 -2.5372105688687228e+00 -2.3611394601538632e-02 1.2602676735562610e+00 8.2114757345939526e-01 -1.8754256429495575e-02 -2.6130165152842579e+00 -9.8861385427744586e-01 
        </Neuron>
        <Neuron NSynapses="21">
          -3.4802852433271880e-01 -1.3425089844486544e+00 1.1616991097989977e+00 -2.5325732276869664e+00 1.6359595311595498e+00 -6.5020371383062636e-01 -7.2562589552009438e-01 -3.3578351399613462e+00 5.8655131926663662e-01 4.0505139784738763e-02 2.6539772376957549e+00 -7.3239658343176561e-01 1.3058543247631240e+00 3.7165675675161941e-01 1.5677591700832350e+00 -2.5551448480144401e-01 -1.7571300553814801e+00 -2.2706707487472020e+00 -6.5688452067299774e-01 6.6030525431986042e-01 2.8243690035324098e-01 
        </Neuron>
        <Neuron NSynapses="21">
          1.3170565332333928e+00 -4.0354926842866554e-02 -1.6591339068975099e+00 2.0331756876013203e+00 3.0801959422551756e-01 -1.9436046736450816e+00 -4.6704716718486378e-01 3.3402967227089081e-01 2.0307375315727119e+00 7.4514186186526210e-01 2.3303250484096341e-01 -1.0081661350968598e+00 -1.1793622852872707e+00 -1.4198582384983542e+00 -1.3711485226740407e+00 -5.3493839472290328e-01 -3.7627438527946311e-01 -5.7406329530891909e-01 1.1930542823286685e+00 -2.6778700453777121e-01 -4.7690922560604104e-01 
        </Neuron>
      </Layer>
      <Layer Index="2" NNeurons="22">
        <Neuron NSynapses="1">
          -7.5718138763580545e-01 
        </Neuron>
        <Neuron NSynapses="1">
          3.0990336535458689e+00 
        </Neuron>
        <Neuron NSynapses="1">
          3.4835328023123074e-01 
        </Neuron>
        <Neuron NSynapses="1">
          -2.4533717878295036e+00 
        </Neuron>
        <Neuron NSynapses="1">
          1.7349978859468482e+00 
        </Neuron>
        <Neuron NSynapses="1">
          -1.6538335681052413e-01 
        </Neuron>
        <Neuron NSynapses="1">
          -1.3259991413386518e+00 
        </Neuron>
        <Neuron NSynapses="1">
          1.3074349223150163e+00 
        </Neuron>
        <Neuron NSynapses="1">
          -1.6769298372664860e+00 
        </Neuron>
        <Neuron NSynapses="1">
          -1.4811801113818395e+00 
        </Neuron>
        <Neuron NSynapses="1">
          2.5797424258585360e+00 
        </Neuron>
        <Neuron NSynapses="1">
          -1.2070058405094590e+00 
        </Neuron>
        <Neuron NSynapses="1">
          -1.6892510439259505e+00 
        </Neuron>
        <Neuron NSynapses="1">
          2.4215528563450719e-01 
        </Neuron>
        <Neuron NSynapses="1">
          2.5717914049880730e+00 
        </Neuron>
        <Neuron NSynapses="1">
          9.1467113142245116e-01 
        </Neuron>
        <Neuron NSynapses="1">
          -2.2113648774008055e-01 
        </Neuron>
        <Neuron NSynapses="1">
          -2.1196275572752650e+00 
        </Neuron>
        <Neuron NSynapses="1">
          1.8563927533801166e+00 
        </Neuron>
        <Neuron NSynapses="1">
          3.1872922352553434e+00 
        </Neuron>
        <Neuron NSynapses="1">
          -6.5014230047708021e-01 
        </Neuron>
        <Neuron NSynapses="1">
          -1.4462888824599227e+00 
        </Neuron>
      </Layer>
      <Layer Index="3" NNeurons="1">
        <Neuron NSynapses="0"/>
      </Layer>
    </Layout>
  </Weights>
</MethodSetup>
