<?xml version="1.0"?>
<MethodSetup Method="MLP::MLP">
  <GeneralInfo>
    <Info name="TMVA Release" value="4.2.1 [262657]"/>
    <Info name="ROOT Release" value="6.22/06 [398854]"/>
    <Info name="Creator" value="konstantin"/>
    <Info name="Date" value="Thu Apr  1 19:56:07 2021"/>
    <Info name="Host" value="Linux mach 5.8.0-43-generic #49~20.04.1-Ubuntu SMP Fri Feb 5 09:57:56 UTC 2021 x86_64 x86_64 x86_64 GNU/Linux"/>
    <Info name="Dir" value="/home/konstantin/Projects/CERN/TMVA_MLP"/>
    <Info name="Training events" value="170672"/>
    <Info name="TrainingTime" value="1.40820903e+02"/>
    <Info name="AnalysisType" value="Classification"/>
  </GeneralInfo>
  <Options>
    <Option name="NCycles" modified="Yes">400</Option>
    <Option name="HiddenLayers" modified="Yes">N+10,N+5</Option>
    <Option name="NeuronType" modified="Yes">sigmoid</Option>
    <Option name="RandomSeed" modified="No">1</Option>
    <Option name="EstimatorType" modified="No">CE</Option>
    <Option name="NeuronInputType" modified="No">sum</Option>
    <Option name="V" modified="Yes">False</Option>
    <Option name="VerbosityLevel" modified="No">Default</Option>
    <Option name="VarTransform" modified="Yes">N</Option>
    <Option name="H" modified="Yes">True</Option>
    <Option name="CreateMVAPdfs" modified="No">False</Option>
    <Option name="IgnoreNegWeightsInTraining" modified="No">False</Option>
    <Option name="TrainingMethod" modified="No">BP</Option>
    <Option name="LearningRate" modified="Yes">2.000000e-02</Option>
    <Option name="DecayRate" modified="No">1.000000e-02</Option>
    <Option name="TestRate" modified="Yes">5</Option>
    <Option name="EpochMonitoring" modified="No">False</Option>
    <Option name="Sampling" modified="No">1.000000e+00</Option>
    <Option name="SamplingEpoch" modified="No">1.000000e+00</Option>
    <Option name="SamplingImportance" modified="No">1.000000e+00</Option>
    <Option name="SamplingTraining" modified="No">True</Option>
    <Option name="SamplingTesting" modified="No">False</Option>
    <Option name="ResetStep" modified="No">50</Option>
    <Option name="Tau" modified="No">3.000000e+00</Option>
    <Option name="BPMode" modified="Yes">batch</Option>
    <Option name="BatchSize" modified="Yes">5</Option>
    <Option name="ConvergenceImprove" modified="Yes">2.500000e-03</Option>
    <Option name="ConvergenceTests" modified="Yes">5</Option>
    <Option name="UseRegulator" modified="Yes">False</Option>
    <Option name="UpdateLimit" modified="No">10000</Option>
    <Option name="CalculateErrors" modified="No">False</Option>
    <Option name="WeightRange" modified="No">1.000000e+00</Option>
  </Options>
  <Variables NVar="11">
    <Variable VarIndex="0" Expression="mJJ" Label="mJJ" Title="mJJ" Unit="" Internal="mJJ" Type="F" Min="2.27864819e+01" Max="7.83875537e+03"/>
    <Variable VarIndex="1" Expression="deltaYJJ" Label="deltaYJJ" Title="deltaYJJ" Unit="" Internal="deltaYJJ" Type="F" Min="2.21196096e-05" Max="8.68471050e+00"/>
    <Variable VarIndex="2" Expression="metPt" Label="metPt" Title="metPt" Unit="" Internal="metPt" Type="F" Min="1.25825294e+02" Max="2.27749878e+03"/>
    <Variable VarIndex="3" Expression="ptBalance" Label="ptBalance" Title="ptBalance" Unit="" Internal="ptBalance" Type="F" Min="4.91857872e-06" Max="4.76490766e-01"/>
    <Variable VarIndex="4" Expression="subleadJetEta" Label="subleadJetEta" Title="subleadJetEta" Unit="" Internal="subleadJetEta" Type="F" Min="-4.50663424e+00" Max="4.51134682e+00"/>
    <Variable VarIndex="5" Expression="leadJetPt" Label="leadJetPt" Title="leadJetPt" Unit="" Internal="leadJetPt" Type="F" Min="5.00584755e+01" Max="2.75328247e+03"/>
    <Variable VarIndex="6" Expression="photonEta" Label="photonEta" Title="photonEta" Unit="" Internal="photonEta" Type="F" Min="-2.40109253e+00" Max="2.39041257e+00"/>
    <Variable VarIndex="7" Expression="ptBalanceRed" Label="ptBalanceRed" Title="ptBalanceRed" Unit="" Internal="ptBalanceRed" Type="F" Min="2.29892414e-02" Max="9.99983788e-01"/>
    <Variable VarIndex="8" Expression="nJets" Label="nJets" Title="nJets" Unit="" Internal="nJets" Type="F" Min="2.00000000e+00" Max="9.00000000e+00"/>
    <Variable VarIndex="9" Expression="sinDeltaPhiJJOver2" Label="sinDeltaPhiJJOver2" Title="sinDeltaPhiJJOver2" Unit="" Internal="sinDeltaPhiJJOver2" Type="F" Min="1.59144402e-05" Max="1.00000000e+00"/>
    <Variable VarIndex="10" Expression="deltaYJPh" Label="deltaYJPh" Title="deltaYJPh" Unit="" Internal="deltaYJPh" Type="F" Min="1.18112052e-06" Max="6.68952894e+00"/>
  </Variables>
  <Spectators NSpec="1">
    <Spectator SpecIndex="0" Expression="weightModified" Label="weightModified" Title="F" Unit="" Internal="weightModified" Type="F" Min="-1.91263646e-01" Max="1.09073341e+00"/>
  </Spectators>
  <Classes NClass="2">
    <Class Name="Signal" Index="0"/>
    <Class Name="Background" Index="1"/>
  </Classes>
  <Transformations NTransformations="1">
    <Transform Name="Normalize">
      <Selection>
        <Input NInputs="11">
          <Input Type="Variable" Label="mJJ" Expression="mJJ"/>
          <Input Type="Variable" Label="deltaYJJ" Expression="deltaYJJ"/>
          <Input Type="Variable" Label="metPt" Expression="metPt"/>
          <Input Type="Variable" Label="ptBalance" Expression="ptBalance"/>
          <Input Type="Variable" Label="subleadJetEta" Expression="subleadJetEta"/>
          <Input Type="Variable" Label="leadJetPt" Expression="leadJetPt"/>
          <Input Type="Variable" Label="photonEta" Expression="photonEta"/>
          <Input Type="Variable" Label="ptBalanceRed" Expression="ptBalanceRed"/>
          <Input Type="Variable" Label="nJets" Expression="nJets"/>
          <Input Type="Variable" Label="sinDeltaPhiJJOver2" Expression="sinDeltaPhiJJOver2"/>
          <Input Type="Variable" Label="deltaYJPh" Expression="deltaYJPh"/>
        </Input>
        <Output NOutputs="11">
          <Output Type="Variable" Label="mJJ" Expression="mJJ"/>
          <Output Type="Variable" Label="deltaYJJ" Expression="deltaYJJ"/>
          <Output Type="Variable" Label="metPt" Expression="metPt"/>
          <Output Type="Variable" Label="ptBalance" Expression="ptBalance"/>
          <Output Type="Variable" Label="subleadJetEta" Expression="subleadJetEta"/>
          <Output Type="Variable" Label="leadJetPt" Expression="leadJetPt"/>
          <Output Type="Variable" Label="photonEta" Expression="photonEta"/>
          <Output Type="Variable" Label="ptBalanceRed" Expression="ptBalanceRed"/>
          <Output Type="Variable" Label="nJets" Expression="nJets"/>
          <Output Type="Variable" Label="sinDeltaPhiJJOver2" Expression="sinDeltaPhiJJOver2"/>
          <Output Type="Variable" Label="deltaYJPh" Expression="deltaYJPh"/>
        </Output>
      </Selection>
      <Class ClassIndex="0">
        <Ranges>
          <Range Index="0" Min="2.2786481857299805e+01" Max="7.5057304687500000e+03"/>
          <Range Index="1" Min="1.5035811520647258e-04" Max="8.6847105026245117e+00"/>
          <Range Index="2" Min="1.2697845458984375e+02" Max="2.2774987792968750e+03"/>
          <Range Index="3" Min="4.9185787247552071e-06" Max="4.0502533316612244e-01"/>
          <Range Index="4" Min="-4.5066342353820801e+00" Max="4.5113468170166016e+00"/>
          <Range Index="5" Min="5.0105968475341797e+01" Max="1.9641448974609375e+03"/>
          <Range Index="6" Min="-2.4010925292968750e+00" Max="2.3904125690460205e+00"/>
          <Range Index="7" Min="4.8834752291440964e-02" Max="9.9988257884979248e-01"/>
          <Range Index="8" Min="2.0000000000000000e+00" Max="8.0000000000000000e+00"/>
          <Range Index="9" Min="1.5914440155029297e-05" Max="1.0000000000000000e+00"/>
          <Range Index="10" Min="3.2652555091772228e-05" Max="6.5068273544311523e+00"/>
        </Ranges>
      </Class>
      <Class ClassIndex="1">
        <Ranges>
          <Range Index="0" Min="2.3556308746337891e+01" Max="7.8387553710937500e+03"/>
          <Range Index="1" Min="2.2119609639048576e-05" Max="8.6838493347167969e+00"/>
          <Range Index="2" Min="1.2582529449462891e+02" Max="1.9265614013671875e+03"/>
          <Range Index="3" Min="5.9500340285012498e-05" Max="4.7649076581001282e-01"/>
          <Range Index="4" Min="-4.5036110877990723e+00" Max="4.5083436965942383e+00"/>
          <Range Index="5" Min="5.0058475494384766e+01" Max="2.7532824707031250e+03"/>
          <Range Index="6" Min="-2.3863203525543213e+00" Max="2.3830773830413818e+00"/>
          <Range Index="7" Min="2.2989241406321526e-02" Max="9.9998378753662109e-01"/>
          <Range Index="8" Min="2.0000000000000000e+00" Max="9.0000000000000000e+00"/>
          <Range Index="9" Min="1.9311904907226562e-05" Max="1.0000000000000000e+00"/>
          <Range Index="10" Min="1.1811205240519485e-06" Max="6.6895289421081543e+00"/>
        </Ranges>
      </Class>
      <Class ClassIndex="2">
        <Ranges>
          <Range Index="0" Min="2.2786481857299805e+01" Max="7.8387553710937500e+03"/>
          <Range Index="1" Min="2.2119609639048576e-05" Max="8.6847105026245117e+00"/>
          <Range Index="2" Min="1.2582529449462891e+02" Max="2.2774987792968750e+03"/>
          <Range Index="3" Min="4.9185787247552071e-06" Max="4.7649076581001282e-01"/>
          <Range Index="4" Min="-4.5066342353820801e+00" Max="4.5113468170166016e+00"/>
          <Range Index="5" Min="5.0058475494384766e+01" Max="2.7532824707031250e+03"/>
          <Range Index="6" Min="-2.4010925292968750e+00" Max="2.3904125690460205e+00"/>
          <Range Index="7" Min="2.2989241406321526e-02" Max="9.9998378753662109e-01"/>
          <Range Index="8" Min="2.0000000000000000e+00" Max="9.0000000000000000e+00"/>
          <Range Index="9" Min="1.5914440155029297e-05" Max="1.0000000000000000e+00"/>
          <Range Index="10" Min="1.1811205240519485e-06" Max="6.6895289421081543e+00"/>
        </Ranges>
      </Class>
    </Transform>
  </Transformations>
  <MVAPdfs/>
  <Weights>
    <Layout NLayers="4">
      <Layer Index="0" NNeurons="12">
        <Neuron NSynapses="21">
          6.7886184789117690e-02 2.6751315872101267e+00 -3.1585193555322388e-01 3.6224667534749329e+00 -3.3049310742754523e+00 -1.7389675824128890e+00 -8.2781249427644388e-01 1.9947899355814644e+00 -4.1201293736247546e+00 -1.6522747469806376e+00 -2.8198144482695287e+00 -1.4101772076068608e-01 -2.1368001446490443e+00 -3.0341436917073772e-01 -1.0299763277016347e+00 -9.4442659384272251e-02 4.2365984841245546e-01 -1.6780317813568566e+00 8.8147479078047014e-02 1.2270196018283446e+00 1.7760431565895485e+00 
        </Neuron>
        <Neuron NSynapses="21">
          -1.8083077465001682e-01 9.8247617361807227e-01 -2.3397710942493606e+00 -2.8770375757628591e-01 -2.6784738127541927e+00 -2.2498412180398972e-02 -3.7858702564079429e+00 -1.3518497551637911e+00 3.3809082324181683e-01 -5.0616031609680867e-01 1.3045643074138225e+00 -5.5252044687843882e-01 -4.8960545157779212e-01 1.4178564360974713e+00 -1.0726096571302886e+00 -7.2134901002688190e-01 2.5330618687848898e+00 -1.8665035357203932e+00 1.8089997935240814e+00 8.6183762510939829e-03 4.0998931539594974e+00 
        </Neuron>
        <Neuron NSynapses="21">
          3.8467952540910262e+00 9.5328402266042345e-01 4.5225363037450933e-01 -9.8969159472129398e-01 -3.0143910540911434e-01 3.0464615018299501e-02 7.9157775279364884e-01 1.9545122400536152e+00 4.4648351489202159e-01 1.6794551236822226e+00 -2.8076469434185105e+00 1.6354179214842071e+00 -7.3644554030914733e-01 -2.0461578359586663e+00 -9.0035306511903879e-01 -5.2712697478331738e-01 1.6526443253012777e+00 -1.6666473531976671e+00 -2.0602761943397176e+00 -3.7315896985659769e-01 3.3605293988021684e-01 
        </Neuron>
        <Neuron NSynapses="21">
          4.8219081516249589e-02 1.6866162376694189e+00 -8.7677928160453042e-02 -6.6943648585266657e-01 4.3113359087334846e-01 1.9621030766149068e+00 -8.9350973542536316e-01 -6.9919845983796070e-01 9.7762812393710999e-02 3.4319064783344583e-01 1.0632169255549722e+00 1.3950500435068114e+00 2.1245912589783753e-01 -3.1629533150635449e+00 -9.9248759327226355e-01 2.1045975976421389e+00 -7.0349049305475320e-01 6.2286751474487554e+00 6.7321425872986951e-01 1.5727973951962801e+00 -6.5029857869526564e-01 
        </Neuron>
        <Neuron NSynapses="21">
          -8.2587253562281127e-03 -8.7171999591196681e-01 2.1625493130106084e+00 -9.7638856188483336e-02 -4.3438316190470312e+00 -2.7888032990484213e+00 -1.0684607232313388e+00 -1.1580075485712682e+00 1.2938718841545624e+00 -2.2217192698013357e+00 -5.1804527235082010e-01 1.6712452946892857e+00 -1.0124353814951126e+00 -5.1581293462187905e-01 -7.5370698288879012e-01 1.0163772773103785e+00 -1.9313243136579965e+00 3.2886289935085147e-02 -5.8446513687827391e-02 5.8137252028114295e-01 -3.7465388979536636e+00 
        </Neuron>
        <Neuron NSynapses="21">
          1.2206865353572334e+00 -4.1566452857716379e-01 5.4608360417082702e-01 7.5480374543732842e-01 1.0433336093537755e+00 -1.1621045753109520e+00 1.5975141431645179e+00 -2.0790164403511088e-01 -1.0587166558494212e+00 -1.0624655241640752e+00 1.7177119645138710e+00 6.7309425983970284e-01 -1.4487564422068677e+00 6.2314989720876857e-01 -1.0235504882808031e+00 -2.4832887599717224e+00 -5.7731702374127902e-01 -1.5820981702602006e+00 1.4940399388786079e+00 3.8364662582974535e-01 -1.1427328649320849e+00 
        </Neuron>
        <Neuron NSynapses="21">
          -1.2250898694727952e-02 5.1621787139773856e-01 -8.7597145023478662e-01 6.4147535485281726e-01 2.1465762130558024e+00 -1.5114184240432358e+00 -9.7860512627594498e-01 -9.7332694609278714e-01 -4.9447188308265289e-01 8.0111863813184303e-01 5.5953794301718784e-01 -3.9487236386049845e-01 1.0025726111905273e+00 3.3829893111589149e-01 1.3507284696999788e+00 -7.1990035623944937e-01 -8.6544502249446445e-02 -1.3253238413526150e-01 -1.3032107432170166e+00 1.2277575502247280e+00 1.7245888165238668e+00 
        </Neuron>
        <Neuron NSynapses="21">
          1.8022638158455032e-01 -7.1938038721653885e-02 7.8740935258267331e-01 -1.0822921234019078e+00 -4.9397002115453492e-01 9.6439060239434637e-01 -1.1201623907727858e-01 2.3678205011309450e-01 2.2352838579096021e-01 7.1410418638247442e-01 -9.0019583452220253e-01 1.7338518767186770e-01 -1.0611231302707420e+00 1.6267446030799899e+00 9.2215227070147165e-01 5.1632907467087219e-01 3.2593727329449207e-01 4.3149275838018830e-01 3.5516547140086085e-01 7.8521653427755966e-02 6.9956497735909196e-01 
        </Neuron>
        <Neuron NSynapses="21">
          -6.4986100922832279e-01 -6.1305500485342868e-01 4.6749610481115711e-01 1.5039997928603994e+00 -1.3321131617295245e+00 2.6643984166362471e+00 2.5458456458120393e+00 -2.4813787348235712e+00 -6.3410247452280810e-01 1.1817333726952384e-01 3.7770384996466198e-02 -1.1408214419485758e+00 -2.2451699157052238e+00 -2.5033141566141720e-01 2.1444338144910127e+00 -3.4935673139029251e+00 -4.0908603631981183e-01 7.2350893093640267e-01 2.0650680541530289e-01 2.8491155448354442e+00 6.5235913844980897e-01 
        </Neuron>
        <Neuron NSynapses="21">
          -6.5361907244587314e-01 -6.4839828646393793e-01 1.8531119160204126e-01 4.7515454817716285e-01 1.2025873979370137e-01 -3.4302728776886199e-01 -6.3787771185805087e-01 -1.6892384513797820e+00 1.2332747805264024e+00 1.2329015430595591e+00 -2.2529515291478810e+00 -1.6552708395262627e+00 -5.0224380701622343e-02 -3.2574929985511131e-01 -2.7370356557500082e+00 -1.4350151200618613e-01 -3.3973085246316931e-01 2.6791930739492159e-01 -1.3872385473023967e+00 2.2961780010948854e-02 2.5873518182176364e-01 
        </Neuron>
        <Neuron NSynapses="21">
          7.4791052725285329e-02 6.9416736289932590e-01 -2.7716586855895939e+00 -3.6785038512988794e-01 1.0850175875518364e+00 1.2626146588555232e+00 1.0175040250090353e+00 -1.5798098877072669e-01 2.2176484036051107e+00 -1.5115729415527797e+00 -1.0704762289892780e+00 6.5780388351337191e-02 -1.2173142891531732e+00 -7.0918888125455748e-01 1.4917454737806097e+00 -1.4041147028138203e+00 -4.5556450731272047e-01 -3.9205791616001273e-01 -2.7550776350943513e+00 -1.4365392765937712e+00 -1.4470944753056527e+00 
        </Neuron>
        <Neuron NSynapses="21">
          4.1108838484885242e+00 1.0574018773825460e+00 -3.9352265377343296e+00 3.2858197606732977e+00 -4.9564107540882132e+00 4.3474379589112683e-02 -7.7236631203509498e-01 -1.7252776137499426e+00 -4.7798906980525926e+00 -4.6887397335113512e+00 -2.6021213252902764e+00 -1.8685125264804006e+00 -2.8522142547894278e+00 -3.8859368530328862e+00 -3.8566090634238798e-01 -2.8100945042843999e+00 5.5105546101008906e-01 2.4799080977680839e+00 -1.0329780315243455e+00 1.3151566790378144e+00 2.3808121813573870e+00 
        </Neuron>
      </Layer>
      <Layer Index="1" NNeurons="22">
        <Neuron NSynapses="16">
          8.9831768656007546e-02 1.4339216243025354e+00 1.4924992622406936e+00 -1.0014821435515209e-01 -3.0228908885468733e+00 -8.1085140035855940e-01 -2.1013161009934560e+00 -4.9824019122178426e-01 5.0288984659999736e-01 5.2844336880455648e-03 1.7478399082872016e+00 -4.7346170588997977e-01 1.4240155287920448e+00 -9.7997996024083311e-01 -1.8872237226143240e+00 1.3789645704184990e+00 
        </Neuron>
        <Neuron NSynapses="16">
          1.2083370214730029e+00 -9.3847922939235950e-01 -9.5584443993026436e-01 2.2044737434208667e-01 1.1271277436188547e+00 5.6903709732517294e-01 -5.7503785457786738e-01 -2.6095926248745571e-01 1.5671533539344984e+00 1.0450977037618570e+00 9.9604287747675091e-01 -2.8863117031400320e-01 4.1708435708116698e-01 -4.8981096978784572e-01 -1.6458852512171440e+00 -5.2629642845114988e-01 
        </Neuron>
        <Neuron NSynapses="16">
          -1.9519967985091105e+00 -1.3189996633878780e+00 -1.8961752947405275e+00 3.0897708648805695e+00 -1.7354458877151608e+00 1.6697325081150978e+00 -1.6358517960578767e+00 1.7059340287173217e+00 -1.7679034330311438e+00 2.4893014049351470e-01 7.2579856632654061e-01 -2.0451388077293711e+00 2.5086982792870201e-02 3.6107257222005786e-02 -2.4002506653774374e+00 -1.4823506937998332e+00 
        </Neuron>
        <Neuron NSynapses="16">
          -1.5862602342285625e+00 -1.4267621467688618e+00 2.1743959171056679e+00 -1.9729080645251100e+00 -6.0302478216550837e-01 -3.0272255525764374e-01 -2.5649507739490138e+00 -1.6164335415698705e+00 -1.2569713058525489e+00 -1.5241906167628096e+00 1.0259344402132322e+00 -1.4419119280922035e+00 1.1978494042614349e+00 1.3324266910476990e+00 5.6829390853436967e-01 -3.2979158953903520e-01 
        </Neuron>
        <Neuron NSynapses="16">
          2.2194944621385604e+00 -2.9003954449690905e+00 5.1732311189284019e-01 4.0512595464225214e+00 -1.3829194997634202e+00 -5.6420381466116865e-01 -1.7495185811402331e-02 -1.6298017325379146e+00 1.2745108858156682e+00 1.7773770880865103e+00 1.3711602835233490e+00 1.3992181662853833e+00 -2.7581475735367658e+00 7.0941321326504270e-01 -1.7466595836363463e+00 6.4949179392770573e-01 
        </Neuron>
        <Neuron NSynapses="16">
          -1.1602869329358523e+00 -1.5187025659220599e+00 -1.3099393545201965e+00 3.4706634641981704e-01 1.2259142302000190e+00 1.7886580978749127e+00 3.5136867486940032e-01 -1.0925194453923321e+00 -1.0345533469513573e+00 1.9029663137047767e-01 1.9274221428756961e+00 -1.6818272941629038e+00 1.5630370861701455e+00 -1.4457224176342032e+00 -1.0960815387119476e+00 1.9246773677280730e-02 
        </Neuron>
        <Neuron NSynapses="16">
          7.0265289415233256e-01 -1.4293433842953831e+00 1.3793729605322713e+00 2.8773558882253734e+00 6.5745648706487991e-01 4.3095703559047882e-01 -1.3602161351038911e+00 -6.7207472580300720e-01 -2.6698781090117021e+00 9.1655717723177133e-01 -6.6682541741482015e-01 -1.1831885522471040e+00 1.6062028556374075e+00 -2.3315538793690056e+00 -2.2582769160335179e+00 -1.5318047451274912e+00 
        </Neuron>
        <Neuron NSynapses="16">
          9.7614452276794761e-01 -1.7070750949989666e+00 -1.9397507639734290e+00 4.5030174634526166e-01 -1.0228170368620688e+00 -1.7289630635992312e+00 9.9892769991213770e-01 -1.2639533433585932e+00 -8.3581830341789420e-01 1.6513274336920754e+00 4.8006923057750062e-01 2.7892059326543317e-01 4.0923339312478733e-02 1.2093469538874086e+00 1.9266712496026810e+00 5.2636183923088786e-01 
        </Neuron>
        <Neuron NSynapses="16">
          -9.8458928389902156e-01 -3.9288776675365580e-02 -1.4364575458862319e+00 2.6042066128907444e+00 1.4717272805346273e+00 -2.2492286518491961e-02 1.8133267046114523e+00 1.0549115742714743e+00 1.2443233694039695e+00 -1.5653459832657994e+00 1.5955988809339838e+00 6.4293785141175119e-01 -3.0021892249314122e+00 4.0254320988550064e-02 -1.3041387466842853e+00 8.6972574515362300e-01 
        </Neuron>
        <Neuron NSynapses="16">
          3.5090269003101310e-01 8.2590644511577482e-01 1.7881932921521542e+00 2.1377124073009006e+00 1.2538161657520015e+00 1.6705976978263812e+00 2.6195127161279669e-01 -1.2554874698486405e+00 1.8845677850010567e+00 -2.1391979429081269e+00 5.7103517444554774e-01 1.5904162535575816e+00 -1.1486293723918621e+00 -1.0992066672858625e+00 -5.8603414598957293e-01 -1.3329672223451121e+00 
        </Neuron>
        <Neuron NSynapses="16">
          3.1982622515174330e-01 -2.0415646814491968e+00 -6.7253164285418790e-02 8.2335533190771593e-01 1.9900705235080494e+00 1.5377787904692974e+00 1.5853590985218755e+00 -3.1719735196733106e-01 3.6662814242050638e-02 2.0036772116624180e-01 1.8341127673047481e+00 -1.9215787169681873e+00 -2.2703021613046999e+00 -7.1771939052515710e-01 -1.3518753809089350e+00 -1.7147257276087136e+00 
        </Neuron>
        <Neuron NSynapses="16">
          -1.4772387193381364e+00 7.9891604725049403e-01 -4.2827257064020255e-02 -1.5444321585110585e+00 -1.9069884235135517e+00 -1.8495491842723952e-01 1.7349488830170148e+00 2.0542074468241744e+00 1.2679830682919804e+00 -6.8750748792224869e-01 -1.9845959500153714e+00 -1.3543378725865421e-01 -1.2867207855775058e+00 -1.6886055315689350e+00 -7.1659703781412132e-01 1.4919585468245931e-02 
        </Neuron>
        <Neuron NSynapses="16">
          -1.4895318538104403e+00 1.8808923771476345e+00 1.3749310721209160e+00 -6.1493540123038948e-01 -1.7447972857833778e+00 -9.3220700923839261e-01 2.2583810861272449e+00 -3.7205048511072525e-01 -6.9896402464579355e-01 9.8074555986132717e-01 1.3640607585103690e+00 -1.3016329159476998e+00 2.4850999932655302e+00 -1.5721315021370148e+00 1.4800708693080056e+00 1.9224863150702498e+00 
        </Neuron>
        <Neuron NSynapses="16">
          -3.2372320216512179e-01 -1.6244219005364702e-01 5.0642528127700837e-01 -2.3219332882474145e-01 1.9614070569659683e+00 1.1490728859710021e-01 -1.8896689474467232e-01 -1.5234695907758238e+00 2.0385810906696700e-01 1.6379293597323841e+00 3.8489569743406404e-01 -7.9135273732071021e-01 -2.7091392878115199e+00 2.8535041199821700e+00 1.1329007213711524e+00 -1.2865572299501442e+00 
        </Neuron>
        <Neuron NSynapses="16">
          -1.2473985949376336e-01 -9.6391740816169347e-01 1.6764651320108024e+00 1.4821236059339717e+00 1.2100127473371705e-01 -4.7850431272908639e-01 8.1678561416576168e-01 2.3501320743950997e+00 8.0445667548441868e-01 -1.4393524278339687e-01 -1.3879265861159082e+00 -1.2364585655858891e+00 1.3983063212831832e+00 5.3972214308558690e-02 8.5436065212370210e-02 -1.8637873159946756e+00 
        </Neuron>
        <Neuron NSynapses="16">
          -1.9277036515254728e+00 -1.5016707272448739e+00 -4.4077339481110739e-01 -2.5101841934426918e+00 -5.4173817506227906e-01 -5.1278718927060685e-01 2.6362793938636560e+00 4.4416664964133262e-01 -3.0450664421513554e+00 8.5447895388365036e-01 1.7516793087816949e+00 8.5671900056011752e-01 -2.4917146139837736e-02 -6.1359078488087748e-01 2.3273979471532438e+00 -1.7049769804059076e+00 
        </Neuron>
        <Neuron NSynapses="16">
          3.7242500508015497e-01 -7.8571202354438885e-01 1.1523791069767821e+00 -9.3980675712091044e-01 -6.4615229370509075e-01 -5.5882717844072072e-01 8.9861958864654046e-01 -1.1453419557446587e+00 -1.0416337292867885e+00 8.7610809925491673e-01 3.4357104781206338e-01 6.9669750658904683e-01 1.0727564777551961e+00 -8.4982494227057115e-01 1.6892393259157947e+00 -1.9081554795944613e+00 
        </Neuron>
        <Neuron NSynapses="16">
          1.1388684509061906e+00 3.8505252415426977e-01 -3.6024353007849556e-02 2.1833844184226678e+00 1.9047837598240169e+00 -1.6330442272481251e+00 -8.1676249354293107e-01 -2.2918002264710766e-01 7.2522819684825679e-01 -8.1057642660088691e-01 -3.7063034150733931e-01 -8.9738640647373402e-01 -1.3893037752578079e+00 -2.5449946473103262e+00 -1.8872040954413529e+00 -1.7552312555108303e+00 
        </Neuron>
        <Neuron NSynapses="16">
          -4.8349381723288831e-01 2.5423766457981578e-01 -9.9482405678330588e-01 -1.1778331161962021e+00 6.8448949902669953e-01 4.0982961473783902e-01 -5.6181264486340576e-01 -1.4668482088630819e+00 1.7854871110706312e+00 -4.1728626289771065e-01 6.6374192650430153e-01 6.0733413236068767e-01 -1.1048198039086430e+00 -8.8333855072382250e-01 -3.0204619015243178e-01 -1.9830204729648861e+00 
        </Neuron>
        <Neuron NSynapses="16">
          -6.7595808541743874e-01 -1.2910081671905631e+00 1.6466529743152158e+00 -1.8833061307559653e+00 1.7480003098709247e+00 2.3264988428344946e+00 8.8967756311364043e-01 1.3824922588086692e+00 1.0663067586439916e+00 1.7163521340239571e-01 -9.3279430053468759e-01 -1.9227173626777214e+00 -3.9254911464658360e-01 -1.0174103101986895e+00 1.7478806077661531e+00 1.8126990329027332e-01 
        </Neuron>
        <Neuron NSynapses="16">
          2.2238150222928540e-01 1.3779551228966536e+00 2.0728680748831971e+00 -2.4260047454138838e+00 -4.6291693059109568e-01 -1.5671964332432586e+00 1.0569799914587432e+00 -2.4374173726312027e+00 3.3990700222669834e-01 -2.0205053750951429e-01 1.1654019744376454e+00 -1.9658338718286321e+00 7.0234447304121317e-01 -9.1576283292138660e-01 -1.2522607417014972e-01 1.2103967218019529e+00 
        </Neuron>
        <Neuron NSynapses="16">
          -6.6438931705955273e-01 5.7990333861569243e-01 -1.6063132001094826e+00 9.4878096085891539e-01 -1.2407171254732552e+00 1.1352882149804520e+00 -1.8819988014936813e+00 -6.3119117112350964e-01 1.4165110290336078e+00 -2.3379221735149160e+00 -1.4405521160351558e+00 -1.1545264876715160e+00 2.0646195614900980e+00 1.4568536681204856e+00 1.7142474677252009e+00 -1.6281165538026936e+00 
        </Neuron>
      </Layer>
      <Layer Index="2" NNeurons="17">
        <Neuron NSynapses="1">
          9.0116153024226153e-01 
        </Neuron>
        <Neuron NSynapses="1">
          9.2445748932128813e-01 
        </Neuron>
        <Neuron NSynapses="1">
          1.7479663653942747e+00 
        </Neuron>
        <Neuron NSynapses="1">
          -4.0429220186528019e+00 
        </Neuron>
        <Neuron NSynapses="1">
          -2.5930585158123551e+00 
        </Neuron>
        <Neuron NSynapses="1">
          -1.1897466191377013e+00 
        </Neuron>
        <Neuron NSynapses="1">
          2.0609761529177870e+00 
        </Neuron>
        <Neuron NSynapses="1">
          2.4658813381408780e+00 
        </Neuron>
        <Neuron NSynapses="1">
          -1.5737834723808644e+00 
        </Neuron>
        <Neuron NSynapses="1">
          3.5592294746138292e-01 
        </Neuron>
        <Neuron NSynapses="1">
          -1.9436602319685836e+00 
        </Neuron>
        <Neuron NSynapses="1">
          1.1618116539169865e+00 
        </Neuron>
        <Neuron NSynapses="1">
          2.7758879885633649e+00 
        </Neuron>
        <Neuron NSynapses="1">
          1.9866226873848527e+00 
        </Neuron>
        <Neuron NSynapses="1">
          -2.7657252180052709e+00 
        </Neuron>
        <Neuron NSynapses="1">
          -1.5185979872539601e+00 
        </Neuron>
        <Neuron NSynapses="1">
          9.2067917328237980e-01 
        </Neuron>
      </Layer>
      <Layer Index="3" NNeurons="1">
        <Neuron NSynapses="0"/>
      </Layer>
    </Layout>
  </Weights>
</MethodSetup>
